{"learner":{"attributes":{"scikit_learn":"{\"_estimator_type\": \"classifier\"}"},"feature_names":[],"feature_types":[],"gradient_booster":{"model":{"cats":{"enc":[],"feature_segments":[],"sorted_idx":[]},"gbtree_model_param":{"num_parallel_tree":"1","num_trees":"100"},"iteration_indptr":[0,1,2,3,4,5,6,7,8,9,10,11,12,13,14,15,16,17,18,19,20,21,22,23,24,25,26,27,28,29,30,31,32,33,34,35,36,37,38,39,40,41,42,43,44,45,46,47,48,49,50,51,52,53,54,55,56,57,58,59,60,61,62,63,64,65,66,67,68,69,70,71,72,73,74,75,76,77,78,79,80,81,82,83,84,85,86,87,88,89,90,91,92,93,94,95,96,97,98,99,100],"tree_info":[0,0,0,0,0,0,0,0,0,0,0,0,0,0,0,0,0,0,0,0,0,0,0,0,0,0,0,0,0,0,0,0,0,0,0,0,0,0,0,0,0,0,0,0,0,0,0,0,0,0,0,0,0,0,0,0,0,0,0,0,0,0,0,0,0,0,0,0,0,0,0,0,0,0,0,0,0,0,0,0,0,0,0,0,0,0,0,0,0,0,0,0,0,0,0,0,0,0,0,0],"trees":[{"base_weights":[2.2445258E-7,6.284697E-1,-8.417004E-2,-5.466319E-1,1.1259452E0,-3.8083142E-1,1.1665741E-1,1.1962462E-2,-1.0659283E-1,1.3338183E0,-1.7167564E-2,-5.2440244E-1,5.945693E-1,9.1671276E-1,-2.5651718E-2,5.5562653E-2,-6.578293E-2,1.5144409E-1,1.9197544E-2,3.1706396E-1,-6.7452425E-1,-9.267634E-2,1.2620221E-1,1.1257077E0,-3.904454E-2,8.415295E-2,-9.539035E-1,-1.6877763E-2,9.450735E-2,4.891269E-2,-8.156844E-2,9.192776E-2,-9.894092E-2,1.6489517E-2,1.3475865E-1,1.5116264E-2,-9.880852E-2,-1.4867878E-1,5.5562653E-2],"categories":[],"categories_nodes":[],"categories_segments":[],"categories_sizes":[],"default_left":[0,0,0,0,0,0,0,0,0,0,0,0,0,0,0,0,0,0,0,0,0,0,0,0,0,0,0,0,0,0,0,0,0,0,0,0,0,0,0],"id":0,"left_children":[1,3,5,7,9,11,13,15,-1,17,-1,19,21,23,25,-1,-1,-1,-1,27,29,31,-1,33,-1,35,37,-1,-1,-1,-1,-1,-1,-1,-1,-1,-1,-1,-1],"loss_changes":[8.397101E0,1.1575771E1,8.384786E0,1.8256295E0,3.8702679E0,8.258529E0,9.615212E0,1.8220047E0,0E0,2.132475E0,0E0,6.5295963E0,3.671719E0,3.9224892E0,7.469473E0,0E0,0E0,0E0,0E0,2.6765501E0,7.420704E0,5.2197237E0,0E0,2.175972E0,0E0,4.8732266E0,7.0598903E0,0E0,0E0,0E0,0E0,0E0,0E0,0E0,0E0,0E0,0E0,0E0,0E0],"parents":[2147483647,0,0,1,1,2,2,3,3,4,4,5,5,6,6,7,7,9,9,11,11,12,12,13,13,14,14,19,19,20,20,21,21,23,23,25,25,26,26],"right_children":[2,4,6,8,10,12,14,16,-1,18,-1,20,22,24,26,-1,-1,-1,-1,28,30,32,-1,34,-1,36,38,-1,-1,-1,-1,-1,-1,-1,-1,-1,-1,-1,-1],"split_conditions":[9.2837885E-3,1.614E1,4.77475E3,-4.872811E-4,1.911232E4,1.0665026E-2,1.6594064E4,8.593669E-3,-1.0659283E-1,4.2991728E-2,-1.7167564E-2,-1.7086739E-2,-3.4478793E-4,2.1343227E-2,2.3038544E-2,5.5562653E-2,-6.578293E-2,1.5144409E-1,1.9197544E-2,4.41524E3,-1.2619531E-2,-2.6629367E-3,1.2620221E-1,1.581275E4,-3.904454E-2,3.5771454E1,1.911E1,-1.6877763E-2,9.450735E-2,4.891269E-2,-8.156844E-2,9.192776E-2,-9.894092E-2,1.6489517E-2,1.3475865E-1,1.5116264E-2,-9.880852E-2,-1.4867878E-1,5.5562653E-2],"split_indices":[4,11,5,1,7,6,3,4,0,12,0,1,10,4,1,0,0,0,0,5,8,10,0,3,0,13,11,0,0,0,0,0,0,0,0,0,0,0,0],"split_type":[0,0,0,0,0,0,0,0,0,0,0,0,0,0,0,0,0,0,0,0,0,0,0,0,0,0,0,0,0,0,0,0,0,0,0,0,0,0,0],"sum_hessian":[1.5674004E2,1.7748873E1,1.3899117E2,5.249666E0,1.2499206E1,5.5746456E1,8.324471E1,2.9998093E0,2.249857E0,1.0749317E1,1.7498888E0,4.8996887E1,6.7495713E0,1.1749253E1,7.149546E1,1.7498888E0,1.2499206E0,8.999428E0,1.7498888E0,7.2495394E0,4.174735E1,3.7497618E0,2.9998093E0,1.0249349E1,1.4999046E0,6.474589E1,6.7495713E0,4.499714E0,2.7498252E0,4.24973E0,3.7497616E1,1.7498888E0,1.9998729E0,2.249857E0,7.9994917E0,6.1746075E1,2.9998093E0,4.9996824E0,1.7498888E0],"tree_param":{"num_deleted":"0","num_feature":"16","num_nodes":"39","size_leaf_vector":"1"}},{"base_weights":[8.506724E-4,5.692232E-1,-7.516387E-2,-5.116094E-1,1.0279634E0,-3.4056085E-1,1.0429535E-1,-7.912739E-2,-1.1291035E-1,1.2193143E0,-1.6077375E-2,-4.7198802E-1,5.517745E-1,8.3579487E-1,-2.5569929E-2,-6.498073E-2,5.723816E-2,1.3839403E-1,1.7975144E-2,-5.967683E-1,4.153518E-1,-8.5083134E-2,1.1700555E-1,1.0291923E0,-3.6717836E-2,7.446502E-2,-8.7459666E-1,8.464519E-2,-6.672449E-2,1.166804E-1,-3.0176938E-2,8.615548E-2,-9.255222E-2,1.5347214E-2,1.2317037E-1,-1.0244163E-2,4.7704924E-2,-1.3708243E-1,5.2037932E-2],"categories":[],"categories_nodes":[],"categories_segments":[],"categories_sizes":[],"default_left":[0,0,0,0,0,0,0,0,0,0,0,0,0,0,0,0,0,0,0,0,0,0,0,0,0,0,0,0,0,0,0,0,0,0,0,0,0,0,0],"id":1,"left_children":[1,3,5,7,9,11,13,15,-1,17,-1,19,21,23,25,-1,-1,-1,-1,27,29,31,-1,33,-1,35,37,-1,-1,-1,-1,-1,-1,-1,-1,-1,-1,-1,-1],"loss_changes":[6.847927E0,9.796354E0,6.6945043E0,1.576761E0,3.257348E0,6.9025583E0,8.017827E0,2.1359277E0,0E0,1.7550678E0,0E0,5.773407E0,3.1439993E0,3.3373938E0,6.218961E0,0E0,0E0,0E0,0E0,5.056674E0,3.9853227E0,4.569201E0,0E0,1.8010845E0,0E0,4.73087E0,6.054276E0,0E0,0E0,0E0,0E0,0E0,0E0,0E0,0E0,0E0,0E0,0E0,0E0],"parents":[2147483647,0,0,1,1,2,2,3,3,4,4,5,5,6,6,7,7,9,9,11,11,12,12,13,13,14,14,19,19,20,20,21,21,23,23,25,25,26,26],"right_children":[2,4,6,8,10,12,14,16,-1,18,-1,20,22,24,26,-1,-1,-1,-1,28,30,32,-1,34,-1,36,38,-1,-1,-1,-1,-1,-1,-1,-1,-1,-1,-1,-1],"split_conditions":[9.2837885E-3,1.614E1,4.77475E3,4.3847488E-4,1.911232E4,1.0665026E-2,1.6594064E4,1.4395551E-5,-1.1291035E-1,4.2991728E-2,-1.6077375E-2,2.049E1,-3.4478793E-4,2.1343227E-2,2.3038544E-2,-6.498073E-2,5.723816E-2,1.3839403E-1,1.7975144E-2,-5.5282926E-3,1.960708E4,-2.6629367E-3,1.1700555E-1,1.581275E4,-3.6717836E-2,1.901009E4,1.911E1,8.464519E-2,-6.672449E-2,1.166804E-1,-3.0176938E-2,8.615548E-2,-9.255222E-2,1.5347214E-2,1.2317037E-1,-1.0244163E-2,4.7704924E-2,-1.3708243E-1,5.2037932E-2],"split_indices":[4,11,5,1,7,6,3,10,0,12,0,11,10,4,1,0,0,0,0,10,0,10,0,3,0,7,11,0,0,0,0,0,0,0,0,0,0,0,0],"split_type":[0,0,0,0,0,0,0,0,0,0,0,0,0,0,0,0,0,0,0,0,0,0,0,0,0,0,0,0,0,0,0,0,0,0,0,0,0,0,0],"sum_hessian":[1.5650974E2,1.7697138E1,1.3881259E2,5.238803E0,1.2458335E1,5.5636177E1,8.317642E1,3.7444198E0,1.4943829E0,1.0708815E1,1.7495204E0,4.8904385E1,6.7317934E0,1.1720701E1,7.145572E1,1.9974205E0,1.7469994E0,8.958819E0,1.7499955E0,4.3162247E1,5.7421355E0,3.7408917E0,2.9909015E0,1.0221835E1,1.4988666E0,6.474013E1,6.715588E0,1.496965E0,4.1665283E1,2.4977467E0,3.2443888E0,1.7474769E0,1.9934148E0,2.2499998E0,7.971835E0,4.549424E1,1.924589E1,4.9662743E0,1.7493136E0],"tree_param":{"num_deleted":"0","num_feature":"16","num_nodes":"39","size_leaf_vector":"1"}},{"base_weights":[2.631526E-3,5.1771605E-1,-6.5926954E-2,-4.8132926E-1,9.450334E-1,3.2198334E-1,-1.6467911E-1,1.8745357E-2,-9.5114976E-2,1.12346E0,-1.5057688E-2,5.047698E-1,-7.064681E-1,4.6259028E-1,-2.4995975E-1,-5.1920574E-2,6.678394E-2,1.2763052E-1,1.6832497E-2,1.0046729E-1,1.2119472E0,4.003984E-2,-1.3423586E-1,-2.0686787E-1,1.0481677E0,5.7835984E-1,-3.1667796E-1,-8.260595E-2,5.8372226E-2,-1.9994605E-2,1.4661893E-1,1.0822653E-1,-6.55086E-2,-3.6392123E-3,1.3240844E-1,-3.1602625E-2,9.4476655E-2,5.0316628E-2,-4.024608E-2],"categories":[],"categories_nodes":[],"categories_segments":[],"categories_sizes":[],"default_left":[0,0,0,0,0,0,0,0,0,0,0,0,0,0,0,0,0,0,0,0,0,0,0,0,0,0,0,0,0,0,0,0,0,0,0,0,0,0,0],"id":2,"left_children":[1,3,5,7,9,11,13,15,-1,17,-1,19,21,23,25,-1,-1,-1,-1,27,29,-1,-1,31,33,35,37,-1,-1,-1,-1,-1,-1,-1,-1,-1,-1,-1,-1],"loss_changes":[5.577594E0,8.375201E0,5.394021E0,1.4793469E0,2.7753973E0,5.738739E0,6.0960293E0,1.7413696E0,0E0,1.4761591E0,0E0,6.995499E0,3.8718157E0,5.5996304E0,5.6578765E0,0E0,0E0,0E0,0E0,8.061925E0,3.511076E0,0E0,0E0,4.893372E0,2.289301E0,2.8344965E0,6.6957026E0,0E0,0E0,0E0,0E0,0E0,0E0,0E0,0E0,0E0,0E0,0E0,0E0],"parents":[2147483647,0,0,1,1,2,2,3,3,4,4,5,5,6,6,7,7,9,9,11,11,12,12,13,13,14,14,19,19,20,20,23,23,24,24,25,25,26,26],"right_children":[2,4,6,8,10,12,14,16,-1,18,-1,20,22,24,26,-1,-1,-1,-1,28,30,-1,-1,32,34,36,38,-1,-1,-1,-1,-1,-1,-1,-1,-1,-1,-1,-1],"split_conditions":[9.2837885E-3,1.614E1,1E0,-4.872811E-4,1.911232E4,7.494409E-2,-1.2619531E-2,-3.4071333E-3,-9.5114976E-2,4.2991728E-2,-1.5057688E-2,-1.1532076E-2,-5.832981E-3,1.4554871E-2,-1.9826025E-2,-5.1920574E-2,6.678394E-2,1.2763052E-1,1.6832497E-2,7.165E0,-1.6889386E-2,4.003984E-2,-1.3423586E-1,1.45E1,2.546953E1,-2.8368765E-2,1.6565812E4,-8.260595E-2,5.8372226E-2,-1.9994605E-2,1.4661893E-1,1.0822653E-1,-6.55086E-2,-3.6392123E-3,1.3240844E-1,-3.1602625E-2,9.4476655E-2,5.0316628E-2,-4.024608E-2],"split_indices":[4,11,15,1,7,12,8,1,0,12,0,12,1,4,1,0,0,0,0,9,1,0,0,11,13,14,2,0,0,0,0,0,0,0,0,0,0,0,0],"split_type":[0,0,0,0,0,0,0,0,0,0,0,0,0,0,0,0,0,0,0,0,0,0,0,0,0,0,0,0,0,0,0,0,0,0,0,0,0,0,0],"sum_hessian":[1.5597894E2,1.755272E1,1.3842622E2,5.22067E0,1.2332049E1,2.7630356E1,1.1079587E2,2.9939866E0,2.2266836E0,1.0583107E1,1.7489415E0,2.3893044E1,3.737312E0,1.2730941E1,9.8064926E1,1.7465782E0,1.2474084E0,8.833304E0,1.749803E0,1.5928551E1,7.964493E0,1.4987824E0,2.2385297E0,6.2417846E0,6.4891567E0,6.7383447E0,9.1326584E1,5.21694E0,1.0711611E1,1.247921E0,6.716572E0,1.2453631E0,4.9964213E0,1.4921174E0,4.9970393E0,1.9982309E0,4.740114E0,8.189764E0,8.313682E1],"tree_param":{"num_deleted":"0","num_feature":"16","num_nodes":"39","size_leaf_vector":"1"}},{"base_weights":[4.3733763E-3,-2.1319087E-1,1.5562473E-1,-3.4192276E-1,6.6126263E-1,2.3615143E-1,-6.373959E-1,-2.711616E-2,-6.5570885E-1,4.073335E-2,1.1770909E-1,3.2235464E-1,-6.6739047E-1,-1.2605087E-1,2.5844276E-1,-6.121591E-1,3.3656734E-1,7.640182E-2,-7.6272476E-1,-5.5906343E-1,1.0191045E-1,1.9965248E-1,1.042129E0,-6.9724225E-2,-1.2098278E-1,7.559216E-2,-2.4897484E-2,-9.377783E-2,5.2480876E-2,8.165683E-2,-1.9751208E-2,-1.02999285E-1,-1.3123788E-2,-1.0941174E-1,2.8360927E-2,5.3655118E-2,-1.7419646E-3,1.22238055E-1,-2.1731896E-2,-7.0401974E-2,7.820953E-2],"categories":[],"categories_nodes":[],"categories_segments":[],"categories_sizes":[],"default_left":[0,0,0,0,0,0,0,0,0,0,0,0,0,0,0,0,0,0,0,0,0,0,0,0,0,0,0,0,0,0,0,0,0,0,0,0,0,0,0,0,0],"id":3,"left_children":[1,3,5,7,9,11,13,15,17,19,-1,21,23,-1,25,27,29,-1,31,33,-1,35,37,39,-1,-1,-1,-1,-1,-1,-1,-1,-1,-1,-1,-1,-1,-1,-1,-1,-1],"loss_changes":[5.181485E0,7.49615E0,6.081031E0,5.608266E0,2.7138424E0,6.8385186E0,5.255459E0,6.47723E0,4.9098244E0,3.475979E0,0E0,6.7076616E0,2.4223692E0,0E0,1.3121899E0,4.806415E0,4.9861355E0,0E0,4.419138E0,1.9857546E0,0E0,4.9923124E0,2.80091E0,3.1116211E0,0E0,0E0,0E0,0E0,0E0,0E0,0E0,0E0,0E0,0E0,0E0,0E0,0E0,0E0,0E0,0E0,0E0],"parents":[2147483647,0,0,1,1,2,2,3,3,4,4,5,5,6,6,7,7,8,8,9,9,11,11,12,12,14,14,15,15,16,16,18,18,19,19,21,21,22,22,23,23],"right_children":[2,4,6,8,10,12,14,16,18,20,-1,22,24,-1,26,28,30,-1,32,34,-1,36,38,40,-1,-1,-1,-1,-1,-1,-1,-1,-1,-1,-1,-1,-1,-1,-1,-1,-1],"split_conditions":[1.507457E4,1.0665026E-2,2.3038544E-2,-7.62495E-5,-3.4478793E-4,2.354946E4,1.6602995E-2,1.593E1,-1.9826025E-2,2.0123888E-2,1.1770909E-1,2.204465E4,3E0,-1.2605087E-1,3.050053E-2,3.1013147E-3,4.2284485E-2,7.640182E-2,8.276589E-3,3.647232E-3,1.0191045E-1,1.752577E4,7.2755E0,7.600797E-4,-1.2098278E-1,7.559216E-2,-2.4897484E-2,-9.377783E-2,5.2480876E-2,8.165683E-2,-1.9751208E-2,-1.02999285E-1,-1.3123788E-2,-1.0941174E-1,2.8360927E-2,5.3655118E-2,-1.7419646E-3,1.22238055E-1,-2.1731896E-2,-7.0401974E-2,7.820953E-2],"split_indices":[7,6,1,6,10,0,4,11,1,14,0,0,15,0,1,10,12,0,14,1,0,2,9,10,0,0,0,0,0,0,0,0,0,0,0,0,0,0,0,0,0],"split_type":[0,0,0,0,0,0,0,0,0,0,0,0,0,0,0,0,0,0,0,0,0,0,0,0,0,0,0,0,0,0,0,0,0,0,0,0,0,0,0,0,0],"sum_hessian":[1.5545076E2,6.3582447E1,9.186832E1,5.595419E1,7.628259E0,8.403705E1,7.831268E0,2.8474E1,2.7480186E1,3.9524827E0,3.6757762E0,7.730494E1,6.7321124E0,4.378601E0,3.452667E0,1.065328E1,1.782072E1,1.4958733E0,2.5984314E1,2.7159991E0,1.2364836E0,6.713723E1,1.0167707E1,3.7399328E0,2.9921796E0,1.4961144E0,1.9565527E0,8.417706E0,2.2355752E0,9.106963E0,8.713758E0,1.7813807E1,8.170507E0,1.4787066E0,1.2372924E0,2.5730852E1,4.1406376E1,8.920449E0,1.2472583E0,2.2431288E0,1.4968039E0],"tree_param":{"num_deleted":"0","num_feature":"16","num_nodes":"41","size_leaf_vector":"1"}},{"base_weights":[4.442705E-3,2.847037E-1,-1.02529615E-1,3.950418E-1,-7.0559895E-1,-1.0070819E0,-5.2166685E-2,-9.2479875E-3,7.525204E-1,1.4136436E-2,-1.0452043E-1,-1.339158E-1,1.4902524E-2,4.760654E-1,-1.204271E-1,9.624057E-1,-2.7604014E-1,1.6681251E-1,9.848811E-1,-4.7516957E-1,9.620206E-1,4.6351954E-1,-1.9541523E-1,1.6563667E-2,1.2186793E-1,-4.7723453E-2,8.8364415E-2,-4.0637087E-2,7.35155E-2,3.0451363E-2,1.2690264E-1,-1.117121E-1,2.1204386E-2,1.1825862E-1,-1.9503206E-2,1.5143931E-2,1.20794535E-1,3.038235E-2,-3.15421E-2],"categories":[],"categories_nodes":[],"categories_segments":[],"categories_sizes":[],"default_left":[0,0,0,0,0,0,0,0,0,0,0,0,0,0,0,0,0,0,0,0,0,0,0,0,0,0,0,0,0,0,0,0,0,0,0,0,0,0,0],"id":4,"left_children":[1,3,5,7,9,11,13,15,17,-1,-1,-1,-1,19,21,23,25,27,29,31,33,35,37,-1,-1,-1,-1,-1,-1,-1,-1,-1,-1,-1,-1,-1,-1,-1,-1],"loss_changes":[4.6986265E0,5.0090218E0,5.1162467E0,5.728966E0,1.4992731E0,2.475936E0,3.970667E0,5.3380857E0,2.697052E0,0E0,0E0,0E0,0E0,6.2916307E0,4.3341384E0,7.043772E-1,4.1849847E0,2.6363103E0,2.4842014E0,2.4149437E0,2.4470072E0,2.448104E0,5.2832184E0,0E0,0E0,0E0,0E0,0E0,0E0,0E0,0E0,0E0,0E0,0E0,0E0,0E0,0E0,0E0,0E0],"parents":[2147483647,0,0,1,1,2,2,3,3,4,4,5,5,6,6,7,7,8,8,13,13,14,14,15,15,16,16,17,17,18,18,19,19,20,20,21,21,22,22],"right_children":[2,4,6,8,10,12,14,16,18,-1,-1,-1,-1,20,22,24,26,28,30,32,34,36,38,-1,-1,-1,-1,-1,-1,-1,-1,-1,-1,-1,-1,-1,-1,-1,-1],"split_conditions":[-7.691712E-3,7.31E0,-5.9420867E-3,1.558E1,9.414795E-3,1.734355E4,9.14964E-3,1.6565812E4,-5.4382934E-4,1.4136436E-2,-1.0452043E-1,-1.339158E-1,1.4902524E-2,1.614E1,1.6594064E4,-2.1342272E-2,7.2805E0,-6.549453E-3,4.15452E3,1.778405E4,7.272E0,1.6484152E4,1E0,1.6563667E-2,1.2186793E-1,-4.7723453E-2,8.8364415E-2,-4.0637087E-2,7.35155E-2,3.0451363E-2,1.2690264E-1,-1.117121E-1,2.1204386E-2,1.1825862E-1,-1.9503206E-2,1.5143931E-2,1.20794535E-1,3.038235E-2,-3.15421E-2],"split_indices":[1,9,1,11,4,7,4,2,10,0,0,0,0,11,3,1,9,14,5,7,9,3,15,0,0,0,0,0,0,0,0,0,0,0,0,0,0,0,0],"split_type":[0,0,0,0,0,0,0,0,0,0,0,0,0,0,0,0,0,0,0,0,0,0,0,0,0,0,0,0,0,0,0,0,0,0,0,0,0,0,0],"sum_hessian":[1.5475082E2,4.2290585E1,1.12460236E2,3.8591827E1,3.6987567E0,4.9293466E0,1.0753089E2,1.85673E1,2.0024527E1,1.2256842E0,2.4730725E0,3.7064E0,1.2229469E0,1.162177E1,9.590912E1,3.4381776E0,1.5129123E1,6.175627E0,1.38489E1,3.937158E0,7.684612E0,1.0325018E1,8.558411E1,1.2373903E0,2.2007875E0,1.33938875E1,1.7352355E0,3.2166095E0,2.9590178E0,4.6902003E0,9.158699E0,1.7121732E0,2.2249851E0,6.435721E0,1.248891E0,8.123073E0,2.2019458E0,1.628883E1,6.929527E1],"tree_param":{"num_deleted":"0","num_feature":"16","num_nodes":"39","size_leaf_vector":"1"}},{"base_weights":[6.0440064E-3,2.639203E-1,-9.233047E-2,3.6648956E-1,-6.582779E-1,-9.314572E-1,-4.5708634E-2,9.336178E-4,6.8894464E-1,1.3366117E-2,-9.782961E-2,-1.2416761E-1,1.4090927E-2,4.2107448E-1,-1.1754969E-1,9.0691394E-1,-2.4656758E-1,1.5484068E-1,9.015043E-1,1.2594853E-1,4.8885196E-2,7.195673E-2,-4.4817993E-1,1.5655847E-2,1.1510929E-1,4.1534528E-2,-5.7989884E-2,-3.7510835E-2,6.8145335E-2,2.7928313E-2,1.1633128E-1,-2.5076812E-2,9.5234305E-2,-5.8459092E-2,2.2471001E-2,-8.685974E-2,-8.415318E-3],"categories":[],"categories_nodes":[],"categories_segments":[],"categories_sizes":[],"default_left":[0,0,0,0,0,0,0,0,0,0,0,0,0,0,0,0,0,0,0,0,0,0,0,0,0,0,0,0,0,0,0,0,0,0,0,0,0],"id":5,"left_children":[1,3,5,7,9,11,13,15,17,-1,-1,-1,-1,19,21,23,25,27,29,-1,31,33,35,-1,-1,-1,-1,-1,-1,-1,-1,-1,-1,-1,-1,-1,-1],"loss_changes":[3.9605508E0,4.318515E0,4.380345E0,4.647527E0,1.3148127E0,2.1374202E0,3.6764376E0,4.5922384E0,2.2388725E0,0E0,0E0,0E0,0E0,4.5080614E0,5.9540753E0,6.248851E-1,3.7905736E0,2.257021E0,2.0826101E0,0E0,3.2661133E0,6.242972E0,5.218065E0,0E0,0E0,0E0,0E0,0E0,0E0,0E0,0E0,0E0,0E0,0E0,0E0,0E0,0E0],"parents":[2147483647,0,0,1,1,2,2,3,3,4,4,5,5,6,6,7,7,8,8,13,13,14,14,15,15,16,16,17,17,18,18,20,20,21,21,22,22],"right_children":[2,4,6,8,10,12,14,16,18,-1,-1,-1,-1,20,22,24,26,28,30,-1,32,34,36,-1,-1,-1,-1,-1,-1,-1,-1,-1,-1,-1,-1,-1,-1],"split_conditions":[-7.691712E-3,7.31E0,-5.9420867E-3,1.558E1,9.414795E-3,1.734355E4,-1.05899E-2,1.6565812E4,-5.4382934E-4,1.3366117E-2,-9.782961E-2,-1.2416761E-1,1.4090927E-2,5.2223384E-2,-1.4630912E-3,-2.1342272E-2,1.2108736E-2,-6.549453E-3,4.15452E3,1.2594853E-1,2.268E1,-3.7147878E-3,4.95317E3,1.5655847E-2,1.1510929E-1,4.1534528E-2,-5.7989884E-2,-3.7510835E-2,6.8145335E-2,2.7928313E-2,1.1633128E-1,-2.5076812E-2,9.5234305E-2,-5.8459092E-2,2.2471001E-2,-8.685974E-2,-8.415318E-3],"split_indices":[1,9,1,11,4,7,8,2,10,0,0,0,0,12,12,1,4,14,5,0,11,14,5,0,0,0,0,0,0,0,0,0,0,0,0,0,0],"split_type":[0,0,0,0,0,0,0,0,0,0,0,0,0,0,0,0,0,0,0,0,0,0,0,0,0,0,0,0,0,0,0,0,0,0,0,0,0],"sum_hessian":[1.5416058E2,4.210495E1,1.1205563E2,3.843293E1,3.6720183E0,4.899137E0,1.07156494E2,1.8482672E1,1.995026E1,1.2243901E0,2.4476283E0,3.67743E0,1.2217072E0,1.3644025E1,9.3512474E1,3.394134E0,1.5088538E1,6.1714816E0,1.3778777E1,3.4618073E0,1.0182218E1,5.9939487E1,3.3572987E1,1.2362705E0,2.1578634E0,4.9711094E0,1.0117429E1,3.2193909E0,2.952091E0,4.692707E0,9.08607E0,8.188682E0,1.9935362E0,1.0779816E1,4.915967E1,1.4936555E1,1.863643E1],"tree_param":{"num_deleted":"0","num_feature":"16","num_nodes":"37","size_leaf_vector":"1"}},{"base_weights":[6.489286E-3,4.305747E-1,-4.876172E-2,-3.8479018E-1,7.860455E-1,-5.2568674E-1,1.1971791E-2,6.0400893E-3,-9.8012626E-2,9.44527E-1,-1.3824247E-2,1.0935461E-1,-1.0145661E0,4.9543047E-1,-7.8571975E-2,-5.4413524E-2,6.0075194E-2,1.0926301E0,9.493813E-3,9.793078E-1,-1.0880512E-1,1.8305082E-2,-1.232438E0,6.671625E-1,-4.1146365E-1,-1.8641761E-1,4.004158E-1,5.7213277E-2,1.3038437E-1,-2.3294976E-2,1.44212E-1,-1.4921443E-1,-5.5271693E-2,1.459344E-2,1.0352992E-1,-8.0407426E-2,2.0784307E-2,5.2258473E-2,-3.0188907E-2,5.5715185E-2,-1.0561456E-1],"categories":[],"categories_nodes":[],"categories_segments":[],"categories_sizes":[],"default_left":[0,0,0,0,0,0,0,0,0,0,0,0,0,0,0,0,0,0,0,0,0,0,0,0,0,0,0,0,0,0,0,0,0,0,0,0,0,0,0,0,0],"id":6,"left_children":[1,3,5,7,9,11,13,15,-1,17,-1,19,21,23,25,-1,-1,27,-1,29,-1,-1,31,33,35,37,39,-1,-1,-1,-1,-1,-1,-1,-1,-1,-1,-1,-1,-1,-1],"loss_changes":[3.6439838E0,5.4976463E0,3.994771E0,1.4283307E0,2.0071802E0,4.9468274E0,5.42848E0,1.8596019E0,0E0,1.2883749E0,0E0,9.063764E0,2.5474377E0,3.3205686E0,5.476055E0,0E0,0E0,2.7931118E-1,0E0,3.1262841E0,0E0,0E0,5.2713394E-1,3.0774965E0,1.0746577E0,7.2009687E0,5.0479364E0,0E0,0E0,0E0,0E0,0E0,0E0,0E0,0E0,0E0,0E0,0E0,0E0,0E0,0E0],"parents":[2147483647,0,0,1,1,2,2,3,3,4,4,5,5,6,6,7,7,9,9,11,11,12,12,13,13,14,14,17,17,19,19,22,22,23,23,24,24,25,25,26,26],"right_children":[2,4,6,8,10,12,14,16,-1,18,-1,20,22,24,26,-1,-1,28,-1,30,-1,-1,32,34,36,38,40,-1,-1,-1,-1,-1,-1,-1,-1,-1,-1,-1,-1,-1,-1],"split_conditions":[9.2837885E-3,1.614E1,1.0275715E-2,4.3847488E-4,1.911232E4,-8.691376E-3,1.1440501E-2,1.4395551E-5,-9.8012626E-2,4.2991728E-2,-1.3824247E-2,1.989457E4,1E0,3.893086E-2,2.049E1,-5.4413524E-2,6.0075194E-2,4.37036E3,9.493813E-3,1.752506E4,-1.0880512E-1,1.8305082E-2,2.3709208E-2,5.1995E3,1.0404682E-3,1.6577217E4,1.8474752E-2,5.7213277E-2,1.3038437E-1,-2.3294976E-2,1.44212E-1,-1.4921443E-1,-5.5271693E-2,1.459344E-2,1.0352992E-1,-8.0407426E-2,2.0784307E-2,5.2258473E-2,-3.0188907E-2,5.5715185E-2,-1.0561456E-1],"split_indices":[4,11,4,1,7,12,4,10,0,12,0,0,15,12,11,0,0,5,0,0,0,0,12,5,10,2,6,0,0,0,0,0,0,0,0,0,0,0,0,0,0],"split_type":[0,0,0,0,0,0,0,0,0,0,0,0,0,0,0,0,0,0,0,0,0,0,0,0,0,0,0,0,0,0,0,0,0,0,0,0,0,0,0,0,0],"sum_hessian":[1.5362274E2,1.6924414E1,1.3669833E2,5.113284E0,1.181113E1,1.457657E1,1.22121765E2,3.6843872E0,1.4288971E0,1.0063681E1,1.7474488E0,6.6781473E0,7.898422E0,1.8558245E1,1.0356352E2,1.9580319E0,1.7263553E0,8.326166E0,1.7375151E0,3.9734516E0,2.704696E0,1.2403246E0,6.6580973E0,1.5825774E1,2.7324698E0,8.502963E1,1.8533886E1,3.4739745E0,4.8521914E0,1.2350675E0,2.738384E0,3.9526474E0,2.7054496E0,7.128817E0,8.696958E0,1.4897159E0,1.2427537E0,1.1415017E1,7.361462E1,1.7290768E1,1.243118E0],"tree_param":{"num_deleted":"0","num_feature":"16","num_nodes":"41","size_leaf_vector":"1"}},{"base_weights":[5.582847E-3,2.479537E-1,-8.662261E-2,1.1607543E-2,6.257314E-1,-8.801178E-1,-4.290967E-2,-4.5286158E-1,2.8535724E-1,7.575177E-1,-3.2358076E-2,-1.1619153E-1,1.0728974E-2,3.9048094E-1,-1.096852E-1,6.4637825E-2,-6.6896737E-1,4.895935E-1,-7.219178E-1,3.015952E-1,1.2722272E0,-1.3071153E-1,9.4511366E-1,3.176466E-2,-5.136725E-1,-1.0883007E-1,1.0354792E-2,5.574486E-4,9.971523E-2,-1.644236E-2,-9.49495E-2,-3.571827E-2,8.199709E-2,1.4433183E-1,2.9624779E-2,-8.71231E-2,6.4594746E-2,1.219752E-1,-6.0747107E-3,-6.80608E-2,1.4951572E-2,-6.2355366E-2,7.0873134E-2],"categories":[],"categories_nodes":[],"categories_segments":[],"categories_sizes":[],"default_left":[0,0,0,0,0,0,0,0,0,0,0,0,0,0,0,0,0,0,0,0,0,0,0,0,0,0,0,0,0,0,0,0,0,0,0,0,0,0,0,0,0,0,0],"id":7,"left_children":[1,3,5,7,9,11,13,15,17,19,-1,-1,-1,21,23,-1,25,27,29,31,33,35,37,39,41,-1,-1,-1,-1,-1,-1,-1,-1,-1,-1,-1,-1,-1,-1,-1,-1,-1,-1],"loss_changes":[3.4604023E0,3.8022997E0,3.854503E0,3.5959704E0,2.2970462E0,1.7406673E0,3.1511648E0,2.9260411E0,4.008746E0,3.0662518E0,0E0,0E0,0E0,4.332055E0,5.37915E0,0E0,3.113677E0,3.7700353E0,2.7518106E-1,3.4027448E0,6.736269E-1,5.3847656E0,2.0560722E0,6.011438E0,3.718791E0,0E0,0E0,0E0,0E0,0E0,0E0,0E0,0E0,0E0,0E0,0E0,0E0,0E0,0E0,0E0,0E0,0E0,0E0],"parents":[2147483647,0,0,1,1,2,2,3,3,4,4,5,5,6,6,7,7,8,8,9,9,13,13,14,14,16,16,17,17,18,18,19,19,20,20,21,21,22,22,23,23,24,24],"right_children":[2,4,6,8,10,12,14,16,18,20,-1,-1,-1,22,24,-1,26,28,30,32,34,36,38,40,42,-1,-1,-1,-1,-1,-1,-1,-1,-1,-1,-1,-1,-1,-1,-1,-1,-1,-1],"split_conditions":[-7.691712E-3,1.9844297E4,-5.9420867E-3,-1.402423E-4,2.3441432E4,1.734355E4,-1.05899E-2,-2.0550134E-2,7.3085E0,-1.4284043E-2,-3.2358076E-2,-1.1619153E-1,1.0728974E-2,-1.1832519E-2,1.4036836E-3,6.4637825E-2,1.7931734E4,-1.5183547E-2,2.491991E1,6.939784E-4,4.108922E-3,1.4554871E-2,6.172782E-3,-4.0932777E-3,5.98399E3,-1.0883007E-1,1.0354792E-2,5.574486E-4,9.971523E-2,-1.644236E-2,-9.49495E-2,-3.571827E-2,8.199709E-2,1.4433183E-1,2.9624779E-2,-8.71231E-2,6.4594746E-2,1.219752E-1,-6.0747107E-3,-6.80608E-2,1.4951572E-2,-6.2355366E-2,7.0873134E-2],"split_indices":[1,2,1,10,2,7,8,1,9,1,0,0,0,6,10,0,2,1,13,10,10,4,14,8,5,0,0,0,0,0,0,0,0,0,0,0,0,0,0,0,0,0,0],"split_type":[0,0,0,0,0,0,0,0,0,0,0,0,0,0,0,0,0,0,0,0,0,0,0,0,0,0,0,0,0,0,0,0,0,0,0,0,0,0,0,0,0,0,0],"sum_hessian":[1.528812E2,4.1666824E1,1.1121437E2,2.6265358E1,1.5401467E1,4.807768E0,1.064066E2,9.497213E0,1.6768145E1,1.3701429E1,1.7000377E0,3.6028206E0,1.204947E0,1.3558799E1,9.28478E1,1.2332352E0,8.263978E0,1.4368676E1,2.399467E0,8.106636E0,5.5947933E0,7.3841686E0,6.17463E0,6.945173E1,2.3396072E1,5.091472E0,3.172506E0,7.8723845E0,6.496292E0,1.1948782E0,1.2045889E0,3.7068024E0,4.3998337E0,4.352884E0,1.2419095E0,3.7176964E0,3.6664724E0,4.6832733E0,1.4913568E0,9.173523E0,6.027821E1,2.1915956E1,1.480117E0],"tree_param":{"num_deleted":"0","num_feature":"16","num_nodes":"43","size_leaf_vector":"1"}},{"base_weights":[5.6159846E-3,1.4542153E-1,-1.4084966E-1,4.742364E-2,7.8424615E-1,2.4707685E-1,-2.7797708E-1,-1.4693858E-1,3.5044342E-1,-5.1187098E-2,1.1374217E0,7.1183836E-1,-3.7380704E-1,3.820943E-1,-3.7349245E-1,6.5229017E-1,-2.8690362E-1,8.906378E-1,7.2476016E-3,1.3754894E0,-1.5916655E-2,3.948817E-2,1.0921959E0,3.8212255E-1,-7.431213E-1,-2.676652E-1,1.0644126E-1,4.1660902E-1,-4.609026E-1,1.1096064E-1,4.176892E-3,3.1075228E-2,-5.286435E-2,1.7595537E-2,1.24361746E-1,8.5522026E-2,-1.7444324E-2,3.2345567E-2,1.5833732E-1,-5.8446564E-2,7.5998336E-2,7.0828395E-3,1.3283266E-1,-3.205526E-2,9.972189E-2,3.5205603E-2,-1.117292E-1,-8.920341E-2,5.156612E-2,9.746202E-2,-4.928154E-2,7.189361E-2,-5.2311618E-2],"categories":[],"categories_nodes":[],"categories_segments":[],"categories_sizes":[],"default_left":[0,0,0,0,0,0,0,0,0,0,0,0,0,0,0,0,0,0,0,0,0,0,0,0,0,0,0,0,0,0,0,0,0,0,0,0,0,0,0,0,0,0,0,0,0,0,0,0,0,0,0,0,0],"id":8,"left_children":[1,3,5,7,9,11,13,15,17,-1,19,21,23,25,27,29,31,33,35,37,-1,39,41,43,45,47,-1,49,51,-1,-1,-1,-1,-1,-1,-1,-1,-1,-1,-1,-1,-1,-1,-1,-1,-1,-1,-1,-1,-1,-1,-1,-1],"loss_changes":[3.1595318E0,4.903756E0,4.078229E0,4.1442585E0,5.357833E0,6.0993094E0,3.6833806E0,5.001894E0,5.082714E0,0E0,2.8454485E0,3.0014238E0,2.8829603E0,3.6514406E0,3.6151705E0,1.8298161E0,5.5563583E0,2.469448E0,2.890751E0,1.0827732E0,0E0,2.8443682E0,1.7306957E0,1.9257114E0,3.0953221E0,2.7531219E0,0E0,3.2523832E0,3.6867533E0,0E0,0E0,0E0,0E0,0E0,0E0,0E0,0E0,0E0,0E0,0E0,0E0,0E0,0E0,0E0,0E0,0E0,0E0,0E0,0E0,0E0,0E0,0E0,0E0],"parents":[2147483647,0,0,1,1,2,2,3,3,4,4,5,5,6,6,7,7,8,8,10,10,11,11,12,12,13,13,14,14,15,15,16,16,17,17,18,18,19,19,21,21,22,22,23,23,24,24,25,25,27,27,28,28],"right_children":[2,4,6,8,10,12,14,16,18,-1,20,22,24,26,28,30,32,34,36,38,-1,40,42,44,46,48,-1,50,52,-1,-1,-1,-1,-1,-1,-1,-1,-1,-1,-1,-1,-1,-1,-1,-1,-1,-1,-1,-1,-1,-1,-1,-1],"split_conditions":[1.3121052E-2,1.248832E-2,-9.870059E-3,5.54322E3,7.144E0,7.2245E0,-1.5015397E-2,4.10894E3,1.9483373E4,-5.1187098E-2,7.299793E-2,-1.9700551E-2,-5.579557E-3,2.17E1,-4.0862733E-3,1.99E1,-3.3740148E-2,1.502E1,5.72226E3,-1.5653083E-2,-1.5916655E-2,1.919E1,1.3849019E-2,-5.9029477E-5,-9.559199E-3,-2.1734942E-2,1.0644126E-1,2.0290182E4,1.5868993E4,1.1096064E-1,4.176892E-3,3.1075228E-2,-5.286435E-2,1.7595537E-2,1.24361746E-1,8.5522026E-2,-1.7444324E-2,3.2345567E-2,1.5833732E-1,-5.8446564E-2,7.5998336E-2,7.0828395E-3,1.3283266E-1,-3.205526E-2,9.972189E-2,3.5205603E-2,-1.117292E-1,-8.920341E-2,5.156612E-2,9.746202E-2,-4.928154E-2,7.189361E-2,-5.2311618E-2],"split_indices":[4,4,1,5,9,9,8,5,3,0,12,12,12,11,10,11,12,11,5,1,0,11,4,10,8,8,0,3,2,0,0,0,0,0,0,0,0,0,0,0,0,0,0,0,0,0,0,0,0,0,0,0,0],"split_type":[0,0,0,0,0,0,0,0,0,0,0,0,0,0,0,0,0,0,0,0,0,0,0,0,0,0,0,0,0,0,0,0,0,0,0,0,0,0,0,0,0,0,0,0,0,0,0,0,0,0,0,0,0],"sum_hessian":[1.5229851E2,7.7924515E1,7.437399E1,6.849186E1,9.432652E0,1.9214722E1,5.5159275E1,4.2041065E1,2.6450792E1,1.9236653E0,7.508987E0,1.0905178E1,8.309544E0,6.593525E0,4.856575E1,5.719751E0,3.6321316E1,9.656389E0,1.6794403E1,6.292722E0,1.2162646E0,4.339013E0,6.566165E0,2.715878E0,5.5936656E0,3.688625E0,2.9048996E0,4.4625506E0,4.41032E1,2.8028088E0,2.9169421E0,1.03780575E1,2.5943258E1,3.6879117E0,5.9684777E0,2.3093562E0,1.4485047E1,1.460012E0,4.8327103E0,2.4264717E0,1.9125412E0,1.4770852E0,5.08908E0,1.4912074E0,1.2246706E0,1.4394816E0,4.154184E0,1.9753492E0,1.713276E0,2.7211802E0,1.7413706E0,1.6803608E0,4.2422836E1],"tree_param":{"num_deleted":"0","num_feature":"16","num_nodes":"53","size_leaf_vector":"1"}},{"base_weights":[9.877816E-3,2.2307733E-1,-7.078515E-2,3.1365758E-1,-5.9137785E-1,-8.172806E-1,-3.0340519E-2,5.5537084E-3,5.8599657E-1,-9.387301E-2,1.0424528E-2,-1.07660964E-1,9.099209E-3,3.9917028E-1,-8.43338E-2,-7.983013E-1,2.1130535E-1,6.8174213E-1,-2.959908E-2,-4.254942E-1,8.335492E-1,-8.2745194E-1,-3.3366192E-2,-1.0993128E-1,-3.3134723E-3,-1.745768E-2,6.5012224E-2,8.350128E-2,-7.7072307E-3,-1.0018023E-1,1.8257445E-2,1.0397265E-1,-1.8000804E-2,3.7275884E-2,-1.2735863E-1,-4.8926298E-2,4.340112E-3],"categories":[],"categories_nodes":[],"categories_segments":[],"categories_sizes":[],"default_left":[0,0,0,0,0,0,0,0,0,0,0,0,0,0,0,0,0,0,0,0,0,0,0,0,0,0,0,0,0,0,0,0,0,0,0,0,0],"id":9,"left_children":[1,3,5,7,9,11,13,15,17,-1,-1,-1,-1,19,21,23,25,27,-1,29,31,33,35,-1,-1,-1,-1,-1,-1,-1,-1,-1,-1,-1,-1,-1,-1],"loss_changes":[2.6365244E0,3.2892408E0,3.3361707E0,3.2284105E0,1.1990137E0,1.4364874E0,2.5066733E0,3.3244197E0,1.9273677E0,0E0,0E0,0E0,0E0,4.6829233E0,3.5915422E0,9.0737104E-1,2.819814E0,2.2433949E0,0E0,1.8757467E0,1.9116173E0,3.7362518E0,3.1872962E0,0E0,0E0,0E0,0E0,0E0,0E0,0E0,0E0,0E0,0E0,0E0,0E0,0E0,0E0],"parents":[2147483647,0,0,1,1,2,2,3,3,4,4,5,5,6,6,7,7,8,8,13,13,14,14,15,15,16,16,17,17,19,19,20,20,21,21,22,22],"right_children":[2,4,6,8,10,12,14,16,18,-1,-1,-1,-1,20,22,24,26,28,-1,30,32,34,36,-1,-1,-1,-1,-1,-1,-1,-1,-1,-1,-1,-1,-1,-1],"split_conditions":[-7.691712E-3,7.31E0,-5.9420867E-3,1.558E1,3E0,1.734355E4,9.14964E-3,7.167E0,2.3441432E4,-9.387301E-2,1.0424528E-2,-1.07660964E-1,9.099209E-3,1.614E1,9.7237555E-3,1.3459148E-2,-1.4284043E-2,7.265792E-3,-2.959908E-2,1.778405E4,7.272E0,-5.433287E-2,1.306361E4,-1.0993128E-1,-3.3134723E-3,-1.745768E-2,6.5012224E-2,8.350128E-2,-7.7072307E-3,-1.0018023E-1,1.8257445E-2,1.0397265E-1,-1.8000804E-2,3.7275884E-2,-1.2735863E-1,-4.8926298E-2,4.340112E-3],"split_indices":[1,9,1,11,15,7,4,9,2,0,0,0,0,11,4,4,1,6,0,7,9,12,7,0,0,0,0,0,0,0,0,0,0,0,0,0,0],"split_type":[0,0,0,0,0,0,0,0,0,0,0,0,0,0,0,0,0,0,0,0,0,0,0,0,0,0,0,0,0,0,0,0,0,0,0,0,0],"sum_hessian":[1.513921E2,4.1071327E1,1.1032078E2,3.751406E1,3.5572677E0,4.682755E0,1.0563802E2,1.8080048E1,1.9434013E1,2.1394663E0,1.4178013E0,3.4985232E0,1.1842319E0,1.1082774E1,9.455525E1,3.0976915E0,1.4982356E1,1.7735722E1,1.6982913E0,3.8306923E0,7.2520814E0,5.0911007E0,8.946415E1,1.9097221E0,1.1879694E0,8.29242E0,6.689936E0,1.4671793E1,3.0639286E0,1.6342691E0,2.1964233E0,6.004774E0,1.2473073E0,1.424179E0,3.6669216E0,1.2119133E1,7.734502E1],"tree_param":{"num_deleted":"0","num_feature":"16","num_nodes":"37","size_leaf_vector":"1"}},{"base_weights":[6.758126E-3,1.2082289E-1,-1.4627664E-1,3.019213E-1,-8.491635E-2,-1.1112123E-1,-7.212274E-2,3.7201372E-1,-5.025768E-1,-5.894839E-1,1.6134818E-1,3.4396002E-1,-2.3068339E-1,-1.3989979E-2,5.754593E-1,8.808035E-3,-8.480164E-2,-8.7617254E-1,4.8147446E-1,6.2687504E-1,-2.5035635E-1,4.957243E-2,1.0494057E0,7.491056E-1,-3.1619915E-1,-3.310148E-2,7.080011E-2,6.94501E-2,-1.828402E-2,3.1458605E-2,-1.05248116E-1,-1.47179235E-2,9.561776E-2,9.1287725E-2,-4.9493432E-2,-6.39238E-2,2.3807682E-2,4.966947E-2,-7.5894415E-2,1.2115734E-1,3.0250404E-2,1.1195501E-1,6.8727843E-3,6.738488E-2,-3.7301954E-2],"categories":[],"categories_nodes":[],"categories_segments":[],"categories_sizes":[],"default_left":[0,0,0,0,0,0,0,0,0,0,0,0,0,0,0,0,0,0,0,0,0,0,0,0,0,0,0,0,0,0,0,0,0,0,0,0,0,0,0,0,0,0,0,0,0],"id":10,"left_children":[1,3,5,7,9,-1,11,13,15,17,19,21,23,25,27,-1,-1,29,31,33,35,37,39,41,43,-1,-1,-1,-1,-1,-1,-1,-1,-1,-1,-1,-1,-1,-1,-1,-1,-1,-1,-1,-1],"loss_changes":[2.6656213E0,3.2843387E0,4.587531E0,2.8223367E0,5.279773E0,0E0,4.146481E0,3.4292035E0,9.25704E-1,4.6896915E0,5.6815195E0,3.5639393E0,4.0270357E0,3.89941E0,2.7043648E0,0E0,0E0,2.7075624E0,1.2092758E0,4.8837686E0,3.1934285E0,5.1975074E0,2.484436E-1,9.130857E-1,2.631363E0,0E0,0E0,0E0,0E0,0E0,0E0,0E0,0E0,0E0,0E0,0E0,0E0,0E0,0E0,0E0,0E0,0E0,0E0,0E0,0E0],"parents":[2147483647,0,0,1,1,2,2,3,3,4,4,6,6,7,7,8,8,9,9,10,10,11,11,12,12,13,13,14,14,17,17,18,18,19,19,20,20,21,21,22,22,23,23,24,24],"right_children":[2,4,6,8,10,-1,12,14,16,18,20,22,24,26,28,-1,-1,30,32,34,36,38,40,42,44,-1,-1,-1,-1,-1,-1,-1,-1,-1,-1,-1,-1,-1,-1,-1,-1,-1,-1,-1,-1],"split_conditions":[1.3560061E-2,-1.4630912E-3,1.3849019E-2,1.8763043E-2,1.3282735E-2,-1.1112123E-1,-3.801238E-3,4.77475E3,-3.9755944E-3,1.78E1,2.5363808E1,2.268E1,1.4152027E-2,8.276589E-3,1.6331563E-2,8.808035E-3,-8.480164E-2,-1.2796548E-2,3E0,1.896E1,2.8099909E1,9.9112436E-2,-1.3744072E-2,9.277086E-3,1.5868993E4,-3.310148E-2,7.080011E-2,6.94501E-2,-1.828402E-2,3.1458605E-2,-1.05248116E-1,-1.47179235E-2,9.561776E-2,9.1287725E-2,-4.9493432E-2,-6.39238E-2,2.3807682E-2,4.966947E-2,-7.5894415E-2,1.2115734E-1,3.0250404E-2,1.1195501E-1,6.8727843E-3,6.738488E-2,-3.7301954E-2],"split_indices":[4,12,4,1,12,0,6,5,10,11,13,11,4,14,8,0,0,14,15,11,13,12,6,14,2,0,0,0,0,0,0,0,0,0,0,0,0,0,0,0,0,0,0,0,0],"split_type":[0,0,0,0,0,0,0,0,0,0,0,0,0,0,0,0,0,0,0,0,0,0,0,0,0,0,0,0,0,0,0,0,0,0,0,0,0,0,0,0,0,0,0,0,0],"sum_hessian":[1.5069379E2,8.6460655E1,6.423313E1,4.5735382E1,4.0725277E1,3.5859082E0,6.064722E1,4.2564503E1,3.170876E0,1.2900317E1,2.7824959E1,1.641168E1,4.4235542E1,1.5012346E1,2.7552158E1,1.4450487E0,1.7258275E0,1.0319684E1,2.580633E0,1.28136E1,1.5011359E1,1.2334624E1,4.077057E0,2.9280324E0,4.130751E1,1.080807E1,4.2042766E0,2.388647E1,3.6656866E0,1.2297653E0,9.089918E0,1.4071229E0,1.1735101E0,1.0358877E1,2.4547217E0,8.185478E0,6.8258805E0,8.190707E0,4.143917E0,2.838605E0,1.2384518E0,1.4778862E0,1.4501462E0,1.6526237E0,3.9654884E1],"tree_param":{"num_deleted":"0","num_feature":"16","num_nodes":"45","size_leaf_vector":"1"}},{"base_weights":[7.3413327E-3,3.564459E-2,-6.21649E-1,-2.0621827E-2,5.75198E-1,2.3334162E-2,-9.0001565E-1,1.005003E0,-6.7045234E-2,-1.02158025E-1,8.130129E-1,-1.219519E-1,-2.495107E-2,2.551101E-2,1.3108677E-1,5.7260863E-2,-2.5836146E-1,-5.733642E-2,1.0131592E0,-5.645986E-3,6.8497896E-2,9.241185E-3,-5.61422E-2,1.1823058E-1,1.2577248E-2],"categories":[],"categories_nodes":[],"categories_segments":[],"categories_sizes":[],"default_left":[0,0,0,0,0,0,0,0,0,0,0,0,0,0,0,0,0,0,0,0,0,0,0,0,0],"id":11,"left_children":[1,3,5,7,9,-1,11,13,15,-1,17,-1,-1,-1,-1,19,21,-1,23,-1,-1,-1,-1,-1,-1],"loss_changes":[2.707773E0,4.423171E0,1.7689512E0,6.3784575E0,6.0544696E0,0E0,7.655101E-1,9.964547E-1,3.0528457E0,0E0,4.0577755E0,0E0,0E0,0E0,0E0,5.6247416E0,5.4196625E0,0E0,1.5490456E0,0E0,0E0,0E0,0E0,0E0,0E0],"parents":[2147483647,0,0,1,1,2,2,3,3,4,4,6,6,7,7,8,8,10,10,15,15,16,16,18,18],"right_children":[2,4,6,8,10,-1,12,14,16,-1,18,-1,-1,-1,-1,20,22,-1,24,-1,-1,-1,-1,-1,-1],"split_conditions":[2.371069E4,2.189762E4,-1.0537552E-2,-1.0039047E-1,-9.745766E-2,2.3334162E-2,3.8331822E-3,1.7641E4,1.9344178E4,-1.02158025E-1,-2.2682227E-2,-1.219519E-1,-2.495107E-2,2.551101E-2,1.3108677E-1,1.8911984E4,-7.62495E-5,-5.733642E-2,2.354946E4,-5.645986E-3,6.8497896E-2,9.241185E-3,-5.61422E-2,1.1823058E-1,1.2577248E-2],"split_indices":[0,2,6,12,12,0,6,0,3,0,14,0,0,0,0,3,6,0,0,0,0,0,0,0,0],"split_type":[0,0,0,0,0,0,0,0,0,0,0,0,0,0,0,0,0,0,0,0,0,0,0,0,0],"sum_hessian":[1.4985623E2,1.4430609E2,5.5501437E0,1.3154945E2,1.2756634E1,1.4029117E0,4.147232E0,4.80239E0,1.2674707E2,1.226404E0,1.153023E1,2.194601E0,1.9526311E0,1.9226538E0,2.8797364E0,7.7253174E1,4.9493896E1,1.2193425E0,1.0310887E1,6.6174675E1,1.1078498E1,2.3263243E1,2.6230654E1,8.381019E0,1.9298686E0],"tree_param":{"num_deleted":"0","num_feature":"16","num_nodes":"25","size_leaf_vector":"1"}},{"base_weights":[6.8278625E-3,7.2632617E-1,-1.4930713E-2,1.1066995E-1,-1.604383E-2,-1.796627E-1,9.276565E-2,-2.8556886E-1,5.590421E-1,1.5761402E-1,-5.4400283E-1,1.403482E-1,-4.341929E-1,-4.9982354E-2,1.1564169E-1,2.2123842E-1,-7.133518E-1,-1.1066415E0,2.4683875E-1,-9.550137E-3,8.588871E-2,7.646621E-2,-5.029204E-2,-4.8266534E-2,5.703568E-2,1.3796373E-2,7.410417E-2,-1.0406009E-1,-2.5661099E-3,-3.4936767E-2,-1.23283975E-1,7.090485E-2,-2.3543812E-2],"categories":[],"categories_nodes":[],"categories_segments":[],"categories_sizes":[],"default_left":[0,0,0,0,0,0,0,0,0,0,0,0,0,0,0,0,0,0,0,0,0,0,0,0,0,0,0,0,0,0,0,0,0],"id":12,"left_children":[1,3,5,-1,-1,7,9,11,13,15,17,19,21,23,-1,25,27,29,31,-1,-1,-1,-1,-1,-1,-1,-1,-1,-1,-1,-1,-1,-1],"loss_changes":[2.3654315E0,1.6734884E0,2.6240191E0,0E0,0E0,4.7315755E0,3.7826455E0,3.338295E0,2.8467689E0,4.703392E0,4.055049E0,2.4797661E0,3.5670447E0,1.5514466E0,0E0,3.2397928E0,1.2832882E0,6.132126E-2,1.1367913E0,0E0,0E0,0E0,0E0,0E0,0E0,0E0,0E0,0E0,0E0,0E0,0E0,0E0,0E0],"parents":[2147483647,0,0,1,1,2,2,5,5,6,6,7,7,8,8,9,9,10,10,11,11,12,12,13,13,15,15,16,16,17,17,18,18],"right_children":[2,4,6,-1,-1,8,10,12,14,16,18,20,22,24,-1,26,28,30,32,-1,-1,-1,-1,-1,-1,-1,-1,-1,-1,-1,-1,-1,-1],"split_conditions":[1.145554E4,5.8020502E-2,1.507457E4,1.1066995E-1,-1.604383E-2,1.0665026E-2,2.3038544E-2,-1.1243033E-2,4.280506E-3,2.371069E4,1.6602995E-2,-6.0975663E-3,-5.5282926E-3,-3.4478793E-4,1.1564169E-1,1.3655078E-2,8.93873E-4,7.1125E0,3.050053E-2,-9.550137E-3,8.588871E-2,7.646621E-2,-5.029204E-2,-4.8266534E-2,5.703568E-2,1.3796373E-2,7.410417E-2,-1.0406009E-1,-2.5661099E-3,-3.4936767E-2,-1.23283975E-1,7.090485E-2,-2.3543812E-2],"split_indices":[7,12,7,0,0,6,1,1,1,0,4,14,10,10,0,1,10,9,1,0,0,0,0,0,0,0,0,0,0,0,0,0,0],"split_type":[0,0,0,0,0,0,0,0,0,0,0,0,0,0,0,0,0,0,0,0,0,0,0,0,0,0,0,0,0,0,0,0,0],"sum_hessian":[1.4940231E2,3.4349954E0,1.4596733E2,2.2302995E0,1.2046959E0,5.743963E1,8.8527695E1,5.077375E1,6.6658797E0,8.1028275E1,7.4994235E0,1.3148713E1,3.762504E1,3.7544959E0,2.911384E0,7.620728E1,4.820988E0,4.148606E0,3.3508182E0,1.0552201E1,2.5965114E0,1.4909791E0,3.613406E1,2.3425286E0,1.4119672E0,6.677505E1,9.432233E0,2.9188318E0,1.9021564E0,1.1308929E0,3.0177128E0,1.4709053E0,1.8799127E0],"tree_param":{"num_deleted":"0","num_feature":"16","num_nodes":"33","size_leaf_vector":"1"}},{"base_weights":[7.417013E-3,2.5078138E-2,-8.296681E-2,9.985172E-2,7.427985E-3,1.20142125E-1,-1.508542E-1,2.8568834E-1,-6.835878E-2,-2.959342E-1,3.480315E-1,-1.6526958E-3,4.581451E-2,6.271284E-3,-9.247893E-2,7.935892E-2,-3.722592E-2,8.658253E-2,-4.1205343E-2],"categories":[],"categories_nodes":[],"categories_segments":[],"categories_sizes":[],"default_left":[0,0,0,0,0,0,0,0,0,0,0,0,0,0,0,0,0,0,0],"id":13,"left_children":[1,3,-1,-1,5,7,9,11,13,15,17,-1,-1,-1,-1,-1,-1,-1,-1],"loss_changes":[2.2328117E0,2.5268662E0,0E0,0E0,2.6207638E0,2.695819E0,4.526727E0,2.3974833E0,4.650098E0,4.2778764E0,5.9569397E0,0E0,0E0,0E0,0E0,0E0,0E0,0E0,0E0],"parents":[2147483647,0,0,1,1,4,4,5,5,6,6,7,7,8,8,9,9,10,10],"right_children":[2,4,-1,-1,6,8,10,12,14,16,18,-1,-1,-1,-1,-1,-1,-1,-1],"split_conditions":[5.49241E-2,1.5868993E4,-8.296681E-2,9.985172E-2,1.3560061E-2,-1.4630912E-3,2.049E1,7.1825E0,5.748533E-3,-4.0862733E-3,2.14174E4,-1.6526958E-3,4.581451E-2,6.271284E-3,-9.247893E-2,7.935892E-2,-3.722592E-2,8.658253E-2,-4.1205343E-2],"split_indices":[14,2,0,0,4,12,11,9,8,10,0,0,0,0,0,0,0,0,0],"split_type":[0,0,0,0,0,0,0,0,0,0,0,0,0,0,0,0,0,0,0],"sum_hessian":[1.486229E2,1.4650198E2,2.120911E0,1.6193453E0,1.4488264E2,8.476308E1,6.011957E1,4.4854843E1,3.990823E1,4.68903E1,1.3229269E1,1.6625055E1,2.8229788E1,3.5414955E1,4.493275E0,2.454554E0,4.443575E1,7.786051E0,5.4432187E0],"tree_param":{"num_deleted":"0","num_feature":"16","num_nodes":"19","size_leaf_vector":"1"}},{"base_weights":[7.1200673E-3,-7.916476E-1,2.5614113E-2,-1.0137651E-1,-2.1017777E-2,9.561854E-2,4.1052856E-4,6.1189497E-1,-3.49764E-2,5.744469E-2,1.0017301E0,-1.3797772E-2,-9.33568E-2,6.900947E-2,-8.938827E-2,1.1948337E-1,4.144853E-2,-7.898178E-3,3.7618294E-2],"categories":[],"categories_nodes":[],"categories_segments":[],"categories_sizes":[],"default_left":[0,0,0,0,0,0,0,0,0,0,0,0,0,0,0,0,0,0,0],"id":14,"left_children":[1,3,5,-1,-1,-1,7,9,11,13,15,17,-1,-1,-1,-1,-1,-1,-1],"loss_changes":[2.223415E0,2.2686028E-1,3.4410226E0,0E0,0E0,0E0,3.1343944E0,1.6551979E0,2.5931993E0,3.2242153E0,2.5475025E-2,3.4564214E0,0E0,0E0,0E0,0E0,0E0,0E0,0E0],"parents":[2147483647,0,0,1,1,2,2,6,6,7,7,8,8,9,9,10,10,11,11],"right_children":[2,4,6,-1,-1,-1,8,10,12,14,16,18,-1,-1,-1,-1,-1,-1,-1],"split_conditions":[-3.686045E-2,1.0404682E-3,1.145554E4,-1.0137651E-1,-2.1017777E-2,9.561854E-2,-2.458098E-2,1.907519E4,2.6069457E-2,1.700291E4,2.4514333E-3,9.3211485E-3,-9.33568E-2,6.900947E-2,-8.938827E-2,1.1948337E-1,4.144853E-2,-7.898178E-3,3.7618294E-2],"split_indices":[14,10,7,0,0,0,14,0,8,0,10,6,0,0,0,0,0,0,0],"split_type":[0,0,0,0,0,0,0,0,0,0,0,0,0,0,0,0,0,0,0],"sum_hessian":[1.4813832E2,2.4062345E0,1.4573209E2,1.2031765E0,1.203058E0,2.868865E0,1.4286322E2,6.9240704E0,1.3593916E2,3.3321764E0,3.591894E0,1.33801E2,2.1381598E0,2.1662076E0,1.1659689E0,1.9244382E0,1.6674557E0,1.1532266E2,1.8478334E1],"tree_param":{"num_deleted":"0","num_feature":"16","num_nodes":"19","size_leaf_vector":"1"}},{"base_weights":[6.778504E-3,-1.3781714E-2,6.8246245E-1,2.1438042E-2,-6.224998E-1,-1.3378183E-2,1.0401877E-1,-2.8828103E-2,4.752508E-1,-1.3360976E-1,4.5350425E-2,3.717384E-1,-8.706485E-2,6.4978665E-1,-8.064172E-2,5.25787E-1,-5.876055E-2,-4.3591622E-2,6.677264E-2,6.1348327E-2,-1.2439495E-2,-1.872305E-2,1.0339481E-1,-1.6700992E-2,9.795923E-2],"categories":[],"categories_nodes":[],"categories_segments":[],"categories_sizes":[],"default_left":[0,0,0,0,0,0,0,0,0,0,0,0,0,0,0,0,0,0,0,0,0,0,0,0,0],"id":15,"left_children":[1,3,5,7,9,-1,-1,11,13,-1,15,17,19,21,-1,23,-1,-1,-1,-1,-1,-1,-1,-1,-1],"loss_changes":[2.077682E0,3.1319346E0,1.4286666E0,3.1725044E0,3.8681297E0,0E0,0E0,2.9625325E0,3.6257193E0,0E0,1.8580567E0,4.1478944E0,2.965416E0,4.2957892E0,0E0,1.2400084E0,0E0,0E0,0E0,0E0,0E0,0E0,0E0,0E0,0E0],"parents":[2147483647,0,0,1,1,2,2,3,3,4,4,7,7,8,8,10,10,11,11,12,12,13,13,15,15],"right_children":[2,4,6,8,10,-1,-1,12,14,-1,16,18,20,22,-1,24,-1,-1,-1,-1,-1,-1,-1,-1,-1],"split_conditions":[6.07511E3,1.959124E4,0E0,1.901009E4,-4.410218E-4,-1.3378183E-2,1.0401877E-1,9.47932E-3,1.8486945E-2,-1.3360976E-1,9.277086E-3,1.544E1,-4.7515784E-3,1.0345561E-2,-8.064172E-2,2.1950862E-5,-5.876055E-2,-4.3591622E-2,6.677264E-2,6.1348327E-2,-1.2439495E-2,-1.872305E-2,1.0339481E-1,-1.6700992E-2,9.795923E-2],"split_indices":[5,7,14,7,10,0,0,4,1,0,14,11,10,4,0,6,0,0,0,0,0,0,0,0,0],"split_type":[0,0,0,0,0,0,0,0,0,0,0,0,0,0,0,0,0,0,0,0,0,0,0,0,0],"sum_hessian":[1.4788031E2,1.4446405E2,3.4162571E0,1.374747E2,6.9893517E0,1.2317399E0,2.1845171E0,1.2460898E2,1.2865721E1,2.895218E0,4.094134E0,1.5133544E1,1.0947543E2,1.1757601E1,1.1081196E0,2.4237413E0,1.6703928E0,3.931906E0,1.1201637E1,4.757663E0,1.04717766E2,3.8599987E0,7.897602E0,1.2094011E0,1.2143402E0],"tree_param":{"num_deleted":"0","num_feature":"16","num_nodes":"25","size_leaf_vector":"1"}},{"base_weights":[6.563843E-3,-7.4465245E-1,2.3936057E-2,-9.472571E-2,-2.052681E-2,6.022361E-1,-9.7907055E-3,5.716745E-2,9.6717514E-2,8.422875E-2,-3.175858E-2,6.5354295E-2,-8.501094E-2,-1.18562775E-2,-8.78925E-2,7.000642E-2,-4.157472E-3],"categories":[],"categories_nodes":[],"categories_segments":[],"categories_sizes":[],"default_left":[0,0,0,0,0,0,0,0,0,0,0,0,0,0,0,0,0],"id":16,"left_children":[1,3,5,-1,-1,7,9,11,-1,-1,13,-1,-1,15,-1,-1,-1],"loss_changes":[1.95315E0,1.7526674E-1,2.8518398E0,0E0,0E0,1.5473537E0,2.625935E0,2.8788898E0,0E0,0E0,2.2882013E0,0E0,0E0,2.8687284E0,0E0,0E0,0E0],"parents":[2147483647,0,0,1,1,2,2,5,5,6,6,7,7,10,10,13,13],"right_children":[2,4,6,-1,-1,8,10,12,-1,-1,14,-1,-1,16,-1,-1,-1],"split_conditions":[-3.686045E-2,1.0404682E-3,-2.458098E-2,-9.472571E-2,-2.052681E-2,1.907519E4,1.145554E4,1.700291E4,9.6717514E-2,8.422875E-2,2.6069457E-2,6.5354295E-2,-8.501094E-2,-1.0039047E-1,-8.78925E-2,7.000642E-2,-4.157472E-3],"split_indices":[14,10,14,0,0,0,7,0,0,0,8,0,0,12,0,0,0],"split_type":[0,0,0,0,0,0,0,0,0,0,0,0,0,0,0,0,0],"sum_hessian":[1.4729755E2,2.3830752E0,1.4491446E2,1.18266E0,1.2004151E0,7.0568585E0,1.378576E2,3.2938507E0,3.7630079E0,2.526319E0,1.3533128E2,2.1561954E0,1.1376551E0,1.3321568E2,2.115613E0,4.4342556E0,1.2878142E2],"tree_param":{"num_deleted":"0","num_feature":"16","num_nodes":"17","size_leaf_vector":"1"}},{"base_weights":[6.114192E-3,4.0448397E-1,-2.6738523E-2,-2.6897896E-2,1.2097555E-1,-1.3545212E-1,1.4624149E-1,3.3497396E-1,-9.030416E-2,-2.334948E-1,3.9802969E-1,9.7671986E-1,3.7238475E-2,-1.8360774E-1,8.385567E-1,2.1572646E-1,-3.7537915E-1,-3.1644997E-1,8.1618994E-1,1.2723325E-1,-1.1900567E-2,2.2339332E-1,-3.2430986E-1,-6.320252E-2,2.2772102E-2,1.04146026E-1,2.3363357E-2,-1.8139023E-2,8.144065E-2,-1.2276781E-2,-6.447169E-2,4.5652654E-2,-8.260857E-2,-2.2729015E-2,1.0078007E-1,-3.736761E-2,4.2520966E-2,-4.4110607E-2,6.519355E-2],"categories":[],"categories_nodes":[],"categories_segments":[],"categories_sizes":[],"default_left":[0,0,0,0,0,0,0,0,0,0,0,0,0,0,0,0,0,0,0,0,0,0,0,0,0,0,0,0,0,0,0,0,0,0,0,0,0,0,0],"id":17,"left_children":[1,3,5,7,-1,9,11,13,-1,15,17,19,21,23,25,27,29,31,33,-1,-1,35,37,-1,-1,-1,-1,-1,-1,-1,-1,-1,-1,-1,-1,-1,-1,-1,-1],"loss_changes":[1.9476918E0,3.9707613E0,2.608489E0,2.9532144E0,0E0,4.541416E0,4.816352E0,1.8896048E0,0E0,4.700469E0,4.3136315E0,2.1531978E0,3.3317509E0,8.9917994E-1,1.9259167E-1,4.434715E0,3.6932058E0,2.6351192E0,1.9969006E0,0E0,0E0,4.08224E0,2.2108054E0,0E0,0E0,0E0,0E0,0E0,0E0,0E0,0E0,0E0,0E0,0E0,0E0,0E0,0E0,0E0,0E0],"parents":[2147483647,0,0,1,1,2,2,3,3,5,5,6,6,7,7,9,9,10,10,11,11,12,12,13,13,14,14,15,15,16,16,17,17,18,18,21,21,22,22],"right_children":[2,4,6,8,-1,10,12,14,-1,16,18,20,22,24,26,28,30,32,34,-1,-1,36,38,-1,-1,-1,-1,-1,-1,-1,-1,-1,-1,-1,-1,-1,-1,-1,-1],"split_conditions":[1.6441766E4,1.425E1,1.739553E4,5.873742E-3,1.2097555E-1,1.3546569E-2,2.5334974E1,1.944658E-3,-9.030416E-2,-1.3436879E-2,-1.8315035E-3,1.3432555E-2,6.5573025E-3,-8.449522E-4,-6.277018E-4,-1.0731308E-2,2.7542797E-4,-4.7515784E-3,1.6652977E4,1.2723325E-1,-1.1900567E-2,2.9131376E1,2.3430802E-2,-6.320252E-2,2.2772102E-2,1.04146026E-1,2.3363357E-2,-1.8139023E-2,8.144065E-2,-1.2276781E-2,-6.447169E-2,4.5652654E-2,-8.260857E-2,-2.2729015E-2,1.0078007E-1,-3.736761E-2,4.2520966E-2,-4.4110607E-2,6.519355E-2],"split_indices":[3,11,7,6,0,1,13,8,0,1,10,4,1,14,1,14,10,10,2,0,0,13,4,0,0,0,0,0,0,0,0,0,0,0,0,0,0,0,0],"split_type":[0,0,0,0,0,0,0,0,0,0,0,0,0,0,0,0,0,0,0,0,0,0,0,0,0,0,0,0,0,0,0,0,0,0,0,0,0,0,0],"sum_hessian":[1.4699405E2,1.0336943E1,1.366571E2,7.3605256E0,2.9764175E0,8.405046E1,5.2606655E1,5.646171E0,1.7143544E0,7.1476845E1,1.2573614E1,5.180057E0,4.7426598E1,3.094697E0,2.551474E0,1.7031816E1,5.4445026E1,4.731862E0,7.841752E0,3.952536E0,1.227521E0,3.155936E1,1.5867237E1,1.2238978E0,1.8707992E0,1.3702301E0,1.1812439E0,1.06587E1,6.373117E0,2.8846123E1,2.5598904E1,1.9215747E0,2.8102875E0,1.1876734E0,6.654079E0,7.7574735E0,2.3801886E1,1.4661341E1,1.2058959E0],"tree_param":{"num_deleted":"0","num_feature":"16","num_nodes":"39","size_leaf_vector":"1"}},{"base_weights":[7.5643975E-3,3.15422E-2,-5.2882063E-1,-1.6325261E-2,4.7454098E-1,2.306327E-2,-7.8687245E-1,1.3900889E-2,-7.6319385E-1,-6.875166E-2,6.313418E-1,-1.1043099E-1,-1.7106146E-2,6.222537E-1,-3.237352E-2,-1.2069528E-2,-1.2005737E-1,8.3476603E-1,-4.656866E-2,1.008961E-1,-2.0004688E-2,-7.857669E-3,4.2035364E-2,-1.7920021E-3,9.797497E-2],"categories":[],"categories_nodes":[],"categories_segments":[],"categories_sizes":[],"default_left":[0,0,0,0,0,0,0,0,0,0,0,0,0,0,0,0,0,0,0,0,0,0,0,0,0],"id":18,"left_children":[1,3,5,7,9,-1,11,13,15,-1,17,-1,-1,19,21,-1,-1,23,-1,-1,-1,-1,-1,-1,-1],"loss_changes":[1.9086568E0,3.0136912E0,1.4261196E0,2.9204812E0,2.9589038E0,0E0,7.8203416E-1,3.5352862E0,1.2690446E0,0E0,3.22971E0,0E0,0E0,3.0243304E0,2.4801724E0,0E0,0E0,1.389461E0,0E0,0E0,0E0,0E0,0E0,0E0,0E0],"parents":[2147483647,0,0,1,1,2,2,3,3,4,4,6,6,7,7,8,8,10,10,13,13,14,14,17,17],"right_children":[2,4,6,8,10,-1,12,14,16,-1,18,-1,-1,20,22,-1,-1,24,-1,-1,-1,-1,-1,-1,-1],"split_conditions":[2.371069E4,2.211351E4,-1.0537552E-2,3.2005108E1,-7.0010945E-2,2.306327E-2,3.8331822E-3,-8.367221E-2,-3.1054846E-4,-6.875166E-2,8.9763805E-2,-1.1043099E-1,-1.7106146E-2,1.5830757E-2,2.052E1,-1.2069528E-2,-1.2005737E-1,5.61456E3,-4.656866E-2,1.008961E-1,-2.0004688E-2,-7.857669E-3,4.2035364E-2,-1.7920021E-3,9.797497E-2],"split_indices":[0,0,6,13,12,0,6,12,10,0,12,0,0,8,11,0,0,5,0,0,0,0,0,0,0],"split_type":[0,0,0,0,0,0,0,0,0,0,0,0,0,0,0,0,0,0,0,0,0,0,0,0,0],"sum_hessian":[1.4610577E2,1.4075487E2,5.350913E0,1.2789819E2,1.2856669E1,1.3840045E0,3.9669085E0,1.2386664E2,4.0315576E0,1.1261414E0,1.1730528E1,2.0941546E0,1.8727537E0,7.876049E0,1.1599059E2,2.1496837E0,1.881874E0,1.0097242E1,1.6332858E0,5.202464E0,2.673585E0,1.0599925E2,9.99134E0,1.5947148E0,8.502527E0],"tree_param":{"num_deleted":"0","num_feature":"16","num_nodes":"25","size_leaf_vector":"1"}},{"base_weights":[5.920585E-3,1.0260628E-1,-1.2377198E-1,-8.464473E-2,1.3222952E-1,-9.857034E-2,-5.865508E-2,7.1937464E-2,6.5579855E-1,5.0847507E-1,-1.4445658E-1,1.2860923E-1,-8.157185E-1,1.2930036E-1,-7.153739E-2,-9.9961914E-2,1.0096909E-1,7.729829E-1,-2.1722081E-1,1.6862093E-2,-6.6544406E-2,1.1245718E-2,-1.1468045E-1,-6.744512E-2,7.4185595E-2,4.9971182E-2,-6.1110344E-2,1.1682125E-1,-8.218112E-5,8.0297765E-4,-5.3466268E-2],"categories":[],"categories_nodes":[],"categories_segments":[],"categories_sizes":[],"default_left":[0,0,0,0,0,0,0,0,0,0,0,0,0,0,0,0,0,0,0,0,0,0,0,0,0,0,0,0,0,0,0],"id":19,"left_children":[1,3,5,-1,7,-1,9,11,13,15,17,19,21,-1,23,25,-1,27,29,-1,-1,-1,-1,-1,-1,-1,-1,-1,-1,-1,-1],"loss_changes":[1.8518459E0,2.4896379E0,3.483493E0,0E0,2.5690627E0,0E0,2.9797928E0,3.9000993E0,4.0019016E0,2.5619166E0,3.6831088E0,2.3927536E0,1.5621712E0,0E0,2.8967643E0,1.7015629E0,0E0,1.2514436E0,3.5486035E0,0E0,0E0,0E0,0E0,0E0,0E0,0E0,0E0,0E0,0E0,0E0,0E0],"parents":[2147483647,0,0,1,1,2,2,4,4,6,6,7,7,8,8,9,9,10,10,11,11,12,12,14,14,15,15,17,17,18,18],"right_children":[2,4,6,-1,8,-1,10,12,14,16,18,20,22,-1,24,26,-1,28,30,-1,-1,-1,-1,-1,-1,-1,-1,-1,-1,-1,-1],"split_conditions":[1.3560061E-2,-2.425065E-2,1.3849019E-2,-8.464473E-2,3.3697966E-3,-9.857034E-2,-1.5015397E-2,2.4933994E-3,2.5414944E1,2.17E1,1.4119155E-2,2.3038544E-2,-3.1791944E-2,1.2930036E-1,2.0082947E4,1.9390105E4,1.0096909E-1,1.524E1,7.2245E0,1.6862093E-2,-6.6544406E-2,1.1245718E-2,-1.1468045E-1,-6.744512E-2,7.4185595E-2,4.9971182E-2,-6.1110344E-2,1.1682125E-1,-8.218112E-5,8.0297765E-4,-5.3466268E-2],"split_indices":[4,8,4,0,10,0,8,10,13,11,4,1,12,0,3,2,0,11,9,0,0,0,0,0,0,0,0,0,0,0,0],"split_type":[0,0,0,0,0,0,0,0,0,0,0,0,0,0,0,0,0,0,0,0,0,0,0,0,0,0,0,0,0,0,0],"sum_hessian":[1.456692E2,8.357383E1,6.209537E1,1.6950481E0,8.1878784E1,3.3686182E0,5.8726753E1,7.4443565E1,7.435218E0,7.069913E0,5.165684E1,7.077979E1,3.6637716E0,3.5486174E0,3.8866007E0,3.5549912E0,3.5149217E0,3.0888107E0,4.8568027E1,6.813421E1,2.6455817E0,1.1368979E0,2.5268736E0,2.3301985E0,1.5564021E0,1.6461183E0,1.908873E0,1.7071596E0,1.3816512E0,2.8979465E1,1.9588564E1],"tree_param":{"num_deleted":"0","num_feature":"16","num_nodes":"31","size_leaf_vector":"1"}},{"base_weights":[4.9990956E-3,2.7528312E-2,-5.03794E-1,-1.6721198E-2,4.6640548E-1,1.9718388E-2,-7.38211E-1,8.1135297E-1,-5.2769326E-2,-9.370014E-2,6.8477875E-1,-1.047434E-1,-1.5199629E-2,1.5997225E-2,1.0988182E-1,6.706834E-2,-2.3845592E-1,-5.0962638E-2,8.6465E-1,-4.1373847E-3,6.614792E-2,1.8054266E-2,-4.762157E-2,1.02572575E-1,8.203168E-3],"categories":[],"categories_nodes":[],"categories_segments":[],"categories_sizes":[],"default_left":[0,0,0,0,0,0,0,0,0,0,0,0,0,0,0,0,0,0,0,0,0,0,0,0,0],"id":20,"left_children":[1,3,5,7,9,-1,11,13,15,-1,17,-1,-1,-1,-1,19,21,-1,23,-1,-1,-1,-1,-1,-1],"loss_changes":[1.6879016E0,2.7420976E0,1.1716322E0,3.8895662E0,4.6043186E0,0E0,7.2725105E-1,8.422837E-1,2.784844E0,0E0,2.9686437E0,0E0,0E0,0E0,0E0,4.9523516E0,4.96995E0,0E0,1.2518072E0,0E0,0E0,0E0,0E0,0E0,0E0],"parents":[2147483647,0,0,1,1,2,2,3,3,4,4,6,6,7,7,8,8,10,10,15,15,16,16,18,18],"right_children":[2,4,6,8,10,-1,12,14,16,-1,18,-1,-1,-1,-1,20,22,-1,24,-1,-1,-1,-1,-1,-1],"split_conditions":[2.371069E4,2.189762E4,-1.0537552E-2,-1.0039047E-1,-9.745766E-2,1.9718388E-2,3.8331822E-3,1.7641E4,1.9344178E4,-9.370014E-2,-2.2682227E-2,-1.047434E-1,-1.5199629E-2,1.5997225E-2,1.0988182E-1,1.8911984E4,-7.85927E-3,-5.0962638E-2,2.354946E4,-4.1373847E-3,6.614792E-2,1.8054266E-2,-4.762157E-2,1.02572575E-1,8.203168E-3],"split_indices":[0,2,6,12,12,0,6,0,3,0,14,0,0,0,0,3,14,0,0,0,0,0,0,0,0],"split_type":[0,0,0,0,0,0,0,0,0,0,0,0,0,0,0,0,0,0,0,0,0,0,0,0,0],"sum_hessian":[1.4504164E2,1.3979735E2,5.2442923E0,1.27867134E2,1.1930222E1,1.3540635E0,3.8902287E0,4.436948E0,1.2343018E2,1.1632979E0,1.0766924E1,2.0317326E0,1.8584962E0,1.8351314E0,2.6018167E0,7.540465E1,4.8025536E1,1.1692734E0,9.597651E0,6.455742E1,1.0847228E1,1.7473333E1,3.0552204E1,7.701849E0,1.8958011E0],"tree_param":{"num_deleted":"0","num_feature":"16","num_nodes":"25","size_leaf_vector":"1"}},{"base_weights":[4.7571105E-3,-1.5095348E-2,6.448436E-1,1.6081775E-2,-5.5668926E-1,-1.3922885E-2,9.918445E-2,-2.7687134E-2,4.199092E-1,-1.22500956E-1,5.892652E-2,-9.010283E-2,2.7043626E-1,7.85146E-1,-1.6208802E-1,5.0839025E-1,-5.3947873E-2,2.1810554E-2,-1.90759E-2,1.0823981E-1,6.162793E-3,1.1338589E-1,-3.867989E-2,3.7251286E-2,-5.412933E-2,-1.38195325E-2,9.206411E-2],"categories":[],"categories_nodes":[],"categories_segments":[],"categories_sizes":[],"default_left":[0,0,0,0,0,0,0,0,0,0,0,0,0,0,0,0,0,0,0,0,0,0,0,0,0,0,0],"id":21,"left_children":[1,3,5,7,9,-1,-1,11,13,-1,15,17,19,21,23,25,-1,-1,-1,-1,-1,-1,-1,-1,-1,-1,-1],"loss_changes":[1.8579911E0,2.4075196E0,1.3347552E0,2.4028907E0,3.2649405E0,0E0,0E0,2.3130748E0,2.9525757E0,0E0,1.6173148E0,3.2200913E0,3.585816E0,3.8459187E0,1.408617E0,1.0245726E0,0E0,0E0,0E0,0E0,0E0,0E0,0E0,0E0,0E0,0E0,0E0],"parents":[2147483647,0,0,1,1,2,2,3,3,4,4,7,7,8,8,10,10,11,11,12,12,13,13,14,14,15,15],"right_children":[2,4,6,8,10,-1,-1,12,14,-1,16,18,20,22,24,26,-1,-1,-1,-1,-1,-1,-1,-1,-1,-1,-1],"split_conditions":[6.07511E3,1.959124E4,0E0,1.901009E4,-4.410218E-4,-1.3922885E-2,9.918445E-2,1.3546569E-2,3E0,-1.22500956E-1,9.277086E-3,-1.2683957E-2,1.5943421E-2,9.098167E-2,1.991739E4,2.1950862E-5,-5.3947873E-2,2.1810554E-2,-1.90759E-2,1.0823981E-1,6.162793E-3,1.1338589E-1,-3.867989E-2,3.7251286E-2,-5.412933E-2,-1.38195325E-2,9.206411E-2],"split_indices":[5,7,14,7,10,0,0,1,15,0,14,1,1,12,2,6,0,0,0,0,0,0,0,0,0,0,0],"split_type":[0,0,0,0,0,0,0,0,0,0,0,0,0,0,0,0,0,0,0,0,0,0,0,0,0,0,0],"sum_hessian":[1.4444858E2,1.4105028E2,3.3982966E0,1.342901E2,6.76017E0,1.226255E0,2.1720417E0,1.21998695E2,1.2291411E1,2.766706E0,3.993464E0,1.01455536E2,2.0543161E1,7.337594E0,4.9538174E0,2.3664453E0,1.6270185E0,2.4689537E1,7.6766E1,3.3464863E0,1.7196674E1,5.6800036E0,1.6575907E0,2.0630262E0,2.8907914E0,1.1801869E0,1.1862586E0],"tree_param":{"num_deleted":"0","num_feature":"16","num_nodes":"27","size_leaf_vector":"1"}},{"base_weights":[5.478578E-3,-7.0296097E-1,2.1904405E-2,-8.772917E-2,-2.0059934E-2,8.031423E-2,1.4553632E-3,5.2374905E-1,-2.818673E-2,4.2310774E-2,8.63831E-1,3.8311145E-1,-6.261726E-2,5.7834107E-2,-7.8383155E-2,1.05100825E-1,3.2498E-2,6.975089E-4,1.0951723E-1,-4.149174E-3,-9.810029E-2],"categories":[],"categories_nodes":[],"categories_segments":[],"categories_sizes":[],"default_left":[0,0,0,0,0,0,0,0,0,0,0,0,0,0,0,0,0,0,0,0,0],"id":22,"left_children":[1,3,5,-1,-1,-1,7,9,11,13,15,17,19,-1,-1,-1,-1,-1,-1,-1,-1],"loss_changes":[1.701845E0,1.1427164E-1,2.277115E0,0E0,0E0,0E0,2.181834E0,1.2026305E0,1.9131826E0,2.306424E0,1.00605726E-1,2.790002E0,2.3643036E0,0E0,0E0,0E0,0E0,0E0,0E0,0E0,0E0],"parents":[2147483647,0,0,1,1,2,2,6,6,7,7,8,8,9,9,10,10,11,11,12,12],"right_children":[2,4,6,-1,-1,-1,8,10,12,14,16,18,20,-1,-1,-1,-1,-1,-1,-1,-1],"split_conditions":[-3.686045E-2,2.031879E4,1.145554E4,-8.772917E-2,-2.0059934E-2,8.031423E-2,-2.458098E-2,1.907519E4,1.6441766E4,1.700291E4,2.4514333E-3,1.425E1,2.6069457E-2,5.7834107E-2,-7.8383155E-2,1.05100825E-1,3.2498E-2,6.975089E-4,1.0951723E-1,-4.149174E-3,-9.810029E-2],"split_indices":[14,0,7,0,0,0,14,0,3,0,10,11,8,0,0,0,0,0,0,0,0],"split_type":[0,0,0,0,0,0,0,0,0,0,0,0,0,0,0,0,0,0,0,0,0],"sum_hessian":[1.439248E2,2.3142903E0,1.4161052E2,1.1640158E0,1.1502745E0,2.6358247E0,1.3897469E2,6.568506E0,1.3240619E2,3.1846116E0,3.3838944E0,9.445508E0,1.2296068E2,2.1133473E0,1.0712644E0,1.8060701E0,1.5778242E0,6.8414183E0,2.6040895E0,1.2121751E2,1.7431731E0],"tree_param":{"num_deleted":"0","num_feature":"16","num_nodes":"21","size_leaf_vector":"1"}},{"base_weights":[5.6661875E-3,-1.3294629E-2,6.149839E-1,1.56772E-2,-5.217639E-1,9.203936E-2,-7.625983E-4,1.2657066E-1,-1.251639E-1,-9.6276686E-2,-4.3727085E-2,-4.2175697E-3,4.1316724E-1,-9.2835516E-1,-6.2469784E-2,3.6248446E-2,-5.0546493E-2,-1.6386338E-2,2.8591333E-2,1.20164156E-1,2.0398932E-2,-1.04787625E-1,-2.8414348E-2,2.9170716E-2,-1.9797333E-2],"categories":[],"categories_nodes":[],"categories_segments":[],"categories_sizes":[],"default_left":[0,0,0,0,0,0,0,0,0,0,0,0,0,0,0,0,0,0,0,0,0,0,0,0,0],"id":23,"left_children":[1,3,5,7,9,-1,-1,11,13,-1,15,17,19,21,23,-1,-1,-1,-1,-1,-1,-1,-1,-1,-1],"loss_changes":[1.6780498E0,2.0875754E0,8.404856E-1,2.1167712E0,1.5681982E0,0E0,0E0,2.8413744E0,2.9512284E0,0E0,1.0671875E0,2.5020974E0,3.6717792E0,2.9854298E-2,2.7695508E0,0E0,0E0,0E0,0E0,0E0,0E0,0E0,0E0,0E0,0E0],"parents":[2147483647,0,0,1,1,2,2,3,3,4,4,7,7,8,8,10,10,11,11,12,12,13,13,14,14],"right_children":[2,4,6,8,10,-1,-1,12,14,-1,16,18,20,22,24,-1,-1,-1,-1,-1,-1,-1,-1,-1,-1],"split_conditions":[1.994564E4,1.959124E4,1.506E1,1.3560061E-2,-4.410218E-4,9.203936E-2,-7.625983E-4,1.739553E4,1.3849019E-2,-9.6276686E-2,1.1058143E-2,3.5184496E-3,2.5334974E1,7.262E0,-3.801238E-3,3.6248446E-2,-5.0546493E-2,-1.6386338E-2,2.8591333E-2,1.20164156E-1,2.0398932E-2,-1.04787625E-1,-2.8414348E-2,2.9170716E-2,-1.9797333E-2],"split_indices":[7,7,11,4,10,0,0,7,4,0,14,14,13,9,6,0,0,0,0,0,0,0,0,0,0],"split_type":[0,0,0,0,0,0,0,0,0,0,0,0,0,0,0,0,0,0,0,0,0,0,0,0,0],"sum_hessian":[1.4353827E2,1.4015508E2,3.3831804E0,1.3351666E2,6.638415E0,1.9489005E0,1.4342798E0,7.4756935E1,5.8759727E1,2.9255283E0,3.7128866E0,5.200827E1,2.2748667E1,3.2547355E0,5.5504993E1,2.0895615E0,1.6233251E0,3.382895E1,1.8179321E1,3.7749178E0,1.897375E1,2.2168405E0,1.0378948E0,1.5040256E1,4.0464737E1],"tree_param":{"num_deleted":"0","num_feature":"16","num_nodes":"25","size_leaf_vector":"1"}},{"base_weights":[5.201755E-3,-1.3096878E-2,5.933663E-1,1.4406768E-2,-4.998087E-1,-1.2957262E-2,9.142576E-2,-2.5038373E-2,3.8194463E-1,-1.1136849E-1,4.9175657E-2,-8.166333E-2,2.464152E-1,7.2075146E-1,-1.4926751E-1,4.5506743E-1,-4.8785698E-2,-1.8852532E-3,-5.462688E-2,-9.882654E-3,6.416679E-2,-5.154977E-2,1.0015432E-1,3.5753608E-2,-5.0210696E-2,-1.5442732E-2,8.610725E-2],"categories":[],"categories_nodes":[],"categories_segments":[],"categories_sizes":[],"default_left":[0,0,0,0,0,0,0,0,0,0,0,0,0,0,0,0,0,0,0,0,0,0,0,0,0,0,0],"id":24,"left_children":[1,3,5,7,9,-1,-1,11,13,-1,15,17,19,21,23,25,-1,-1,-1,-1,-1,-1,-1,-1,-1,-1,-1],"loss_changes":[1.5579833E0,1.8902484E0,1.1316738E0,1.9539402E0,2.5998335E0,0E0,0E0,1.8962677E0,2.4581532E0,0E0,1.2997726E0,2.9587488E0,2.9720707E0,3.3439527E0,1.2371416E0,9.5785314E-1,0E0,0E0,0E0,0E0,0E0,0E0,0E0,0E0,0E0,0E0,0E0],"parents":[2147483647,0,0,1,1,2,2,3,3,4,4,7,7,8,8,10,10,11,11,12,12,13,13,14,14,15,15],"right_children":[2,4,6,8,10,-1,-1,12,14,-1,16,18,20,22,24,26,-1,-1,-1,-1,-1,-1,-1,-1,-1,-1,-1],"split_conditions":[6.07511E3,1.959124E4,0E0,1.901009E4,-4.410218E-4,-1.2957262E-2,9.142576E-2,1.3546569E-2,3E0,-1.1136849E-1,9.277086E-3,7.778956E-3,-3.4478793E-4,-1.1080724E-2,6.8950605E-5,2.1950862E-5,-4.8785698E-2,-1.8852532E-3,-5.462688E-2,-9.882654E-3,6.416679E-2,-5.154977E-2,1.0015432E-1,3.5753608E-2,-5.0210696E-2,-1.5442732E-2,8.610725E-2],"split_indices":[5,7,14,7,10,0,0,1,15,0,14,1,10,6,10,6,0,0,0,0,0,0,0,0,0,0,0],"split_type":[0,0,0,0,0,0,0,0,0,0,0,0,0,0,0,0,0,0,0,0,0,0,0,0,0,0,0],"sum_hessian":[1.4303683E2,1.3966927E2,3.367576E0,1.3311732E2,6.55194E0,1.2185355E0,2.1490405E0,1.2105704E2,1.2060288E1,2.6075459E0,3.944394E0,1.0074159E2,2.0315441E1,7.145858E0,4.91443E0,2.3334146E0,1.6109797E0,8.9660774E1,1.1080817E1,1.1244053E1,9.071387E0,1.1679262E0,5.977932E0,2.0116587E0,2.9027715E0,1.1806558E0,1.1527586E0],"tree_param":{"num_deleted":"0","num_feature":"16","num_nodes":"27","size_leaf_vector":"1"}},{"base_weights":[4.863498E-3,3.6094463E-1,-2.4635017E-2,9.837956E-4,1.06927276E-1,8.155734E-2,-1.589784E-1,3.3350906E-1,-8.141549E-2,-8.25179E-4,4.4320947E-1,-5.0926924E-1,-2.3415848E-3,6.048416E-1,-4.9206052E-2,8.948841E-2,-4.5648205E-1,5.9027594E-1,-4.258758E-2,6.254353E-1,-7.5524324E-1,1.0615977E-1,-7.1890675E-2,-3.045995E-2,9.371901E-2,3.272833E-2,-1.2682209E-2,-6.5142766E-2,6.2851004E-2,9.859867E-2,1.4928867E-2,1.591027E-3,9.735003E-2,-9.230658E-2,1.3316638E-3,-1.1165243E-1,6.4557553E-3],"categories":[],"categories_nodes":[],"categories_segments":[],"categories_sizes":[],"default_left":[0,0,0,0,0,0,0,0,0,0,0,0,0,0,0,0,0,0,0,0,0,0,0,0,0,0,0,0,0,0,0,0,0,0,0,0,0],"id":25,"left_children":[1,3,5,7,-1,9,11,13,-1,15,17,19,21,23,-1,25,27,29,-1,31,33,-1,35,-1,-1,-1,-1,-1,-1,-1,-1,-1,-1,-1,-1,-1,-1],"loss_changes":[1.5168046E0,2.8155277E0,1.9176688E0,2.5281682E0,0E0,2.2417321E0,3.2515154E0,1.7811085E0,0E0,2.6033845E0,2.0355651E0,5.583672E0,3.1818492E0,1.9276034E0,0E0,2.75769E0,2.6228247E0,2.0093288E0,0E0,7.927265E-1,2.011959E0,0E0,5.8206987E0,0E0,0E0,0E0,0E0,0E0,0E0,0E0,0E0,0E0,0E0,0E0,0E0,0E0,0E0],"parents":[2147483647,0,0,1,1,2,2,3,3,5,5,6,6,7,7,9,9,10,10,11,11,12,12,13,13,15,15,16,16,17,17,19,19,20,20,22,22],"right_children":[2,4,6,8,-1,10,12,14,-1,16,18,20,22,24,-1,26,28,30,-1,32,34,-1,36,-1,-1,-1,-1,-1,-1,-1,-1,-1,-1,-1,-1,-1,-1],"split_conditions":[1.6441766E4,1.425E1,1.3321382E-2,5.873742E-3,1.06927276E-1,1.248832E-2,1.7931734E4,1.0541352E-3,-8.141549E-2,1.1995183E-2,7.299793E-2,1E0,1.821691E4,-2.0224752E-2,-4.9206052E-2,-8.691376E-3,6.00135E3,1.2989998E-2,-4.258758E-2,-1.944042E-2,1.7838781E-3,1.0615977E-1,1.4054687E-2,-3.045995E-2,9.371901E-2,3.272833E-2,-1.2682209E-2,-6.5142766E-2,6.2851004E-2,9.859867E-2,1.4928867E-2,1.591027E-3,9.735003E-2,-9.230658E-2,1.3316638E-3,-1.1165243E-1,6.4557553E-3],"split_indices":[3,11,4,6,0,4,2,10,0,4,12,15,0,12,0,12,5,4,0,1,10,0,4,0,0,0,0,0,0,0,0,0,0,0,0,0,0],"split_type":[0,0,0,0,0,0,0,0,0,0,0,0,0,0,0,0,0,0,0,0,0,0,0,0,0,0,0,0,0,0,0,0,0,0,0,0,0],"sum_hessian":[1.4255789E2,1.0046692E1,1.325112E2,7.325421E0,2.7212708E0,7.4229256E1,5.8281944E1,5.622607E0,1.7028136E0,6.126998E1,1.2959273E1,1.7313055E1,4.096889E1,4.433013E0,1.189594E0,5.1805473E1,9.464512E0,1.135807E1,1.601203E0,2.8095605E0,1.4503493E1,1.6385701E0,3.933032E1,1.2087833E0,3.22423E0,2.4432863E1,2.7372608E1,8.361723E0,1.1027884E0,5.3349776E0,6.023093E0,1.4013147E0,1.4082458E0,1.1739112E1,2.7643816E0,3.713948E0,3.561637E1],"tree_param":{"num_deleted":"0","num_feature":"16","num_nodes":"37","size_leaf_vector":"1"}},{"base_weights":[5.314547E-3,-6.4511764E-1,2.0210825E-2,-8.089923E-2,-1.7888503E-2,7.5776476E-1,1.1359273E-3,8.9145884E-2,2.2762304E-2,4.894222E-1,-2.645467E-2,2.6762877E-2,8.2062864E-1,8.241879E-2,-1.6350129E-1,5.4097354E-2,-7.588907E-2,9.991068E-2,3.0717215E-2,-6.196858E-3,5.5896617E-2,-4.4324428E-2,9.789129E-4],"categories":[],"categories_nodes":[],"categories_segments":[],"categories_sizes":[],"default_left":[0,0,0,0,0,0,0,0,0,0,0,0,0,0,0,0,0,0,0,0,0,0,0],"id":26,"left_children":[1,3,5,-1,-1,7,9,-1,-1,11,13,15,17,19,21,-1,-1,-1,-1,-1,-1,-1,-1],"loss_changes":[1.396348E0,1.0183251E-1,1.976419E0,0E0,0E0,4.810524E-2,1.8721293E0,0E0,0E0,1.1168929E0,1.9766006E0,2.0808077E0,8.694005E-2,5.125456E0,2.8442912E0,0E0,0E0,0E0,0E0,0E0,0E0,0E0,0E0],"parents":[2147483647,0,0,1,1,2,2,5,5,6,6,9,9,10,10,11,11,12,12,13,13,14,14],"right_children":[2,4,6,-1,-1,8,10,-1,-1,12,14,16,18,20,22,-1,-1,-1,-1,-1,-1,-1,-1],"split_conditions":[-3.686045E-2,2.031879E4,1.145554E4,-8.089923E-2,-1.7888503E-2,-2.020931E-3,-2.458098E-2,8.9145884E-2,2.2762304E-2,1.907519E4,1.9340777E4,1.700291E4,2.4514333E-3,1.8402201E4,2.9131376E1,5.4097354E-2,-7.588907E-2,9.991068E-2,3.0717215E-2,-6.196858E-3,5.5896617E-2,-4.4324428E-2,9.789129E-4],"split_indices":[14,0,7,0,0,6,14,0,0,0,3,0,10,3,13,0,0,0,0,0,0,0,0],"split_type":[0,0,0,0,0,0,0,0,0,0,0,0,0,0,0,0,0,0,0,0,0,0,0],"sum_hessian":[1.4177086E2,2.2269251E0,1.3954393E2,1.103789E0,1.1231363E0,2.5416641E0,1.3700227E2,1.4854957E0,1.0561683E0,6.4320445E0,1.3057022E2,3.134414E0,3.2976305E0,7.298646E1,5.7583767E1,2.0827127E0,1.0517013E0,1.7451643E0,1.5524663E0,5.668242E1,1.6304037E1,2.1430563E1,3.6153202E1],"tree_param":{"num_deleted":"0","num_feature":"16","num_nodes":"23","size_leaf_vector":"1"}},{"base_weights":[5.6964997E-3,2.6314154E-2,-4.6799445E-1,-1.0971228E-2,4.0483493E-1,-1.7455254E-2,-8.639256E-2,7.619866E-1,-4.407838E-2,-9.192341E-2,6.192307E-1,4.065379E-2,-5.6842137E-2,5.2892286E-3,9.4891004E-2,5.9743598E-2,-2.0376487E-1,-4.6944525E-2,7.889637E-1,-1.2774406E-3,8.403095E-2,1.122187E-2,-4.6927117E-2,9.383812E-2,8.262E-3],"categories":[],"categories_nodes":[],"categories_segments":[],"categories_sizes":[],"default_left":[0,0,0,0,0,0,0,0,0,0,0,0,0,0,0,0,0,0,0,0,0,0,0,0,0],"id":27,"left_children":[1,3,5,7,9,11,-1,13,15,-1,17,-1,-1,-1,-1,19,21,-1,23,-1,-1,-1,-1,-1,-1],"loss_changes":[1.4034061E0,1.9442036E0,1.0541931E0,3.2603202E0,4.075311E0,1.1244881E0,0E0,6.435015E-1,2.03245E0,0E0,2.4449787E0,0E0,0E0,0E0,0E0,4.2345643E0,4.099663E0,0E0,9.8693895E-1,0E0,0E0,0E0,0E0,0E0,0E0],"parents":[2147483647,0,0,1,1,2,2,3,3,4,4,5,5,7,7,8,8,10,10,15,15,16,16,18,18],"right_children":[2,4,6,8,10,12,-1,14,16,-1,18,-1,-1,-1,-1,20,22,-1,24,-1,-1,-1,-1,-1,-1],"split_conditions":[2.371069E4,2.189762E4,3E0,-1.0039047E-1,-9.745766E-2,7.2147E0,-8.639256E-2,-9.766248E-4,1.9340777E4,-9.192341E-2,-2.2682227E-2,4.065379E-2,-5.6842137E-2,5.2892286E-3,9.4891004E-2,1.91291E4,-7.62495E-5,-4.6944525E-2,2.354946E4,-1.2774406E-3,8.403095E-2,1.122187E-2,-4.6927117E-2,9.383812E-2,8.262E-3],"split_indices":[0,2,15,12,12,9,0,10,3,0,14,0,0,0,0,0,6,0,0,0,0,0,0,0,0],"split_type":[0,0,0,0,0,0,0,0,0,0,0,0,0,0,0,0,0,0,0,0,0,0,0,0,0],"sum_hessian":[1.414365E2,1.3644221E2,4.9942727E0,1.2509138E2,1.1350844E1,2.8244042E0,2.1698685E0,4.2335787E0,1.20857796E2,1.1236752E0,1.0227169E1,1.7442567E0,1.0801476E0,1.1508373E0,3.0827415E0,7.361926E1,4.723853E1,1.1412632E0,9.085906E0,6.826114E1,5.3581257E0,2.1832563E1,2.5405966E1,7.2283425E0,1.8575633E0],"tree_param":{"num_deleted":"0","num_feature":"16","num_nodes":"25","size_leaf_vector":"1"}},{"base_weights":[5.2784528E-3,-1.2470849E-2,5.7313293E-1,1.29533345E-2,-4.6754462E-1,-9.899904E-3,8.654203E-2,-2.1326144E-3,9.124276E-2,-9.7846925E-2,1.1507536E-1,-1.524815E-1,9.446611E-2,5.6427713E-2,-4.1635316E-2,3.7620153E-2,-3.1236589E-2,7.027721E-2,-2.4902236E-3],"categories":[],"categories_nodes":[],"categories_segments":[],"categories_sizes":[],"default_left":[0,0,0,0,0,0,0,0,0,0,0,0,0,0,0,0,0,0,0],"id":28,"left_children":[1,3,5,7,9,-1,-1,11,-1,-1,13,15,17,-1,-1,-1,-1,-1,-1],"loss_changes":[1.4367224E0,1.6086745E0,9.344194E-1,1.7952844E0,2.302342E0,0E0,0E0,1.9166634E0,0E0,0E0,1.2689972E0,4.4806266E0,5.8526845E0,0E0,0E0,0E0,0E0,0E0,0E0],"parents":[2147483647,0,0,1,1,2,2,3,3,4,4,7,7,10,10,11,11,12,12],"right_children":[2,4,6,8,10,-1,-1,12,-1,-1,14,16,18,-1,-1,-1,-1,-1,-1],"split_conditions":[6.07511E3,1.959124E4,0E0,6.02163E3,7.2795E0,-9.899904E-3,8.654203E-2,1.484E1,9.124276E-2,-9.7846925E-2,7.3085E0,-3.3740148E-2,1.747978E4,5.6427713E-2,-4.1635316E-2,3.7620153E-2,-3.1236589E-2,7.027721E-2,-2.4902236E-3],"split_indices":[5,7,14,5,9,0,0,11,0,0,9,12,2,0,0,0,0,0,0],"split_type":[0,0,0,0,0,0,0,0,0,0,0,0,0,0,0,0,0,0,0],"sum_hessian":[1.408367E2,1.3751642E2,3.3202815E0,1.3116026E2,6.3561606E0,1.2066998E0,2.113582E0,1.299779E2,1.1823554E0,3.0244555E0,3.331705E0,5.0617287E1,7.936062E1,1.7720385E0,1.5596666E0,1.1439107E1,3.9178177E1,1.221665E1,6.714397E1],"tree_param":{"num_deleted":"0","num_feature":"16","num_nodes":"19","size_leaf_vector":"1"}},{"base_weights":[5.903909E-3,3.5882017E-1,-2.0921519E-2,6.92982E-1,-5.42896E-1,-6.6588804E-2,3.5904077E-1,2.4153599E-1,1.2311878E-1,-9.093777E-2,8.639399E-3,-1.9452944E-1,1.3452347E-1,7.933115E-1,-3.8276553E-1,-5.113221E-2,9.853056E-2,-3.2578486E-1,7.087008E-2,3.1822583E-1,-3.421095E-1,1.0232954E0,-5.814022E-3,8.2798146E-2,-8.889335E-1,-1.3201608E-2,-8.0651425E-2,2.6612794E-2,-5.8384564E-2,9.783828E-2,1.7436894E-2,4.9811076E-2,-5.3204E-2,1.16309516E-1,9.984069E-3,-3.9865635E-4,-1.15893066E-1],"categories":[],"categories_nodes":[],"categories_segments":[],"categories_sizes":[],"default_left":[0,0,0,0,0,0,0,0,0,0,0,0,0,0,0,0,0,0,0,0,0,0,0,0,0,0,0,0,0,0,0,0,0,0,0,0,0],"id":29,"left_children":[1,3,5,7,9,11,13,15,-1,-1,-1,17,19,21,23,-1,-1,25,27,29,31,33,-1,-1,35,-1,-1,-1,-1,-1,-1,-1,-1,-1,-1,-1,-1],"loss_changes":[1.3462002E0,3.4026885E0,2.320603E0,1.5899229E0,8.341972E-1,3.088153E0,4.928956E0,3.5658214E0,0E0,0E0,0E0,2.5709758E0,4.2119594E0,1.8966055E0,4.398499E0,0E0,0E0,4.4688034E0,3.3544343E0,3.0908551E0,2.422337E0,8.443999E-1,0E0,0E0,1.1175559E0,0E0,0E0,0E0,0E0,0E0,0E0,0E0,0E0,0E0,0E0,0E0,0E0],"parents":[2147483647,0,0,1,1,2,2,3,3,4,4,5,5,6,6,7,7,11,11,12,12,13,13,14,14,17,17,18,18,19,19,20,20,21,21,24,24],"right_children":[2,4,6,8,10,12,14,16,-1,-1,-1,18,20,22,24,-1,-1,26,28,30,32,34,-1,-1,36,-1,-1,-1,-1,-1,-1,-1,-1,-1,-1,-1,-1],"split_conditions":[1.633996E4,5.873742E-3,1.1007854E-2,1.944658E-3,4.92793E3,1.739553E4,2.1388326E-2,1.388E1,1.2311878E-1,-9.093777E-2,8.639399E-3,3.5184496E-3,1.0281864E-2,1.959E1,1.635E1,-5.113221E-2,9.853056E-2,1.638901E-3,1.956044E4,2.5402254E1,7.0983E0,1.4286446E-3,-5.814022E-3,8.2798146E-2,4.18677E3,-1.3201608E-2,-8.0651425E-2,2.6612794E-2,-5.8384564E-2,9.783828E-2,1.7436894E-2,4.9811076E-2,-5.3204E-2,1.16309516E-1,9.984069E-3,-3.9865635E-4,-1.15893066E-1],"split_indices":[0,6,6,8,5,7,8,11,0,0,0,14,14,11,11,0,0,8,0,13,9,10,0,0,5,0,0,0,0,0,0,0,0,0,0,0,0],"split_type":[0,0,0,0,0,0,0,0,0,0,0,0,0,0,0,0,0,0,0,0,0,0,0,0,0,0,0,0,0,0,0,0,0,0,0,0,0],"sum_hessian":[1.4040434E2,9.044073E0,1.3136026E2,6.7675943E0,2.2764792E0,1.1800242E2,1.3357844E1,4.4683394E0,2.299255E0,1.1573714E0,1.1191077E0,7.2141335E1,4.586108E1,8.381618E0,4.9762263E0,2.3759167E0,2.092423E0,4.8117115E1,2.4024223E1,3.334262E1,1.251846E1,6.4402337E0,1.9413838E0,1.2796166E0,3.6966097E0,3.520255E1,1.2914564E1,1.89625E1,5.061723E0,4.927825E0,2.8414797E1,2.0088878E0,1.0509573E1,5.36807E0,1.0721636E0,1.1014022E0,2.5952077E0],"tree_param":{"num_deleted":"0","num_feature":"16","num_nodes":"37","size_leaf_vector":"1"}},{"base_weights":[6.515743E-3,2.0337284E-2,-6.5929875E-2,9.084981E-2,4.0523997E-3,8.4790304E-2,-1.4369051E-1,-7.408936E-2,1.1463516E-1,-4.7538996E-1,6.771247E-2,5.7270145E-3,5.6503195E-2,-2.4332179E-2,-1.2904632E-1,4.583975E-2,-1.1943948E-2],"categories":[],"categories_nodes":[],"categories_segments":[],"categories_sizes":[],"default_left":[0,0,0,0,0,0,0,0,0,0,0,0,0,0,0,0,0],"id":30,"left_children":[1,3,-1,-1,5,7,9,-1,11,13,15,-1,-1,-1,-1,-1,-1],"loss_changes":[1.3063712E0,2.001158E0,0E0,0E0,1.6478311E0,2.2854016E0,3.455945E0,0E0,2.2166739E0,3.3044977E0,2.299126E0,0E0,0E0,0E0,0E0,0E0,0E0],"parents":[2147483647,0,0,1,1,4,4,5,5,6,6,8,8,9,9,10,10],"right_children":[2,4,-1,-1,6,8,10,-1,12,14,16,-1,-1,-1,-1,-1,-1],"split_conditions":[5.49241E-2,1.5868993E4,-6.5929875E-2,9.084981E-2,1.4319669E-2,-2.2374872E-2,1.6056916E-2,-7.408936E-2,3.1556855E-3,1.5646638E-2,-2.6650876E-3,5.7270145E-3,5.6503195E-2,-2.4332179E-2,-1.2904632E-1,4.583975E-2,-1.1943948E-2],"split_indices":[14,2,0,0,4,8,4,0,10,4,6,0,0,0,0,0,0],"split_type":[0,0,0,0,0,0,0,0,0,0,0,0,0,0,0,0,0],"sum_hessian":[1.3950002E2,1.376128E2,1.8872278E0,1.4912947E0,1.3612149E2,8.829599E1,4.7825512E1,2.249056E0,8.604693E1,1.813004E1,2.969547E1,7.7325485E1,8.721445E0,1.5122795E1,3.0072446E0,9.148463E0,2.0547009E1],"tree_param":{"num_deleted":"0","num_feature":"16","num_nodes":"17","size_leaf_vector":"1"}},{"base_weights":[5.0902655E-3,-1.1680878E-2,5.3875583E-1,1.9976068E-1,-6.281644E-2,-1.0869636E-2,8.27116E-2,-5.3936683E-2,5.87415E-1,2.7983463E-1,-1.0692018E-1,-4.8965016E-1,3.8891655E-1,8.7067217E-1,-1.3687441E-1,6.2776107E-1,-2.5351056E-1,-1.0860246E-1,-5.8300145E-2,1.2565185E-2,-8.667164E-2,5.5889107E-2,-2.700401E-2,1.0074585E-1,2.1957215E-4,4.0193465E-2,-7.780898E-2,-1.1056237E-2,9.512377E-2,-9.289802E-2,5.225357E-2,2.1782234E-2,-1.2830891E-2],"categories":[],"categories_nodes":[],"categories_segments":[],"categories_sizes":[],"default_left":[0,0,0,0,0,0,0,0,0,0,0,0,0,0,0,0,0,0,0,0,0,0,0,0,0,0,0,0,0,0,0,0,0],"id":31,"left_children":[1,3,5,7,9,-1,-1,11,13,15,17,19,21,23,25,27,29,-1,31,-1,-1,-1,-1,-1,-1,-1,-1,-1,-1,-1,-1,-1,-1],"loss_changes":[1.2606716E0,1.4923006E0,8.9111733E-1,2.676424E0,1.7068862E0,0E0,0E0,3.503565E0,2.318831E0,2.5586295E0,4.651253E0,2.2196329E0,1.1671195E0,9.295354E-1,1.6526972E0,2.0428789E0,3.534873E0,0E0,1.8722892E0,0E0,0E0,0E0,0E0,0E0,0E0,0E0,0E0,0E0,0E0,0E0,0E0,0E0,0E0],"parents":[2147483647,0,0,1,1,2,2,3,3,4,4,7,7,8,8,9,9,10,10,11,11,12,12,13,13,14,14,15,15,16,16,18,18],"right_children":[2,4,6,8,10,-1,-1,12,14,16,18,20,22,24,26,28,30,-1,32,-1,-1,-1,-1,-1,-1,-1,-1,-1,-1,-1,-1,-1,-1],"split_conditions":[6.07511E3,-1.2683957E-2,0E0,-1.0451514E-2,1.6594064E4,-1.0869636E-2,8.27116E-2,1.4036836E-3,-3.888791E-4,4.2930082E-3,2.3031769E1,1.826808E4,5.3568305E-3,7.967476E-2,7.206E0,-1.1308513E-2,4.95317E3,-1.0860246E-1,1E0,1.2565185E-2,-8.667164E-2,5.5889107E-2,-2.700401E-2,1.0074585E-1,2.1957215E-4,4.0193465E-2,-7.780898E-2,-1.1056237E-2,9.512377E-2,-9.289802E-2,5.225357E-2,2.1782234E-2,-1.2830891E-2],"split_indices":[5,1,14,14,3,0,0,10,14,6,13,2,10,12,9,12,5,0,15,0,0,0,0,0,0,0,0,0,0,0,0,0,0],"split_type":[0,0,0,0,0,0,0,0,0,0,0,0,0,0,0,0,0,0,0,0,0,0,0,0,0,0,0,0,0,0,0,0,0],"sum_hessian":[1.3915118E2,1.3585973E2,3.2914584E0,2.5891968E1,1.0996775E2,1.2062131E0,2.0852451E0,1.6170303E1,9.721665E0,1.1930708E1,9.803704E1,8.097591E0,8.072712E0,6.843273E0,2.878392E0,7.1133227E0,4.8173847E0,3.6285608E0,9.4408485E1,3.3301575E0,4.7674336E0,6.5380974E0,1.534614E0,5.773853E0,1.0694202E0,1.7668703E0,1.1115217E0,2.367591E0,4.7457323E0,2.4702308E0,2.3471537E0,1.8668083E1,7.57404E1],"tree_param":{"num_deleted":"0","num_feature":"16","num_nodes":"33","size_leaf_vector":"1"}},{"base_weights":[4.867855E-3,2.7534652E-1,-2.7252844E-2,6.874411E-1,-2.1019086E-1,-5.504999E-1,1.792388E-2,9.144243E-1,-3.3993404E-2,-5.1540005E-1,7.052362E-2,8.601352E-2,-8.366212E-1,6.5972316E-1,-7.7837007E-3,1.078414E0,6.8364157E-3,2.3165737E-1,-1.1326051E-1,-7.219943E-2,9.60234E-2,-4.6644433E-5,-1.0651845E0,1.1333047E-3,1.1987908E-1,-4.42836E-1,3.7737176E-2,1.5076361E-2,1.2680799E-1,8.487551E-2,-3.7068304E-2,-3.197599E-2,-1.16839424E-1,-7.592863E-2,1.01848744E-1,8.37941E-3,-4.6313714E-2],"categories":[],"categories_nodes":[],"categories_segments":[],"categories_sizes":[],"default_left":[0,0,0,0,0,0,0,0,0,0,0,0,0,0,0,0,0,0,0,0,0,0,0,0,0,0,0,0,0,0,0,0,0,0,0,0,0],"id":32,"left_children":[1,3,5,7,9,11,13,15,-1,17,-1,19,21,23,25,27,-1,29,-1,-1,-1,-1,31,-1,-1,33,35,-1,-1,-1,-1,-1,-1,-1,-1,-1,-1],"loss_changes":[1.2198372E0,3.126258E0,2.9798052E0,2.2452028E0,2.4889488E0,1.8962569E0,1.9293007E0,9.065008E-1,0E0,3.1593723E0,0E0,3.5281E0,1.3380332E0,1.5603716E0,2.2569215E0,8.381262E-1,0E0,1.6797597E0,0E0,0E0,0E0,0E0,4.952669E-2,0E0,0E0,5.76459E0,2.422405E0,0E0,0E0,0E0,0E0,0E0,0E0,0E0,0E0,0E0,0E0],"parents":[2147483647,0,0,1,1,2,2,3,3,4,4,5,5,6,6,7,7,9,9,11,11,12,12,13,13,14,14,15,15,17,17,22,22,25,25,26,26],"right_children":[2,4,6,8,10,12,14,16,-1,18,-1,20,22,24,26,28,-1,30,-1,-1,-1,-1,32,-1,-1,34,36,-1,-1,-1,-1,-1,-1,-1,-1,-1,-1],"split_conditions":[4.12451E3,6.410267E-3,1.306361E4,1.660602E-2,2.1433555E4,-7.1292147E-3,1.325914E4,1.7838781E-3,-3.3993404E-2,2.6078108E1,7.052362E-2,-1.4213252E-2,9.028241E-3,4E0,4.41524E3,-1.8960637E-3,6.8364157E-3,1.2216782E-2,-1.1326051E-1,-7.219943E-2,9.60234E-2,-4.6644433E-5,1.793316E-3,1.1333047E-3,1.1987908E-1,1.1995782E-2,2.3038544E-2,1.5076361E-2,1.2680799E-1,8.487551E-2,-3.7068304E-2,-3.197599E-2,-1.16839424E-1,-7.592863E-2,1.01848744E-1,8.37941E-3,-4.6313714E-2],"split_indices":[5,12,7,14,3,1,7,10,0,13,0,14,4,15,5,10,0,4,0,0,0,0,8,0,0,8,1,0,0,0,0,0,0,0,0,0,0],"split_type":[0,0,0,0,0,0,0,0,0,0,0,0,0,0,0,0,0,0,0,0,0,0,0,0,0,0,0,0,0,0,0,0,0,0,0,0,0],"sum_hessian":[1.3854172E2,1.3902312E1,1.24639404E2,7.294959E0,6.6073537E0,9.016998E0,1.15622406E2,6.064942E0,1.230017E0,5.2829638E0,1.3243898E0,3.0131786E0,6.00382E0,3.50312E0,1.12119286E2,4.8502083E0,1.2147338E0,2.6726668E0,2.610297E0,1.6563797E0,1.3567989E0,1.5039494E0,4.4998703E0,2.0538156E0,1.4493045E0,9.793416E0,1.0232587E2,1.128014E0,3.7221942E0,1.1180892E0,1.5545777E0,1.04568E0,3.4541903E0,8.445049E0,1.3483672E0,9.447162E1,7.8542495E0],"tree_param":{"num_deleted":"0","num_feature":"16","num_nodes":"37","size_leaf_vector":"1"}},{"base_weights":[5.061047E-3,-6.026433E-1,1.9030726E-2,-7.573774E-2,-1.6330278E-2,7.1435386E-1,1.126364E-3,8.427842E-2,2.0497292E-2,4.3714553E-1,-2.3311492E-2,7.331936E-1,-3.2846566E-2,-8.248507E-2,-6.553381E-3,8.7376535E-2,1.2738145E-2,4.3508563E-2,-4.554086E-2,-5.993498E-3,2.0763276E-2],"categories":[],"categories_nodes":[],"categories_segments":[],"categories_sizes":[],"default_left":[0,0,0,0,0,0,0,0,0,0,0,0,0,0,0,0,0,0,0,0,0],"id":33,"left_children":[1,3,5,-1,-1,7,9,-1,-1,11,13,15,17,-1,19,-1,-1,-1,-1,-1,-1],"loss_changes":[1.1900249E0,9.047079E-2,1.7007189E0,0E0,0E0,5.16057E-2,1.4406382E0,0E0,0E0,1.0224842E0,1.7148817E0,2.6726055E-1,9.3571675E-1,0E0,1.458295E0,0E0,0E0,0E0,0E0,0E0,0E0],"parents":[2147483647,0,0,1,1,2,2,5,5,6,6,9,9,10,10,11,11,12,12,14,14],"right_children":[2,4,6,-1,-1,8,10,-1,-1,12,14,16,18,-1,20,-1,-1,-1,-1,-1,-1],"split_conditions":[-3.686045E-2,5.06953E3,1.145554E4,-7.573774E-2,-1.6330278E-2,-2.020931E-3,-2.458098E-2,8.427842E-2,2.0497292E-2,7.198E0,-2.2988614E-2,-1.554389E-4,-3.0335072E-2,-8.248507E-2,7.2805E0,8.7376535E-2,1.2738145E-2,4.3508563E-2,-4.554086E-2,-5.993498E-3,2.0763276E-2],"split_indices":[14,5,7,0,0,6,14,0,0,9,14,6,14,0,9,0,0,0,0,0,0],"split_type":[0,0,0,0,0,0,0,0,0,0,0,0,0,0,0,0,0,0,0,0,0],"sum_hessian":[1.3782623E2,2.1501856E0,1.3567606E2,1.0547948E0,1.0953907E0,2.42944E0,1.3324661E2,1.4175153E0,1.0119247E0,6.1755033E0,1.27071106E2,3.4452975E0,2.7302055E0,1.614791E0,1.25456314E2,2.4374182E0,1.0078791E0,1.281488E0,1.4487177E0,1.0100342E2,2.4452902E1],"tree_param":{"num_deleted":"0","num_feature":"16","num_nodes":"21","size_leaf_vector":"1"}},{"base_weights":[4.8928964E-3,-1.1068568E-2,5.132651E-1,1.3535166E-2,-4.5139143E-1,7.659972E-2,-5.695265E-4,-7.1836635E-4,8.575059E-2,-8.419772E-2,-3.852746E-2,-1.4114664E-1,8.971872E-2,2.785625E-1,-5.4363746E-2,3.2689318E-2,-2.9110719E-2,6.2693395E-2,-1.4168789E-3,6.302002E-2,-2.3025358E-2],"categories":[],"categories_nodes":[],"categories_segments":[],"categories_sizes":[],"default_left":[0,0,0,0,0,0,0,0,0,0,0,0,0,0,0,0,0,0,0,0,0],"id":34,"left_children":[1,3,5,7,9,-1,-1,11,-1,-1,13,15,17,19,-1,-1,-1,-1,-1,-1,-1],"loss_changes":[1.1305763E0,1.4728571E0,5.606307E-1,1.5547763E0,1.1276308E0,0E0,0E0,1.6388702E0,0E0,0E0,8.794102E-1,3.6430824E0,4.389928E0,7.6299465E-1,0E0,0E0,0E0,0E0,0E0,0E0,0E0],"parents":[2147483647,0,0,1,1,2,2,3,3,4,4,7,7,10,10,11,11,12,12,13,13],"right_children":[2,4,6,8,10,-1,-1,12,-1,-1,14,16,18,20,-1,-1,-1,-1,-1,-1,-1],"split_conditions":[1.994564E4,1.959124E4,1.506E1,6.02163E3,-4.410218E-4,7.659972E-2,-5.695265E-4,1.484E1,8.575059E-2,-8.419772E-2,1.1322341E-2,-3.0582575E-2,1.747978E4,1.1058143E-2,-5.4363746E-2,3.2689318E-2,-2.9110719E-2,6.2693395E-2,-1.4168789E-3,6.302002E-2,-2.3025358E-2],"split_indices":[7,7,11,5,10,0,0,11,0,0,4,12,2,14,0,0,0,0,0,0,0],"split_type":[0,0,0,0,0,0,0,0,0,0,0,0,0,0,0,0,0,0,0,0,0],"sum_hessian":[1.3763013E2,1.3438892E2,3.2412086E0,1.2819507E2,6.193841E0,1.8595774E0,1.3816311E0,1.2704854E2,1.1465305E0,2.6487038E0,3.545137E0,4.9549187E1,7.749936E1,2.4534562E0,1.0916808E0,1.1737032E1,3.7812153E1,1.1742531E1,6.575683E1,1.3097435E0,1.1437128E0],"tree_param":{"num_deleted":"0","num_feature":"16","num_nodes":"21","size_leaf_vector":"1"}},{"base_weights":[5.362148E-3,2.3997018E-2,-4.2206147E-1,-1.23790605E-2,3.94762E-1,2.007682E-2,-8.164059E-2,6.8214065E-1,-4.1575365E-2,-8.353046E-2,5.921508E-1,4.2202704E-2,-5.228228E-2,1.2293494E-2,9.46072E-2,4.0633765E-1,-7.527562E-2,-4.2289305E-2,7.5144905E-1,6.102196E-2,-5.0545692E-2,7.939684E-3,-1.9539017E-2,9.815614E-2,2.2926478E-2],"categories":[],"categories_nodes":[],"categories_segments":[],"categories_sizes":[],"default_left":[0,0,0,0,0,0,0,0,0,0,0,0,0,0,0,0,0,0,0,0,0,0,0,0,0],"id":35,"left_children":[1,3,5,7,9,11,-1,13,15,-1,17,-1,-1,-1,-1,19,21,-1,23,-1,-1,-1,-1,-1,-1],"loss_changes":[1.1107999E0,1.8035364E0,1.0323346E0,2.5106454E0,3.3950462E0,1.0330675E0,0E0,6.2106276E-1,1.8181163E0,0E0,2.0768542E0,0E0,0E0,0E0,0E0,1.8779072E0,2.077303E0,0E0,9.4813824E-1,0E0,0E0,0E0,0E0,0E0,0E0],"parents":[2147483647,0,0,1,1,2,2,3,3,4,4,5,5,7,7,8,8,10,10,15,15,16,16,18,18],"right_children":[2,4,6,8,10,12,-1,14,16,-1,18,-1,-1,-1,-1,20,22,-1,24,-1,-1,-1,-1,-1,-1],"split_conditions":[2.371069E4,2.189762E4,3E0,-1.0039047E-1,-9.745766E-2,7.2147E0,-8.164059E-2,1.7641E4,-3.9755944E-3,-8.353046E-2,-2.2682227E-2,4.2202704E-2,-5.228228E-2,1.2293494E-2,9.46072E-2,2.064E1,-7.62495E-5,-4.2289305E-2,1.901142E-2,6.102196E-2,-5.0545692E-2,7.939684E-3,-1.9539017E-2,9.815614E-2,2.2926478E-2],"split_indices":[0,2,15,12,12,9,0,0,10,0,14,0,0,0,0,11,6,0,12,0,0,0,0,0,0],"split_type":[0,0,0,0,0,0,0,0,0,0,0,0,0,0,0,0,0,0,0,0,0,0,0,0,0],"sum_hessian":[1.3718883E2,1.3236195E2,4.8268766E0,1.21416306E2,1.0945648E1,2.7229729E0,2.103904E0,3.995991E0,1.1742031E2,1.066676E0,9.878972E0,1.6925161E0,1.0304568E0,1.7512679E0,2.244723E0,7.442605E0,1.0997771E2,1.1156099E0,8.763362E0,6.3528285E0,1.0897765E0,4.8221497E1,6.1756214E1,5.4721937E0,3.291168E0],"tree_param":{"num_deleted":"0","num_feature":"16","num_nodes":"25","size_leaf_vector":"1"}},{"base_weights":[4.991858E-3,1.7772395E-2,-6.1256792E-2,8.585611E-2,2.5318689E-3,7.173676E-2,-1.24320224E-1,1.2820439E-1,-3.5869718E-1,4.7310936E-1,-2.2065997E-1,7.4080184E-2,7.5023742E-3,5.4276325E-2,-6.0362186E-2,7.795761E-2,-4.6903495E-2,-5.5787243E-2,1.6156323E-3],"categories":[],"categories_nodes":[],"categories_segments":[],"categories_sizes":[],"default_left":[0,0,0,0,0,0,0,0,0,0,0,0,0,0,0,0,0,0,0],"id":36,"left_children":[1,3,-1,-1,5,7,9,11,13,15,17,-1,-1,-1,-1,-1,-1,-1,-1],"loss_changes":[1.0975323E0,1.738704E0,0E0,0E0,1.1891474E0,2.1756337E0,2.8568132E0,2.4918785E0,2.6293263E0,2.3748856E0,3.3520539E0,0E0,0E0,0E0,0E0,0E0,0E0,0E0,0E0],"parents":[2147483647,0,0,1,1,4,4,5,5,6,6,7,7,8,8,9,9,10,10],"right_children":[2,4,-1,-1,6,8,10,12,14,16,18,-1,-1,-1,-1,-1,-1,-1,-1],"split_conditions":[5.49241E-2,1.5868993E4,-6.1256792E-2,8.585611E-2,1.4319669E-2,7.299793E-2,-1.5015397E-2,4.10894E3,9.028241E-3,5.74537E3,1.6056916E-2,7.4080184E-2,7.5023742E-3,5.4276325E-2,-6.0362186E-2,7.795761E-2,-4.6903495E-2,-5.5787243E-2,1.6156323E-3],"split_indices":[14,2,0,0,4,12,8,5,4,5,4,0,0,0,0,0,0,0,0],"split_type":[0,0,0,0,0,0,0,0,0,0,0,0,0,0,0,0,0,0,0],"sum_hessian":[1.366765E2,1.3485683E2,1.8196706E0,1.4158027E0,1.3344102E2,8.661966E1,4.682137E1,7.71948E1,9.424856E0,5.9587374E0,4.0862633E1,5.1333156E0,7.2061485E1,1.7538092E0,7.6710467E0,4.6263876E0,1.3323495E0,1.6298628E1,2.4564003E1],"tree_param":{"num_deleted":"0","num_feature":"16","num_nodes":"19","size_leaf_vector":"1"}},{"base_weights":[5.0663934E-3,-1.0472938E-2,4.983907E-1,7.847137E-2,-1.2156447E-1,-1.0333437E-2,7.696503E-2,4.400807E-3,8.4801996E-1,1.3568047E-1,-3.11857E-1,-4.659819E-2,5.6549424E-1,3.1996605E-3,1.2061324E-1,-1.0378822E-1,2.7621335E-1,-4.9463063E-1,5.166877E-2,-4.2802796E-2,7.2896304E-3,9.063544E-2,-4.8271116E-2,-4.8035327E-2,4.0317275E-2,1.5707016E-2,-6.1845947E-2,3.7970725E-2,-3.2574218E-2],"categories":[],"categories_nodes":[],"categories_segments":[],"categories_sizes":[],"default_left":[0,0,0,0,0,0,0,0,0,0,0,0,0,0,0,0,0,0,0,0,0,0,0,0,0,0,0,0,0],"id":37,"left_children":[1,3,5,7,9,-1,-1,11,13,15,17,19,21,-1,-1,-1,23,25,27,-1,-1,-1,-1,-1,-1,-1,-1,-1,-1],"loss_changes":[1.0571516E0,1.3336939E0,7.6686E-1,4.2731404E0,2.9783955E0,0E0,0E0,2.0136492E0,1.8850379E0,4.6076684E0,2.336388E0,2.9749722E0,2.5321498E0,0E0,0E0,0E0,2.5169816E0,1.9724178E0,1.6763765E0,0E0,0E0,0E0,0E0,0E0,0E0,0E0,0E0,0E0,0E0],"parents":[2147483647,0,0,1,1,2,2,3,3,4,4,7,7,8,8,9,9,10,10,11,11,12,12,16,16,17,17,18,18],"right_children":[2,4,6,8,10,-1,-1,12,14,16,18,20,22,-1,-1,-1,24,26,28,-1,-1,-1,-1,-1,-1,-1,-1,-1,-1],"split_conditions":[6.07511E3,1.9340777E4,0E0,1.91291E4,-4.6882015E-3,-1.0333437E-2,7.696503E-2,3.3697966E-3,1.365E1,1.396E1,2.16784E4,-9.003876E-3,4.7233948E-3,3.1996605E-3,1.2061324E-1,-1.0378822E-1,-4.3110043E-2,1.474E1,2.354946E4,-4.2802796E-2,7.2896304E-3,9.063544E-2,-4.8271116E-2,-4.8035327E-2,4.0317275E-2,1.5707016E-2,-6.1845947E-2,3.7970725E-2,-3.2574218E-2],"split_indices":[5,3,14,0,14,0,0,10,11,11,3,14,10,0,0,0,12,11,0,0,0,0,0,0,0,0,0,0,0],"split_type":[0,0,0,0,0,0,0,0,0,0,0,0,0,0,0,0,0,0,0,0,0,0,0,0,0,0,0,0,0],"sum_hessian":[1.362217E2,1.3301073E2,3.2109635E0,7.403166E1,5.897906E1,1.1900891E0,2.0208743E0,6.844903E1,5.5826344E0,2.5199873E1,3.377919E1,6.3586468E1,4.8625603E0,2.0349603E0,3.5476742E0,2.012077E0,2.3187796E1,2.2237808E1,1.1541381E1,1.4552498E1,4.903397E1,3.7714655E0,1.0910945E0,2.9320185E0,2.0255777E1,3.5078492E0,1.872996E1,6.17131E0,5.370071E0],"tree_param":{"num_deleted":"0","num_feature":"16","num_nodes":"29","size_leaf_vector":"1"}},{"base_weights":[4.9076127E-3,3.1006715E-1,-2.0795977E-2,4.8022786E-1,-5.9343077E-2,3.6129493E-1,-5.123649E-2,-3.5972264E-2,6.9439614E-1,6.697301E-1,-9.982427E-2,2.9254085E-1,-9.217366E-2,2.897066E-1,1.0619185E-1,9.212558E-2,-1.6954964E-2,-6.749368E-1,7.730307E-2,-3.456184E-1,6.109693E-1,-1.6133803E-1,1.9786654E-1,-3.1459212E-2,6.674586E-2,-9.2615716E-2,-1.0215043E-2,7.532421E-3,-8.639258E-2,7.806287E-2,-3.0102069E-2,-1.1255943E-2,-6.2361486E-2,-8.54805E-2,3.0248806E-2],"categories":[],"categories_nodes":[],"categories_segments":[],"categories_sizes":[],"default_left":[0,0,0,0,0,0,0,0,0,0,0,0,0,0,0,0,0,0,0,0,0,0,0,0,0,0,0,0,0,0,0,0,0,0,0],"id":38,"left_children":[1,3,5,7,-1,9,11,-1,13,15,17,19,21,23,-1,-1,-1,25,-1,27,29,31,33,-1,-1,-1,-1,-1,-1,-1,-1,-1,-1,-1,-1],"loss_changes":[1.07756E0,1.925615E0,1.4943229E0,1.9646738E0,0E0,1.416152E0,1.693219E0,0E0,8.7289524E-1,1.3836148E0,2.8673732E0,2.8200047E0,2.1695697E0,1.3862374E0,0E0,0E0,0E0,3.8753164E-1,0E0,1.1368284E0,1.616082E0,1.8824122E0,2.5677285E0,0E0,0E0,0E0,0E0,0E0,0E0,0E0,0E0,0E0,0E0,0E0,0E0],"parents":[2147483647,0,0,1,1,2,2,3,3,5,5,6,6,8,8,9,9,10,10,11,11,12,12,13,13,17,17,19,19,20,20,21,21,22,22],"right_children":[2,4,6,8,-1,10,12,-1,14,16,18,20,22,24,-1,-1,-1,26,-1,28,30,32,34,-1,-1,-1,-1,-1,-1,-1,-1,-1,-1,-1,-1],"split_conditions":[-1.9826025E-2,2.196352E-2,1.6441766E4,1.2778541E-2,-5.9343077E-2,4.102042E-3,9.14964E-3,-3.5972264E-2,-2.1342272E-2,1.5943421E-2,4.99791E3,1.614E1,7.2805E0,2.0720024E-4,1.0619185E-1,9.212558E-2,-1.6954964E-2,-1.7584063E-2,7.730307E-2,4.3847488E-4,7.3254E0,9.9112436E-2,9.793127E-3,-3.1459212E-2,6.674586E-2,-9.2615716E-2,-1.0215043E-2,7.532421E-3,-8.639258E-2,7.806287E-2,-3.0102069E-2,-1.1255943E-2,-6.2361486E-2,-8.54805E-2,3.0248806E-2],"split_indices":[1,4,3,4,0,6,4,0,1,1,5,11,9,10,0,0,0,12,0,1,9,12,4,0,0,0,0,0,0,0,0,0,0,0,0],"split_type":[0,0,0,0,0,0,0,0,0,0,0,0,0,0,0,0,0,0,0,0,0,0,0,0,0,0,0,0,0,0,0,0,0,0,0],"sum_hessian":[1.3555705E2,9.67149E0,1.2588556E2,8.532918E0,1.1385717E0,8.487031E0,1.1739853E2,1.5955755E0,6.937342E0,4.814373E0,3.672658E0,1.1838284E1,1.0556024E2,4.15282E0,2.7845218E0,3.6290889E0,1.1852841E0,2.3506162E0,1.3220417E0,3.9122982E0,7.9259853E0,8.5593056E1,1.996719E1,1.6617227E0,2.4910977E0,1.2051237E0,1.1454926E0,2.630563E0,1.2817352E0,6.80422E0,1.1217651E0,7.854827E1,7.0447803E0,1.1568497E0,1.8810339E1],"tree_param":{"num_deleted":"0","num_feature":"16","num_nodes":"35","size_leaf_vector":"1"}},{"base_weights":[4.0612295E-3,2.0128412E-2,-4.485288E-1,-2.100921E-2,4.8961717E-1,4.3944325E-2,-8.7011434E-2,4.7874972E-1,-5.8521453E-2,-4.7707565E-2,6.507408E-1,6.682425E-1,-2.7777413E-2,-1.7368627E-1,1.22715645E-1,8.279402E-1,-2.7622182E-2,9.163719E-2,-3.8739431E-3,-3.0319571E-2,8.522774E-3,9.1348685E-2,2.429894E-3,9.2640944E-2,1.4941284E-2],"categories":[],"categories_nodes":[],"categories_segments":[],"categories_sizes":[],"default_left":[0,0,0,0,0,0,0,0,0,0,0,0,0,0,0,0,0,0,0,0,0,0,0,0,0],"id":39,"left_children":[1,3,5,7,9,-1,-1,11,13,-1,15,17,-1,19,21,23,-1,-1,-1,-1,-1,-1,-1,-1,-1],"loss_changes":[9.97208E-1,2.5633466E0,2.1425009E0,2.3245096E0,1.9756083E0,0E0,0E0,1.427336E0,2.4182057E0,0E0,1.8033347E0,1.3021219E0,0E0,2.3942554E0,3.4958887E0,4.160142E-1,0E0,0E0,0E0,0E0,0E0,0E0,0E0,0E0,0E0],"parents":[2147483647,0,0,1,1,2,2,3,3,4,4,7,7,8,8,10,10,11,11,13,13,14,14,15,15],"right_children":[2,4,6,8,10,-1,-1,12,14,-1,16,18,-1,20,22,24,-1,-1,-1,-1,-1,-1,-1,-1,-1],"split_conditions":[2.3725001E-2,1.1007854E-2,1.639E1,1.633996E4,1.333E1,4.3944325E-2,-8.7011434E-2,2.1343227E-2,1.739553E4,-4.7707565E-2,5.69594E3,1.0541352E-3,-2.7777413E-2,3.5184496E-3,2.5334974E1,1.959E1,-2.7622182E-2,9.163719E-2,-3.8739431E-3,-3.0319571E-2,8.522774E-3,9.1348685E-2,2.429894E-3,9.2640944E-2,1.4941284E-2],"split_indices":[8,6,11,0,11,0,0,4,7,0,5,10,0,14,13,11,0,0,0,0,0,0,0,0,0],"split_type":[0,0,0,0,0,0,0,0,0,0,0,0,0,0,0,0,0,0,0,0,0,0,0,0,0],"sum_hessian":[1.3489117E2,1.311894E2,3.7017667E0,1.2149868E2,9.690727E0,1.1780722E0,2.5236945E0,7.661774E0,1.1383691E2,1.1043046E0,8.586423E0,6.220394E0,1.44138E0,6.9631874E1,4.420503E1,7.298127E0,1.2882953E0,4.385161E0,1.8352332E0,4.630098E1,2.3330898E1,3.9760363E0,4.0228992E1,6.0542054E0,1.2439219E0],"tree_param":{"num_deleted":"0","num_feature":"16","num_nodes":"25","size_leaf_vector":"1"}},{"base_weights":[4.665595E-3,1.4856389E-1,-4.9815122E-2,2.8460424E-2,5.601262E-1,-6.5619403E-1,-1.7754668E-2,5.385691E-1,-6.922451E-2,-4.130279E-2,7.857231E-1,-8.427224E-2,2.9677104E-3,7.93357E-2,-3.931835E-2,8.236057E-2,-2.1411126E-2,6.9032736E-2,-1.6425434E-1,9.9939066E-1,-2.4534343E-2,-2.5695962E-1,3.6850642E-2,3.176123E-2,-3.4521468E-2,6.2842527E-3,1.1990763E-1,8.767468E-2,-3.6907848E-2,7.889661E-3,-6.307476E-2],"categories":[],"categories_nodes":[],"categories_segments":[],"categories_sizes":[],"default_left":[0,0,0,0,0,0,0,0,0,0,0,0,0,0,0,0,0,0,0,0,0,0,0,0,0,0,0,0,0,0,0],"id":40,"left_children":[1,3,5,7,9,11,13,15,17,-1,19,-1,-1,-1,21,-1,-1,-1,23,25,-1,27,29,-1,-1,-1,-1,-1,-1,-1,-1],"loss_changes":[1.0677478E0,1.832535E0,1.9102273E0,1.5322601E0,2.1673913E0,6.5656257E-1,1.691423E0,1.2352711E0,1.9948236E0,0E0,1.8223634E0,0E0,0E0,0E0,1.5580763E0,0E0,0E0,0E0,2.200243E0,1.0705299E0,0E0,3.417841E0,2.0167E0,0E0,0E0,0E0,0E0,0E0,0E0,0E0,0E0],"parents":[2147483647,0,0,1,1,2,2,3,3,4,4,5,5,6,6,7,7,8,8,10,10,14,14,18,18,19,19,21,21,22,22],"right_children":[2,4,6,8,10,12,14,16,18,-1,20,-1,-1,-1,22,-1,-1,-1,24,26,-1,28,30,-1,-1,-1,-1,-1,-1,-1,-1],"split_conditions":[-7.691712E-3,2.043881E4,-5.9420867E-3,9.529677E-3,-2.1892222E-2,1.734355E4,-5.7554212E-3,1.761935E4,1.6332347E4,-4.130279E-2,2.3441432E4,-8.427224E-2,2.9677104E-3,7.93357E-2,-3.522574E-5,8.236057E-2,-2.1411126E-2,6.9032736E-2,-2.006716E-2,-1.0193101E-2,-2.4534343E-2,-9.0670176E-2,2.1388326E-2,3.176123E-2,-3.4521468E-2,6.2842527E-3,1.1990763E-1,8.767468E-2,-3.6907848E-2,7.889661E-3,-6.307476E-2],"split_indices":[1,0,1,4,1,7,1,7,2,0,2,0,0,0,1,0,0,0,1,6,0,12,8,0,0,0,0,0,0,0,0],"split_type":[0,0,0,0,0,0,0,0,0,0,0,0,0,0,0,0,0,0,0,0,0,0,0,0,0,0,0,0,0,0,0],"sum_hessian":[1.3425385E2,3.63958E1,9.785805E1,2.9001608E1,7.394192E0,3.936536E0,9.392151E1,3.9357703E0,2.5065838E1,1.2351825E0,6.15901E0,2.9150696E0,1.0214665E0,1.5053889E0,9.241612E1,2.7863584E0,1.1494119E0,2.090736E0,2.2975101E1,5.127219E0,1.0317905E0,2.3343136E1,6.907299E1,6.0663342E0,1.6908766E1,1.1321265E0,3.9950929E0,1.4870286E0,2.1856106E1,6.581003E1,3.2629576E0],"tree_param":{"num_deleted":"0","num_feature":"16","num_nodes":"31","size_leaf_vector":"1"}},{"base_weights":[5.653258E-3,-9.299888E-3,4.7930112E-1,1.4125598E-2,-4.2927027E-1,6.999969E-2,9.135983E-4,4.7712334E-4,8.1095785E-2,1.9016149E-2,-6.38864E-1,2.0938393E-1,-5.236489E-2,2.7064022E-3,-8.3229356E-2,-1.8301124E-3,5.5728197E-2,5.884654E-3,-2.3998627E-2],"categories":[],"categories_nodes":[],"categories_segments":[],"categories_sizes":[],"default_left":[0,0,0,0,0,0,0,0,0,0,0,0,0,0,0,0,0,0,0],"id":41,"left_children":[1,3,5,7,9,-1,-1,11,-1,-1,13,15,17,-1,-1,-1,-1,-1,-1],"loss_changes":[9.5763624E-1,1.299211E0,4.2295444E-1,1.3641423E0,1.027214E0,0E0,0E0,1.3837308E0,0E0,0E0,7.235024E-1,2.014638E0,2.101738E0,0E0,0E0,0E0,0E0,0E0,0E0],"parents":[2147483647,0,0,1,1,2,2,3,3,4,4,7,7,10,10,11,11,12,12],"right_children":[2,4,6,8,10,-1,-1,12,-1,-1,14,16,18,-1,-1,-1,-1,-1,-1],"split_conditions":[1.994564E4,1.959124E4,1.506E1,6.02163E3,1.989457E4,6.999969E-2,9.135983E-4,-1.2683957E-2,8.1095785E-2,1.9016149E-2,-7.0473563E-4,-1.0451514E-2,6.271654E-4,2.7064022E-3,-8.3229356E-2,-1.8301124E-3,5.5728197E-2,5.884654E-3,-2.3998627E-2],"split_indices":[7,7,11,5,0,0,0,1,0,0,1,14,10,0,0,0,0,0,0],"split_type":[0,0,0,0,0,0,0,0,0,0,0,0,0,0,0,0,0,0,0],"sum_hessian":[1.3358176E2,1.3044398E2,3.137774E0,1.2446768E2,5.976305E0,1.802737E0,1.3350371E0,1.2335539E2,1.1122837E0,1.5343659E0,4.4419394E0,2.4305E1,9.905039E1,1.1934123E0,3.248527E0,1.5263233E1,9.041768E0,6.2619453E1,3.6430943E1],"tree_param":{"num_deleted":"0","num_feature":"16","num_nodes":"19","size_leaf_vector":"1"}},{"base_weights":[6.0474896E-3,1.807261E-2,-5.7588387E-2,7.7663615E-2,4.779538E-3,-4.3857387E-1,2.2101147E-2,2.982671E-2,-9.000467E-2,8.629765E-2,-3.6116643E-3,-5.723198E-3,2.6188178E-2],"categories":[],"categories_nodes":[],"categories_segments":[],"categories_sizes":[],"default_left":[0,0,0,0,0,0,0,0,0,0,0,0,0],"id":42,"left_children":[1,3,-1,-1,5,7,9,-1,-1,-1,11,-1,-1],"loss_changes":[9.497864E-1,1.3322798E0,0E0,0E0,1.0173743E0,1.9624059E0,2.754071E0,0E0,0E0,0E0,1.7867004E0,0E0,0E0],"parents":[2147483647,0,0,1,1,4,4,5,5,6,6,10,10],"right_children":[2,4,-1,-1,6,8,10,-1,-1,-1,12,-1,-1],"split_conditions":[5.49241E-2,1.5868993E4,-5.7588387E-2,7.7663615E-2,2.1815033E1,-5.6590866E-3,1.633996E4,2.982671E-2,-9.000467E-2,8.629765E-2,8.165786E-3,-5.723198E-3,2.6188178E-2],"split_indices":[14,2,0,0,13,1,0,0,0,0,6,0,0],"split_type":[0,0,0,0,0,0,0,0,0,0,0,0,0],"sum_hessian":[1.3323924E2,1.3149104E2,1.7482076E0,1.2755955E0,1.3021544E2,3.9817414E0,1.262337E2,1.669572E0,2.3121696E0,2.7793593E0,1.23454346E2,1.03363075E2,2.0091265E1],"tree_param":{"num_deleted":"0","num_feature":"16","num_nodes":"13","size_leaf_vector":"1"}},{"base_weights":[5.9627676E-3,-5.3919196E-2,1.847044E-2,6.536678E-2,2.4476023E-3,2.7543232E-1,-3.2990523E-2,5.022914E-1,-4.669217E-1,-3.2528126E-1,3.5006013E-2,4.4722897E-3,8.485591E-2,-8.320521E-2,8.145256E-3,-1.0333624E-1,-5.6875944E-3,1.0052849E-1,-7.5023196E-4],"categories":[],"categories_nodes":[],"categories_segments":[],"categories_sizes":[],"default_left":[0,0,0,0,0,0,0,0,0,0,0,0,0,0,0,0,0,0,0],"id":43,"left_children":[1,-1,3,-1,5,7,9,11,13,15,17,-1,-1,-1,-1,-1,-1,-1,-1],"loss_changes":[9.234997E-1,0E0,1.3412346E0,0E0,1.2637824E0,2.7622387E0,2.3106487E0,1.8598387E0,8.749713E-1,4.1092196E0,3.9157815E0,0E0,0E0,0E0,0E0,0E0,0E0,0E0,0E0],"parents":[2147483647,0,0,2,2,4,4,5,5,6,6,7,7,8,8,9,9,10,10],"right_children":[2,-1,4,-1,6,8,10,12,14,16,18,-1,-1,-1,-1,-1,-1,-1,-1],"split_conditions":[-3.686045E-2,-5.3919196E-2,1.145554E4,6.536678E-2,-1.2619531E-2,5.74537E3,-3.8374213E-3,2.5050673E1,6.870177E-4,1.425E1,-3.2135635E-3,4.4722897E-3,8.485591E-2,-8.320521E-2,8.145256E-3,-1.0333624E-1,-5.6875944E-3,1.0052849E-1,-7.5023196E-4],"split_indices":[14,0,7,0,8,5,8,13,10,11,8,0,0,0,0,0,0,0,0],"split_type":[0,0,0,0,0,0,0,0,0,0,0,0,0,0,0,0,0,0,0],"sum_hessian":[1.3297742E2,2.0380676E0,1.3093935E2,2.2425208E0,1.2869682E2,1.4009274E1,1.1468755E2,1.0977879E1,3.0313954E0,2.093072E1,9.3756836E1,5.215335E0,5.762543E0,1.5092002E0,1.5221951E0,4.969817E0,1.5960901E1,2.9845066E0,9.077233E1],"tree_param":{"num_deleted":"0","num_feature":"16","num_nodes":"19","size_leaf_vector":"1"}},{"base_weights":[5.5095167E-3,-9.068816E-3,4.63187E-1,1.2740207E-2,-4.0596262E-1,-9.66197E-3,7.178735E-2,-2.1677218E-2,3.2369965E-1,-9.440809E-2,5.5961728E-2,-1.0121549E-3,-8.4766746E-2,-4.179718E-2,4.9710461E-1,4.221837E-1,-4.421697E-2,3.3923265E-2,-4.7227074E-3,-2.0344008E-2,7.8427315E-2,-1.2014038E-2,7.706595E-2],"categories":[],"categories_nodes":[],"categories_segments":[],"categories_sizes":[],"default_left":[0,0,0,0,0,0,0,0,0,0,0,0,0,0,0,0,0,0,0,0,0,0,0],"id":44,"left_children":[1,3,5,7,9,-1,-1,11,13,-1,15,17,-1,-1,19,21,-1,-1,-1,-1,-1,-1,-1],"loss_changes":[8.9510435E-1,1.1337601E0,6.597745E-1,1.3401365E0,1.7485175E0,0E0,0E0,1.9294362E0,1.8122606E0,0E0,1.0285394E0,1.7665817E0,0E0,0E0,2.2856214E0,6.918825E-1,0E0,0E0,0E0,0E0,0E0,0E0,0E0],"parents":[2147483647,0,0,1,1,2,2,3,3,4,4,7,7,8,8,10,10,11,11,14,14,15,15],"right_children":[2,4,6,8,10,-1,-1,12,14,-1,16,18,-1,-1,20,22,-1,-1,-1,-1,-1,-1,-1],"split_conditions":[6.07511E3,1.959124E4,0E0,1.898747E4,-4.410218E-4,-9.66197E-3,7.178735E-2,5.86157E3,7.1825E0,-9.440809E-2,9.277086E-3,-1.2619531E-2,-8.4766746E-2,-4.179718E-2,2.9102543E1,2.1950862E-5,-4.421697E-2,3.3923265E-2,-4.7227074E-3,-2.0344008E-2,7.8427315E-2,-1.2014038E-2,7.706595E-2],"split_indices":[5,7,14,7,10,0,0,5,9,0,14,8,0,0,13,6,0,0,0,0,0,0,0],"split_type":[0,0,0,0,0,0,0,0,0,0,0,0,0,0,0,0,0,0,0,0,0,0,0],"sum_hessian":[1.3252525E2,1.2938419E2,3.14107E0,1.23562416E2,5.821764E0,1.1762587E0,1.9648111E0,1.12086784E2,1.1475633E1,2.206964E0,3.6148E0,1.1032777E2,1.7590133E0,1.9073431E0,9.568289E0,2.171095E0,1.4437052E0,1.2435373E1,9.7892395E1,2.8666618E0,6.7016273E0,1.1056461E0,1.0654486E0],"tree_param":{"num_deleted":"0","num_feature":"16","num_nodes":"23","size_leaf_vector":"1"}},{"base_weights":[4.6027447E-3,-5.14503E-2,1.6461665E-2,4.2320403E-1,-6.4732893E-3,6.90012E-1,-1.8736878E-2,-7.752784E-2,9.399829E-3,1.7174086E-2,8.1137925E-2,4.2121645E-2,-4.269361E-2,4.161772E-1,-1.3293611E-2,-9.962814E-4,8.789041E-2,8.729791E-3,-1.4602639E-2],"categories":[],"categories_nodes":[],"categories_segments":[],"categories_sizes":[],"default_left":[0,0,0,0,0,0,0,0,0,0,0,0,0,0,0,0,0,0,0],"id":45,"left_children":[1,-1,3,5,7,9,11,-1,13,-1,-1,-1,-1,15,17,-1,-1,-1,-1],"loss_changes":[8.2806015E-1,0E0,1.2260162E0,8.400315E-1,1.5341332E0,1.3743901E-1,8.288955E-1,0E0,1.1462674E0,0E0,0E0,0E0,0E0,1.3024317E0,1.5884391E0,0E0,0E0,0E0,0E0],"parents":[2147483647,0,0,2,2,3,3,4,4,5,5,6,6,8,8,13,13,14,14],"right_children":[2,-1,4,6,8,10,12,-1,14,-1,-1,-1,-1,16,18,-1,-1,-1,-1],"split_conditions":[-3.686045E-2,-5.14503E-2,-2.458098E-2,7.198E0,-2.2988614E-2,-2.9142706E-2,-3.0335072E-2,-7.752784E-2,-1.9826025E-2,1.7174086E-2,8.1137925E-2,4.2121645E-2,-4.269361E-2,6.252049E-4,1.3378465E-2,-9.962814E-4,8.789041E-2,8.729791E-3,-1.4602639E-2],"split_indices":[14,0,14,9,14,14,14,0,1,0,0,0,0,10,4,0,0,0,0],"split_type":[0,0,0,0,0,0,0,0,0,0,0,0,0,0,0,0,0,0,0],"sum_hessian":[1.3213615E2,2.0045552E0,1.3013159E2,6.0144973E0,1.24117096E2,3.400332E0,2.6141655E0,1.5429512E0,1.2257415E2,1.1034313E0,2.2969005E0,1.242799E0,1.3713665E0,5.56067E0,1.1701348E2,3.4041493E0,2.1565206E0,6.676098E1,5.02525E1],"tree_param":{"num_deleted":"0","num_feature":"16","num_nodes":"19","size_leaf_vector":"1"}},{"base_weights":[4.5435196E-3,3.5537928E-1,-1.3376554E-2,8.628875E-2,-1.7103615E-1,1.5473374E-2,-3.994763E-1,6.1810132E-2,-8.0349825E-2,-3.0717071E-2,4.1792396E-1,-6.986842E-1,5.6708276E-2,-1.3525024E-1,1.6704673E-1,-9.6515454E-2,7.8433406E-1,2.0970523E-2,-8.9429176E-1,-6.2703714E-3,-6.812237E-2,7.99808E-2,4.6434333E-3,7.186011E-2,-4.8964087E-2,1.00918114E-1,-2.8140614E-2,-2.7484333E-2,-1.1444866E-1],"categories":[],"categories_nodes":[],"categories_segments":[],"categories_sizes":[],"default_left":[0,0,0,0,0,0,0,0,0,0,0,0,0,0,0,0,0,0,0,0,0,0,0,0,0,0,0,0,0],"id":46,"left_children":[1,3,5,-1,7,9,11,-1,-1,13,15,17,-1,19,21,23,25,-1,27,-1,-1,-1,-1,-1,-1,-1,-1,-1,-1],"loss_changes":[8.4016716E-1,1.8824402E0,1.425125E0,0E0,2.5040448E0,2.2341151E0,2.9683623E0,0E0,0E0,2.2577631E0,2.4075649E0,1.473922E0,0E0,2.7808025E0,2.8504019E0,2.2861788E0,2.0415473E0,0E0,6.380949E-1,0E0,0E0,0E0,0E0,0E0,0E0,0E0,0E0,0E0,0E0],"parents":[2147483647,0,0,1,1,2,2,4,4,5,5,6,6,9,9,10,10,11,11,13,13,14,14,15,15,16,16,18,18],"right_children":[2,4,6,-1,8,10,12,-1,-1,14,16,18,-1,20,22,24,26,-1,28,-1,-1,-1,-1,-1,-1,-1,-1,-1,-1],"split_conditions":[-4.7515784E-3,1.418549E4,2.2771437E-2,8.628875E-2,4.0611294E-3,1.3655078E-2,2.2207595E-2,6.1810132E-2,-8.0349825E-2,1.739553E4,-3.4478793E-4,-4.542124E-2,5.6708276E-2,1.679487E4,2.5402254E1,1.375E1,7.3085E0,2.0970523E-2,1.3596164E-2,-6.2703714E-3,-6.812237E-2,7.99808E-2,4.6434333E-3,7.186011E-2,-4.8964087E-2,1.00918114E-1,-2.8140614E-2,-2.7484333E-2,-1.1444866E-1],"split_indices":[10,7,1,0,6,1,4,0,0,7,10,12,0,7,13,11,9,0,14,0,0,0,0,0,0,0,0,0,0],"split_type":[0,0,0,0,0,0,0,0,0,0,0,0,0,0,0,0,0,0,0,0,0,0,0,0,0,0,0,0,0],"sum_hessian":[1.3187946E2,5.49369E0,1.26385765E2,2.4716442E0,3.022046E0,1.1849181E2,7.8939548E0,1.3545941E0,1.6674521E0,1.071209E2,1.1370909E1,6.2395754E0,1.6543795E0,7.028569E1,3.6835217E1,5.0364003E0,6.3345084E0,1.092766E0,5.146809E0,6.302593E1,7.2597585E0,4.995646E0,3.1839571E1,1.3693128E0,3.6670873E0,5.2747297E0,1.0597785E0,2.0844672E0,3.062342E0],"tree_param":{"num_deleted":"0","num_feature":"16","num_nodes":"29","size_leaf_vector":"1"}},{"base_weights":[4.9509862E-3,2.1083176E-2,-3.6742193E-1,-1.0641402E-2,3.515393E-1,5.2973744E-2,-7.479253E-2,6.476379E-1,-3.8216554E-2,5.490702E-1,-4.6987277E-2,4.228474E-2,-3.6407813E-2,9.7247167E-4,8.295654E-2,-1.5110003E-2,-6.041711E-1,7.434047E-1,-7.886315E-2,8.322247E-2,-3.4633067E-3,-9.5414184E-2,-3.621511E-3,9.3874685E-2,1.3812224E-2,-4.0343422E-2,2.8006507E-2],"categories":[],"categories_nodes":[],"categories_segments":[],"categories_sizes":[],"default_left":[0,0,0,0,0,0,0,0,0,0,0,0,0,0,0,0,0,0,0,0,0,0,0,0,0,0,0],"id":47,"left_children":[1,3,5,7,9,11,-1,13,15,17,-1,-1,-1,-1,-1,19,21,23,25,-1,-1,-1,-1,-1,-1,-1,-1],"loss_changes":[8.0238503E-1,1.3428522E0,9.269421E-1,2.1579208E0,2.078166E0,7.045293E-1,0E0,5.467305E-1,1.4782208E0,1.2184472E0,0E0,0E0,0E0,0E0,0E0,1.8534653E0,8.471304E-1,7.398639E-1,4.7999874E-1,0E0,0E0,0E0,0E0,0E0,0E0,0E0,0E0],"parents":[2147483647,0,0,1,1,2,2,3,3,4,4,5,5,7,7,8,8,9,9,15,15,16,16,17,17,18,18],"right_children":[2,4,6,8,10,12,-1,14,16,18,-1,-1,-1,-1,-1,20,22,24,26,-1,-1,-1,-1,-1,-1,-1,-1],"split_conditions":[2.371069E4,2.189762E4,3E0,-1.0039047E-1,7.2851E0,2.086E1,