{"learner":{"attributes":{"scikit_learn":"{\"_estimator_type\": \"regressor\"}"},"feature_names":[],"feature_types":[],"gradient_booster":{"model":{"cats":{"enc":[],"feature_segments":[],"sorted_idx":[]},"gbtree_model_param":{"num_parallel_tree":"1","num_trees":"100"},"iteration_indptr":[0,1,2,3,4,5,6,7,8,9,10,11,12,13,14,15,16,17,18,19,20,21,22,23,24,25,26,27,28,29,30,31,32,33,34,35,36,37,38,39,40,41,42,43,44,45,46,47,48,49,50,51,52,53,54,55,56,57,58,59,60,61,62,63,64,65,66,67,68,69,70,71,72,73,74,75,76,77,78,79,80,81,82,83,84,85,86,87,88,89,90,91,92,93,94,95,96,97,98,99,100],"tree_info":[0,0,0,0,0,0,0,0,0,0,0,0,0,0,0,0,0,0,0,0,0,0,0,0,0,0,0,0,0,0,0,0,0,0,0,0,0,0,0,0,0,0,0,0,0,0,0,0,0,0,0,0,0,0,0,0,0,0,0,0,0,0,0,0,0,0,0,0,0,0,0,0,0,0,0,0,0,0,0,0,0,0,0,0,0,0,0,0,0,0,0,0,0,0,0,0,0,0,0,0],"trees":[{"base_weights":[-3.7964742E-10,-5.4398157E-2,5.458903E-1,1.7128126E-1,-6.672583E-2,9.4036514E-1,1.5951738E-1,-8.388689E-2,5.7268196E-1,1.1867032E0,3.1822063E-2,2.591399E-2,8.2235146E-1,-1.0670411E-1,2.802735E-1,1.4911489E-1,3.166756E-1,4.4163382E-1,1.4385021E0,-3.9290047E-1,7.2908565E-2,-3.0473036E-1,2.5161237E-1,1.0452946E-1,3.2529112E-2,1.970548E-2,-1.406585E-2,1.7924403E-1,9.890472E-4,-3.3991754E-3,4.763046E-2,7.4933946E-2,-2.1842016E-2,1.804711E-1,2.7190005E-2,-4.9967475E-2,1.7098308E-3,1.18408585E-2,-4.1191775E-2,4.6014704E-2,-2.9919336E-2],"categories":[],"categories_nodes":[],"categories_segments":[],"categories_sizes":[],"default_left":[0,0,0,0,0,0,0,0,0,0,0,0,0,0,0,0,0,0,0,0,0,0,0,0,0,0,0,0,0,0,0,0,0,0,0,0,0,0,0,0,0],"id":0,"left_children":[1,3,5,-1,7,9,11,13,15,17,19,21,23,25,27,-1,29,31,33,35,-1,37,39,-1,-1,-1,-1,-1,-1,-1,-1,-1,-1,-1,-1,-1,-1,-1,-1,-1,-1],"loss_changes":[1.8678421E1,1.2575648E1,8.537617E0,0E0,6.2916307E0,6.22888E0,2.635396E0,4.6414714E0,3.054789E0,3.492075E0,2.359463E0,2.016947E0,2.1405578E-1,5.4219127E0,1.3474791E1,0E0,7.438874E-1,1.5853872E0,6.344822E0,2.2743022E-1,0E0,5.4768133E-1,1.9754663E0,0E0,0E0,0E0,0E0,0E0,0E0,0E0,0E0,0E0,0E0,0E0,0E0,0E0,0E0,0E0,0E0,0E0,0E0],"parents":[2147483647,0,0,1,1,2,2,4,4,5,5,6,6,7,7,8,8,9,9,10,10,11,11,12,12,13,13,14,14,16,16,17,17,18,18,19,19,21,21,22,22],"right_children":[2,4,6,-1,8,10,12,14,16,18,20,22,24,26,28,-1,30,32,34,36,-1,38,40,-1,-1,-1,-1,-1,-1,-1,-1,-1,-1,-1,-1,-1,-1,-1,-1,-1,-1],"split_conditions":[1.943734E-2,1.5611926E4,5.162177E-4,1.7128126E-1,6.07511E3,3.5156895E1,3.639421E-3,4.108922E-3,-4.8991375E-2,2.0544207E4,3.5664154E1,2E0,4.292638E-3,1.6594064E4,4.447233E-3,1.4911489E-1,-7.0421705E-3,4.90619E3,4.5544174E-2,1.6014261E-2,7.2908565E-2,-1.5357416E-2,1.5236728E-3,1.0452946E-1,3.2529112E-2,1.970548E-2,-1.406585E-2,1.7924403E-1,9.890472E-4,-3.3991754E-3,4.763046E-2,7.4933946E-2,-2.1842016E-2,1.804711E-1,2.7190005E-2,-4.9967475E-2,1.7098308E-3,1.18408585E-2,-4.1191775E-2,4.6014704E-2,-2.9919336E-2],"split_indices":[4,3,8,0,5,13,10,10,12,3,13,15,10,3,10,0,14,5,4,1,0,1,10,0,0,0,0,0,0,0,0,0,0,0,0,0,0,0,0,0,0],"split_type":[0,0,0,0,0,0,0,0,0,0,0,0,0,0,0,0,0,0,0,0,0,0,0,0,0,0,0,0,0,0,0,0,0,0,0,0,0,0,0,0,0],"sum_hessian":[6.27E2,5.71E2,5.6E1,3E0,5.68E2,2.7E1,2.9E1,5.54E2,1.4E1,2.1E1,6E0,2.5E1,4E0,5.22E2,3.2E1,2E0,1.2E1,6E0,1.5E1,4E0,2E0,1E1,1.5E1,2E0,2E0,5.2E1,4.7E2,4E0,2.8E1,4E0,8E0,4E0,2E0,1.1E1,4E0,3E0,1E0,2E0,8E0,1.1E1,4E0],"tree_param":{"num_deleted":"0","num_feature":"16","num_nodes":"41","size_leaf_vector":"1"}},{"base_weights":[1.5281973E-3,-4.799592E-2,4.984803E-1,1.5843515E-1,-5.9386775E-2,8.565216E-1,1.4769238E-1,-1.7169055E-1,2.667645E-2,1.0798852E0,3.216141E-2,2.2812739E-2,7.6752806E-1,4.2036373E-2,-2.705825E-1,1.111577E0,-7.959483E-3,4.0505496E-1,1.3076307E0,-3.6326197E-1,6.804799E-2,-1.2549788E-1,4.4329837E-1,9.756084E-2,3.0360505E-2,1.0348494E-1,-1.0770053E-3,9.260158E-3,-3.0144144E-2,2.3350692E-1,2.53642E-2,3.0518745E-3,-4.3535363E-2,6.893923E-2,-2.0385884E-2,1.6392791E-1,2.5014803E-2,-4.6219915E-2,1.6243398E-3,1.6458875E-2,-3.326047E-2,4.787793E-3,5.91891E-2],"categories":[],"categories_nodes":[],"categories_segments":[],"categories_sizes":[],"default_left":[0,0,0,0,0,0,0,0,0,0,0,0,0,0,0,0,0,0,0,0,0,0,0,0,0,0,0,0,0,0,0,0,0,0,0,0,0,0,0,0,0,0,0],"id":1,"left_children":[1,3,5,-1,7,9,11,13,15,17,19,21,23,25,27,29,31,33,35,37,-1,39,41,-1,-1,-1,-1,-1,-1,-1,-1,-1,-1,-1,-1,-1,-1,-1,-1,-1,-1,-1,-1],"loss_changes":[1.5479705E1,1.0729758E1,7.0324993E0,0E0,5.504093E0,5.12097E0,2.304636E0,5.231935E0,1.2146071E1,2.8515053E0,2.0417144E0,1.6770575E0,1.8646693E-1,4.152871E0,1.9219761E0,9.904498E0,5.1771317E0,1.352497E0,5.2013397E0,1.9524366E-1,0E0,1.2563212E0,3.8295746E-1,0E0,0E0,0E0,0E0,0E0,0E0,0E0,0E0,0E0,0E0,0E0,0E0,0E0,0E0,0E0,0E0,0E0,0E0,0E0,0E0],"parents":[2147483647,0,0,1,1,2,2,4,4,5,5,6,6,7,7,8,8,9,9,10,10,11,11,12,12,13,13,14,14,15,15,16,16,17,17,18,18,19,19,21,21,22,22],"right_children":[2,4,6,-1,8,10,12,14,16,18,20,22,24,26,28,30,32,34,36,38,-1,40,42,-1,-1,-1,-1,-1,-1,-1,-1,-1,-1,-1,-1,-1,-1,-1,-1,-1,-1,-1,-1],"split_conditions":[1.943734E-2,1.5611926E4,5.162177E-4,1.5843515E-1,4.77475E3,3.5156895E1,3.639421E-3,1.1728241E-2,7.056E0,2.0544207E4,3.5664154E1,1.4464357E-2,4.292638E-3,-1.7591622E-2,-3.9755944E-3,6.9789016E-3,2.354946E4,4.90619E3,4.5544174E-2,1.6014261E-2,6.804799E-2,-6.872325E-5,1E0,9.756084E-2,3.0360505E-2,1.0348494E-1,-1.0770053E-3,9.260158E-3,-3.0144144E-2,2.3350692E-1,2.53642E-2,3.0518745E-3,-4.3535363E-2,6.893923E-2,-2.0385884E-2,1.6392791E-1,2.5014803E-2,-4.6219915E-2,1.6243398E-3,1.6458875E-2,-3.326047E-2,4.787793E-3,5.91891E-2],"split_indices":[4,3,8,0,5,13,10,4,9,3,13,8,10,8,10,1,0,5,4,1,0,10,15,0,0,0,0,0,0,0,0,0,0,0,0,0,0,0,0,0,0,0,0],"split_type":[0,0,0,0,0,0,0,0,0,0,0,0,0,0,0,0,0,0,0,0,0,0,0,0,0,0,0,0,0,0,0,0,0,0,0,0,0,0,0,0,0,0,0],"sum_hessian":[6.27E2,5.71E2,5.6E1,3E0,5.68E2,2.7E1,2.9E1,2.46E2,3.22E2,2.1E1,6E0,2.5E1,4E0,7.8E1,1.68E2,9E0,3.13E2,6E0,1.5E1,4E0,2E0,1.9E1,6E0,2E0,2E0,3E0,7.5E1,1.3E1,1.55E2,3E0,6E0,2.88E2,2.5E1,4E0,2E0,1.1E1,4E0,3E0,1E0,8E0,1.1E1,2E0,4E0],"tree_param":{"num_deleted":"0","num_feature":"16","num_nodes":"43","size_leaf_vector":"1"}},{"base_weights":[2.7995706E-3,-4.239502E-2,4.5628217E-1,1.4655253E-1,-5.292101E-2,7.8018904E-1,1.3875969E-1,-6.845744E-2,5.2545506E-1,9.8269194E-1,3.2295622E-2,2.2345902E-2,7.163595E-1,-8.8972785E-2,2.587541E-1,1.3897042E-1,2.855933E-1,3.7148568E-1,1.1886765E0,-3.3585486E-1,6.351145E-2,-2.671665E-1,2.1998906E-1,9.105678E-2,2.833647E-2,1.3060247E-2,-1.2775362E-2,2.586598E-1,1.0517779E-2,-3.37139E-3,4.312536E-2,6.342409E-2,-1.9026827E-2,1.489012E-1,2.301362E-2,-4.275342E-2,1.5431226E-3,1.2000555E-2,-3.665387E-2,4.0462684E-2,-2.6713941E-2],"categories":[],"categories_nodes":[],"categories_segments":[],"categories_sizes":[],"default_left":[0,0,0,0,0,0,0,0,0,0,0,0,0,0,0,0,0,0,0,0,0,0,0,0,0,0,0,0,0,0,0,0,0,0,0,0,0,0,0,0,0],"id":2,"left_children":[1,3,5,-1,7,9,11,13,15,17,19,21,23,25,27,-1,29,31,33,35,-1,37,39,-1,-1,-1,-1,-1,-1,-1,-1,-1,-1,-1,-1,-1,-1,-1,-1,-1,-1],"loss_changes":[1.289018E1,9.15654E0,5.75406E0,0E0,5.1489487E0,4.2088814E0,2.0012097E0,3.748657E0,2.712614E0,2.3282013E0,1.7668028E0,1.5464973E0,1.6243315E-1,4.470193E0,1.1525501E1,0E0,6.1917424E-1,1.1539024E0,4.26346E0,1.6762578E-1,0E0,4.6720225E-1,1.5471687E0,0E0,0E0,0E0,0E0,0E0,0E0,0E0,0E0,0E0,0E0,0E0,0E0,0E0,0E0,0E0,0E0,0E0,0E0],"parents":[2147483647,0,0,1,1,2,2,4,4,5,5,6,6,7,7,8,8,9,9,10,10,11,11,12,12,13,13,14,14,16,16,17,17,18,18,19,19,21,21,22,22],"right_children":[2,4,6,-1,8,10,12,14,16,18,20,22,24,26,28,-1,30,32,34,36,-1,38,40,-1,-1,-1,-1,-1,-1,-1,-1,-1,-1,-1,-1,-1,-1,-1,-1,-1,-1],"split_conditions":[1.943734E-2,1.5611926E4,5.162177E-4,1.4655253E-1,6.07511E3,3.5156895E1,3.639421E-3,4.108922E-3,-4.8991375E-2,2.0544207E4,3.5664154E1,2E0,4.292638E-3,9.414795E-3,4.292638E-3,1.3897042E-1,-7.0421705E-3,4.90619E3,4.5544174E-2,1.6014261E-2,6.351145E-2,-1.5357416E-2,1.5236728E-3,9.105678E-2,2.833647E-2,1.3060247E-2,-1.2775362E-2,2.586598E-1,1.0517779E-2,-3.37139E-3,4.312536E-2,6.342409E-2,-1.9026827E-2,1.489012E-1,2.301362E-2,-4.275342E-2,1.5431226E-3,1.2000555E-2,-3.665387E-2,4.0462684E-2,-2.6713941E-2],"split_indices":[4,3,8,0,5,13,10,10,12,3,13,15,10,4,10,0,14,5,4,1,0,1,10,0,0,0,0,0,0,0,0,0,0,0,0,0,0,0,0,0,0],"split_type":[0,0,0,0,0,0,0,0,0,0,0,0,0,0,0,0,0,0,0,0,0,0,0,0,0,0,0,0,0,0,0,0,0,0,0,0,0,0,0,0,0],"sum_hessian":[6.27E2,5.71E2,5.6E1,3E0,5.68E2,2.7E1,2.9E1,5.54E2,1.4E1,2.1E1,6E0,2.5E1,4E0,5.22E2,3.2E1,2E0,1.2E1,6E0,1.5E1,4E0,2E0,1E1,1.5E1,2E0,2E0,7.8E1,4.44E2,1E0,3.1E1,4E0,8E0,4E0,2E0,1.1E1,4E0,3E0,1E0,2E0,8E0,1.1E1,4E0],"tree_param":{"num_deleted":"0","num_feature":"16","num_nodes":"41","size_leaf_vector":"1"}},{"base_weights":[4.019356E-3,-3.711577E-2,4.1674346E-1,1.355611E-1,-4.6841238E-2,7.10692E-1,1.2850001E-1,-6.1126184E-2,4.848245E-1,3.717024E-1,1.1317029E0,3.409624E-1,-1.386686E-1,1.8977045E-1,-8.744109E-2,1.1639883E-1,2.1803452E-1,7.989196E-1,6.6045776E-2,1.5652261E0,2.1172531E-1,6.382043E-2,7.277623E-1,-3.8594753E-1,1.637457E-1,8.917504E-2,6.3561522E-3,1.2288665E-2,-1.2574653E-2,-2.2996629E-2,3.9291993E-2,9.271863E-2,1.4659673E-3,2.8854752E-2,-3.9546914E-2,3.1099802E-2,1.6999732E-1,4.5006223E-2,-3.708112E-2,-2.5303388E-2,2.1427004E-2,4.0611415E-3,8.355188E-2,-1.5721677E-2,-4.9174264E-2,3.158094E-2,-1.442757E-2],"categories":[],"categories_nodes":[],"categories_segments":[],"categories_sizes":[],"default_left":[0,0,0,0,0,0,0,0,0,0,0,0,0,0,0,0,0,0,0,0,0,0,0,0,0,0,0,0,0,0,0,0,0,0,0,0,0,0,0,0,0,0,0,0,0,0,0],"id":3,"left_children":[1,3,5,-1,7,9,11,13,15,17,19,21,23,25,27,-1,29,31,33,35,37,39,41,43,45,-1,-1,-1,-1,-1,-1,-1,-1,-1,-1,-1,-1,-1,-1,-1,-1,-1,-1,-1,-1,-1,-1],"loss_changes":[1.0677312E1,7.8111906E0,4.7382145E0,0E0,4.351086E0,3.5754576E0,1.7501792E0,3.6808813E0,2.4641216E0,2.1671252E0,4.454582E0,1.7759283E0,1.1101269E0,4.6389136E0,4.067972E0,0E0,1.0305438E0,6.905689E-1,1.2436782E0,8.2334137E-1,8.610879E-1,5.785943E-1,4.8438358E-1,1.1627865E-1,3.7343574E-1,0E0,0E0,0E0,0E0,0E0,0E0,0E0,0E0,0E0,0E0,0E0,0E0,0E0,0E0,0E0,0E0,0E0,0E0,0E0,0E0,0E0,0E0],"parents":[2147483647,0,0,1,1,2,2,4,4,5,5,6,6,7,7,8,8,9,9,10,10,11,11,12,12,13,13,14,14,16,16,17,17,18,18,19,19,20,20,21,21,22,22,23,23,24,24],"right_children":[2,4,6,-1,8,10,12,14,16,18,20,22,24,26,28,-1,30,32,34,36,38,40,42,44,46,-1,-1,-1,-1,-1,-1,-1,-1,-1,-1,-1,-1,-1,-1,-1,-1,-1,-1,-1,-1,-1,-1],"split_conditions":[1.943734E-2,1.5611926E4,5.162177E-4,1.355611E-1,6.07511E3,2.3987299E-2,2.068178E4,1.6594064E4,-4.184398E-2,2.0844566E-2,4.5544174E-2,1.562895E4,2.250468E4,-5.6958855E-3,9.448388E-3,1.1639883E-1,-7.0421705E-3,2.347792E4,3.5156895E1,-3.0403905E-2,2.14174E4,2.1815033E1,-1.5357416E-2,-2.287536E-3,2.272649E4,8.917504E-2,6.3561522E-3,1.2288665E-2,-1.2574653E-2,-2.2996629E-2,3.9291993E-2,9.271863E-2,1.4659673E-3,2.8854752E-2,-3.9546914E-2,3.1099802E-2,1.6999732E-1,4.5006223E-2,-3.708112E-2,-2.5303388E-2,2.1427004E-2,4.0611415E-3,8.355188E-2,-1.5721677E-2,-4.9174264E-2,3.158094E-2,-1.442757E-2],"split_indices":[4,3,8,0,5,4,0,3,12,4,4,7,0,6,4,0,14,0,13,1,0,13,1,10,2,0,0,0,0,0,0,0,0,0,0,0,0,0,0,0,0,0,0,0,0,0,0],"split_type":[0,0,0,0,0,0,0,0,0,0,0,0,0,0,0,0,0,0,0,0,0,0,0,0,0,0,0,0,0,0,0,0,0,0,0,0,0,0,0,0,0,0,0,0,0,0,0],"sum_hessian":[6.27E2,5.71E2,5.6E1,3E0,5.68E2,2.7E1,2.9E1,5.54E2,1.4E1,1.6E1,1.1E1,1.6E1,1.3E1,5.2E1,5.02E2,3E0,1.1E1,6E0,1E1,7E0,4E0,1E1,6E0,7E0,6E0,7E0,4.5E1,7.7E1,4.25E2,3E0,8E0,5E0,1E0,7E0,3E0,1E0,6E0,3E0,1E0,3E0,7E0,1E0,5E0,3E0,4E0,4E0,2E0],"tree_param":{"num_deleted":"0","num_feature":"16","num_nodes":"47","size_leaf_vector":"1"}},{"base_weights":[4.719354E-3,-3.2768693E-2,3.808324E-1,1.25394E-1,-4.1756507E-2,6.500698E-1,1.1684982E-1,-1.386781E-1,3.2489277E-2,8.2371503E-1,1.1460326E-2,1.471521E-2,6.245798E-1,3.928952E-2,-2.2104949E-1,7.805843E-1,-9.042005E-3,2.977001E-1,1.0023644E0,-2.870765E-1,5.052016E-2,-1.1151472E-1,3.7326998E-1,7.94162E-2,2.4680441E-2,2.5203941E-2,-1.8537803E-2,1.07542155E-2,-2.4912149E-2,1.7475145E-2,1.6210954E-1,4.031473E-2,-4.3843067E-3,6.1886072E-2,-9.78855E-3,1.2564285E-1,1.921378E-2,-3.6580898E-2,1.3926685E-3,-1.914471E-2,4.052512E-2,4.761742E-3,4.940075E-2],"categories":[],"categories_nodes":[],"categories_segments":[],"categories_sizes":[],"default_left":[0,0,0,0,0,0,0,0,0,0,0,0,0,0,0,0,0,0,0,0,0,0,0,0,0,0,0,0,0,0,0,0,0,0,0,0,0,0,0,0,0,0,0],"id":4,"left_children":[1,3,5,-1,7,9,11,13,15,17,19,21,23,25,27,29,31,33,35,37,-1,39,41,-1,-1,-1,-1,-1,-1,-1,-1,-1,-1,-1,-1,-1,-1,-1,-1,-1,-1,-1,-1],"loss_changes":[8.86712E0,6.6673675E0,3.975256E0,0E0,4.099041E0,3.095522E0,1.5465134E0,3.6295662E0,1.0042457E1,1.7689848E0,1.176831E0,1.2183938E0,1.2431717E-1,3.822764E0,1.5856857E0,8.373267E0,4.4214745E0,9.4990295E-1,3.052185E0,1.23588145E-1,0E0,9.037107E-1,2.5170594E-1,0E0,0E0,0E0,0E0,0E0,0E0,0E0,0E0,0E0,0E0,0E0,0E0,0E0,0E0,0E0,0E0,0E0,0E0,0E0,0E0],"parents":[2147483647,0,0,1,1,2,2,4,4,5,5,6,6,7,7,8,8,9,9,10,10,11,11,12,12,13,13,14,14,15,15,16,16,17,17,18,18,19,19,21,21,22,22],"right_children":[2,4,6,-1,8,10,12,14,16,18,20,22,24,26,28,30,32,34,36,38,-1,40,42,-1,-1,-1,-1,-1,-1,-1,-1,-1,-1,-1,-1,-1,-1,-1,-1,-1,-1,-1,-1],"split_conditions":[1.943734E-2,1.5611926E4,5.162177E-4,1.25394E-1,4.77475E3,3.5156895E1,3.639421E-3,1.1728241E-2,7.088E0,2.0544207E4,3.5664154E1,1.4464357E-2,4.292638E-3,2.5990358E1,-3.9755944E-3,6.9446035E-4,1.577565E4,2.1343227E-2,4.5544174E-2,1.6014261E-2,5.052016E-2,1.855273E4,1E0,7.94162E-2,2.4680441E-2,2.5203941E-2,-1.8537803E-2,1.07542155E-2,-2.4912149E-2,1.7475145E-2,1.6210954E-1,4.031473E-2,-4.3843067E-3,6.1886072E-2,-9.78855E-3,1.2564285E-1,1.921378E-2,-3.6580898E-2,1.3926685E-3,-1.914471E-2,4.052512E-2,4.761742E-3,4.940075E-2],"split_indices":[4,3,8,0,5,13,10,4,9,3,13,8,10,13,10,12,7,4,4,1,0,7,15,0,0,0,0,0,0,0,0,0,0,0,0,0,0,0,0,0,0,0,0],"split_type":[0,0,0,0,0,0,0,0,0,0,0,0,0,0,0,0,0,0,0,0,0,0,0,0,0,0,0,0,0,0,0,0,0,0,0,0,0,0,0,0,0,0,0],"sum_hessian":[6.27E2,5.71E2,5.6E1,3E0,5.68E2,2.7E1,2.9E1,2.46E2,3.22E2,2.1E1,6E0,2.5E1,4E0,7.8E1,1.68E2,1.6E1,3.06E2,6E0,1.5E1,4E0,2E0,1.9E1,6E0,2E0,2E0,4E1,3.8E1,1.3E1,1.55E2,1E1,6E0,2.3E1,2.83E2,3E0,3E0,1.1E1,4E0,3E0,1E0,1.7E1,2E0,2E0,4E0],"tree_param":{"num_deleted":"0","num_feature":"16","num_nodes":"43","size_leaf_vector":"1"}},{"base_weights":[5.4024165E-3,-2.8908934E-2,3.4962505E-1,1.1598945E-1,-3.721527E-2,5.926444E-1,1.1115281E-1,-5.0296742E-2,4.4928032E-1,2.966978E-1,9.6251506E-1,3.000308E-1,-1.2613851E-1,-6.9266126E-2,2.5186333E-1,1.222381E-1,2.3631246E-1,6.714868E-1,3.1223165E-2,1.6083231E0,4.3857068E-1,5.8043357E-2,6.3743526E-1,-3.4170145E-1,1.3823892E-1,-4.0108096E-3,-3.0694216E-2,1.5442279E-1,2.035692E-3,6.53854E-3,4.967187E-2,7.789912E-2,1.3230353E-3,2.1211848E-2,-3.383733E-2,1.8343966E-1,3.5201456E-2,6.046172E-2,-3.6187753E-2,-2.1969784E-2,1.8965853E-2,4.815319E-3,7.276234E-2,-1.3704359E-2,-4.370875E-2,2.6667101E-2,-1.2189419E-2],"categories":[],"categories_nodes":[],"categories_segments":[],"categories_sizes":[],"default_left":[0,0,0,0,0,0,0,0,0,0,0,0,0,0,0,0,0,0,0,0,0,0,0,0,0,0,0,0,0,0,0,0,0,0,0,0,0,0,0,0,0,0,0,0,0,0,0],"id":5,"left_children":[1,3,5,-1,7,9,11,13,15,17,19,21,23,25,27,-1,29,31,33,35,37,39,41,43,45,-1,-1,-1,-1,-1,-1,-1,-1,-1,-1,-1,-1,-1,-1,-1,-1,-1,-1,-1,-1,-1,-1],"loss_changes":[7.427254E0,5.6914372E0,3.2374678E0,0E0,3.6437588E0,2.7793589E0,1.3824186E0,3.1985886E0,2.1808197E0,1.6704826E0,3.3550463E0,1.3510108E0,8.450961E-1,3.6121655E0,9.841856E0,0E0,5.461579E-1,4.8505163E-1,8.072161E-1,7.743559E-1,1.2820905E0,4.4377205E-1,3.3698654E-1,9.627199E-2,2.6637173E-1,0E0,0E0,0E0,0E0,0E0,0E0,0E0,0E0,0E0,0E0,0E0,0E0,0E0,0E0,0E0,0E0,0E0,0E0,0E0,0E0,0E0,0E0],"parents":[2147483647,0,0,1,1,2,2,4,4,5,5,6,6,7,7,8,8,9,9,10,10,11,11,12,12,13,13,14,14,16,16,17,17,18,18,19,19,20,20,21,21,22,22,23,23,24,24],"right_children":[2,4,6,-1,8,10,12,14,16,18,20,22,24,26,28,-1,30,32,34,36,38,40,42,44,46,-1,-1,-1,-1,-1,-1,-1,-1,-1,-1,-1,-1,-1,-1,-1,-1,-1,-1,-1,-1,-1,-1],"split_conditions":[1.943734E-2,1.5611926E4,5.162177E-4,1.1598945E-1,6.07511E3,2.3987299E-2,2.068178E4,4.108922E-3,-4.8991375E-2,2.0844566E-2,4.2614363E-2,1.562895E4,2.250468E4,2.2845136E-3,4.447233E-3,1.222381E-1,4E0,2.347792E4,3.5156895E1,2.244373E4,2.14174E4,2.1815033E1,-1.5357416E-2,-2.287536E-3,2.272649E4,-4.0108096E-3,-3.0694216E-2,1.5442279E-1,2.035692E-3,6.53854E-3,4.967187E-2,7.789912E-2,1.3230353E-3,2.1211848E-2,-3.383733E-2,1.8343966E-1,3.5201456E-2,6.046172E-2,-3.6187753E-2,-2.1969784E-2,1.8965853E-2,4.815319E-3,7.276234E-2,-1.3704359E-2,-4.370875E-2,2.6667101E-2,-1.2189419E-2],"split_indices":[4,3,8,0,5,4,0,10,12,4,4,7,0,10,10,0,15,0,13,0,0,13,1,10,2,0,0,0,0,0,0,0,0,0,0,0,0,0,0,0,0,0,0,0,0,0,0],"split_type":[0,0,0,0,0,0,0,0,0,0,0,0,0,0,0,0,0,0,0,0,0,0,0,0,0,0,0,0,0,0,0,0,0,0,0,0,0,0,0,0,0,0,0,0,0,0,0],"sum_hessian":[6.27E2,5.71E2,5.6E1,3E0,5.68E2,2.7E1,2.9E1,5.54E2,1.4E1,1.6E1,1.1E1,1.6E1,1.3E1,5.22E2,3.2E1,2E0,1.2E1,6E0,1E1,4E0,7E0,1E1,6E0,7E0,6E0,4.66E2,5.6E1,4E0,2.8E1,8E0,4E0,5E0,1E0,7E0,3E0,3E0,1E0,6E0,1E0,3E0,7E0,1E0,5E0,3E0,4E0,4E0,2E0],"tree_param":{"num_deleted":"0","num_feature":"16","num_nodes":"47","size_leaf_vector":"1"}},{"base_weights":[6.068127E-3,-2.4705548E-2,3.2712308E-1,1.0729024E0,-3.2351304E-2,2.7773756E-1,1.49697E-1,1.2145697E-1,3.239503E-2,-4.4374015E-2,4.1624886E-1,6.060735E-1,1.3591416E-1,-1.3211899E-1,1.8206371E-2,1.01722375E-1,1.812365E-1,2.2577769E-1,1.2022703E0,3.00548E-1,-5.320293E-2,-9.749235E-3,-5.6430936E-2,1.2071498E-1,-3.120254E-5,-2.143345E-2,3.3690847E-2,4.7260147E-2,1.7221043E-3,3.0567545E-2,1.3204542E-1,8.176138E-3,5.831789E-2,-1.844142E-2,3.5107147E-2],"categories":[],"categories_nodes":[],"categories_segments":[],"categories_sizes":[],"default_left":[0,0,0,0,0,0,0,0,0,0,0,0,0,0,0,0,0,0,0,0,0,0,0,0,0,0,0,0,0,0,0,0,0,0,0],"id":6,"left_children":[1,3,5,7,9,11,-1,-1,-1,13,15,17,19,21,23,-1,25,27,29,31,33,-1,-1,-1,-1,-1,-1,-1,-1,-1,-1,-1,-1,-1,-1],"loss_changes":[6.212747E0,4.851742E0,2.7617764E0,3.0948162E-2,3.0980966E0,2.4321752E0,0E0,0E0,0E0,3.060956E0,1.9341898E0,3.3562517E0,1.2302577E0,3.416934E0,7.1780252E0,0E0,8.111628E-1,5.581054E-1,2.3214912E-1,1.2508715E0,1.0726043E0,0E0,0E0,0E0,0E0,0E0,0E0,0E0,0E0,0E0,0E0,0E0,0E0,0E0,0E0],"parents":[2147483647,0,0,1,1,2,2,3,3,4,4,5,5,9,9,10,10,11,11,12,12,13,13,14,14,16,16,17,17,18,18,19,19,20,20],"right_children":[2,4,6,8,10,12,-1,-1,-1,14,16,18,20,22,24,-1,26,28,30,32,34,-1,-1,-1,-1,-1,-1,-1,-1,-1,-1,-1,-1,-1,-1],"split_conditions":[1.9539231E-2,1.5611926E4,7.355E0,-1.3017027E-3,6.07511E3,-9.870059E-3,1.49697E-1,1.2145697E-1,3.239503E-2,1.502E1,-4.184398E-2,-1.5357416E-2,1.4395551E-5,2.3038544E-2,1.642683E4,1.01722375E-1,-7.0421705E-3,-2.20816E-3,1.556621E4,3E0,8.027876E-3,-9.749235E-3,-5.6430936E-2,1.2071498E-1,-3.120254E-5,-2.143345E-2,3.3690847E-2,4.7260147E-2,1.7221043E-3,3.0567545E-2,1.3204542E-1,8.176138E-3,5.831789E-2,-1.844142E-2,3.5107147E-2],"split_indices":[4,3,9,1,5,1,0,0,0,11,12,1,10,1,2,0,14,6,0,15,6,0,0,0,0,0,0,0,0,0,0,0,0,0,0],"split_type":[0,0,0,0,0,0,0,0,0,0,0,0,0,0,0,0,0,0,0,0,0,0,0,0,0,0,0,0,0,0,0,0,0,0,0],"sum_hessian":[6.27E2,5.73E2,5.4E1,3E0,5.7E2,5.3E1,1E0,2E0,1E0,5.56E2,1.4E1,1.5E1,3.8E1,2.31E2,3.25E2,3E0,1.1E1,1E1,5E0,2E1,1.8E1,2.15E2,1.6E1,4E0,3.21E2,3E0,8E0,4E0,6E0,1E0,4E0,1.2E1,8E0,1.4E1,4E0],"tree_param":{"num_deleted":"0","num_feature":"16","num_nodes":"35","size_leaf_vector":"1"}},{"base_weights":[6.6823005E-3,-2.2247845E-2,2.9688162E-1,1.0040753E0,-2.942367E-2,5.1527274E-1,8.315388E-2,1.13359846E-1,3.0775279E-2,-1.1242609E-1,3.505304E-2,2.5846893E-1,8.361387E-1,7.9185574E-4,4.9480563E-1,4.543664E-2,-1.8469936E-1,9.426506E-1,5.8510257E-3,5.9256625E-1,2.2364343E-2,1.4121498E0,3.7161446E-1,-1.0357438E-1,2.9886797E-1,5.7304144E-2,9.09313E-3,8.7784134E-2,-1.0662827E-3,1.1422549E-2,-2.100174E-2,1.9764176E-1,2.1726226E-2,3.905664E-3,-3.6091294E-2,6.840641E-2,2.1789551E-3,1.8698746E-2,-3.1247301E-2,1.59337E-1,3.4363456E-2,5.2029163E-2,-3.3456292E-2,-1.8863505E-2,2.8382702E-2,3.6822576E-3,3.9632164E-2],"categories":[],"categories_nodes":[],"categories_segments":[],"categories_sizes":[],"default_left":[0,0,0,0,0,0,0,0,0,0,0,0,0,0,0,0,0,0,0,0,0,0,0,0,0,0,0,0,0,0,0,0,0,0,0,0,0,0,0,0,0,0,0,0,0,0,0],"id":7,"left_children":[1,3,5,7,9,11,13,-1,-1,15,17,19,21,23,25,27,29,31,33,35,37,39,41,43,45,-1,-1,-1,-1,-1,-1,-1,-1,-1,-1,-1,-1,-1,-1,-1,-1,-1,-1,-1,-1,-1,-1],"loss_changes":[5.2789845E0,4.2421603E0,2.6176982E0,1.1891365E-2,3.0490713E0,2.091073E0,1.0167425E0,0E0,0E0,2.8492963E0,8.502165E0,1.32774E0,2.686078E0,8.3979124E-1,1.05879545E-1,3.6984596E0,1.3181491E0,7.0694246E0,3.813826E0,3.5066867E-1,6.647702E-1,4.206457E-1,1.01401E0,7.125921E-1,1.641674E-1,0E0,0E0,0E0,0E0,0E0,0E0,0E0,0E0,0E0,0E0,0E0,0E0,0E0,0E0,0E0,0E0,0E0,0E0,0E0,0E0,0E0,0E0],"parents":[2147483647,0,0,1,1,2,2,3,3,4,4,5,5,6,6,9,9,10,10,11,11,12,12,13,13,14,14,15,15,16,16,17,17,18,18,19,19,20,20,21,21,22,22,23,23,24,24],"right_children":[2,4,6,8,10,12,14,-1,-1,16,18,20,22,24,26,28,30,32,34,36,38,40,42,44,46,-1,-1,-1,-1,-1,-1,-1,-1,-1,-1,-1,-1,-1,-1,-1,-1,-1,-1,-1,-1,-1,-1],"split_conditions":[1.943734E-2,1.5611926E4,5.162177E-4,-1.3017027E-3,4.78094E3,2.3987299E-2,3.639421E-3,1.13359846E-1,3.0775279E-2,1.1728241E-2,7.056E0,2.0844566E-2,4.2614363E-2,1.4464357E-2,2.068178E4,3.97099E3,-3.9755944E-3,6.9789016E-3,2.354946E4,2.347792E4,3.5156895E1,2.244373E4,2.14174E4,1.851861E4,1E0,5.7304144E-2,9.09313E-3,8.7784134E-2,-1.0662827E-3,1.1422549E-2,-2.100174E-2,1.9764176E-1,2.1726226E-2,3.905664E-3,-3.6091294E-2,6.840641E-2,2.1789551E-3,1.8698746E-2,-3.1247301E-2,1.59337E-1,3.4363456E-2,5.2029163E-2,-3.3456292E-2,-1.8863505E-2,2.8382702E-2,3.6822576E-3,3.9632164E-2],"split_indices":[4,3,8,1,5,4,10,0,0,4,9,4,4,8,0,5,10,1,0,0,13,0,0,7,15,0,0,0,0,0,0,0,0,0,0,0,0,0,0,0,0,0,0,0,0,0,0],"split_type":[0,0,0,0,0,0,0,0,0,0,0,0,0,0,0,0,0,0,0,0,0,0,0,0,0,0,0,0,0,0,0,0,0,0,0,0,0,0,0,0,0,0,0,0,0,0,0],"sum_hessian":[6.27E2,5.71E2,5.6E1,3E0,5.68E2,2.7E1,2.9E1,2E0,1E0,2.48E2,3.2E2,1.6E1,1.1E1,2.5E1,4E0,7.8E1,1.7E2,9E0,3.11E2,6E0,1E1,4E0,7E0,1.9E1,6E0,3E0,1E0,4E0,7.4E1,1.3E1,1.57E2,3E0,6E0,2.86E2,2.5E1,5E0,1E0,7E0,3E0,3E0,1E0,6E0,1E0,1.6E1,3E0,2E0,4E0],"tree_param":{"num_deleted":"0","num_feature":"16","num_nodes":"47","size_leaf_vector":"1"}},{"base_weights":[7.2847717E-3,-1.8831126E-2,2.7970734E-1,2.2614509E-1,-4.522773E-2,2.3516662E-1,1.342453E-1,-6.299341E-2,4.0142798E-1,2.0424472E-2,-1.3384664E-1,5.1285493E-1,1.152133E-1,-2.7545002E-1,2.7449393E-1,9.0643114E-1,2.1822591E-1,5.6843944E-3,2.206484E-1,-1.5160264E-1,4.3063694E-1,1.8308084E-1,1.0319649E0,2.6030636E-1,-5.1216554E-2,-1.7748682E-2,-5.7548624E-2,4.708324E-2,-8.86372E-3,-1.624585E-2,1.2350365E-1,4.6621937E-2,-4.29036E-2,9.501833E-3,-1.1534805E-2,-2.985317E-2,-8.45164E-3,6.714107E-3,8.9291774E-2,-2.7732493E-3,3.633807E-2,2.8104234E-2,1.1259409E-1,6.7654215E-3,5.096587E-2,-1.6672514E-2,3.0555254E-2],"categories":[],"categories_nodes":[],"categories_segments":[],"categories_sizes":[],"default_left":[0,0,0,0,0,0,0,0,0,0,0,0,0,0,0,0,0,0,0,0,0,0,0,0,0,0,0,0,0,0,0,0,0,0,0,0,0,0,0,0,0,0,0,0,0,0,0],"id":8,"left_children":[1,3,5,7,9,11,-1,13,15,17,19,21,23,25,27,29,31,33,-1,35,37,39,41,43,45,-1,-1,-1,-1,-1,-1,-1,-1,-1,-1,-1,-1,-1,-1,-1,-1,-1,-1,-1,-1,-1,-1],"loss_changes":[4.4732113E0,3.722022E0,2.2877493E0,2.8634253E0,3.0222898E0,1.7396326E0,0E0,1.6530406E0,3.0403104E0,9.622041E0,2.2803617E0,2.5500913E0,9.5509684E-1,3.0935395E-1,6.8340266E-1,3.3618283E0,4.5339766E0,3.233027E0,0E0,2.0940065E0,1.1163086E0,4.2818314E-1,1.06975555E-1,9.743229E-1,8.339313E-1,0E0,0E0,0E0,0E0,0E0,0E0,0E0,0E0,0E0,0E0,0E0,0E0,0E0,0E0,0E0,0E0,0E0,0E0,0E0,0E0,0E0,0E0],"parents":[2147483647,0,0,1,1,2,2,3,3,4,4,5,5,7,7,8,8,9,9,10,10,11,11,12,12,13,13,14,14,15,15,16,16,17,17,19,19,20,20,21,21,22,22,23,23,24,24],"right_children":[2,4,6,8,10,12,-1,14,16,18,20,22,24,26,28,30,32,34,-1,36,38,40,42,44,46,-1,-1,-1,-1,-1,-1,-1,-1,-1,-1,-1,-1,-1,-1,-1,-1,-1,-1,-1,-1,-1,-1],"split_conditions":[1.9539231E-2,1.6594064E4,7.355E0,1.509918E4,9.082787E-4,-9.870059E-3,1.342453E-1,3E0,4.9818E3,3.5482604E-2,4.108922E-3,-1.5357416E-2,1.4395551E-5,7.1915E0,5.7423417E-3,1E0,1.5595632E-2,1.31663075E-2,2.206484E-1,1.469E1,1.6602995E-2,2.0452123E4,1.556621E4,3E0,8.027876E-3,-1.7748682E-2,-5.7548624E-2,4.708324E-2,-8.86372E-3,-1.624585E-2,1.2350365E-1,4.6621937E-2,-4.29036E-2,9.501833E-3,-1.1534805E-2,-2.985317E-2,-8.45164E-3,6.714107E-3,8.9291774E-2,-2.7732493E-3,3.633807E-2,2.8104234E-2,1.1259409E-1,6.7654215E-3,5.096587E-2,-1.6672514E-2,3.0555254E-2],"split_indices":[4,3,9,7,1,1,0,15,5,14,10,1,10,9,6,15,4,4,0,11,4,2,0,15,6,0,0,0,0,0,0,0,0,0,0,0,0,0,0,0,0,0,0,0,0,0,0],"split_type":[0,0,0,0,0,0,0,0,0,0,0,0,0,0,0,0,0,0,0,0,0,0,0,0,0,0,0,0,0,0,0,0,0,0,0,0,0,0,0,0,0,0,0,0,0,0,0],"sum_hessian":[6.27E2,5.73E2,5.4E1,5.5E1,5.18E2,5.3E1,1E0,2.1E1,3.4E1,2.98E2,2.2E2,1.5E1,3.8E1,1.3E1,8E0,8E0,2.6E1,2.97E2,1E0,2.14E2,6E0,1E1,5E0,2E1,1.8E1,1.1E1,2E0,5E0,3E0,2E0,6E0,1.9E1,7E0,1.71E2,1.26E2,6.6E1,1.48E2,4E0,2E0,5E0,5E0,1E0,4E0,1.2E1,8E0,1.4E1,4E0],"tree_param":{"num_deleted":"0","num_feature":"16","num_nodes":"47","size_leaf_vector":"1"}},{"base_weights":[7.719257E-3,-8.591678E-2,7.367495E-2,-1.189633E-1,1.9214597E-1,6.1560925E-2,1.5310654E-1,9.168289E-2,-1.3190016E-1,1.0868258E0,8.152345E-2,8.705873E-1,4.110745E-2,-1.4991675E-1,3.8905197E-1,1.5678146E-1,6.2424242E-3,4.145128E-1,-6.297331E-2,1.7727617E0,1.2403975E-1,4.6785754E-1,9.13772E-3,7.9542056E-2,-1.5772285E-2,1.0927516E-2,4.640984E-2,1.9177368E-2,5.098016E-2,1.7736405E-2,-2.1795044E-2,4.7614306E-2,2.0462537E-1,-4.5000706E-2,3.2885052E-2,1.08181015E-1,1.1530275E-2,-2.257677E-3,2.5042146E-2],"categories":[],"categories_nodes":[],"categories_segments":[],"categories_sizes":[],"default_left":[0,0,0,0,0,0,0,0,0,0,0,0,0,0,0,0,0,0,0,0,0,0,0,0,0,0,0,0,0,0,0,0,0,0,0,0,0,0,0],"id":9,"left_children":[1,3,5,7,9,11,-1,-1,13,15,17,19,21,23,25,-1,-1,27,29,31,33,35,37,-1,-1,-1,-1,-1,-1,-1,-1,-1,-1,-1,-1,-1,-1,-1,-1],"loss_changes":[3.8847506E0,2.4120002E0,6.4203887E0,3.2431045E0,2.6826072E0,6.0371084E0,0E0,0E0,2.2264414E0,1.3803072E0,1.2771161E0,5.841752E0,4.8935924E0,1.7784386E0,1.1725557E-1,0E0,0E0,7.202971E-2,7.4634564E-1,4.4414902E-1,8.534109E-1,5.2865624E0,2.5691378E0,0E0,0E0,0E0,0E0,0E0,0E0,0E0,0E0,0E0,0E0,0E0,0E0,0E0,0E0,0E0,0E0],"parents":[2147483647,0,0,1,1,2,2,3,3,4,4,5,5,8,8,9,9,10,10,11,11,12,12,13,13,14,14,17,17,18,18,19,19,20,20,21,21,22,22],"right_children":[2,4,6,8,10,12,-1,-1,14,16,18,20,22,24,26,-1,-1,28,30,32,34,36,38,-1,-1,-1,-1,-1,-1,-1,-1,-1,-1,-1,-1,-1,-1,-1,-1],"split_conditions":[1.509918E4,2.049E1,8.57781E-3,-1.5730513E-2,9.349839E-3,7.036E0,1.5310654E-1,9.168289E-2,1.47265745E-2,1.979549E4,1.9340777E4,6.9789016E-3,1.565782E4,-1.2506028E-1,9.028241E-3,1.5678146E-1,6.2424242E-3,2E0,-1.6732775E-2,1.825857E4,-3.0582575E-2,-3.1537267E-3,1.9539231E-2,7.9542056E-2,-1.5772285E-2,1.0927516E-2,4.640984E-2,1.9177368E-2,5.098016E-2,1.7736405E-2,-2.1795044E-2,4.7614306E-2,2.0462537E-1,-4.5000706E-2,3.2885052E-2,1.08181015E-1,1.1530275E-2,-2.257677E-3,2.5042146E-2],"split_indices":[7,11,10,6,4,9,0,0,6,0,3,1,7,12,4,0,0,15,1,0,12,6,4,0,0,0,0,0,0,0,0,0,0,0,0,0,0,0,0],"split_type":[0,0,0,0,0,0,0,0,0,0,0,0,0,0,0,0,0,0,0,0,0,0,0,0,0,0,0,0,0,0,0,0,0,0,0,0,0,0,0],"sum_hessian":[6.27E2,2.59E2,3.68E2,2.32E2,2.7E1,3.66E2,2E0,2E0,2.3E2,2E0,2.5E1,8E0,3.58E2,2.23E2,7E0,1E0,1E0,7E0,1.8E1,3E0,5E0,2.4E1,3.34E2,1E0,2.22E2,2E0,5E0,3E0,4E0,7E0,1.1E1,1E0,2E0,1E0,4E0,8E0,1.6E1,2.96E2,3.8E1],"tree_param":{"num_deleted":"0","num_feature":"16","num_nodes":"39","size_leaf_vector":"1"}},{"base_weights":[8.504093E-3,2.073568E-3,8.093327E-1,-7.696588E-2,5.6541096E-2,2.6670063E-2,1.0821872E-1,2.800793E-1,-1.004482E-1,8.10209E-1,3.7647307E-2,7.06281E-1,-4.6269823E-2,2.56881E-1,-1.2541184E-1,1.6585454E0,1.0961649E-1,2.768028E-1,1.085049E-3,8.554844E-2,-9.446955E-3,-3.2722764E-2,3.001335E-2,7.13208E-2,-1.5377451E-3,-1.8046869E-2,2.556832E-3,4.523359E-2,1.9098367E-1,-4.2750668E-2,3.0254245E-2,5.151813E-2,3.6887366E-3,8.981311E-3,-1.04903225E-2],"categories":[],"categories_nodes":[],"categories_segments":[],"categories_sizes":[],"default_left":[0,0,0,0,0,0,0,0,0,0,0,0,0,0,0,0,0,0,0,0,0,0,0,0,0,0,0,0,0,0,0,0,0,0,0],"id":10,"left_children":[1,3,5,7,9,-1,-1,11,13,15,17,19,21,23,25,27,29,31,33,-1,-1,-1,-1,-1,-1,-1,-1,-1,-1,-1,-1,-1,-1,-1,-1],"loss_changes":[3.2323637E0,2.690724E0,4.516778E-1,2.1661172E0,5.238165E0,0E0,0E0,2.2581286E0,2.173073E0,5.16724E0,3.1650515E0,9.1713977E-1,1.071459E0,1.9987897E0,1.8749242E0,3.4855175E-1,7.51089E-1,2.7261488E0,2.9717238E0,0E0,0E0,0E0,0E0,0E0,0E0,0E0,0E0,0E0,0E0,0E0,0E0,0E0,0E0,0E0,0E0],"parents":[2147483647,0,0,1,1,2,2,3,3,4,4,7,7,8,8,9,9,10,10,11,11,12,12,13,13,14,14,15,15,16,16,17,17,18,18],"right_children":[2,4,6,8,10,-1,-1,12,14,16,18,20,22,24,26,28,30,32,34,-1,-1,-1,-1,-1,-1,-1,-1,-1,-1,-1,-1,-1,-1,-1,-1],"split_conditions":[4.072E1,4.78094E3,1.1589241E-4,-1.6530603E-2,7.036E0,2.6670063E-2,1.0821872E-1,1.97E1,1.151241E4,6.9789016E-3,1.6594064E4,-7.0473563E-4,-1.7999016E-2,-8.543601E-3,5.873742E-3,1.825857E4,-3.0582575E-2,1.45865E-2,9.082787E-4,8.554844E-2,-9.446955E-3,-3.2722764E-2,3.001335E-2,7.13208E-2,-1.5377451E-3,-1.8046869E-2,2.556832E-3,4.523359E-2,1.9098367E-1,-4.2750668E-2,3.0254245E-2,5.151813E-2,3.6887366E-3,8.981311E-3,-1.04903225E-2],"split_indices":[11,5,1,8,9,0,0,11,7,1,3,1,8,14,6,0,12,4,1,0,0,0,0,0,0,0,0,0,0,0,0,0,0,0,0],"split_type":[0,0,0,0,0,0,0,0,0,0,0,0,0,0,0,0,0,0,0,0,0,0,0,0,0,0,0,0,0,0,0,0,0,0,0],"sum_hessian":[6.27E2,6.23E2,4E0,2.54E2,3.69E2,2E0,2E0,1.5E1,2.39E2,8E0,3.61E2,6E0,9E0,1.5E1,2.24E2,3E0,5E0,4.7E1,3.14E2,5E0,1E0,5E0,4E0,5E0,1E1,1.64E2,6E1,1E0,2E0,1E0,4E0,2.3E1,2.4E1,1.71E2,1.43E2],"tree_param":{"num_deleted":"0","num_feature":"16","num_nodes":"35","size_leaf_vector":"1"}},{"base_weights":[8.513537E-3,-1.6292846E-2,2.0030023E-1,-2.7291516E-2,3.8294518E-1,4.1517586E-1,7.83687E-3,-1.2761589E-2,-3.157227E-1,1.0862743E-1,1.9118114E-1,5.031328E-1,4.0371544E-3,-5.989185E-2,2.7777213E-1,-9.033007E-2,4.853477E-2,1.4083843E-1,-3.8139755E-1,3.9697222E-2,4.2561598E-2,2.17356E-1,6.498224E-1,-2.3841725E-1,4.0678214E-2,1.9762014E-1,-1.2691846E-1,3.3239567E-1,-5.229631E-3,-2.1849485E-2,2.7907067E-3,1.8626204E-2,-6.297505E-3,2.6238827E-2,-1.1190555E-2,1.07797645E-2,-4.331208E-2,-8.970527E-3,3.2840397E-2,4.1535836E-2,4.4874875E-3,1.4833184E-1,3.8423534E-2,-3.0890176E-2,2.1760375E-3,2.9248928E-3,4.1236546E-2,-1.7789407E-2,3.231924E-2,7.2787204E-3,4.2168163E-2],"categories":[],"categories_nodes":[],"categories_segments":[],"categories_sizes":[],"default_left":[0,0,0,0,0,0,0,0,0,0,0,0,0,0,0,0,0,0,0,0,0,0,0,0,0,0,0,0,0,0,0,0,0,0,0,0,0,0,0,0,0,0,0,0,0,0,0,0,0,0,0],"id":11,"left_children":[1,3,5,7,9,11,13,15,17,-1,19,21,23,25,27,29,31,33,35,37,-1,39,41,43,-1,45,47,49,-1,-1,-1,-1,-1,-1,-1,-1,-1,-1,-1,-1,-1,-1,-1,-1,-1,-1,-1,-1,-1,-1,-1],"loss_changes":[2.9909952E0,2.4562864E0,2.9743557E0,2.271621E0,1.8154233E0,1.2274938E0,7.2964865E-1,2.4673007E0,8.333149E-1,0E0,4.4477457E-1,1.0325308E0,7.805149E-1,5.7740664E-1,1.6161919E-1,3.4763265E0,4.4655337E0,1.5224665E-1,6.2865305E-1,3.6569387E-1,0E0,3.570292E-1,3.4146395E0,9.841427E-2,0E0,2.4103728E-1,6.5405524E-1,1.3156259E-1,0E0,0E0,0E0,0E0,0E0,0E0,0E0,0E0,0E0,0E0,0E0,0E0,0E0,0E0,0E0,0E0,0E0,0E0,0E0,0E0,0E0,0E0,0E0],"parents":[2147483647,0,0,1,1,2,2,3,3,4,4,5,5,6,6,7,7,8,8,10,10,11,11,12,12,13,13,14,14,15,15,16,16,17,17,18,18,19,19,21,21,22,22,23,23,25,25,26,26,27,27],"right_children":[2,4,6,8,10,12,14,16,18,-1,20,22,24,26,28,30,32,34,36,38,-1,40,42,44,-1,46,48,50,-1,-1,-1,-1,-1,-1,-1,-1,-1,-1,-1,-1,-1,-1,-1,-1,-1,-1,-1,-1,-1,-1,-1],"split_conditions":[1.8871807E-2,6.07511E3,5.162177E-4,2.354946E4,-4.8991375E-2,3.5156895E1,1.4464357E-2,1.502E1,-1.740598E-2,1.0862743E-1,4E0,4.92793E3,3.5664154E1,-1.36921555E-2,4.2627286E-2,1.1160825E-3,-6.5178523E-4,2.390697E4,1.697E1,1.5545009E-2,4.2561598E-2,-1.3744072E-2,2.015505E4,1.6014261E-2,4.0678214E-2,3.1013147E-3,1.857977E4,-2.2306398E-2,-5.229631E-3,-2.1849485E-2,2.7907067E-3,1.8626204E-2,-6.297505E-3,2.6238827E-2,-1.1190555E-2,1.07797645E-2,-4.331208E-2,-8.970527E-3,3.2840397E-2,4.1535836E-2,4.4874875E-3,1.4833184E-1,3.8423534E-2,-3.0890176E-2,2.1760375E-3,2.9248928E-3,4.1236546E-2,-1.7789407E-2,3.231924E-2,7.2787204E-3,4.2168163E-2],"split_indices":[4,5,8,0,12,13,8,11,14,0,15,5,13,1,4,6,6,0,11,4,0,6,0,1,0,10,7,1,0,0,0,0,0,0,0,0,0,0,0,0,0,0,0,0,0,0,0,0,0,0,0],"split_type":[0,0,0,0,0,0,0,0,0,0,0,0,0,0,0,0,0,0,0,0,0,0,0,0,0,0,0,0,0,0,0,0,0,0,0,0,0,0,0,0,0,0,0,0,0,0,0,0,0,0,0],"sum_hessian":[6.27E2,5.56E2,7.1E1,5.42E2,1.4E1,3.3E1,3.8E1,5.17E2,2.5E1,2E0,1.2E1,2.7E1,6E0,3.1E1,7E0,2.28E2,2.89E2,3E0,2.2E1,8E0,4E0,1E1,1.7E1,4E0,2E0,6E0,2.5E1,6E0,1E0,1.09E2,1.19E2,1.29E2,1.6E2,2E0,1E0,2E0,2E1,6E0,2E0,4E0,6E0,3E0,1.4E1,3E0,1E0,4E0,2E0,2.3E1,2E0,2E0,4E0],"tree_param":{"num_deleted":"0","num_feature":"16","num_nodes":"51","size_leaf_vector":"1"}},{"base_weights":[8.455979E-3,-6.752024E-2,6.196644E-2,-9.555494E-2,1.6817993E-1,5.132934E-2,1.3425829E-1,7.862572E-2,-1.06593385E-1,9.9680614E-1,6.6100754E-2,7.485665E-1,3.370688E-2,-1.2273967E-1,3.5882682E-1,1.4444505E-1,5.075881E-3,3.6632204E-1,-6.378719E-2,1.5440063E0,9.3512125E-2,3.9646688E-1,6.534621E-3,7.575198E-2,-1.3008398E-2,1.05848815E-2,4.2551134E-2,1.7264303E-2,4.4800084E-2,1.5307108E-2,-2.0304378E-2,4.328678E-2,1.7700967E-1,-4.029826E-2,2.7340759E-2,9.3666166E-2,8.715984E-3,-9.830905E-4,3.5632126E-2],"categories":[],"categories_nodes":[],"categories_segments":[],"categories_sizes":[],"default_left":[0,0,0,0,0,0,0,0,0,0,0,0,0,0,0,0,0,0,0,0,0,0,0,0,0,0,0,0,0,0,0,0,0,0,0,0,0,0,0],"id":12,"left_children":[1,3,5,7,9,11,-1,-1,13,15,17,19,21,23,25,-1,-1,27,29,31,33,35,37,-1,-1,-1,-1,-1,-1,-1,-1,-1,-1,-1,-1,-1,-1,-1,-1],"loss_changes":[2.5573323E0,1.7340939E0,4.9576206E0,2.3517938E0,2.3025038E0,4.48411E0,0E0,0E0,1.779963E0,1.1971593E0,1.0372399E0,4.545124E0,3.5360758E0,1.5466769E0,8.99179E-2,0E0,0E0,4.9211502E-2,6.0486007E-1,2.3865318E-1,6.460814E-1,4.0955114E0,1.9211911E0,0E0,0E0,0E0,0E0,0E0,0E0,0E0,0E0,0E0,0E0,0E0,0E0,0E0,0E0,0E0,0E0],"parents":[2147483647,0,0,1,1,2,2,3,3,4,4,5,5,8,8,9,9,10,10,11,11,12,12,13,13,14,14,17,17,18,18,19,19,20,20,21,21,22,22],"right_children":[2,4,6,8,10,12,-1,-1,14,16,18,20,22,24,26,-1,-1,28,30,32,34,36,38,-1,-1,-1,-1,-1,-1,-1,-1,-1,-1,-1,-1,-1,-1,-1,-1],"split_conditions":[1.509918E4,2.049E1,8.57781E-3,-1.5730513E-2,9.349839E-3,7.036E0,1.3425829E-1,7.862572E-2,1.47265745E-2,1.979549E4,1.9340777E4,6.9789016E-3,1.565782E4,-1.2506028E-1,9.028241E-3,1.4444505E-1,5.075881E-3,-7.1292147E-3,-1.6732775E-2,1.825857E4,-3.0582575E-2,-3.1537267E-3,6.07511E3,7.575198E-2,-1.3008398E-2,1.05848815E-2,4.2551134E-2,1.7264303E-2,4.4800084E-2,1.5307108E-2,-2.0304378E-2,4.328678E-2,1.7700967E-1,-4.029826E-2,2.7340759E-2,9.3666166E-2,8.715984E-3,-9.830905E-4,3.5632126E-2],"split_indices":[7,11,10,6,4,9,0,0,6,0,3,1,7,12,4,0,0,1,1,0,12,6,5,0,0,0,0,0,0,0,0,0,0,0,0,0,0,0,0],"split_type":[0,0,0,0,0,0,0,0,0,0,0,0,0,0,0,0,0,0,0,0,0,0,0,0,0,0,0,0,0,0,0,0,0,0,0,0,0,0,0],"sum_hessian":[6.27E2,2.59E2,3.68E2,2.32E2,2.7E1,3.66E2,2E0,2E0,2.3E2,2E0,2.5E1,8E0,3.58E2,2.23E2,7E0,1E0,1E0,7E0,1.8E1,3E0,5E0,2.4E1,3.34E2,1E0,2.22E2,2E0,5E0,3E0,4E0,7E0,1.1E1,1E0,2E0,1E0,4E0,8E0,1.6E1,3.2E2,1.4E1],"tree_param":{"num_deleted":"0","num_feature":"16","num_nodes":"39","size_leaf_vector":"1"}},{"base_weights":[9.01123E-3,-3.0373998E-3,3.2607466E-1,1.613757E-1,-2.2749234E-2,-7.184352E-2,5.870109E-1,6.247845E-1,8.537474E-2,-6.8065256E-2,6.652134E-2,1.6366632E-1,-2.561278E-1,1.2569706E-1,3.7060338E-1,1.3840966E-1,1.1981507E-1,-2.5092477E-2,4.2645922E-1,5.5692714E-1,-7.843677E-2,5.037581E-1,1.8709403E-2,1.4097095E-3,1.9753436E-2,-2.876774E-2,-4.9189925E-3,-1.7950615E-1,5.7391834E-1,2.23876E-2,-1.4446101E-2,5.842659E-2,-1.0063496E-2,5.6001185E-3,7.889172E-2,1.0364975E-1,5.8017634E-3,7.831625E-3,-1.1790079E-2,1.1132647E-1,1.4684276E-3,1.1276501E-2,-1.3295367E-2,9.885013E-3,-3.0524163E-2,6.0968697E-2,1.438846E-2],"categories":[],"categories_nodes":[],"categories_segments":[],"categories_sizes":[],"default_left":[0,0,0,0,0,0,0,0,0,0,0,0,0,0,0,0,0,0,0,0,0,0,0,0,0,0,0,0,0,0,0,0,0,0,0,0,0,0,0,0,0,0,0,0,0,0,0],"id":13,"left_children":[1,3,5,7,9,11,13,15,17,19,21,23,25,-1,27,29,-1,31,33,35,37,39,41,-1,-1,-1,-1,43,45,-1,-1,-1,-1,-1,-1,-1,-1,-1,-1,-1,-1,-1,-1,-1,-1,-1,-1],"loss_changes":[2.4000635E0,1.9676468E0,2.4302924E0,2.2359278E0,2.1971276E0,4.7592714E-1,1.5639429E0,2.3440022E0,2.158384E0,2.3772469E0,3.8162148E0,2.2543415E-2,2.5022E-2,0E0,1.4451678E0,1.7739686E-1,0E0,2.0842252E0,1.8356762E0,1.3754382E0,2.2053E0,5.349339E0,2.3829432E0,0E0,0E0,0E0,0E0,1.7017022E-1,5.0710917E-2,0E0,0E0,0E0,0E0,0E0,0E0,0E0,0E0,0E0,0E0,0E0,0E0,0E0,0E0,0E0,0E0,0E0,0E0],"parents":[2147483647,0,0,1,1,2,2,3,3,4,4,5,5,6,6,7,7,8,8,9,9,10,10,11,11,12,12,14,14,15,15,17,17,18,18,19,19,20,20,21,21,22,22,27,27,28,28],"right_children":[2,4,6,8,10,12,14,16,18,20,22,24,26,-1,28,30,-1,32,34,36,38,40,42,-1,-1,-1,-1,44,46,-1,-1,-1,-1,-1,-1,-1,-1,-1,-1,-1,-1,-1,-1,-1,-1,-1,-1],"split_conditions":[2.3987299E-2,1.6594064E4,2E0,-2.5322102E-3,5.58094E3,1.3434298E-3,2.015505E4,1.0494707E-2,5.02973E3,6.998444E-3,7.088E0,2.0452123E4,2.2156297E4,1.2569706E-1,3E0,1.649947E4,1.1981507E-1,1.5611926E4,7.206E0,-3.3427286E-3,-1.3436879E-2,6.9789016E-3,4.0658847E-3,1.4097095E-3,1.9753436E-2,-2.876774E-2,-4.9189925E-3,2.03312E4,5.80282E3,2.23876E-2,-1.4446101E-2,5.842659E-2,-1.0063496E-2,5.6001185E-3,7.889172E-2,1.0364975E-1,5.8017634E-3,7.831625E-3,-1.1790079E-2,1.1132647E-1,1.4684276E-3,1.1276501E-2,-1.3295367E-2,9.885013E-3,-3.0524163E-2,6.0968697E-2,1.438846E-2],"split_indices":[4,3,15,10,5,6,0,12,5,4,9,2,2,0,15,0,0,3,9,8,1,1,1,0,0,0,0,0,5,0,0,0,0,0,0,0,0,0,0,0,0,0,0,0,0,0,0],"split_type":[0,0,0,0,0,0,0,0,0,0,0,0,0,0,0,0,0,0,0,0,0,0,0,0,0,0,0,0,0,0,0,0,0,0,0,0,0,0,0,0,0,0,0,0,0,0,0],"sum_hessian":[6.27E2,6.05E2,2.2E1,6.4E1,5.41E2,9E0,1.3E1,8E0,5.6E1,3.59E2,1.82E2,4E0,5E0,2E0,1.1E1,5E0,3E0,4.3E1,1.3E1,5E0,3.54E2,1.7E1,1.65E2,1E0,3E0,4E0,1E0,3E0,8E0,4E0,1E0,4E0,3.9E1,7E0,6E0,2E0,3E0,7.1E1,2.83E2,7E0,1E1,1.02E2,6.3E1,1E0,2E0,7E0,1E0],"tree_param":{"num_deleted":"0","num_feature":"16","num_nodes":"47","size_leaf_vector":"1"}},{"base_weights":[9.136822E-3,-1.1820277E-2,1.7113638E-1,1.3350702E-3,-2.805443E-1,3.5319802E-1,8.0278525E-3,-2.9762667E-2,1.5645933E-1,1.2279664E-1,-3.3849296E-1,4.2865264E-1,9.226501E-4,-5.0818477E-2,2.4240968E-1,3.7233124E-3,-2.2864383E-1,-7.229717E-2,3.8173896E-1,2.3803349E-1,-1.1145696E-2,9.3748905E-2,-3.841231E-1,2.9408664E-1,6.800601E-1,-2.1706375E-1,3.639258E-2,-1.6187483E-1,8.5837044E-2,2.9039118E-1,-4.673043E-3,-1.305495E-3,6.2750235E-2,-4.5542777E-2,-1.4992575E-2,1.7015448E-2,-2.255769E-2,9.654822E-2,1.6448433E-2,6.300238E-3,2.9404787E-2,2.6576163E-3,1.140472E-2,-4.1485867E-3,-4.1800674E-2,3.4327358E-2,-3.2023262E-2,8.509811E-2,2.536636E-2,-2.852355E-2,2.7811588E-3,-5.30731E-3,-4.341447E-2,-1.1245802E-2,3.285254E-2,5.679075E-3,3.7247322E-2],"categories":[],"categories_nodes":[],"categories_segments":[],"categories_sizes":[],"default_left":[0,0,0,0,0,0,0,0,0,0,0,0,0,0,0,0,0,0,0,0,0,0,0,0,0,0,0,0,0,0,0,0,0,0,0,0,0,0,0,0,0,0,0,0,0,0,0,0,0,0,0,0,0,0,0,0,0],"id":14,"left_children":[1,3,5,7,9,11,13,15,17,19,21,23,25,27,29,31,33,35,37,39,-1,41,43,45,47,49,-1,51,53,55,-1,-1,-1,-1,-1,-1,-1,-1,-1,-1,-1,-1,-1,-1,-1,-1,-1,-1,-1,-1,-1,-1,-1,-1,-1,-1,-1],"loss_changes":[2.1341085E0,1.9694576E0,2.1352623E0,2.5710318E0,6.492655E-1,9.033518E-1,5.502268E-1,2.9577718E0,4.614141E0,1.3450907E-1,4.8964572E-1,7.472687E-1,6.3290334E-1,4.9954167E-1,1.2455714E-1,3.9957108E0,1.0742478E0,1.7107146E0,5.5481353E0,1.0887057E-2,0E0,1.0595378E-3,2.2646427E-1,7.1425724E-1,4.4005823E-1,9.140073E-2,0E0,5.1018035E-1,7.588039E-1,1.13067746E-1,0E0,0E0,0E0,0E0,0E0,0E0,0E0,0E0,0E0,0E0,0E0,0E0,0E0,0E0,0E0,0E0,0E0,0E0,0E0,0E0,0E0,0E0,0E0,0E0,0E0,0E0,0E0],"parents":[2147483647,0,0,1,1,2,2,3,3,4,4,5,5,6,6,7,7,8,8,9,9,10,10,11,11,12,12,13,13,14,14,15,15,16,16,17,17,18,18,19,19,21,21,22,22,23,23,24,24,25,25,27,27,28,28,29,29],"right_children":[2,4,6,8,10,12,14,16,18,20,22,24,26,28,30,32,34,36,38,40,-1,42,44,46,48,50,-1,52,54,56,-1,-1,-1,-1,-1,-1,-1,-1,-1,-1,-1,-1,-1,-1,-1,-1,-1,-1,-1,-1,-1,-1,-1,-1,-1,-1,-1],"split_conditions":[1.8871807E-2,2.354946E4,5.162177E-4,2.053448E4,-1.740598E-2,3.5156895E1,1.4464357E-2,1.986758E4,5.61456E3,2.390697E4,1.697E1,2.1433555E4,3.5664154E1,5.71269E3,4.2627286E-2,1.978465E4,1.986253E4,-6.1521777E-3,-6.5178523E-4,2.371069E4,-1.1145696E-2,2.389256E4,5.6484E3,2.14174E4,2.3161072E4,1.6014261E-2,3.639258E-2,1.561176E4,2E0,-2.2306398E-2,-4.673043E-3,-1.305495E-3,6.2750235E-2,-4.5542777E-2,-1.4992575E-2,1.7015448E-2,-2.255769E-2,9.654822E-2,1.6448433E-2,6.300238E-3,2.9404787E-2,2.6576163E-3,1.140472E-2,-4.1485867E-3,-4.1800674E-2,3.4327358E-2,-3.2023262E-2,8.509811E-2,2.536636E-2,-2.852355E-2,2.7811588E-3,-5.30731E-3,-4.341447E-2,-1.1245802E-2,3.285254E-2,5.679075E-3,3.7247322E-2],"split_indices":[4,0,8,0,14,13,8,0,5,0,11,3,13,5,4,0,2,14,6,0,0,0,5,0,3,1,0,7,15,1,0,0,0,0,0,0,0,0,0,0,0,0,0,0,0,0,0,0,0,0,0,0,0,0,0,0,0],"split_type":[0,0,0,0,0,0,0,0,0,0,0,0,0,0,0,0,0,0,0,0,0,0,0,0,0,0,0,0,0,0,0,0,0,0,0,0,0,0,0,0,0,0,0,0,0,0,0,0,0,0,0,0,0,0,0,0,0],"sum_hessian":[6.27E2,5.56E2,7.1E1,5.31E2,2.5E1,3.3E1,3.8E1,4.43E2,8.8E1,3E0,2.2E1,2.7E1,6E0,3.1E1,7E0,3.8E2,6.3E1,4.4E1,4.4E1,2E0,1E0,2E0,2E1,1.9E1,8E0,4E0,2E0,1.7E1,1.4E1,6E0,1E0,3.71E2,9E0,1.5E1,4.8E1,1.7E1,2.7E1,1.1E1,3.3E1,1E0,1E0,1E0,1E0,2E0,1.8E1,1.8E1,1E0,5E0,3E0,3E0,1E0,1.3E1,4E0,8E0,6E0,2E0,4E0],"tree_param":{"num_deleted":"0","num_feature":"16","num_nodes":"57","size_leaf_vector":"1"}},{"base_weights":[8.598304E-3,2.7911859E-3,5.233739E-1,6.79618E-2,-4.0027782E-2,-2.3472309E-1,1.1506275E-1,-1.6197106E-1,1.3467157E-1,-1.8538783E-1,1.1453899E-3,1.1519677E-2,-3.8976196E-2,-1.9959572E-1,5.692633E-2,2.4013992E-1,-2.9466145E-2,-3.400804E-1,5.9300326E-2,2.7694166E-1,-2.3283599E-2,6.9883525E-2,-2.2973282E-2,9.395855E-3,4.2105973E-2,-7.7600367E-3,1.16766684E-1,-4.1106094E-2,9.282251E-3,7.979696E-2,-1.4096708E-3,5.2353293E-2,-6.207829E-3,-4.1501545E-3,3.7337884E-2],"categories":[],"categories_nodes":[],"categories_segments":[],"categories_sizes":[],"default_left":[0,0,0,0,0,0,0,0,0,0,0,0,0,0,0,0,0,0,0,0,0,0,0,0,0,0,0,0,0,0,0,0,0,0,0],"id":15,"left_children":[1,3,5,7,9,11,-1,13,15,17,19,-1,-1,21,-1,23,25,27,29,31,33,-1,-1,-1,-1,-1,-1,-1,-1,-1,-1,-1,-1,-1,-1],"loss_changes":[1.8758593E0,1.738435E0,3.5987124E0,3.8104892E0,2.250548E0,2.61904E-1,0E0,1.6543196E0,3.3308513E0,3.1618364E0,1.9872509E0,0E0,0E0,1.6226549E0,0E0,3.05475E0,4.469964E0,1.605267E0,1.8003812E0,2.0388846E0,1.9738433E0,0E0,0E0,0E0,0E0,0E0,0E0,0E0,0E0,0E0,0E0,0E0,0E0,0E0,0E0],"parents":[2147483647,0,0,1,1,2,2,3,3,4,4,5,5,7,7,8,8,9,9,10,10,13,13,15,15,16,16,17,17,18,18,19,19,20,20],"right_children":[2,4,6,8,10,12,-1,14,16,18,20,-1,-1,22,-1,24,26,28,30,32,34,-1,-1,-1,-1,-1,-1,-1,-1,-1,-1,-1,-1,-1,-1],"split_conditions":[8.270892E-3,-3.74631E-4,1E0,1.425E1,1.1160825E-3,9.448388E-3,1.1506275E-1,1.199872E-3,7.246E0,1.739553E4,3.1434078E-4,1.1519677E-2,-3.8976196E-2,1.556621E4,5.692633E-2,-5.046826E-3,2.3685062E-2,8.276589E-3,-2.3745637E-2,1.900071E4,1.979199E4,6.9883525E-2,-2.2973282E-2,9.395855E-3,4.2105973E-2,-7.7600367E-3,1.16766684E-1,-4.1106094E-2,9.282251E-3,7.979696E-2,-1.4096708E-3,5.2353293E-2,-6.207829E-3,-4.1501545E-3,3.7337884E-2],"split_indices":[10,6,15,11,6,4,0,8,9,7,8,0,0,0,0,6,1,14,14,0,7,0,0,0,0,0,0,0,0,0,0,0,0,0,0],"split_type":[0,0,0,0,0,0,0,0,0,0,0,0,0,0,0,0,0,0,0,0,0,0,0,0,0,0,0,0,0,0,0,0,0,0,0],"sum_hessian":[6.27E2,6.21E2,6E0,2.46E2,3.75E2,3E0,3E0,5.5E1,1.91E2,8.2E1,2.93E2,1E0,2E0,5.3E1,2E0,1.16E2,7.5E1,5E1,3.2E1,2.3E1,2.7E2,1E0,5.2E1,6.5E1,5.1E1,7.3E1,2E0,4.3E1,7E0,2E0,3E1,1.3E1,1E1,2.59E2,1.1E1],"tree_param":{"num_deleted":"0","num_feature":"16","num_nodes":"35","size_leaf_vector":"1"}},{"base_weights":[8.499382E-3,1.395078E-1,-1.2545327E-2,1.0178343E-1,1.6919021E-1,3.267653E-2,-7.9391606E-2,4.0205675E-1,1.6386718E-2,-4.4394262E-2,1.51038E-1,-1.18974574E-1,1.556393E-1,-1.6263625E-1,5.6348395E-1,-9.135656E-2,4.3849337E-1,9.422225E-2,-6.450804E-2,2.998042E-1,-3.952699E-2,-1.3933413E-1,3.0143583E-1,-1.0185273E-1,3.3717874E-1,-3.5519674E-2,8.413633E-3,2.0342696E-2,7.231698E-2,8.060419E-3,-3.5296153E-2,-2.9625464E-2,5.178013E-2,6.8710886E-2,-7.991097E-3,4.560156E-2,-1.2113826E-3,3.0228926E-2,-1.3739553E-2,-1.1524638E-2,-4.399039E-2,-8.572914E-3,6.2831365E-2,-3.362245E-2,2.6668036E-2,1.33160595E-2,7.570246E-2],"categories":[],"categories_nodes":[],"categories_segments":[],"categories_sizes":[],"default_left":[0,0,0,0,0,0,0,0,0,0,0,0,0,0,0,0,0,0,0,0,0,0,0,0,0,0,0,0,0,0,0,0,0,0,0,0,0,0,0,0,0,0,0,0,0,0,0],"id":16,"left_children":[1,3,5,7,-1,9,11,13,15,17,19,21,23,25,27,29,31,-1,33,35,37,39,41,43,45,-1,-1,-1,-1,-1,-1,-1,-1,-1,-1,-1,-1,-1,-1,-1,-1,-1,-1,-1,-1,-1,-1],"loss_changes":[1.7331676E0,4.9227824E0,1.6410129E0,2.1986544E0,0E0,2.9623022E0,2.0559225E0,1.823622E0,3.1326416E0,3.9701653E0,3.6406033E0,1.6511612E0,1.5301813E0,2.6747817E-1,7.153282E-1,2.5026681E0,9.691994E-1,0E0,2.3008654E0,3.5137353E0,1.9483573E0,1.252511E0,1.1928654E0,1.298897E0,1.5266614E0,0E0,0E0,0E0,0E0,0E0,0E0,0E0,0E0,0E0,0E0,0E0,0E0,0E0,0E0,0E0,0E0,0E0,0E0,0E0,0E0,0E0,0E0],"parents":[2147483647,0,0,1,1,2,2,3,3,5,5,6,6,7,7,8,8,9,9,10,10,11,11,12,12,13,13,14,14,15,15,16,16,18,18,19,19,20,20,21,21,22,22,23,23,24,24],"right_children":[2,4,6,8,-1,10,12,14,16,18,20,22,24,26,28,30,32,-1,34,36,38,40,42,44,46,-1,-1,-1,-1,-1,-1,-1,-1,-1,-1,-1,-1,-1,-1,-1,-1,-1,-1,-1,-1,-1,-1],"split_conditions":[-1.1464042E-2,2.9232137E-2,6.2156597E-4,5.2223384E-2,1.6919021E-1,3E0,3.98082E-3,-1.3477397E-3,2.299E1,6.906943E-3,-4.622455E-3,1.973512E4,4.49763E3,-1.355186E-2,2E0,1.896E1,1.672169E4,9.422225E-2,1.5611926E4,1.745E1,7.088E0,1.928693E4,7.2756E0,2.043881E4,3E0,-3.5519674E-2,8.413633E-3,2.0342696E-2,7.231698E-2,8.060419E-3,-3.5296153E-2,-2.9625464E-2,5.178013E-2,6.8710886E-2,-7.991097E-3,4.560156E-2,-1.2113826E-3,3.0228926E-2,-1.3739553E-2,-1.1524638E-2,-4.399039E-2,-8.572914E-3,6.2831365E-2,-3.362245E-2,2.6668036E-2,1.33160595E-2,7.570246E-2],"split_indices":[8,14,10,12,0,15,10,12,11,4,12,7,5,1,15,11,0,0,3,11,9,7,9,0,15,0,0,0,0,0,0,0,0,0,0,0,0,0,0,0,0,0,0,0,0,0,0],"split_type":[0,0,0,0,0,0,0,0,0,0,0,0,0,0,0,0,0,0,0,0,0,0,0,0,0,0,0,0,0,0,0,0,0,0,0,0,0,0,0,0,0,0,0,0,0,0,0],"sum_hessian":[6.27E2,8.6E1,5.41E2,8.5E1,1E0,3.23E2,2.18E2,1.8E1,6.7E1,1.96E2,1.27E2,1.87E2,3.1E1,4E0,1.4E1,5.4E1,1.3E1,3E0,1.93E2,7.1E1,5.6E1,1.79E2,8E0,1.3E1,1.8E1,2E0,2E0,5E0,9E0,3.3E1,2.1E1,1E0,1.2E1,3E0,1.9E2,4.7E1,2.4E1,1.2E1,4.4E1,1.67E2,1.2E1,4E0,4E0,8E0,5E0,1.3E1,5E0],"tree_param":{"num_deleted":"0","num_feature":"16","num_nodes":"47","size_leaf_vector":"1"}},{"base_weights":[8.487478E-3,-4.058688E-3,1.9807082E-1,1.4533645E-1,-2.219385E-2,1.0240469E0,4.6484716E-2,5.743972E-1,7.378496E-2,-3.8928483E-2,1.7712224E-1,3.6668047E-2,1.5591866E-1,-5.9003282E-2,4.6179605E-1,1.2502187E-1,1.1048609E-1,-3.192702E-2,3.932014E-1,1.01195306E-1,-6.428043E-2,8.7321155E-2,5.366366E-1,1.7714734E-1,-1.8018766E-1,-2.1764968E-1,1.0257927E-1,2.022321E-2,-1.305146E-2,4.9643863E-2,-9.884756E-3,6.066753E-3,7.1706854E-2,-2.6606793E-2,1.8249353E-2,6.801204E-3,-9.776009E-3,1.3411319E-3,3.258517E-2,-1.790449E-3,6.1841454E-2,-2.0464493E-2,2.9817602E-2,-4.607291E-3,-3.588363E-2,9.926558E-3,-3.563766E-2],"categories":[],"categories_nodes":[],"categories_segments":[],"categories_sizes":[],"default_left":[0,0,0,0,0,0,0,0,0,0,0,0,0,0,0,0,0,0,0,0,0,0,0,0,0,0,0,0,0,0,0,0,0,0,0,0,0,0,0,0,0,0,0,0,0,0,0],"id":17,"left_children":[1,3,5,7,9,11,13,15,17,19,21,-1,-1,23,25,27,-1,29,31,33,35,37,39,41,43,45,-1,-1,-1,-1,-1,-1,-1,-1,-1,-1,-1,-1,-1,-1,-1,-1,-1,-1,-1,-1,-1],"loss_changes":[1.4945295E0,1.6017156E0,4.835451E0,1.9224142E0,1.7646937E0,1.5389738E0,1.5167997E0,2.007264E0,1.9034579E0,1.7365294E0,1.2768161E0,0E0,0E0,8.3321714E-1,2.9056995E0,1.4477439E-1,0E0,1.569488E0,1.4642522E0,2.2878942E0,1.8358696E0,5.950415E-1,3.7386608E-1,5.2309835E-1,4.3869627E-1,2.112347E-1,0E0,0E0,0E0,0E0,0E0,0E0,0E0,0E0,0E0,0E0,0E0,0E0,0E0,0E0,0E0,0E0,0E0,0E0,0E0,0E0,0E0],"parents":[2147483647,0,0,1,1,2,2,3,3,4,4,5,5,6,6,7,7,8,8,9,9,10,10,13,13,14,14,15,15,17,17,18,18,19,19,20,20,21,21,22,22,23,23,24,24,25,25],"right_children":[2,4,6,8,10,12,14,16,18,20,22,-1,-1,24,26,28,-1,30,32,34,36,38,40,42,44,46,-1,-1,-1,-1,-1,-1,-1,-1,-1,-1,-1,-1,-1,-1,-1,-1,-1,-1,-1,-1,-1],"split_conditions":[4.108922E-3,1.6594064E4,4.447233E-3,-2.5322102E-3,1.9539231E-2,-2.0202044E-3,8.270892E-3,1.0494707E-2,5.02973E3,9.414795E-3,4E0,3.6668047E-2,1.5591866E-1,-1.0517132E-2,1E0,1.649947E4,1.1048609E-1,1.5611926E4,7.206E0,1.544E1,1E0,1.855273E4,2.005995E4,1.402E1,1.9898799E4,9.448388E-3,1.0257927E-1,2.022321E-2,-1.305146E-2,4.9643863E-2,-9.884756E-3,6.066753E-3,7.1706854E-2,-2.6606793E-2,1.8249353E-2,6.801204E-3,-9.776009E-3,1.3411319E-3,3.258517E-2,-1.790449E-3,6.1841454E-2,-2.0464493E-2,2.9817602E-2,-4.607291E-3,-3.588363E-2,9.926558E-3,-3.563766E-2],"split_indices":[10,3,10,10,4,1,10,12,5,4,15,0,0,1,15,0,0,3,9,11,15,7,0,11,2,4,0,0,0,0,0,0,0,0,0,0,0,0,0,0,0,0,0,0,0,0,0],"split_type":[0,0,0,0,0,0,0,0,0,0,0,0,0,0,0,0,0,0,0,0,0,0,0,0,0,0,0,0,0,0,0,0,0,0,0,0,0,0,0,0,0,0,0,0,0,0,0],"sum_hessian":[6.27E2,5.89E2,3.8E1,6.3E1,5.26E2,5E0,3.3E1,8E0,5.5E1,4.86E2,4E1,3E0,2E0,2.7E1,6E0,5E0,3E0,4.2E1,1.3E1,7.4E1,4.12E2,3.3E1,7E0,9E0,1.8E1,3E0,3E0,4E0,1E0,4E0,3.8E1,7E0,6E0,1.3E1,6.1E1,8.3E1,3.29E2,2.6E1,7E0,1E0,6E0,2E0,7E0,1.1E1,7E0,1E0,2E0],"tree_param":{"num_deleted":"0","num_feature":"16","num_nodes":"47","size_leaf_vector":"1"}},{"base_weights":[8.524321E-3,1.0685779E-1,-1.443687E-2,3.527719E-2,3.0891636E-1,-1.9147282E-2,7.880053E-2,3.4810054E-1,-4.2666933E-3,2.6828852E-2,4.8566484E-1,3.3974726E-2,-7.907948E-2,-9.893588E-3,4.0876415E-1,-2.2439908E-2,7.1570866E-2,5.2044755E-1,-1.7330152E-1,1.0218083E-1,2.2119875E-1,2.9452214E-1,-4.8097386E-3,-9.945194E-2,4.5260015E-1,3.7418068E-3,4.5050513E-2,3.5962787E-2,-5.3115133E-3,1.2753665E-2,6.0890567E-2,-3.2580733E-2,1.3690901E-2,-4.134406E-2,3.614254E-2,-2.4778896E-3,5.6471135E-2,-7.2931782E-3,1.4829745E-2,-2.8815234E-2,-5.842488E-3,7.869004E-2,1.5429999E-2],"categories":[],"categories_nodes":[],"categories_segments":[],"categories_sizes":[],"default_left":[0,0,0,0,0,0,0,0,0,0,0,0,0,0,0,0,0,0,0,0,0,0,0,0,0,0,0,0,0,0,0,0,0,0,0,0,0,0,0,0,0,0,0],"id":18,"left_children":[1,3,5,7,9,11,-1,13,15,17,19,21,23,-1,25,27,-1,29,31,-1,33,35,37,39,41,-1,-1,-1,-1,-1,-1,-1,-1,-1,-1,-1,-1,-1,-1,-1,-1,-1,-1],"loss_changes":[1.4194746E0,1.7102556E0,1.9428031E0,1.1024375E0,1.5325851E0,1.6200159E0,0E0,3.116299E-1,1.0628018E0,1.3744397E0,2.4680204E0,2.729818E0,2.633769E0,0E0,1.2264621E-1,9.4498277E-1,0E0,6.1366677E-2,5.1769507E-1,0E0,1.3953345E0,3.0335023E0,2.4722893E0,1.7715256E0,7.760775E-1,0E0,0E0,0E0,0E0,0E0,0E0,0E0,0E0,0E0,0E0,0E0,0E0,0E0,0E0,0E0,0E0,0E0,0E0],"parents":[2147483647,0,0,1,1,2,2,3,3,4,4,5,5,7,7,8,8,9,9,10,10,11,11,12,12,14,14,15,15,17,17,18,18,20,20,21,21,22,22,23,23,24,24],"right_children":[2,4,6,8,10,12,-1,14,16,18,20,22,24,-1,26,28,-1,30,32,-1,34,36,38,40,42,-1,-1,-1,-1,-1,-1,-1,-1,-1,-1,-1,-1,-1,-1,-1,-1,-1,-1],"split_conditions":[-1.2683957E-2,-1.51244225E-2,8.270892E-3,-1.3744072E-2,1.652E1,2.238222E-3,7.880053E-2,6.888E0,1.8092096E-2,1.654307E4,1.77E1,-2.3410758E-3,1.979199E4,-9.893588E-3,1.67251E4,1.6332347E4,7.1570866E-2,1.556621E4,-2.2321816E-3,1.0218083E-1,-1.565104E-2,2.7364038E-3,2.0102936E4,2.6514435E-3,-4.8991375E-2,3.7418068E-3,4.5050513E-2,3.5962787E-2,-5.3115133E-3,1.2753665E-2,6.0890567E-2,-3.2580733E-2,1.3690901E-2,-4.134406E-2,3.614254E-2,-2.4778896E-3,5.6471135E-2,-7.2931782E-3,1.4829745E-2,-2.8815234E-2,-5.842488E-3,7.869004E-2,1.5429999E-2],"split_indices":[1,1,10,6,11,8,0,9,6,0,11,10,7,0,0,2,0,0,14,0,8,1,3,6,12,0,0,0,0,0,0,0,0,0,0,0,0,0,0,0,0,0,0],"split_type":[0,0,0,0,0,0,0,0,0,0,0,0,0,0,0,0,0,0,0,0,0,0,0,0,0,0,0,0,0,0,0,0,0,0,0,0,0,0,0,0,0,0,0],"sum_hessian":[6.27E2,1.18E2,5.09E2,8.8E1,3E1,5.07E2,2E0,9E0,7.9E1,1.2E1,1.8E1,2.69E2,2.38E2,1E0,8E0,7.8E1,1E0,3E0,9E0,5E0,1.3E1,3.4E1,2.35E2,2.3E2,8E0,1E0,7E0,5E0,7.3E1,1E0,2E0,6E0,3E0,2E0,1.1E1,1.6E1,1.8E1,1.63E2,7.2E1,4E1,1.9E2,3E0,5E0],"tree_param":{"num_deleted":"0","num_feature":"16","num_nodes":"43","size_leaf_vector":"1"}},{"base_weights":[8.456358E-3,1.397543E-1,-6.690491E-3,5.1764995E-1,7.763473E-2,-1.9998204E-2,1.9501746E-1,7.3719764E-1,1.9457224E-1,-1.6421543E-2,3.6769482E-1,2.0839436E-2,-9.1998E-2,4.3770286E-1,4.9368415E-2,1.211598E-2,8.609172E-2,5.834931E-3,2.1404065E-2,6.371923E-2,-4.491255E-1,5.08691E-1,1.216352E-2,1.1895572E-2,1.521933E-1,7.6773115E-2,-1.0508847E-1,7.16937E-2,5.9240764E-1,-2.812864E-1,1.56844E-1,4.3758903E-2,-6.187984E-4,-5.2113842E-2,-8.523911E-4,6.093594E-2,-1.9866211E-2,-1.794288E-2,1.049188E-2,-8.0292455E-5,7.146796E-2,6.701479E-3,-1.5142945E-2,8.676231E-3,5.709648E-4,7.859528E-2,1.5398799E-2,-7.728281E-3,-3.639675E-2,5.330468E-3,3.5503853E-2],"categories":[],"categories_nodes":[],"categories_segments":[],"categories_sizes":[],"default_left":[0,0,0,0,0,0,0,0,0,0,0,0,0,0,0,0,0,0,0,0,0,0,0,0,0,0,0,0,0,0,0,0,0,0,0,0,0,0,0,0,0,0,0,0,0,0,0,0,0,0,0],"id":19,"left_children":[1,3,5,7,9,11,13,15,17,19,21,23,25,27,29,-1,-1,-1,-1,31,33,35,37,39,-1,-1,41,43,45,47,49,-1,-1,-1,-1,-1,-1,-1,-1,-1,-1,-1,-1,-1,-1,-1,-1,-1,-1,-1,-1],"loss_changes":[1.24987E0,1.4856688E0,1.517829E0,4.9494028E-1,1.5611105E0,1.5602773E0,1.2155327E0,2.7677107E-1,7.710755E-4,1.554416E0,6.956123E-1,4.5331664E0,2.241497E0,6.936319E-1,8.614764E-1,0E0,0E0,0E0,0E0,9.958832E-1,2.1766102E-1,8.331373E-1,1.0768144E-1,3.0169868E0,0E0,0E0,1.52548E0,4.4760555E-3,6.426587E-1,7.307497E-2,3.5045147E-1,0E0,0E0,0E0,0E0,0E0,0E0,0E0,0E0,0E0,0E0,0E0,0E0,0E0,0E0,0E0,0E0,0E0,0E0,0E0,0E0],"parents":[2147483647,0,0,1,1,2,2,3,3,4,4,5,5,6,6,7,7,8,8,9,9,10,10,11,11,12,12,13,13,14,14,19,19,20,20,21,21,22,22,23,23,26,26,27,27,28,28,29,29,30,30],"right_children":[2,4,6,8,10,12,14,16,18,20,22,24,26,28,30,-1,-1,-1,-1,32,34,36,38,40,-1,-1,42,44,46,48,50,-1,-1,-1,-1,-1,-1,-1,-1,-1,-1,-1,-1,-1,-1,-1,-1,-1,-1,-1,-1],"split_conditions":[1.6594064E4,-5.6958855E-3,2.1354597E-2,1.6332347E4,5.02973E3,3.224501E-3,2.072819E4,1.556621E4,1.622445E4,5.00557E3,2.3070091E1,3.5482604E-2,5.324016E-3,-1.5357416E-2,2.1053688E4,1.211598E-2,8.609172E-2,5.834931E-3,2.1404065E-2,1.5611926E4,1.639284E4,1.4947239E-2,-9.315844E-4,2.9250039E-3,1.521933E-1,7.6773115E-2,1.783282E4,2.03312E4,8.276589E-3,2.092679E4,3E0,4.3758903E-2,-6.187984E-4,-5.2113842E-2,-8.523911E-4,6.093594E-2,-1.9866211E-2,-1.794288E-2,1.049188E-2,-8.0292455E-5,7.146796E-2,6.701479E-3,-1.5142945E-2,8.676231E-3,5.709648E-4,7.859528E-2,1.5398799E-2,-7.728281E-3,-3.639675E-2,5.330468E-3,3.5503853E-2],"split_indices":[3,6,4,2,5,1,0,0,0,5,13,14,4,1,3,0,0,0,0,3,0,1,1,1,0,0,0,0,14,0,15,0,0,0,0,0,0,0,0,0,0,0,0,0,0,0,0,0,0,0,0],"split_type":[0,0,0,0,0,0,0,0,0,0,0,0,0,0,0,0,0,0,0,0,0,0,0,0,0,0,0,0,0,0,0,0,0,0,0,0,0,0,0,0,0,0,0,0,0,0,0,0,0,0,0],"sum_hessian":[6.27E2,6.4E1,5.63E2,8E0,5.6E1,5.29E2,3.4E1,4E0,4E0,4.3E1,1.3E1,3.38E2,1.91E2,1.2E1,2.2E1,1E0,3E0,1E0,3E0,3.7E1,6E0,9E0,4E0,3.37E2,1E0,2E0,1.89E2,4E0,8E0,5E0,1.7E1,5E0,3.2E1,5E0,1E0,8E0,1E0,1E0,3E0,3.32E2,5E0,4E1,1.49E2,3E0,1E0,5E0,3E0,2E0,3E0,1.2E1,5E0],"tree_param":{"num_deleted":"0","num_feature":"16","num_nodes":"51","size_leaf_vector":"1"}},{"base_weights":[8.472345E-3,-2.5443276E-3,1.7491758E-1,1.3559427E-2,-1.2845214E-1,9.3260485E-1,3.606343E-2,4.9380484E-1,5.1567755E-3,4.5522782E-1,-2.0413525E-1,3.4362342E-2,1.4070453E-1,-5.3736713E-2,3.9011207E-1,6.2267166E-1,-2.685648E-2,5.4091114E-1,-8.5272535E-5,-9.274323E-2,8.025591E-2,-4.741458E-1,-1.1165063E-1,1.5037327E-1,-1.5833476E-1,-1.892605E-1,8.7195665E-2,7.192597E-2,-2.6722283E-3,6.034593E-2,1.4535928E-2,-7.0899366E-3,4.781866E-3,-1.822773E-2,-2.1394492E-4,-9.22533E-3,-4.948343E-2,-2.364451E-2,2.233234E-2,-1.8740742E-2,2.5824437E-2,-2.7649447E-2,3.8696656E-3,9.6998215E-3,-3.170128E-2],"categories":[],"categories_nodes":[],"categories_segments":[],"categories_sizes":[],"default_left":[0,0,0,0,0,0,0,0,0,0,0,0,0,0,0,0,0,0,0,0,0,0,0,0,0,0,0,0,0,0,0,0,0,0,0,0,0,0,0,0,0,0,0,0,0],"id":20,"left_children":[1,3,5,7,9,11,13,15,17,19,21,-1,-1,23,25,27,-1,29,31,33,-1,35,37,39,41,43,-1,-1,-1,-1,-1,-1,-1,-1,-1,-1,-1,-1,-1,-1,-1,-1,-1,-1,-1],"loss_changes":[1.1519915E0,1.1980189E0,4.0694804E0,2.111969E0,3.0526342E0,1.1931257E0,1.1019465E0,1.0514252E0,1.4492064E0,1.5970517E0,1.4453712E0,0E0,0E0,6.215955E-1,2.1191998E0,5.210097E-1,0E0,3.598678E-2,1.7402345E0,3.2058526E-2,0E0,7.286143E-2,1.9757375E0,4.1276464E-1,4.5304176E-1,1.7703052E-1,0E0,0E0,0E0,0E0,0E0,0E0,0E0,0E0,0E0,0E0,0E0,0E0,0E0,0E0,0E0,0E0,0E0,0E0,0E0],"parents":[2147483647,0,0,1,1,2,2,3,3,4,4,5,5,6,6,7,7,8,8,9,9,10,10,13,13,14,14,15,15,17,17,18,18,19,19,21,21,22,22,23,23,24,24,25,25],"right_children":[2,4,6,8,10,12,14,16,18,20,22,-1,-1,24,26,28,-1,30,32,34,-1,36,38,40,42,44,-1,-1,-1,-1,-1,-1,-1,-1,-1,-1,-1,-1,-1,-1,-1,-1,-1,-1,-1],"split_conditions":[4.108922E-3,2.2845136E-3,4.447233E-3,6.998444E-3,1.291E1,-2.0202044E-3,8.270892E-3,4.4726725E-3,1.5611926E4,1.7094137E4,1.0714598E-2,3.4362342E-2,1.4070453E-1,-1.0517132E-2,1E0,5.6672E3,-2.685648E-2,2.3446558E-3,1.502E1,-3.4071333E-3,8.025591E-2,-3.0335072E-2,3.3697966E-3,1.402E1,-4.0691933E-3,9.448388E-3,8.7195665E-2,7.192597E-2,-2.6722283E-3,6.034593E-2,1.4535928E-2,-7.0899366E-3,4.781866E-3,-1.822773E-2,-2.1394492E-4,-9.22533E-3,-4.948343E-2,-2.364451E-2,2.233234E-2,-1.8740742E-2,2.5824437E-2,-2.7649447E-2,3.8696656E-3,9.6998215E-3,-3.170128E-2],"split_indices":[10,10,10,4,11,1,10,6,3,2,4,0,0,1,15,5,0,6,11,1,0,14,10,11,14,4,0,0,0,0,0,0,0,0,0,0,0,0,0,0,0,0,0,0,0],"split_type":[0,0,0,0,0,0,0,0,0,0,0,0,0,0,0,0,0,0,0,0,0,0,0,0,0,0,0,0,0,0,0,0,0,0,0,0,0,0,0,0,0,0,0,0,0],"sum_hessian":[6.27E2,5.89E2,3.8E1,5.23E2,6.6E1,5E0,3.3E1,8E0,5.15E2,7E0,5.9E1,3E0,2E0,2.7E1,6E0,7E0,1E0,4E0,5.11E2,3E0,4E0,1.4E1,4.5E1,9E0,1.8E1,3E0,3E0,6E0,1E0,3E0,1E0,2.06E2,3.05E2,1E0,2E0,1E0,1.3E1,3.3E1,1.2E1,2E0,7E0,1.1E1,7E0,1E0,2E0],"tree_param":{"num_deleted":"0","num_feature":"16","num_nodes":"45","size_leaf_vector":"1"}},{"base_weights":[8.1670405E-3,9.383639E-2,-1.1838489E-2,2.9497854E-2,2.7552328E-1,3.688962E-2,-6.7245215E-2,3.1527317E-1,-6.5927817E-3,8.809279E-3,4.2177552E-1,1.9061272E-1,-1.2301751E-2,-8.59004E-2,4.1904303E-1,-8.212668E-3,3.6855388E-1,3.1998996E-2,-3.1459448E-1,-2.7080387E-1,1.8246633E-1,3.5313174E-2,6.7647433E-1,7.1283E-1,8.463052E-2,-6.889635E-2,1.9296984E-1,-3.4606743E-1,-6.0951155E-2,6.566561E-1,9.762138E-2,3.319639E-3,4.0632404E-2,3.138348E-2,-8.1341463E-4,-4.209865E-2,3.8518389E-3,-5.66093E-3,-3.102002E-2,4.8610207E-2,-9.69355E-3,4.738884E-2,-2.6295586E-2,7.496115E-2,-6.401715E-3,-1.962483E-3,9.8995365E-2,5.262776E-2,-1.1137592E-3,3.432697E-2,-1.1609314E-2,-2.4742171E-2,3.427266E-2,-4.276536E-2,8.7190615E-3,1.6504292E-3,-1.7242743E-2,2.6582832E-2,8.285985E-2,-8.374328E-3,2.464456E-2],"categories":[],"categories_nodes":[],"categories_segments":[],"categories_sizes":[],"default_left":[0,0,0,0,0,0,0,0,0,0,0,0,0,0,0,0,0,0,0,0,0,0,0,0,0,0,0,0,0,0,0,0,0,0,0,0,0,0,0,0,0,0,0,0,0,0,0,0,0,0,0,0,0,0,0,0,0,0,0,0,0],"id":21,"left_children":[1,3,5,7,9,11,13,15,17,19,21,23,25,27,29,-1,31,33,35,37,39,41,43,45,47,49,51,53,55,57,59,-1,-1,-1,-1,-1,-1,-1,-1,-1,-1,-1,-1,-1,-1,-1,-1,-1,-1,-1,-1,-1,-1,-1,-1,-1,-1,-1,-1,-1,-1],"loss_changes":[1.0774153E0,1.3829194E0,1.3794118E0,9.200078E-1,1.2055178E0,2.059168E0,2.2041564E0,2.4200565E-1,9.609734E-1,6.3209414E-1,1.9447412E0,3.5924911E0,2.4180684E0,1.4783216E0,6.2326205E-1,0E0,1.0050988E-1,8.1694156E-1,3.5433114E-1,2.4632156E-2,7.2581154E-1,1.3019325E0,6.978774E-1,2.252214E0,2.3744211E0,3.2106757E0,3.0526204E0,7.442446E-1,1.8333479E0,1.1573458E-1,1.555954E-1,0E0,0E0,0E0,0E0,0E0,0E0,0E0,0E0,0E0,0E0,0E0,0E0,0E0,0E0,0E0,0E0,0E0,0E0,0E0,0E0,0E0,0E0,0E0,0E0,0E0,0E0,0E0,0E0,0E0,0E0],"parents":[2147483647,0,0,1,1,2,2,3,3,4,4,5,5,6,6,7,7,8,8,9,9,10,10,11,11,12,12,13,13,14,14,16,16,17,17,18,18,19,19,20,20,21,21,22,22,23,23,24,24,25,25,26,26,27,27,28,28,29,29,30,30],"right_children":[2,4,6,8,10,12,14,16,18,20,22,24,26,28,30,-1,32,34,36,38,40,42,44,46,48,50,52,54,56,58,60,-1,-1,-1,-1,-1,-1,-1,-1,-1,-1,-1,-1,-1,-1,-1,-1,-1,-1,-1,-1,-1,-1,-1,-1,-1,-1,-1,-1,-1,-1],"split_conditions":[-1.2683957E-2,-1.51244225E-2,2.238222E-3,-1.3744072E-2,2E0,-8.021472E-3,1.979199E4,6.888E0,7.299793E-2,1.793784E4,1.652E1,9.414795E-3,1.6056916E-2,-7.470608E-3,-4.184398E-2,-8.212668E-3,1.67251E4,-6.049735E-3,4E0,1.655635E4,2.7504452E1,1.654307E4,2.310827E4,1.544E1,-2.6650876E-3,1.6594064E4,1.425E1,1.366256E-2,1.9538062E4,6.08637E3,-1.8960637E-3,3.319639E-3,4.0632404E-2,3.138348E-2,-8.1341463E-4,-4.209865E-2,3.8518389E-3,-5.66093E-3,-3.102002E-2,4.8610207E-2,-9.69355E-3,4.738884E-2,-2.6295586E-2,7.496115E-2,-6.401715E-3,-1.962483E-3,9.8995365E-2,5.262776E-2,-1.1137592E-3,3.432697E-2,-1.1609314E-2,-2.4742171E-2,3.427266E-2,-4.276536E-2,8.7190615E-3,1.6504292E-3,-1.7242743E-2,2.6582832E-2,8.285985E-2,-8.374328E-3,2.464456E-2],"split_indices":[1,1,8,6,15,12,7,9,12,0,11,4,4,1,12,0,0,6,15,2,13,0,0,11,6,3,11,8,3,5,10,0,0,0,0,0,0,0,0,0,0,0,0,0,0,0,0,0,0,0,0,0,0,0,0,0,0,0,0,0,0],"split_type":[0,0,0,0,0,0,0,0,0,0,0,0,0,0,0,0,0,0,0,0,0,0,0,0,0,0,0,0,0,0,0,0,0,0,0,0,0,0,0,0,0,0,0,0,0,0,0,0,0,0,0,0,0,0,0,0,0,0,0,0,0],"sum_hessian":[6.27E2,1.18E2,5.09E2,8.8E1,3E1,2.71E2,2.38E2,9E0,7.9E1,1.1E1,1.9E1,6.5E1,2.06E2,2.3E2,8E0,1E0,8E0,7.1E1,8E0,4E0,7E0,8E0,1.1E1,1E1,5.5E1,1.62E2,4.4E1,1.9E1,2.11E2,4E0,4E0,1E0,7E0,8E0,6.3E1,6E0,2E0,1E0,3E0,3E0,4E0,3E0,5E0,1E1,1E0,3E0,7E0,9E0,4.6E1,1.6E1,1.46E2,1.1E1,3.3E1,1.6E1,3E0,1.25E2,8.6E1,2E0,2E0,2E0,2E0],"tree_param":{"num_deleted":"0","num_feature":"16","num_nodes":"61","size_leaf_vector":"1"}},{"base_weights":[7.950366E-3,-2.1064265E-3,1.5988773E-1,2.4769364E-2,-6.4956546E-2,8.566834E-1,3.2221206E-2,8.347501E-2,-5.6683682E-2,6.382714E-2,-1.2508641E-1,3.1722978E-2,1.2903938E-1,-4.7813248E-2,3.47756E-1,1.21086985E-1,-1.7522182E-1,-9.947205E-2,1.4390372E-1,-5.641521E-2,3.5006887E-1,-3.3410692E-1,-8.2875654E-2,1.227527E-1,-1.3506831E-1,-1.8105395E-1,7.89627E-2,3.4340397E-2,5.5280267E-3,3.447685E-2,-2.4324823E-2,-5.1482706E-3,-2.801155E-2,4.6230424E-2,1.3055535E-3,1.3365896E-2,-3.3261754E-2,-6.421023E-3,5.818766E-2,-3.8771927E-2,3.4226373E-2,3.7202023E-2,-1.1518186E-2,-1.7437134E-2,2.1883013E-2,-1.2240005E-3,-3.0242724E-2,7.645655E-3,-2.9237632E-2],"categories":[],"categories_nodes":[],"categories_segments":[],"categories_sizes":[],"default_left":[0,0,0,0,0,0,0,0,0,0,0,0,0,0,0,0,0,0,0,0,0,0,0,0,0,0,0,0,0,0,0,0,0,0,0,0,0,0,0,0,0,0,0,0,0,0,0,0,0],"id":22,"left_children":[1,3,5,7,9,11,13,15,17,19,21,-1,-1,23,25,27,29,31,33,35,37,39,41,43,45,47,-1,-1,-1,-1,-1,-1,-1,-1,-1,-1,-1,-1,-1,-1,-1,-1,-1,-1,-1,-1,-1,-1,-1],"loss_changes":[9.599223E-1,9.982054E-1,3.4417381E0,1.9843779E0,1.3786268E0,9.944477E-1,8.7525153E-1,2.366171E0,1.5077231E0,1.981597E0,1.0398833E0,0E0,0E0,4.332968E-1,1.7786252E0,3.067936E0,1.1804297E0,1.233909E0,1.2854904E0,2.1969132E0,1.669925E0,8.579383E-1,1.5418377E0,3.2362682E-1,3.8687012E-1,1.3702078E-1,0E0,0E0,0E0,0E0,0E0,0E0,0E0,0E0,0E0,0E0,0E0,0E0,0E0,0E0,0E0,0E0,0E0,0E0,0E0,0E0,0E0,0E0,0E0],"parents":[2147483647,0,0,1,1,2,2,3,3,4,4,5,5,6,6,7,7,8,8,9,9,10,10,13,13,14,14,15,15,16,16,17,17,18,18,19,19,20,20,21,21,22,22,23,23,24,24,25,25],"right_children":[2,4,6,8,10,12,14,16,18,20,22,-1,-1,24,26,28,30,32,34,36,38,40,42,44,46,48,-1,-1,-1,-1,-1,-1,-1,-1,-1,-1,-1,-1,-1,-1,-1,-1,-1,-1,-1,-1,-1,-1,-1],"split_conditions":[4.108922E-3,6.9789016E-3,4.447233E-3,5.5764517E-4,1.783282E4,-2.0202044E-3,8.270892E-3,7.299793E-2,2.1323832E4,7.2595E0,1.8285838E4,3.1722978E-2,1.2903938E-1,-1.0517132E-2,1E0,-1.696624E-3,1.624897E4,9.082787E-4,-1.0701995E-2,7.1915E0,-3.7453182E-2,1.4534425E-2,1.278E1,1.402E1,1.9898799E4,9.448388E-3,7.89627E-2,3.4340397E-2,5.5280267E-3,3.447685E-2,-2.4324823E-2,-5.1482706E-3,-2.801155E-2,4.6230424E-2,1.3055535E-3,1.3365896E-2,-3.3261754E-2,-6.421023E-3,5.818766E-2,-3.8771927E-2,3.4226373E-2,3.7202023E-2,-1.1518186E-2,-1.7437134E-2,2.1883013E-2,-1.2240005E-3,-3.0242724E-2,7.645655E-3,-2.9237632E-2],"split_indices":[10,1,10,10,0,1,10,12,3,9,3,0,0,1,15,6,0,1,6,9,12,6,11,11,2,4,0,0,0,0,0,0,0,0,0,0,0,0,0,0,0,0,0,0,0,0,0,0,0],"split_type":[0,0,0,0,0,0,0,0,0,0,0,0,0,0,0,0,0,0,0,0,0,0,0,0,0,0,0,0,0,0,0,0,0,0,0,0,0,0,0,0,0,0,0,0,0,0,0,0,0],"sum_hessian":[6.27E2,5.89E2,3.8E1,4.13E2,1.76E2,5E0,3.3E1,2.4E2,1.73E2,5.6E1,1.2E2,3E0,2E0,2.7E1,6E0,2.1E2,3E1,1.43E2,3E1,4E1,1.6E1,1.9E1,1.01E2,9E0,1.8E1,3E0,3E0,4.7E1,1.63E2,3E0,2.7E1,1.14E2,2.9E1,8E0,2.2E1,2.4E1,1.6E1,6E0,1E1,1.8E1,1E0,6E0,9.5E1,2E0,7E0,1.1E1,7E0,1E0,2E0],"tree_param":{"num_deleted":"0","num_feature":"16","num_nodes":"49","size_leaf_vector":"1"}},{"base_weights":[7.6466054E-3,1.6642028E-2,-1.499982E-1,-1.4491827E-2,9.9245206E-2,-2.052944E-1,3.1604685E-2,1.17395684E-1,-3.7684772E-2,-1.2095992E-3,2.1145718E-1,5.0318696E-2,-2.686543E-1,4.4392073E-1,6.377952E-2,-4.6810757E-2,3.7997666E-1,6.0929924E-1,-5.395469E-2,1.2938279E-1,1.8019141E-1,1.636328E-1,-1.5531103E-2,-2.9200172E-1,1.4584216E-2,6.496442E-3,9.0137504E-2,-1.5988688E-3,3.0992392E-2,-1.0819357E-3,-1.5875194E-2,4.965782E-3,4.200711E-2,8.924968E-3,6.810992E-2,-1.1171427E-3,-5.0463896E-2,2.749986E-2,7.843436E-4,2.6181882E-2,7.3631587E-3,-4.2863544E-2,-1.9689515E-2],"categories":[],"categories_nodes":[],"categories_segments":[],"categories_sizes":[],"default_left":[0,0,0,0,0,0,0,0,0,0,0,0,0,0,0,0,0,0,0,0,0,0,0,0,0,0,0,0,0,0,0,0,0,0,0,0,0,0,0,0,0,0,0],"id":23,"left_children":[1,3,5,7,9,11,-1,13,15,17,19,21,23,25,27,29,31,33,35,-1,37,39,-1,41,-1,-1,-1,-1,-1,-1,-1,-1,-1,-1,-1,-1,-1,-1,-1,-1,-1,-1,-1],"loss_changes":[8.930517E-1,1.5316328E0,9.4108015E-1,1.3289101E0,1.8376297E0,5.1558256E-1,0E0,1.1096432E0,1.424257E0,2.8343916E0,2.3726325E0,1.8851921E-1,2.8452194E-1,1.5016394E0,1.1241217E0,1.4567512E0,8.509171E-2,2.005887E-1,1.5561837E0,0E0,1.23967E0,2.4906173E-2,0E0,2.2747803E-1,0E0,0E0,0E0,0E0,0E0,0E0,0E0,0E0,0E0,0E0,0E0,0E0,0E0,0E0,0E0,0E0,0E0,0E0,0E0],"parents":[2147483647,0,0,1,1,2,2,3,3,4,4,5,5,7,7,8,8,9,9,10,10,11,11,12,12,13,13,14,14,15,15,16,16,17,17,18,18,20,20,21,21,23,23],"right_children":[2,4,6,8,10,12,-1,14,16,18,20,22,24,26,28,30,32,34,36,-1,38,40,-1,42,-1,-1,-1,-1,-1,-1,-1,-1,-1,-1,-1,-1,-1,-1,-1,-1,-1,-1,-1],"split_conditions":[2.354946E4,5.58094E3,2.196352E-2,1.6594064E4,2.0339363E4,1E0,3.1604685E-2,-2.5322102E-3,2.2215309E4,1.764845E4,1.8949879E4,-4.107155E-3,1.971499E4,1.0494707E-2,5.02973E3,2.6705605E1,1.982892E4,-9.870059E-3,3.1050053E1,1.2938279E-1,3.086399E-3,1.0212384E-2,-1.5531103E-2,1.0345561E-2,1.4584216E-2,6.496442E-3,9.0137504E-2,-1.5988688E-3,3.0992392E-2,-1.0819357E-3,-1.5875194E-2,4.965782E-3,4.200711E-2,8.924968E-3,6.810992E-2,-1.1171427E-3,-5.0463896E-2,2.749986E-2,7.843436E-4,2.6181882E-2,7.3631587E-3,-4.2863544E-2,-1.9689515E-2],"split_indices":[0,5,4,3,3,15,0,10,2,7,2,1,7,12,5,13,0,1,13,0,1,4,0,4,0,0,0,0,0,0,0,0,0,0,0,0,0,0,0,0,0,0,0],"split_type":[0,0,0,0,0,0,0,0,0,0,0,0,0,0,0,0,0,0,0,0,0,0,0,0,0,0,0,0,0,0,0,0,0,0,0,0,0,0,0,0,0,0,0],"sum_hessian":[6.27E2,5.94E2,3.3E1,4.32E2,1.62E2,3E1,3E0,6.4E1,3.68E2,8.6E1,7.6E1,6E0,2.4E1,8E0,5.6E1,3.61E2,7E0,6E0,8E1,1E0,7.5E1,4E0,2E0,2.3E1,1E0,5E0,3E0,4.3E1,1.3E1,2.74E2,8.7E1,1E0,6E0,1E0,5E0,7.4E1,6E0,4.8E1,2.7E1,1E0,3E0,8E0,1.5E1],"tree_param":{"num_deleted":"0","num_feature":"16","num_nodes":"43","size_leaf_vector":"1"}},{"base_weights":[7.4246507E-3,-2.326667E-2,5.3310376E-2,5.623557E-1,-3.1054458E-2,4.1600978E-1,2.6957832E-2,-1.6448767E-3,7.11169E-2,-1.1300207E-1,2.1556972E-2,6.167972E-1,1.1302425E-1,3.1022868E-1,-2.1534073E-3,-3.3550313E-1,-6.648134E-2,2.598086E-1,-2.446838E-2,7.3174036E-1,2.6144743E-2,-1.8652566E-2,1.9576085E-1,7.1965057E-1,2.4869695E-2,1.9433701E-1,-5.9793387E-2,-1.1509973E-2,-3.9904635E-2,-7.955668E-3,7.5781696E-2,1.17219925E-1,1.7418059E-2,-1.6972095E-2,5.4744766E-3,1.0470206E-2,8.187964E-2,3.5684605E-3,-9.083204E-3,5.782363E-3,2.1578925E-2,1.1604726E-2,7.805951E-2,-1.279255E-2,6.277606E-2,9.102259E-3,5.053046E-2,-2.1703541E-2,-8.559399E-4],"categories":[],"categories_nodes":[],"categories_segments":[],"categories_sizes":[],"default_left":[0,0,0,0,0,0,0,0,0,0,0,0,0,0,0,0,0,0,0,0,0,0,0,0,0,0,0,0,0,0,0,0,0,0,0,0,0,0,0,0,0,0,0,0,0,0,0,0,0],"id":24,"left_children":[1,3,5,7,9,11,13,-1,-1,15,17,19,21,23,25,27,29,31,33,35,-1,37,39,41,43,45,47,-1,-1,-1,-1,-1,-1,-1,-1,-1,-1,-1,-1,-1,-1,-1,-1,-1,-1,-1,-1,-1,-1],"loss_changes":[8.856486E-1,1.7368487E0,2.3974144E0,4.4236684E-1,1.610581E0,9.644935E-1,1.9468104E0,0E0,0E0,1.4889288E0,2.5065172E0,2.1713877E-1,9.080738E-2,2.5524113E0,2.4466462E0,3.0419803E-1,1.3752021E0,2.686495E0,2.2184265E0,2.9638267E-1,0E0,1.8929418E-2,1.3355911E-3,2.4049091E-1,1.3699702E0,1.5282499E0,1.3435171E0,0E0,0E0,0E0,0E0,0E0,0E0,0E0,0E0,0E0,0E0,0E0,0E0,0E0,0E0,0E0,0E0,0E0,0E0,0E0,0E0,0E0,0E0],"parents":[2147483647,0,0,1,1,2,2,3,3,4,4,5,5,6,6,9,9,10,10,11,11,12,12,13,13,14,14,15,15,16,16,17,17,18,18,19,19,21,21,22,22,23,23,24,24,25,25,26,26],"right_children":[2,4,6,8,10,12,14,-1,-1,16,18,20,22,24,26,28,30,32,34,36,-1,38,40,42,44,46,48,-1,-1,-1,-1,-1,-1,-1,-1,-1,-1,-1,-1,-1,-1,-1,-1,-1,-1,-1,-1,-1,-1],"split_conditions":[3E0,6.906943E-3,-8.2949355E-2,-2.3833723E-3,-1.869162E-2,1.2973651E-2,-2.0464748E-2,-1.6448767E-3,7.11169E-2,6.8716676E-4,-8.021472E-3,5.93085E3,-5.4536383E-3,1.3432555E-2,1.7473805E4,1.719584E4,6.07117E3,-2.9638833E-3,1.425E1,4.13613E3,2.6144743E-2,1.97622E4,9.082787E-4,1.6594064E4,5.6672E3,1.711336E4,1.063679E-2,-1.1509973E-2,-3.9904635E-2,-7.955668E-3,7.5781696E-2,1.17219925E-1,1.7418059E-2,-1.6972095E-2,5.4744766E-3,1.0470206E-2,8.187964E-2,3.5684605E-3,-9.083204E-3,5.782363E-3,2.1578925E-2,1.1604726E-2,7.805951E-2,-1.279255E-2,6.277606E-2,9.102259E-3,5.053046E-2,-2.1703541E-2,-8.559399E-4],"split_indices":[15,4,12,1,12,4,14,0,0,6,12,5,1,4,2,0,5,6,11,5,0,0,1,3,5,0,4,0,0,0,0,0,0,0,0,0,0,0,0,0,0,0,0,0,0,0,0,0,0],"split_type":[0,0,0,0,0,0,0,0,0,0,0,0,0,0,0,0,0,0,0,0,0,0,0,0,0,0,0,0,0,0,0,0,0,0,0,0,0,0,0,0,0,0,0,0,0,0,0,0,0],"sum_hessian":[6.27E2,3.76E2,2.51E2,4E0,3.72E2,1.6E1,2.35E2,1E0,3E0,1.45E2,2.27E2,9E0,7E0,2.1E1,2.14E2,2.4E1,1.21E2,3.6E1,1.91E2,6E0,3E0,3E0,4E0,8E0,1.3E1,4.8E1,1.66E2,6E0,1.8E1,1.2E2,1E0,2E0,3.4E1,6.7E1,1.24E2,1E0,5E0,2E0,1E0,1E0,3E0,1E0,7E0,1.1E1,2E0,3.7E1,1.1E1,4E1,1.26E2],"tree_param":{"num_deleted":"0","num_feature":"16","num_nodes":"49","size_leaf_vector":"1"}},{"base_weights":[7.519902E-3,1.4362144E-1,-1.9829602E-3,5.10787E-1,7.843769E-2,-8.181558E-3,2.3534891E-1,6.048779E-2,7.208147E-2,1.944445E-1,-1.4176239E-1,-2.6686788E-2,8.540468E-2,6.439767E-2,7.952724E-2,7.396227E-3,1.6769409E-3,-8.170688E-2,3.1296018E-1,1.563063E-1,-2.4681363E-1,-3.4530252E-2,2.5773075E-1,4.6008813E-1,4.5662656E-2,-2.427461E-1,2.1392347E-1,-3.606286E-2,7.137179E-3,4.7636987E-3,4.533513E-2,1.9342255E-2,2.247879E-3,-3.1345975E-2,1.7650073E-2,-2.2862446E-3,-2.0411815E-2,4.2854276E-2,-2.3373192E-2,1.0478456E-1,1.4246521E-2,5.2168485E-2,1.0274904E-3,-4.5006396E-3,-2.9365722E-2,4.0796664E-2,-1.3062218E-2],"categories":[],"categories_nodes":[],"categories_segments":[],"categories_sizes":[],"default_left":[0,0,0,0,0,0,0,0,0,0,0,0,0,0,0,0,0,0,0,0,0,0,0,0,0,0,0,0,0,0,0,0,0,0,0,0,0,0,0,0,0,0,0,0,0,0,0],"id":25,"left_children":[1,3,5,7,9,11,13,15,-1,17,19,21,23,-1,25,-1,-1,27,29,31,33,35,37,39,41,43,45,-1,-1,-1,-1,-1,-1,-1,-1,-1,-1,-1,-1,-1,-1,-1,-1,-1,-1,-1,-1],"loss_changes":[8.125112E-1,9.4119734E-1,8.669469E-1,5.238515E-1,9.4717443E-1,9.9635243E-1,9.038822E-1,5.2694324E-4,0E0,8.110495E-1,4.4564083E-1,1.0796926E0,1.3936055E0,0E0,5.7167697E-1,0E0,0E0,3.673144E-1,6.116369E-1,1.5520781E-2,3.3744854E-1,9.213736E-1,1.1914847E0,1.5308857E0,1.4601856E0,2.705215E-2,6.550001E-1,0E0,0E0,0E0,0E0,0E0,0E0,0E0,0E0,0E0,0E0,0E0,0E0,0E0,0E0,0E0,0E0,0E0,0E0,0E0,0E0],"parents":[2147483647,0,0,1,1,2,2,3,3,4,4,5,5,6,6,7,7,9,9,10,10,11,11,12,12,14,14,17,17,18,18,19,19,20,20,21,21,22,22,23,23,24,24,25,25,26,26],"right_children":[2,4,6,8,10,12,14,16,-1,18,20,22,24,-1,26,-1,-1,28,30,32,34,36,38,40,42,44,46,-1,-1,-1,-1,-1,-1,-1,-1,-1,-1,-1,-1,-1,-1,-1,-1,-1,-1,-1,-1],"split_conditions":[1.633996E4,-5.9759733E-3,6.07511E3,1.536029E4,-1.876156E-3,2.052E1,-4.184398E-2,1.556621E4,7.208147E-2,-4.3110043E-2,4.74675E3,1.6976854E-2,2.071E1,6.439767E-2,-7.0421705E-3,7.396227E-3,1.6769409E-3,-5.3251176E-3,-1.5813306E-2,1.621196E4,2.0095939E-2,1.97E1,2.207218E4,2.5990358E1,9.01154E-3,-1.6227486E-2,1.453361E-2,-3.606286E-2,7.137179E-3,4.7636987E-3,4.533513E-2,1.9342255E-2,2.247879E-3,-3.1345975E-2,1.7650073E-2,-2.2862446E-3,-2.0411815E-2,4.2854276E-2,-2.3373192E-2,1.0478456E-1,1.4246521E-2,5.2168485E-2,1.0274904E-3,-4.5006396E-3,-2.9365722E-2,4.0796664E-2,-1.3062218E-2],"split_indices":[0,6,5,7,12,11,12,0,0,12,5,6,11,0,14,0,0,1,14,0,1,11,0,13,4,1,1,0,0,0,0,0,0,0,0,0,0,0,0,0,0,0,0,0,0,0,0],"split_type":[0,0,0,0,0,0,0,0,0,0,0,0,0,0,0,0,0,0,0,0,0,0,0,0,0,0,0,0,0,0,0,0,0,0,0,0,0,0,0,0,0,0,0,0,0,0,0],"sum_hessian":[6.27E2,4E1,5.87E2,5E0,3.5E1,5.73E2,1.4E1,2E0,3E0,2.3E1,1.2E1,4.79E2,9.4E1,3E0,1.1E1,1E0,1E0,7E0,1.6E1,3E0,9E0,4.67E2,1.2E1,8E0,8.6E1,3E0,8E0,2E0,5E0,6E0,1E1,2E0,1E0,8E0,1E0,4.38E2,2.9E1,9E0,3E0,2E0,6E0,5E0,8.1E1,1E0,2E0,5E0,3E0],"tree_param":{"num_deleted":"0","num_feature":"16","num_nodes":"47","size_leaf_vector":"1"}},{"base_weights":[7.3053334E-3,-1.7897037E-3,1.447096E-1,1.1398147E-2,-1.04903795E-1,7.7742225E-1,2.8798265E-2,3.7647513E-1,5.008436E-3,3.8802364E-1,-1.6887906E-1,2.9494453E-2,1.1615852E-1,-4.1215092E-2,3.0473766E-1,4.808712E-1,-2.293467E-2,2.3111595E-2,-1.2792617E-1,-7.776415E-2,6.830492E-2,-2.467429E-1,6.0667966E-2,1.3992512E-1,-1.0825826E-1,-1.5009993E-1,6.833909E-2,1.6070789E-2,6.4082764E-2,3.9996378E-2,7.571753E-4,-2.0238645E-2,1.6829997E-2,-1.6279427E-2,4.8439702E-4,-7.5593623E-3,-3.479552E-2,4.060258E-2,-8.82868E-3,2.554751E-3,3.2203864E-2,-1.2777367E-3,-2.6181756E-2,6.992376E-3,-2.467491E-2],"categories":[],"categories_nodes":[],"categories_segments":[],"categories_sizes":[],"default_left":[0,0,0,0,0,0,0,0,0,0,0,0,0,0,0,0,0,0,0,0,0,0,0,0,0,0,0,0,0,0,0,0,0,0,0,0,0,0,0,0,0,0,0,0,0],"id":26,"left_children":[1,3,5,7,9,11,13,15,17,19,21,-1,-1,23,25,27,-1,29,31,33,-1,35,37,39,41,43,-1,-1,-1,-1,-1,-1,-1,-1,-1,-1,-1,-1,-1,-1,-1,-1,-1,-1,-1],"loss_changes":[7.8506863E-1,8.035091E-1,2.8378158E0,1.2204685E0,2.1783848E0,7.694974E-1,6.6942084E-1,6.79495E-1,1.2447295E0,1.1524708E0,1.0873744E0,0E0,0E0,3.551861E-1,1.3081567E0,3.0671144E-1,0E0,2.6615534E0,1.4016005E0,2.8885283E-2,0E0,7.532053E-1,8.589298E-1,1.584104E-1,3.0455625E-1,1.0231404E-1,0E0,0E0,0E0,0E0,0E0,0E0,0E0,0E0,0E0,0E0,0E0,0E0,0E0,0E0,0E0,0E0,0E0,0E0,0E0],"parents":[2147483647,0,0,1,1,2,2,3,3,4,4,5,5,6,6,7,7,8,8,9,9,10,10,13,13,14,14,15,15,17,17,18,18,19,19,21,21,22,22,23,23,24,24,25,25],"right_children":[2,4,6,8,10,12,14,16,18,20,22,-1,-1,24,26,28,-1,30,32,34,-1,36,38,40,42,44,-1,-1,-1,-1,-1,-1,-1,-1,-1,-1,-1,-1,-1,-1,-1,-1,-1,-1,-1],"split_conditions":[4.108922E-3,2.2845136E-3,4.447233E-3,6.998444E-3,1.291E1,-2.0202044E-3,8.270892E-3,4.4726725E-3,7.299793E-2,1.7094137E4,3.625635E-2,2.9494453E-2,1.1615852E-1,4.8992615E-3,1E0,-2.0816678E-3,-2.293467E-2,-1.2301941E-2,1.2705702E-3,-3.4071333E-3,6.830492E-2,-7.470608E-3,2E0,1.697E1,1.943E1,9.448388E-3,6.833909E-2,1.6070789E-2,6.4082764E-2,3.9996378E-2,7.571753E-4,-2.0238645E-2,1.6829997E-2,-1.6279427E-2,4.8439702E-4,-7.5593623E-3,-3.479552E-2,4.060258E-2,-8.82868E-3,2.554751E-3,3.2203864E-2,-1.2777367E-3,-2.6181756E-2,6.992376E-3,-2.467491E-2],"split_indices":[10,10,10,4,11,1,10,6,12,2,12,0,0,10,15,6,0,8,10,1,0,1,15,11,11,4,0,0,0,0,0,0,0,0,0,0,0,0,0,0,0,0,0,0,0],"split_type":[0,0,0,0,0,0,0,0,0,0,0,0,0,0,0,0,0,0,0,0,0,0,0,0,0,0,0,0,0,0,0,0,0,0,0,0,0,0,0,0,0,0,0,0,0],"sum_hessian":[6.27E2,5.89E2,3.8E1,5.23E2,6.6E1,5E0,3.3E1,8E0,5.15E2,7E0,5.9E1,3E0,2E0,2.7E1,6E0,7E0,1E0,4.54E2,6.1E1,3E0,4E0,4.4E1,1.5E1,7E0,2E1,3E0,3E0,3E0,4E0,1.7E1,4.37E2,4.9E1,1.2E1,1E0,2E0,1.7E1,2.7E1,4E0,1.1E1,5E0,2E0,1.3E1,7E0,1E0,2E0],"tree_param":{"num_deleted":"0","num_feature":"16","num_nodes":"45","size_leaf_vector":"1"}},{"base_weights":[7.116367E-3,7.791984E-2,-9.418396E-3,3.1042265E-2,2.722331E-1,-3.9140575E-2,5.2965194E-2,-1.1425183E-2,2.1806191E-1,7.191493E-1,1.0813697E-1,-2.8443888E-1,-1.8321216E-2,4.937E-1,2.7362783E-2,3.100434E-1,-4.167998E-2,-1.3266075E-1,3.2774416E-1,8.0383485E-3,8.308258E-2,-2.6572967E-1,2.7237257E-1,2.0087364E-1,-3.5347268E-1,1.6298493E-2,-1.783437E-1,9.952786E-1,7.703093E-2,4.1080853E-1,-1.5165771E-3,-8.539557E-3,4.852981E-2,1.874002E-3,-2.0575097E-2,-1.7702375E-2,2.2395612E-3,4.0524904E-2,3.2669695E-3,-3.0985912E-2,-2.2541254E-3,5.3357106E-2,9.699868E-3,-2.0057209E-2,4.0154625E-2,-3.9399922E-2,6.154595E-3,-3.633856E-3,1.42283505E-2,-3.395265E-2,-3.2205693E-3,3.0191302E-2,1.1257628E-1,-2.29694E-2,2.8781688E-2,1.5120864E-3,5.573013E-2,2.6923874E-2,-3.4323912E-3],"categories":[],"categories_nodes":[],"categories_segments":[],"categories_sizes":[],"default_left":[0,0,0,0,0,0,0,0,0,0,0,0,0,0,0,0,0,0,0,0,0,0,0,0,0,0,0,0,0,0,0,0,0,0,0,0,0,0,0,0,0,0,0,0,0,0,0,0,0,0,0,0,0,0,0,0,0,0,0],"id":27,"left_children":[1,3,5,7,9,11,13,15,17,19,21,23,25,27,29,31,33,35,37,-1,-1,39,41,43,45,47,49,51,53,55,57,-1,-1,-1,-1,-1,-1,-1,-1,-1,-1,-1,-1,-1,-1,-1,-1,-1,-1,-1,-1,-1,-1,-1,-1,-1,-1,-1,-1],"loss_changes":[7.359452E-1,1.0755124E0,9.4770294E-1,7.728894E-1,1.6089896E0,1.7617948E0,1.8483301E0,7.909999E-1,7.359035E-1,3.6122608E-1,1.1776174E0,9.755833E-1,1.7756848E0,1.8042634E0,1.7391888E0,5.2656E-1,7.3743033E-1,3.8358383E-2,3.0693662E-1,0E0,0E0,5.740598E-2,5.437405E-1,4.0277565E-1,4.2791128E-1,1.7558808E0,1.3316964E0,2.2010565E-2,4.5402965E-1,6.2919235E-1,1.3150071E0,0E0,0E0,0E0,0E0,0E0,0E0,0E0,0E0,0E0,0E0,0E0,0E0,0E0,0E0,0E0,0E0,0E0,0E0,0E0,0E0,0E0,0E0,0E0,0E0,0E0,0E0,0E0,0E0],"parents":[2147483647,0,0,1,1,2,2,3,3,4,4,5,5,6,6,7,7,8,8,9,9,10,10,11,11,12,12,13,13,14,14,15,15,16,16,17,17,18,18,21,21,22,22,23,23,24,24,25,25,26,26,27,27,28,28,29,29,30,30],"right_children":[2,4,6,8,10,12,14,16,18,20,22,24,26,28,30,32,34,36,38,-1,-1,40,42,44,46,48,50,52,54,56,58,-1,-1,-1,-1,-1,-1,-1,-1,-1,-1,-1,-1,-1,-1,-1,-1,-1,-1,-1,-1,-1,-1,-1,-1,-1,-1,-1,-1],"split_conditions":[-1.2683957E-2,-1.4025254E-2,5.58094E3,2.053448E4,1.766002E4,-8.991478E-3,7.036E0,1.6332347E4,-2.2746265E-2,1.556621E4,1.823427E4,9.660044E-3,5.2971E3,6.9789016E-3,1.764845E4,1.5986723E4,-1.6515562E-2,5.77815E3,2.3441432E4,8.0383485E-3,8.308258E-2,1.821691E4,2.0254367E4,1.780966E4,1.1995782E-2,1.509918E4,2.1348328E-3,1.825857E4,1.900071E4,-5.796972E-3,1.411E1,-8.539557E-3,4.852981E-2,1.874002E-3,-2.0575097E-2,-1.7702375E-2,2.2395612E-3,4.0524904E-2,3.2669695E-3,-3.0985912E-2,-2.2541254E-3,5.3357106E-2,9.699868E-3,-2.0057209E-2,4.0154625E-2,-3.9399922E-2,6.154595E-3,-3.633856E-3,1.42283505E-2,-3.395265E-2,-3.2205693E-3,3.0191302E-2,1.1257628E-1,-2.29694E-2,2.8781688E-2,1.5120864E-3,5.573013E-2,2.6923874E-2,-3.4323912E-3],"split_indices":[1,1,5,0,0,1,9,2,1,0,0,4,5,1,7,2,1,5,2,0,0,0,2,0,8,7,14,0,0,6,11,0,0,0,0,0,0,0,0,0,0,0,0,0,0,0,0,0,0,0,0,0,0,0,0,0,0,0,0],"split_type":[0,0,0,0,0,0,0,0,0,0,0,0,0,0,0,0,0,0,0,0,0,0,0,0,0,0,0,0,0,0,0,0,0,0,0,0,0,0,0,0,0,0,0,0,0,0,0,0,0,0,0,0,0,0,0,0,0,0,0],"sum_hessian":[6.27E2,1.18E2,5.09E2,9.6E1,2.2E1,3.45E2,1.64E2,7.9E1,1.7E1,5E0,1.7E1,2.6E1,3.19E2,8E0,1.56E2,6E0,7.3E1,4E0,1.3E1,1E0,4E0,5E0,1.2E1,3E0,2.3E1,2.63E2,5.6E1,3E0,5E0,1E1,1.46E2,2E0,4E0,5.4E1,1.9E1,3E0,1E0,1E1,3E0,4E0,1E0,4E0,8E0,1E0,2E0,2.1E1,2E0,1.86E2,7.7E1,2.6E1,3E1,1E0,2E0,2E0,3E0,3E0,7E0,1.5E1,1.31E2],"tree_param":{"num_deleted":"0","num_feature":"16","num_nodes":"59","size_leaf_vector":"1"}},{"base_weights":[6.9782045E-3,-2.8112722E-3,1.1778878E-1,1.0134501E-2,-1.2609807E-1,7.561756E-2,1.1131749E-1,4.197264E-2,-6.001003E-2,3.429908E-1,-1.7986678E-1,-2.3493686E-1,1.6923386E-1,9.668151E-2,-2.1452917E-2,-4.9073213E-1,-4.3378945E-2,-1.0293845E-1,5.9169002E-2,6.439429E-2,-2.5041205E-1,-7.262996E-2,-3.4049466E-1,-8.105067E-2,2.9749346E-1,1.6913889E-2,-2.310258E-3,2.632719E-2,-4.703159E-3,-5.4005932E-2,-1.2204806E-2,-7.3364465E-3,1.5716232E-2,-1.5283763E-2,-1.570046E-4,-3.0518515E-2,1.6882868E-2,-3.7131753E-2,-1.5015966E-2,5.3185388E-3,-2.1617377E-2,-3.6524404E-2,-9.599921E-3,3.578378E-2,-1.8401856E-2,5.300504E-2,1.4319563E-2],"categories":[],"categories_nodes":[],"categories_segments":[],"categories_sizes":[],"default_left":[0,0,0,0,0,0,0,0,0,0,0,0,0,0,0,0,0,0,0,0,0,0,0,0,0,0,0,0,0,0,0,0,0,0,0,0,0,0,0,0,0,0,0,0,0,0,0],"id":28,"left_children":[1,3,5,7,9,11,-1,13,15,17,19,21,23,25,27,29,31,33,-1,35,37,39,41,43,45,-1,-1,-1,-1,-1,-1,-1,-1,-1,-1,-1,-1,-1,-1,-1,-1,-1,-1,-1,-1,-1,-1],"loss_changes":[6.815714E-1,9.2379075E-1,2.0566335E0,1.172753E0,1.448919E0,1.493407E0,0E0,1.2547226E0,1.1535063E0,7.2632116E-1,8.776984E-1,1.8086302E-1,1.2760664E0,1.6876802E0,1.2359066E0,4.320371E-2,9.676504E-1,1.4934637E-2,0E0,5.1468563E-1,4.1696453E-1,1.1985737E-1,7.294655E-3,6.985286E-1,8.5705805E-1,0E0,0E0,0E0,0E0,0E0,0E0,0E0,0E0,0E0,0E0,0E0,0E0,0E0,0E0,0E0,0E0,0E0,0E0,0E0,0E0,0E0,0E0],"parents":[2147483647,0,0,1,1,2,2,3,3,4,4,5,5,7,7,8,8,9,9,10,10,11,11,12,12,13,13,14,14,15,15,16,16,17,17,19,19,20,20,21,21,22,22,23,23,24,24],"right_children":[2,4,6,8,10,12,-1,14,16,18,20,22,24,26,28,30,32,34,-1,36,38,40,42,44,46,-1,-1,-1,-1,-1,-1,-1,-1,-1,-1,-1,-1,-1,-1,-1,-1,-1,-1,-1,-1,-1,-1],"split_conditions":[3.639421E-3,2.2845136E-3,3.5482604E-2,6.9789016E-3,1.291E1,1.0360247E-2,1.1131749E-1,1.31663075E-2,8.516901E-3,1.633996E4,-6.9715995E-3,2E0,7.082E0,6.6914614E-3,-3.9755944E-3,2.050643E4,7.2921E0,1.624897E4,5.9169002E-2,2.507156E-3,1.2429993E-2,-3.74631E-4,1.6452076E-3,1.1418941E-2,4.447233E-3,1.6913889E-2,-2.310258E-3,2.632719E-2,-4.703159E-3,-5.4005932E-2,-1.2204806E-2,-7.3364465E-3,1.5716232E-2,-1.5283763E-2,-1.570046E-4,-3.0518515E-2,1.6882868E-2,-3.7131753E-2,-1.5015966E-2,5.3185388E-3,-2.1617377E-2,-3.6524404E-2,-9.599921E-3,3.578378E-2,-1.8401856E-2,5.300504E-2,1.4319563E-2],"split_indices":[10,10,14,1,11,4,0,4,4,0,6,15,9,12,10,0,9,0,0,10,4,6,1,4,10,0,0,0,0,0,0,0,0,0,0,0,0,0,0,0,0,0,0,0,0,0,0],"split_type":[0,0,0,0,0,0,0,0,0,0,0,0,0,0,0,0,0,0,0,0,0,0,0,0,0,0,0,0,0,0,0,0,0,0,0,0,0,0,0,0,0,0,0,0,0,0,0],"sum_hessian":[6.27E2,5.77E2,5E1,5.23E2,5.4E1,4.9E1,1E0,3.6E2,1.63E2,5E0,4.9E1,1.1E1,3.8E1,1.93E2,1.67E2,5E0,1.58E2,2E0,3E0,1.1E1,3.8E1,5E0,6E0,1.3E1,2.5E1,1.2E2,7.3E1,1.3E1,1.54E2,4E0,1E0,1.38E2,2E1,1E0,1E0,2E0,9E0,1.6E1,2.2E1,3E0,2E0,5E0,1E0,2E0,1.1E1,9E0,1.6E1],"tree_param":{"num_deleted":"0","num_feature":"16","num_nodes":"47","size_leaf_vector":"1"}},{"base_weights":[6.423604E-3,2.0066518E-4,1.7010523E-1,8.086547E-3,-1.3697197E-1,6.004057E-1,7.553987E-2,-3.2686552E-3,1.416459E-1,-1.756827E-1,3.0869618E-2,4.8918067E-3,7.679289E-2,-9.101312E-2,2.8921723E-1,-1.0221246E-2,2.7401677E-1,2.848988E-1,-3.563831E-2,-3.7729748E-2,-1.1220325E-1,1.07571185E-1,-1.6916025E-1,7.036388E-3,3.0777842E-2,5.1545307E-5,-1.7330097E-2,4.5284327E-2,5.6045027E-3,-1.4792303E-2,3.74385E-2,5.338265E-3,-2.6708782E-2,-1.5401679E-2,1.4582208E-2,3.1877757E-4,2.1036072E-2,-1.8584967E-3,-2.4135038E-2],"categories":[],"categories_nodes":[],"categories_segments":[],"categories_sizes":[],"default_left":[0,0,0,0,0,0,0,0,0,0,0,0,0,0,0,0,0,0,0,0,0,0,0,0,0,0,0,0,0,0,0,0,0,0,0,0,0,0,0],"id":29,"left_children":[1,3,5,7,9,11,13,15,17,19,-1,-1,-1,21,23,25,27,29,31,-1,33,35,37,-1,-1,-1,-1,-1,-1,-1,-1,-1,-1,-1,-1,-1,-1,-1,-1],"loss_changes":[6.3963455E-1,6.566343E-1,8.905505E-1,8.709876E-1,6.235531E-1,3.3198237E-1,7.3809457E-1,1.0245624E0,1.1529949E0,3.5441625E-1,0E0,0E0,0E0,2.0442227E-1,1.4903188E-2,9.070751E-1,4.8134887E-1,1.0236695E0,4.4693887E-1,0E0,2.9218286E-1,4.2247504E-2,9.334496E-2,0E0,0E0,0E0,0E0,0E0,0E0,0E0,0E0,0E0,0E0,0E0,0E0,0E0,0E0,0E0,0E0],"parents":[2147483647,0,0,1,1,2,2,3,3,4,4,5,5,6,6,7,7,8,8,9,9,13,13,14,14,15,15,16,16,17,17,18,18,20,20,21,21,22,22],"right_children":[2,4,6,8,10,12,14,16,18,20,-1,-1,-1,22,24,26,28,30,32,-1,34,36,38,-1,-1,-1,-1,-1,-1,-1,-1,-1,-1,-1,-1,-1,-1,-1,-1],"split_conditions":[2.3987299E-2,2.354946E4,2.015505E4,3.3274185E1,1.5538286E-1,1.982892E4,3E0,1.6976854E-2,4.1800897E-4,9.952757E-3,3.0869618E-2,4.8918067E-3,7.679289E-2,5.39652E3,-1.8800948E-2,2.2771437E-2,1.635E1,-6.3776835E-3,1.0281864E-2,-3.7729748E-2,2.3388335E-2,1.1579759E-2,2.081217E4,7.036388E-3,3.0777842E-2,5.1545307E-5,-1.7330097E-2,4.5284327E-2,5.6045027E-3,-1.4792303E-2,3.74385E-2,5.338265E-3,-2.6708782E-2,-1.5401679E-2,1.4582208E-2,3.1877757E-4,2.1036072E-2,-1.8584967E-3,-2.4135038E-2],"split_indices":[4,0,0,13,12,0,15,6,10,4,0,0,0,5,1,1,11,6,14,0,1,1,0,0,0,0,0,0,0,0,0,0,0,0,0,0,0,0,0],"split_type":[0,0,0,0,0,0,0,0,0,0,0,0,0,0,0,0,0,0,0,0,0,0,0,0,0,0,0,0,0,0,0,0,0,0,0,0,0,0,0],"sum_hessian":[6.27E2,6.05E2,2.2E1,5.73E2,3.2E1,3E0,1.9E1,5.29E2,4.4E1,3E1,2E0,1E0,2E0,1.1E1,8E0,5.17E2,1.2E1,2.4E1,2E1,6E0,2.4E1,3E0,8E0,1E0,7E0,4.86E2,3.1E1,6E0,6E0,4E0,2E1,1.5E1,5E0,2.1E1,3E0,2E0,1E0,3E0,5E0],"tree_param":{"num_deleted":"0","num_feature":"16","num_nodes":"39","size_leaf_vector":"1"}},{"base_weights":[6.0074613E-3,3.2264462E-1,2.9483435E-3,4.2785775E-2,-1.0171056E-2,-2.30812E-2,4.187675E-2,-1.22802645E-1,2.80789E-2,3.488043E-1,1.9399634E-2,-2.8881067E-1,-6.384404E-2,4.5240477E-1,6.475569E-3,4.969083E-1,6.6240214E-2,2.6302636E-1,-5.854768E-3,-4.2403076E-2,-4.816204E-3,2.7314171E-2,-1.20599605E-2,-9.244733E-3,7.363867E-2,6.8131587E-3,-9.144024E-3,6.180777E-2,2.278895E-2,1.024183E-2,-7.541414E-3,6.063499E-2,2.3530794E-3,1.6279897E-2,-5.328513E-3],"categories":[],"categories_nodes":[],"categories_segments":[],"categories_sizes":[],"default_left":[0,0,0,0,0,0,0,0,0,0,0,0,0,0,0,0,0,0,0,0,0,0,0,0,0,0,0,0,0,0,0,0,0,0,0],"id":30,"left_children":[1,3,5,-1,-1,7,9,11,13,15,17,19,21,23,25,27,29,31,33,-1,-1,-1,-1,-1,-1,-1,-1,-1,-1,-1,-1,-1,-1,-1,-1],"loss_changes":[6.0734856E-1,3.1140417E-1,6.322454E-1,0E0,0E0,1.9115062E0,1.7179446E0,1.2245866E0,2.2704496E0,6.785157E-1,1.4412595E0,1.0534151E0,1.8498933E0,1.9248152E0,1.4370226E0,2.1771193E-1,4.3597266E-2,1.7946705E0,1.7125269E0,0E0,0E0,0E0,0E0,0E0,0E0,0E0,0E0,0E0,0E0,0E0,0E0,0E0,0E0,0E0,0E0],"parents":[2147483647,0,0,1,1,2,2,5,5,6,6,7,7,8,8,9,9,10,10,11,11,12,12,13,13,14,14,15,15,16,16,17,17,18,18],"right_children":[2,4,6,-1,-1,8,10,12,14,16,18,20,22,24,26,28,30,32,34,-1,-1,-1,-1,-1,-1,-1,-1,-1,-1,-1,-1,-1,-1,-1,-1],"split_conditions":[1.5611926E4,1.595223E4,3E0,4.2785775E-2,-1.0171056E-2,1.7931734E4,-8.2949355E-2,7.1505E0,1.793055E4,1.635E1,-2.0464748E-2,1.589E1,-2.287536E-3,-7.85927E-3,3.224501E-3,7.1935E0,2.027459E4,1.3432555E-2,1.7473805E4,-4.2403076E-2,-4.816204E-3,2.7314171E-2,-1.20599605E-2,-9.244733E-3,7.363867E-2,6.8131587E-3,-9.144024E-3,6.180777E-2,2.278895E-2,1.024183E-2,-7.541414E-3,6.063499E-2,2.3530794E-3,1.6279897E-2,-5.328513E-3],"split_indices":[3,0,15,0,0,2,12,9,0,11,14,11,10,14,1,9,0,4,2,0,0,0,0,0,0,0,0,0,0,0,0,0,0,0,0],"split_type":[0,0,0,0,0,0,0,0,0,0,0,0,0,0,0,0,0,0,0,0,0,0,0,0,0,0,0,0,0,0,0,0,0,0,0],"sum_hessian":[6.27E2,5E0,6.22E2,4E0,1E0,3.73E2,2.49E2,1.26E2,2.47E2,1.6E1,2.33E2,3.2E1,9.4E1,1.1E1,2.36E2,1E1,6E0,2.1E1,2.12E2,2E1,1.2E1,1.3E1,8.1E1,4E0,7E0,1.45E2,9.1E1,6E0,4E0,5E0,1E0,8E0,1.3E1,4.6E1,1.66E2],"tree_param":{"num_deleted":"0","num_feature":"16","num_nodes":"35","size_leaf_vector":"1"}},{"base_weights":[5.7633277E-3,1.20371886E-1,-2.2378871E-3,4.5768324E-1,6.080967E-2,-9.757885E-3,1.6750278E-1,6.2228125E-3,6.398537E-2,1.6885343E-1,-1.017085E-1,-2.9334265E-1,-5.6673354E-3,5.6078076E-1,8.838393E-2,2.2698637E-2,4.21787E-1,1.9402182E-2,-1.6213022E-1,-3.967141E-2,-5.3709604E-2,3.7510937E-1,-9.795946E-3,4.306561E-3,7.189973E-2,-6.0112987E-2,2.7259153E-1,-5.211716E-3,5.3505987E-2,8.600608E-3,5.1937964E-2,-3.6834773E-2,1.2799196E-3,-1.2602555E-2,5.9906524E-3,6.0743626E-2,1.0708689E-2,8.792677E-4,-7.2071203E-3,6.5146456E-3,-1.4654345E-2,6.566918E-3,2.8828634E-2],"categories":[],"categories_nodes":[],"categories_segments":[],"categories_sizes":[],"default_left":[0,0,0,0,0,0,0,0,0,0,0,0,0,0,0,0,0,0,0,0,0,0,0,0,0,0,0,0,0,0,0,0,0,0,0,0,0,0,0,0,0,0,0],"id":31,"left_children":[1,3,5,7,9,11,13,-1,-1,15,17,19,21,23,25,27,29,-1,31,33,-1,35,37,-1,-1,39,41,-1,-1,-1,-1,-1,-1,-1,-1,-1,-1,-1,-1,-1,-1,-1,-1],"loss_changes":[5.761502E-1,7.9590005E-1,7.521868E-1,3.9242458E-1,6.4930046E-1,6.5258735E-1,7.283284E-1,0E0,0E0,8.0371E-1,2.9948482E-1,4.7335845E-1,8.793223E-1,2.966802E-1,6.1818004E-1,6.028765E-1,2.1748817E-1,0E0,4.736702E-1,5.0544582E-2,0E0,3.085646E-1,6.39635E-1,0E0,0E0,1.502878E-1,1.35445595E-2,0E0,0E0,0E0,0E0,0E0,0E0,0E0,0E0,0E0,0E0,0E0,0E0,0E0,0E0,0E0,0E0],"parents":[2147483647,0,0,1,1,2,2,3,3,4,4,5,5,6,6,9,9,10,10,11,11,12,12,13,13,14,14,15,15,16,16,18,18,19,19,21,21,22,22,25,25,26,26],"right_children":[2,4,6,8,10,12,14,-1,-1,16,18,20,22,24,26,28,30,-1,32,34,-1,36,38,-1,-1,40,42,-1,-1,-1,-1,-1,-1,-1,-1,-1,-1,-1,-1,-1,-1,-1,-1],"split_conditions":[1.633996E4,-5.9759733E-3,2.3430802E-2,1.536029E4,-4.0485985E-3,1.639284E4,2.015505E4,6.2228125E-3,6.398537E-2,-1.7584063E-2,1.556621E4,7.7353497E-3,1.6399824E4,1.982892E4,3E0,1.588502E4,-3.5437944E-3,1.9402182E-2,2.1776712E1,1.2230173E-2,-5.3709604E-2,1.453361E-2,3.625635E-2,4.306561E-3,7.189973E-2,1E0,-1.8800948E-2,-5.211716E-3,5.3505987E-2,8.600608E-3,5.1937964E-2,-3.6834773E-2,1.2799196E-3,-1.2602555E-2,5.9906524E-3,6.0743626E-2,1.0708689E-2,8.792677E-4,-7.2071203E-3,6.5146456E-3,-1.4654345E-2,6.566918E-3,2.8828634E-2],"split_indices":[0,6,4,7,12,0,0,0,0,12,0,1,3,0,15,7,8,0,13,4,0,1,12,0,0,15,1,0,0,0,0,0,0,0,0,0,0,0,0,0,0,0,0],"split_type":[0,0,0,0,0,0,0,0,0,0,0,0,0,0,0,0,0,0,0,0,0,0,0,0,0,0,0,0,0,0,0,0,0,0,0,0,0,0,0,0,0,0,0],"sum_hessian":[6.27E2,4E1,5.87E2,5E0,3.5E1,5.63E2,2.4E1,2E0,3E0,2.1E1,1.4E1,7E0,5.56E2,3E0,2.1E1,1.4E1,7E0,2E0,1.2E1,4E0,3E0,5E0,5.51E2,1E0,2E0,1.2E1,9E0,1.3E1,1E0,2E0,5E0,5E0,7E0,2E0,2E0,2E0,3E0,4.25E2,1.26E2,5E0,7E0,1E0,8E0],"tree_param":{"num_deleted":"0","num_feature":"16","num_nodes":"43","size_leaf_vector":"1"}},{"base_weights":[5.6187534E-3,-5.2534897E-2,2.1649742E-2,-1.7459983E-2,-3.830545E-1,2.3548387E-1,2.7620452E-3,8.1309475E-2,-1.4284912E-1,-7.1532525E-2,-5.1356066E-2,4.402051E-1,8.752393E-3,-7.9762086E-2,5.2441146E-2,-6.80967E-2,2.4150708E-1,-2.6272282E-1,6.374276E-2,3.5736363E-3,-1.2279451E-2,5.2967733E-1,-2.7318758E-1,3.745636E-1,-1.381556E-1,8.362343E-2,-1.3193463E-1,2.877667E-1,2.8615257E-2,4.361124E-2,-1.6050788E-2,7.97481E-3,3.9857503E-2,-3.7139613E-2,4.610004E-3,-4.483461E-3,1.48912E-2,-5.1695405E-4,1.0529995E-3,7.492572E-2,2.571298E-2,-3.383136E-2,-7.1467757E-3,4.1273218E-3,5.3089052E-2,-1.935323E-2,3.1855907E-2,3.2111146E-2,-3.3909508E-3,-3.2526832E-2,-4.550297E-3,5.704726E-2,4.2417566E-3,8.458252E-3,-6.2691257E-3],"categories":[],"categories_nodes":[],"categories_segments":[],"categories_sizes":[],"default_left":[0,0,0,0,0,0,0,0,0,0,0,0,0,0,0,0,0,0,0,0,0,0,0,0,0,0,0,0,0,0,0,0,0,0,0,0,0,0,0,0,0,0,0,0,0,0,0,0,0,0,0,0,0,0,0],"id":32,"left_children":[1,3,5,7,9,11,13,15,17,19,-1,21,23,25,27,29,31,33,35,37,-1,39,41,43,45,47,49,51,53,-1,-1,-1,-1,-1,-1,-1,-1,-1,-1,-1,-1,-1,-1,-1,-1,-1,-1,-1,-1,-1,-1,-1,-1,-1,-1],"loss_changes":[5.8659697E-1,1.5699525E0,1.9904948E0,1.5473075E0,4.9178553E-1,1.8528173E0,1.8654579E0,1.6918616E0,1.378818E0,1.9689275E-2,0E0,1.4851065E0,1.1265599E0,1.4686775E0,1.5841082E0,1.7939979E0,8.3205783E-1,1.1917496E0,2.008729E-1,2.3689726E-4,0E0,9.444165E-1,1.5233114E-2,2.9070193E-1,4.4102165E-1,1.1832206E0,2.1575189E0,1.7792046E0,1.328838E0,0E0,0E0,0E0,0E0,0E0,0E0,0E0,0E0,0E0,0E0,0E0,0E0,0E0,0E0,0E0,0E0,0E0,0E0,0E0,0E0,0E0,0E0,0E0,0E0,0E0,0E0],"parents":[2147483647,0,0,1,1,2,2,3,3,4,4,5,5,6,6,7,7,8,8,9,9,11,11,12,12,13,13,14,14,15,15,16,16,17,17,18,18,19,19,21,21,22,22,23,23,24,24,25,25,26,26,27,27,28,28],"right_children":[2,4,6,8,10,12,14,16,18,20,-1,22,24,26,28,30,32,34,36,38,-1,40,42,44,46,48,50,52,54,-1,-1,-1,-1,-1,-1,-1,-1,-1,-1,-1,-1,-1,-1,-1,-1,-1,-1,-1,-1,-1,-1,-1,-1,-1,-1],"split_conditions":[-4.3110043E-2,-4.6133853E-2,-3.3740148E-2,1.748E1,1.635339E4,1.2989998E-2,1.469E1,3E0,1.711025E-2,4.78345E3,-5.1356066E-2,1.0093052E-2,1.760577E4,1.654307E4,1.7182424E4,1.297E1,1.524E1,2.193E1,-7.470608E-3,1.548507E4,-1.2279451E-2,1.918417E4,1.801316E4,-1.2225998E-2,7.3254E0,-5.230145E-3,1.7647041E4,1.604E1,3.893086E-2,4.361124E-2,-1.6050788E-2,7.97481E-3,3.9857503E-2,-3.7139613E-2,4.610004E-3,-4.483461E-3,1.48912E-2,-5.1695405E-4,1.0529995E-3,7.492572E-2,2.571298E-2,-3.383136E-2,-7.1467757E-3,4.1273218E-3,5.3089052E-2,-1.935323E-2,3.1855907E-2,3.2111146E-2,-3.3909508E-3,-3.2526832E-2,-4.550297E-3,5.704726E-2,4.2417566E-3,8.458252E-3,-6.2691257E-3],"split_indices":[12,12,12,11,0,4,11,15,4,5,0,6,2,0,3,11,11,11,1,0,0,0,0,1,9,12,2,11,12,0,0,0,0,0,0,0,0,0,0,0,0,0,0,0,0,0,0,0,0,0,0,0,0,0,0],"split_type":[0,0,0,0,0,0,0,0,0,0,0,0,0,0,0,0,0,0,0,0,0,0,0,0,0,0,0,0,0,0,0,0,0,0,0,0,0,0,0,0,0,0,0,0,0,0,0,0,0,0,0,0,0,0,0],"sum_hessian":[6.27E2,1.35E2,4.92E2,1.23E2,1.2E1,3.9E1,4.53E2,6.9E1,5.4E1,4E0,8E0,2E1,1.9E1,1.7E2,2.83E2,3.6E1,3.3E1,3.4E1,2E1,2E0,2E0,1.8E1,2E0,5E0,1.4E1,4.1E1,1.29E2,2.5E1,2.58E2,5E0,3.1E1,1.7E1,1.6E1,2.5E1,9E0,9E0,1.1E1,1E0,1E0,9E0,9E0,1E0,1E0,2E0,3E0,1.3E1,1E0,1.3E1,2.8E1,3.9E1,9E1,1.1E1,1.4E1,1.6E2,9.8E1],"tree_param":{"num_deleted":"0","num_feature":"16","num_nodes":"55","size_leaf_vector":"1"}},{"base_weights":[5.335014E-3,8.032539E-2,-6.712029E-3,5.6589127E-2,1.0608218E-1,-1.2065565E-1,7.456354E-3,2.8475752E-1,-7.996002E-3,9.858523E-2,-2.4123625E-1,1.647501E-1,-9.477885E-3,-2.67261E-2,3.6542213E-1,-7.588521E-2,2.592827E-1,-2.3488182E-1,3.9604792E-1,-4.152957E-2,-3.514108E-1,-2.0092933E-2,3.945602E-1,3.3364707E-1,-1.5839564E-2,1.037001E-2,4.658313E-2,-1.1348913E-2,6.13746E-2,-2.2216195E-2,3.134063E-2,-3.343042E-2,3.7967093E-2,-1.32995E-3,6.023841E-2,1.9284882E-2,-2.1920947E-2,-1.4604203E-2,-4.3946426E-2,2.634931E-2,-2.6452795E-2,6.139489E-2,-3.8689994E-3,6.172491E-3,1.1185511E-1,-1.3538703E-2,3.163501E-4],"categories":[],"categories_nodes":[],"categories_segments":[],"categories_sizes":[],"default_left":[0,0,0,0,0,0,0,0,0,0,0,0,0,0,0,0,0,0,0,0,0,0,0,0,0,0,0,0,0,0,0,0,0,0,0,0,0,0,0,0,0,0,0,0,0,0,0],"id":33,"left_children":[1,3,5,7,-1,9,11,13,15,17,19,21,23,-1,25,27,29,31,33,35,37,39,41,43,45,-1,-1,-1,-1,-1,-1,-1,-1,-1,-1,-1,-1,-1,-1,-1,-1,-1,-1,-1,-1,-1,-1],"loss_changes":[5.6788206E-1,1.9647474E0,8.759027E-1,1.2695976E0,0E0,1.6099542E0,1.2881044E0,9.4370186E-1,1.2535588E0,2.2752924E0,8.435073E-1,2.004431E0,9.591906E-1,0E0,3.9844108E-1,1.4959598E0,4.344321E-1,7.9902875E-1,1.0215693E0,6.669392E-1,3.8790512E-1,1.9412967E0,2.0198076E0,1.6384201E0,9.772887E-1,0E0,0E0,0E0,0E0,0E0,0E0,0E0,0E0,0E0,0E0,0E0,0E0,0E0,0E0,0E0,0E0,0E0,0E0,0E0,0E0,0E0,0E0],"parents":[2147483647,0,0,1,1,2,2,3,3,5,5,6,6,7,7,8,8,9,9,10,10,11,11,12,12,14,14,15,15,16,16,17,17,18,18,19,19,20,20,21,21,22,22,23,23,24,24],"right_children":[2,4,6,8,-1,10,12,14,16,18,20,22,24,-1,26,28,30,32,34,36,38,40,42,44,46,-1,-1,-1,-1,-1,-1,-1,-1,-1,-1,-1,-1,-1,-1,-1,-1,-1,-1,-1,-1,-1,-1],"split_conditions":[-1.1464042E-2,2.9232137E-2,-5.8343993E-3,5.2223384E-2,1.0608218E-1,2.4988974E1,-3.043637E-3,-2.0224752E-2,2.299E1,1.537E1,1.8459031E-2,-4.0932777E-3,3.97099E3,-2.67261E-2,2E0,-4.9691065E-3,1.672169E4,1.7575275E4,-1.1913978E-2,7.1125E0,-9.870059E-3,-4.6882015E-3,1.3911105E-2,2.0405988E4,1.305947E4,1.037001E-2,4.658313E-2,-1.1348913E-2,6.13746E-2,-2.2216195E-2,3.134063E-2,-3.343042E-2,3.7967093E-2,-1.32995E-3,6.023841E-2,1.9284882E-2,-2.1920947E-2,-1.4604203E-2,-4.3946426E-2,2.634931E-2,-2.6452795E-2,6.139489E-2,-3.8689994E-3,6.172491E-3,1.1185511E-1,-1.3538703E-2,3.163501E-4],"split_indices":[8,14,8,12,0,13,8,12,11,11,12,8,5,0,15,6,0,2,14,9,1,14,4,2,7,0,0,0,0,0,0,0,0,0,0,0,0,0,0,0,0,0,0,0,0,0,0],"split_type":[0,0,0,0,0,0,0,0,0,0,0,0,0,0,0,0,0,0,0,0,0,0,0,0,0,0,0,0,0,0,0,0,0,0,0,0,0,0,0,0,0,0,0,0,0,0,0],"sum_hessian":[6.27E2,8.6E1,5.41E2,8.5E1,1E0,5.9E1,4.82E2,1.8E1,6.7E1,2.1E1,3.8E1,4.6E1,4.36E2,2E0,1.6E1,5.4E1,1.3E1,1E1,1.1E1,1.4E1,2.4E1,2.6E1,2E1,7E0,4.29E2,5E0,1.1E1,5.2E1,2E0,1E0,1.2E1,9E0,1E0,4E0,7E0,6E0,8E0,8E0,1.6E1,1.2E1,1.4E1,1.3E1,7E0,6E0,1E0,5.8E1,3.71E2],"tree_param":{"num_deleted":"0","num_feature":"16","num_nodes":"47","size_leaf_vector":"1"}},{"base_weights":[5.374684E-3,-2.0002143E-3,1.1680585E-1,1.929345E-1,-8.120327E-3,6.285815E-1,2.305703E-2,3.7363425E-1,-2.9280186E-2,-1.05081655E-1,2.5855068E-3,2.2527535E-2,9.5679596E-2,-3.748501E-2,2.2450429E-1,1.0626236E-1,1.790106E-1,1.5106095E-1,-1.4462759E-2,-2.1696693E-1,1.4939013E-1,6.9072974E-1,-5.483733E-3,-1.014855E-1,3.5588917E-1,6.921549E-2,4.6024714E-2,1.8096349E-3,2.2240091E-2,4.006255E-3,1.7470624E-2,2.141227E-2,-3.1489875E-2,-1.6010801E-4,3.8689077E-2,1.2901596E-2,7.772693E-2,-6.7738863E-3,2.098993E-3,5.9189815E-3,-1.7112767E-2,4.681581E-3,4.4330835E-2,1.2562744E-2,-1.0642215E-2],"categories":[],"categories_nodes":[],"categories_segments":[],"categories_sizes":[],"default_left":[0,0,0,0,0,0,0,0,0,0,0,0,0,0,0,0,0,0,0,0,0,0,0,0,0,0,0,0,0,0,0,0,0,0,0,0,0,0,0,0,0,0,0,0,0],"id":34,"left_children":[1,3,5,7,9,11,13,15,17,19,21,-1,-1,23,25,-1,27,29,-1,31,33,35,37,39,41,43,-1,-1,-1,-1,-1,-1,-1,-1,-1,-1,-1,-1,-1,-1,-1,-1,-1,-1,-1],"loss_changes":[5.1632E-1,7.054499E-1,1.856663E0,7.337145E-1,5.950754E-1,5.786829E-1,4.2308047E-1,1.1507155E0,2.090645E-1,1.6552963E0,2.8745859E0,0E0,0E0,7.158733E-1,2.6100954E-1,0E0,5.8814406E-2,3.49918E-3,0E0,1.7561224E0,6.4610857E-1,1.9138265E-1,8.4525985E-1,2.7868372E-1,8.732194E-2,7.2817914E-2,0E0,0E0,0E0,0E0,0E0,0E0,0E0,0E0,0E0,0E0,0E0,0E0,0E0,0E0,0E0,0E0,0E0,0E0,0E0],"parents":[2147483647,0,0,1,1,2,2,3,3,4,4,5,5,6,6,7,7,8,8,9,9,10,10,13,13,14,14,16,16,17,17,19,19,20,20,21,21,22,22,23,23,24,24,25,25],"right_children":[2,4,6,8,10,12,14,16,18,20,22,-1,-1,24,26,-1,28,30,-1,32,34,36,38,40,42,44,-1,-1,-1,-1,-1,-1,-1,-1,-1,-1,-1,-1,-1,-1,-1,-1,-1,-1,-1],"split_conditions":[4.108922E-3,1.151241E4,4.447233E-3,1.2157941E-2,6.9721E0,-2.0202044E-3,3.9369924E-4,1.979549E4,1.955029E4,1.4554871E-2,7.0185E0,2.2527535E-2,9.5679596E-2,7.5016874E-3,1.9905297E4,1.0626236E-1,-1.6702154E-3,1.9252E4,-1.4462759E-2,1E0,2.7504452E1,-2.0771569E-2,-6.549453E-3,-1.6732775E-2,1.711336E4,1.9890426E4,4.6024714E-2,1.8096349E-3,2.2240091E-2,4.006255E-3,1.7470624E-2,2.141227E-2,-3.1489875E-2,-1.6010801E-4,3.8689077E-2,1.2901596E-2,7.772693E-2,-6.7738863E-3,2.098993E-3,5.9189815E-3,-1.7112767E-2,4.681581E-3,4.4330835E-2,1.2562744E-2,-1.0642215E-2],"split_indices":[10,7,10,4,9,1,1,0,0,4,9,0,0,8,2,0,10,0,0,15,13,1,14,1,0,2,0,0,0,0,0,0,0,0,0,0,0,0,0,0,0,0,0,0,0],"split_type":[0,0,0,0,0,0,0,0,0,0,0,0,0,0,0,0,0,0,0,0,0,0,0,0,0,0,0,0,0,0,0,0,0,0,0,0,0,0,0,0,0,0,0,0,0],"sum_hessian":[6.27E2,5.89E2,3.8E1,1.7E1,5.72E2,5E0,3.3E1,9E0,8E0,5.6E1,5.16E2,3E0,2E0,2.6E1,7E0,1E0,8E0,3E0,5E0,3.9E1,1.7E1,5E0,5.11E2,2.3E1,3E0,5E0,2E0,2E0,6E0,1E0,2E0,7E0,3.2E1,1.1E1,6E0,1E0,4E0,1.52E2,3.59E2,7E0,1.6E1,1E0,2E0,4E0,1E0],"tree_param":{"num_deleted":"0","num_feature":"16","num_nodes":"45","size_leaf_vector":"1"}},{"base_weights":[5.562853E-3,1.1026121E-3,1.8776453E-1,1.0974193E-2,-1.3023801E-1,5.260661E-1,5.9350286E-2,7.6493016E-3,4.8119637E-1,-3.695412E-1,-1.9695265E-3,1.5813267E-2,5.9599973E-2,-2.2698195E-1,1.8001458E-1,-3.5179704E-2,3.723835E-2,7.475568E-2,1.4322396E-1,-4.03423E-3,-3.9017382E-1,-1.6971622E-1,1.6590847E-1,-4.0105553E-3,-2.7590558E-2,3.4574506E-1,-1.1358476E-2,-2.0696646E-2,4.2158044E-5,1.9954314E-2,6.924694E-4,1.883824E-2,2.6453554E-3,-7.4822875E-3,-4.0867597E-2,7.583257E-3,-3.000739E-2,4.8702598E-2,4.5043603E-3,4.0799953E-2,1.4749074E-2],"categories":[],"categories_nodes":[],"categories_segments":[],"categories_sizes":[],"default_left":[0,0,0,0,0,0,0,0,0,0,0,0,0,0,0,0,0,0,0,0,0,0,0,0,0,0,0,0,0,0,0,0,0,0,0,0,0,0,0,0,0],"id":35,"left_children":[1,3,5,7,9,11,13,15,17,19,21,-1,-1,23,25,27,29,-1,31,-1,33,35,37,-1,-1,39,-1,-1,-1,-1,-1,-1,-1,-1,-1,-1,-1,-1,-1,-1,-1],"loss_changes":[5.101456E-1,7.975045E-1,6.204189E-1,8.9060545E-1,1.3191597E0,8.676648E-3,4.5546103E-1,7.2238636E-1,2.5302184E-1,8.614278E-2,8.448258E-1,0E0,0E0,2.550532E-2,4.771965E-1,1.4250753E0,1.6566753E0,0E0,1.0836124E-2,0E0,5.110717E-2,5.0289285E-1,5.6024003E-1,0E0,0E0,1.3877153E-2,0E0,0E0,0E0,0E0,0E0,0E0,0E0,0E0,0E0,0E0,0E0,0E0,0E0,0E0,0E0],"parents":[2147483647,0,0,1,1,2,2,3,3,4,4,5,5,6,6,7,7,8,8,9,9,10,10,13,13,14,14,15,15,16,16,18,18,20,20,21,21,22,22,25,25],"right_children":[2,4,6,8,10,12,14,16,18,20,22,-1,-1,24,26,28,30,-1,32,-1,34,36,38,-1,-1,40,-1,-1,-1,-1,-1,-1,-1,-1,-1,-1,-1,-1,-1,-1,-1],"split_conditions":[6.07511E3,1.947888E4,-4.184398E-2,6.02163E3,-4.410218E-4,-7.470608E-3,-7.0421705E-3,1.502E1,1.918417E4,-1.3568186E-2,1.0411448E-2,1.5813267E-2,5.9599973E-2,-1.6227486E-2,1.453361E-2,1.0374195E-2,1.635E1,7.475568E-2,1.943125E4,-4.03423E-3,9.01154E-3,2E0,-2.6650876E-3,-4.0105553E-3,-2.7590558E-2,6.11752E3,-1.1358476E-2,-2.0696646E-2,4.2158044E-5,1.9954314E-2,6.924694E-4,1.883824E-2,2.6453554E-3,-7.4822875E-3,-4.0867597E-2,7.583257E-3,-3.000739E-2,4.8702598E-2,4.5043603E-3,4.0799953E-2,1.4749074E-2],"split_indices":[5,7,12,5,10,1,14,11,0,1,4,0,0,1,1,4,11,0,0,0,4,15,6,0,0,5,0,0,0,0,0,0,0,0,0,0,0,0,0,0,0],"split_type":[0,0,0,0,0,0,0,0,0,0,0,0,0,0,0,0,0,0,0,0,0,0,0,0,0,0,0,0,0,0,0,0,0,0,0,0,0,0,0,0,0],"sum_hessian":[6.27E2,6.13E2,1.4E1,5.71E2,4.2E1,3E0,1.1E1,5.68E2,3E0,1.4E1,2.8E1,1E0,2E0,3E0,8E0,2.32E2,3.36E2,1E0,2E0,