{"learner":{"attributes":{"scikit_learn":"{\"_estimator_type\": \"classifier\"}"},"feature_names":[],"feature_types":[],"gradient_booster":{"model":{"cats":{"enc":[],"feature_segments":[],"sorted_idx":[]},"gbtree_model_param":{"num_parallel_tree":"1","num_trees":"50"},"iteration_indptr":[0,1,2,3,4,5,6,7,8,9,10,11,12,13,14,15,16,17,18,19,20,21,22,23,24,25,26,27,28,29,30,31,32,33,34,35,36,37,38,39,40,41,42,43,44,45,46,47,48,49,50],"tree_info":[0,0,0,0,0,0,0,0,0,0,0,0,0,0,0,0,0,0,0,0,0,0,0,0,0,0,0,0,0,0,0,0,0,0,0,0,0,0,0,0,0,0,0,0,0,0,0,0,0,0],"trees":[{"base_weights":[-9.024751E-8,5.8592176E-1,-9.852062E-2,-3.633844E-1,1.0989339E0,3.4550393E-1,-2.1248782E-1,4.743088E-2,-3.6197957E-2,6.0082234E-2,-9.415335E-3,7.3091798E-3,5.440707E-2,3.463061E-2,-1.4506538E-2],"categories":[],"categories_nodes":[],"categories_segments":[],"categories_sizes":[],"default_left":[0,0,0,0,0,0,0,0,0,0,0,0,0,0,0],"id":0,"left_children":[1,3,5,7,9,11,13,-1,-1,-1,-1,-1,-1,-1,-1],"loss_changes":[1.1419013E1,1.4266447E1,8.642844E0,5.767992E0,2.7030811E0,5.0170126E0,9.714304E0,0E0,0E0,0E0,0E0,0E0,0E0,0E0,0E0],"parents":[2147483647,0,0,1,1,2,2,3,3,4,4,5,5,6,6],"right_children":[2,4,6,8,10,12,14,-1,-1,-1,-1,-1,-1,-1,-1],"split_conditions":[9.300431E-3,1.615E1,1E0,-7.0511913E-3,6.84651E3,8.429918E-3,1.6565812E4,4.743088E-2,-3.6197957E-2,6.0082234E-2,-9.415335E-3,7.3091798E-3,5.440707E-2,3.463061E-2,-1.4506538E-2],"split_indices":[4,11,15,1,5,6,2,0,0,0,0,0,0,0,0],"split_type":[0,0,0,0,0,0,0,0,0,0,0,0,0,0,0],"sum_hessian":[1.9581635E2,2.7474232E1,1.683421E2,9.740864E0,1.7733368E1,3.396814E1,1.3437396E2,1.7483602E0,7.9925036E0,1.6484539E1,1.2488286E0,2.7723997E1,6.2441435E0,9.990629E0,1.2438334E2],"tree_param":{"num_deleted":"0","num_feature":"16","num_nodes":"15","size_leaf_vector":"1"}},{"base_weights":[7.2197017E-4,5.586684E-1,-9.313945E-2,-3.4450915E-1,1.0458179E0,3.2987764E-1,-2.0179978E-1,4.5895424E-2,-3.463454E-2,5.7450842E-2,-1.1078854E-2,6.9549875E-3,5.2019335E-2,3.3033114E-2,-1.3793963E-2],"categories":[],"categories_nodes":[],"categories_segments":[],"categories_sizes":[],"default_left":[0,0,0,0,0,0,0,0,0,0,0,0,0,0,0],"id":1,"left_children":[1,3,5,7,9,11,13,-1,-1,-1,-1,-1,-1,-1,-1],"loss_changes":[1.0357276E1,1.2890727E1,7.8484535E0,5.352626E0,2.7067757E0,4.5967674E0,8.827946E0,0E0,0E0,0E0,0E0,0E0,0E0,0E0,0E0],"parents":[2147483647,0,0,1,1,2,2,3,3,4,4,5,5,6,6],"right_children":[2,4,6,8,10,12,14,-1,-1,-1,-1,-1,-1,-1,-1],"split_conditions":[9.300431E-3,1.615E1,1E0,-7.0511913E-3,7.3335E0,8.429918E-3,1.6565812E4,4.5895424E-2,-3.463454E-2,5.7450842E-2,-1.1078854E-2,6.9549875E-3,5.2019335E-2,3.3033114E-2,-1.3793963E-2],"split_indices":[4,11,15,1,9,6,2,0,0,0,0,0,0,0,0],"split_type":[0,0,0,0,0,0,0,0,0,0,0,0,0,0,0],"sum_hessian":[1.9577896E2,2.7479393E1,1.6829956E2,9.730957E0,1.7748436E1,3.397976E1,1.3431981E2,1.7499166E0,7.9810405E0,1.6498436E1,1.2499995E0,2.7729832E1,6.2499275E0,9.99823E0,1.2432157E2],"tree_param":{"num_deleted":"0","num_feature":"16","num_nodes":"15","size_leaf_vector":"1"}},{"base_weights":[1.3740002E-3,5.332575E-1,-8.805839E-2,-3.2675153E-1,9.9657357E-1,3.1505495E-1,-1.9166937E-1,4.4441096E-2,-3.3155516E-2,6.420437E-2,2.1142317E-2,6.618203E-3,4.9798843E-2,3.152665E-2,-1.3117368E-2],"categories":[],"categories_nodes":[],"categories_segments":[],"categories_sizes":[],"default_left":[0,0,0,0,0,0,0,0,0,0,0,0,0,0,0],"id":2,"left_children":[1,3,5,7,9,11,13,-1,-1,-1,-1,-1,-1,-1,-1],"loss_changes":[9.4027815E0,1.1662735E1,7.1287007E0,4.9703193E0,2.5479164E0,4.2198057E0,8.025053E0,0E0,0E0,0E0,0E0,0E0,0E0,0E0,0E0],"parents":[2147483647,0,0,1,1,2,2,3,3,4,4,5,5,6,6],"right_children":[2,4,6,8,10,12,14,-1,-1,-1,-1,-1,-1,-1,-1],"split_conditions":[9.300431E-3,1.615E1,1E0,-7.0511913E-3,1.911377E4,8.429918E-3,1.6565812E4,4.4441096E-2,-3.3155516E-2,6.420437E-2,2.1142317E-2,6.618203E-3,4.9798843E-2,3.152665E-2,-1.3117368E-2],"split_indices":[4,11,15,1,7,6,2,0,0,0,0,0,0,0,0],"split_type":[0,0,0,0,0,0,0,0,0,0,0,0,0,0,0],"sum_hessian":[1.9568475E2,2.7452587E1,1.6823216E2,9.714763E0,1.7737825E1,3.3981506E1,1.3425066E2,1.7495499E0,7.965213E0,1.099148E1,6.7463455E0,2.7734694E1,6.246811E0,9.999897E0,1.24250755E2],"tree_param":{"num_deleted":"0","num_feature":"16","num_nodes":"15","size_leaf_vector":"1"}},{"base_weights":[2.1806213E-3,7.210033E-2,-6.566391E-1,6.419402E-1,-2.2276584E-2,-3.7642583E-1,-7.378389E-2,-3.0547988E-3,4.9034912E-2,-1.5939021E-2,7.298007E-3,-4.534672E-2,6.842904E-3],"categories":[],"categories_nodes":[],"categories_segments":[],"categories_sizes":[],"default_left":[0,0,0,0,0,0,0,0,0,0,0,0,0],"id":3,"left_children":[1,3,5,7,9,11,-1,-1,-1,-1,-1,-1,-1],"loss_changes":[9.100893E0,9.618527E0,3.795083E0,6.111104E0,7.737282E0,4.3356733E0,0E0,0E0,0E0,0E0,0E0,0E0,0E0],"parents":[2147483647,0,0,1,1,2,2,3,3,4,4,5,5],"right_children":[2,4,6,8,10,12,-1,-1,-1,-1,-1,-1,-1],"split_conditions":[3.906595E1,9.300431E-3,4E0,1.615E1,4.76983E3,-8.114863E-3,-7.378389E-2,-3.0547988E-3,4.9034912E-2,-1.5939021E-2,7.298007E-3,-4.534672E-2,6.842904E-3],"split_indices":[13,4,15,11,5,12,0,0,0,0,0,0,0],"split_type":[0,0,0,0,0,0,0,0,0,0,0,0,0],"sum_hessian":[1.9554079E2,1.7758452E2,1.795626E1,2.4408169E1,1.5317635E2,1.4466507E1,3.4897532E0,8.203277E0,1.6204893E1,5.512612E1,9.805023E1,6.7367563E0,7.7297506E0],"tree_param":{"num_deleted":"0","num_feature":"16","num_nodes":"13","size_leaf_vector":"1"}},{"base_weights":[1.6899946E-3,7.4755184E-2,-5.835054E-1,-2.1126936E-1,2.4091361E-1,-8.678744E-1,8.171246E-2,-1.7906616E-2,3.889293E-2,1.6394606E-2,-3.78797E-2,-5.416915E-2,1.9481849E-2,3.072731E-2,-4.61438E-2],"categories":[],"categories_nodes":[],"categories_segments":[],"categories_sizes":[],"default_left":[0,0,0,0,0,0,0,0,0,0,0,0,0,0,0],"id":4,"left_children":[1,3,5,7,9,11,13,-1,-1,-1,-1,-1,-1,-1,-1],"loss_changes":[8.443028E0,8.392795E0,4.2171345E0,9.725376E0,9.93153E0,4.6065807E0,4.5698147E0,0E0,0E0,0E0,0E0,0E0,0E0,0E0,0E0],"parents":[2147483647,0,0,1,1,2,2,3,3,4,4,5,5,6,6],"right_children":[2,4,6,8,10,12,14,-1,-1,-1,-1,-1,-1,-1,-1],"split_conditions":[2.580177E4,1.507457E4,7.1175E0,1.0684446E-2,2.3038544E-2,6.94482E3,2.631127E4,-1.7906616E-2,3.889293E-2,1.6394606E-2,-3.78797E-2,-5.416915E-2,1.9481849E-2,3.072731E-2,-4.61438E-2],"split_indices":[0,7,9,6,1,5,2,0,0,0,0,0,0,0,0],"split_type":[0,0,0,0,0,0,0,0,0,0,0,0,0,0,0],"sum_hessian":[1.9544333E2,1.7452507E2,2.0918255E1,6.403094E1,1.1049413E2,1.4440534E1,6.4777217E0,5.630836E1,7.7225776E0,1.02258194E2,8.23594E0,1.2446038E1,1.9944954E0,4.4863973E0,1.9913245E0],"tree_param":{"num_deleted":"0","num_feature":"16","num_nodes":"15","size_leaf_vector":"1"}},{"base_weights":[1.3361345E-3,6.591775E-2,-6.090898E-1,6.0712695E-1,-2.3518344E-2,-3.4080428E-1,-7.00456E-2,-3.1377554E-3,4.6563018E-2,-1.46403825E-2,6.4508463E-3,-4.253089E-2,7.445E-3],"categories":[],"categories_nodes":[],"categories_segments":[],"categories_sizes":[],"default_left":[0,0,0,0,0,0,0,0,0,0,0,0,0],"id":5,"left_children":[1,3,5,7,9,11,-1,-1,-1,-1,-1,-1,-1],"loss_changes":[7.781663E0,8.653755E0,3.5345602E0,5.5626965E0,6.369178E0,3.9783258E0,0E0,0E0,0E0,0E0,0E0,0E0,0E0],"parents":[2147483647,0,0,1,1,2,2,3,3,4,4,5,5],"right_children":[2,4,6,8,10,12,-1,-1,-1,-1,-1,-1,-1],"split_conditions":[3.906595E1,9.300431E-3,4E0,1.615E1,4.76983E3,-8.114863E-3,-7.00456E-2,-3.1377554E-3,4.6563018E-2,-1.46403825E-2,6.4508463E-3,-4.253089E-2,7.445E-3],"split_indices":[13,4,15,11,5,12,0,0,0,0,0,0,0],"split_type":[0,0,0,0,0,0,0,0,0,0,0,0,0],"sum_hessian":[1.95374E2,1.7748817E2,1.7885815E1,2.4349915E1,1.5313826E2,1.4427789E1,3.4580252E0,8.203091E0,1.6146824E1,5.504353E1,9.809473E1,6.7076707E0,7.720118E0],"tree_param":{"num_deleted":"0","num_feature":"16","num_nodes":"13","size_leaf_vector":"1"}},{"base_weights":[9.1208884E-4,6.818958E-2,-5.399555E-1,5.7829875E-1,-1.4681053E-2,-8.132412E-1,9.492476E-2,3.8367007E-2,-1.8863676E-2,-1.3933489E-2,6.903538E-3,-5.1054854E-2,1.9329717E-2,3.023657E-2,-4.380247E-2],"categories":[],"categories_nodes":[],"categories_segments":[],"categories_sizes":[],"default_left":[0,0,0,0,0,0,0,0,0,0,0,0,0,0,0],"id":6,"left_children":[1,3,5,7,9,11,13,-1,-1,-1,-1,-1,-1,-1,-1],"loss_changes":[7.1770606E0,7.42336E0,3.8630242E0,4.722105E0,6.1624413E0,4.2250137E0,4.223295E0,0E0,0E0,0E0,0E0,0E0,0E0,0E0,0E0],"parents":[2147483647,0,0,1,1,2,2,3,3,4,4,5,5,6,6],"right_children":[2,4,6,8,10,12,14,-1,-1,-1,-1,-1,-1,-1,-1],"split_conditions":[2.580177E4,9.300431E-3,7.1175E0,7.2907E0,4.76983E3,6.94482E3,2.631127E4,3.8367007E-2,-1.8863676E-2,-1.3933489E-2,6.903538E-3,-5.1054854E-2,1.9329717E-2,3.023657E-2,-4.380247E-2],"split_indices":[0,4,9,9,5,5,2,0,0,0,0,0,0,0,0],"split_type":[0,0,0,0,0,0,0,0,0,0,0,0,0,0,0],"sum_hessian":[1.9522398E2,1.7440411E2,2.081987E1,2.3537989E1,1.5086613E2,1.435835E1,6.461521E0,1.9814966E1,3.723022E0,5.4996227E1,9.5869896E1,1.2365208E1,1.9931424E0,4.4842644E0,1.9772565E0],"tree_param":{"num_deleted":"0","num_feature":"16","num_nodes":"15","size_leaf_vector":"1"}},{"base_weights":[6.9242367E-4,6.038954E-2,-5.662455E-1,5.5454236E-1,-2.0948589E-2,-3.0849832E-1,-6.681667E-2,-4.2775325E-3,4.340947E-2,2.8088609E-2,-4.4978117E-3,-3.998641E-2,7.9640215E-3],"categories":[],"categories_nodes":[],"categories_segments":[],"categories_sizes":[],"default_left":[0,0,0,0,0,0,0,0,0,0,0,0,0],"id":7,"left_children":[1,3,5,7,9,11,-1,-1,-1,-1,-1,-1,-1],"loss_changes":[6.6702027E0,7.178015E0,3.3144555E0,5.1408224E0,6.24567E0,3.6586003E0,0E0,0E0,0E0,0E0,0E0,0E0,0E0],"parents":[2147483647,0,0,1,1,2,2,3,3,4,4,5,5],"right_children":[2,4,6,8,10,12,-1,-1,-1,-1,-1,-1,-1],"split_conditions":[3.906595E1,9.300431E-3,4E0,1.615E1,-1.7137256E-2,-8.114863E-3,-6.681667E-2,-4.2775325E-3,4.340947E-2,2.8088609E-2,-4.4978117E-3,-3.998641E-2,7.9640215E-3],"split_indices":[13,4,15,11,1,12,0,0,0,0,0,0,0],"split_type":[0,0,0,0,0,0,0,0,0,0,0,0,0],"sum_hessian":[1.9507309E2,1.7729758E2,1.7775503E1,2.4236437E1,1.5306114E2,1.436737E1,3.4081337E0,8.209557E0,1.602688E1,1.5450645E1,1.376105E2,6.6618805E0,7.7054887E0],"tree_param":{"num_deleted":"0","num_feature":"16","num_nodes":"13","size_leaf_vector":"1"}},{"base_weights":[4.7239556E-4,5.7762362E-2,-5.452016E-1,5.3029215E-1,-1.9751078E-2,3.8341677E-1,-7.106074E-1,-1.0770506E-2,3.867995E-2,2.67456E-2,-4.275312E-3,3.832285E-2,-8.465354E-3,-4.3666996E-2,3.462866E-2],"categories":[],"categories_nodes":[],"categories_segments":[],"categories_sizes":[],"default_left":[0,0,0,0,0,0,0,0,0,0,0,0,0,0,0],"id":8,"left_children":[1,3,5,7,9,11,13,-1,-1,-1,-1,-1,-1,-1,-1],"loss_changes":[6.1559396E0,6.5374565E0,3.1462798E0,4.7293935E0,5.6642885E0,8.6617476E-1,4.3112307E0,0E0,0E0,0E0,0E0,0E0,0E0,0E0,0E0],"parents":[2147483647,0,0,1,1,2,2,3,3,4,4,5,5,6,6],"right_children":[2,4,6,8,10,12,14,-1,-1,-1,-1,-1,-1,-1,-1],"split_conditions":[3.906595E1,9.300431E-3,1.536E1,1.578E1,-1.7137256E-2,1.0596741E-2,6.94482E3,-1.0770506E-2,3.867995E-2,2.67456E-2,-4.275312E-3,3.832285E-2,-8.465354E-3,-4.3666996E-2,3.462866E-2],"split_indices":[13,4,11,11,1,1,5,0,0,0,0,0,0,0,0],"split_type":[0,0,0,0,0,0,0,0,0,0,0,0,0,0,0],"sum_hessian":[1.9490933E2,1.7719942E2,1.7709911E1,2.4148209E1,1.5305121E2,2.4782917E0,1.5231619E1,5.968924E0,1.8179283E1,1.5464972E1,1.3758624E2,1.2354373E0,1.2428546E0,1.3987081E1,1.2445384E0],"tree_param":{"num_deleted":"0","num_feature":"16","num_nodes":"15","size_leaf_vector":"1"}},{"base_weights":[8.112437E-4,1.0720983E0,-2.6781756E-2,6.450247E-2,2.1028623E-2,2.4165139E-2,-6.6588056E-1,-1.0672918E-2,7.783449E-3,-4.8726317E-2,2.8603035E-3],"categories":[],"categories_nodes":[],"categories_segments":[],"categories_sizes":[],"default_left":[0,0,0,0,0,0,0,0,0,0,0],"id":9,"left_children":[1,3,5,-1,-1,7,9,-1,-1,-1,-1],"loss_changes":[5.814488E0,1.588068E-1,6.2608104E0,0E0,0E0,5.6140494E0,3.2237868E0,0E0,0E0,0E0,0E0],"parents":[2147483647,0,0,1,1,2,2,5,5,6,6],"right_children":[2,4,6,-1,-1,8,10,-1,-1,-1,-1],"split_conditions":[6.952171E-3,6.898948E-5,3.9372616E1,6.450247E-2,2.1028623E-2,1.507457E4,7.12E0,-1.0672918E-2,7.783449E-3,-4.8726317E-2,2.8603035E-3],"split_indices":[4,10,13,0,0,7,9,0,0,0,0],"split_type":[0,0,0,0,0,0,0,0,0,0,0],"sum_hessian":[1.9472972E2,3.9391675E0,1.9079056E2,2.2173622E0,1.7218052E0,1.7759541E2,1.3195146E1,6.3047417E1,1.14548E2,9.004073E0,4.1910725E0],"tree_param":{"num_deleted":"0","num_feature":"16","num_nodes":"11","size_leaf_vector":"1"}},{"base_weights":[9.51672E-4,1.039474E0,-2.5719356E-2,2.0204473E-2,6.2670715E-2,3.0322473E-2,-5.658562E-1,-1.0153371E-2,8.19513E-3,-4.4850383E-2,1.6252494E-3],"categories":[],"categories_nodes":[],"categories_segments":[],"categories_sizes":[],"default_left":[0,0,0,0,0,0,0,0,0,0,0],"id":10,"left_children":[1,3,5,-1,-1,7,9,-1,-1,-1,-1],"loss_changes":[5.445076E0,1.6260147E-1,5.819866E0,0E0,0E0,5.477467E0,3.6098313E0,0E0,0E0,0E0,0E0],"parents":[2147483647,0,0,1,1,2,2,5,5,6,6],"right_children":[2,4,6,-1,-1,8,10,-1,-1,-1,-1],"split_conditions":[6.952171E-3,7.212877E-4,3.906595E1,2.0204473E-2,6.2670715E-2,1.507457E4,7.115E0,-1.0153371E-2,8.19513E-3,-4.4850383E-2,1.6252494E-3],"split_indices":[4,6,13,0,0,7,9,0,0,0,0],"split_type":[0,0,0,0,0,0,0,0,0,0,0],"sum_hessian":[1.9461888E2,3.9221823E0,1.9069669E2,1.715648E0,2.2065344E0,1.73626E2,1.7070683E1,6.301195E1,1.1061406E2,1.0667727E1,6.402955E0],"tree_param":{"num_deleted":"0","num_feature":"16","num_nodes":"11","size_leaf_vector":"1"}},{"base_weights":[1.0901827E-3,1.0086945E0,-2.4693985E-2,6.109038E-2,1.9254211E-2,1.4250377E-2,-7.533662E-1,1.5901877E-2,-3.7286181E-3,1.2522334E-2,-4.6491608E-2],"categories":[],"categories_nodes":[],"categories_segments":[],"categories_sizes":[],"default_left":[0,0,0,0,0,0,0,0,0,0,0],"id":11,"left_children":[1,3,5,-1,-1,7,9,-1,-1,-1,-1],"loss_changes":[5.1036525E0,1.80902E-1,5.4474273E0,0E0,0E0,4.957462E0,1.9579182E0,0E0,0E0,0E0,0E0],"parents":[2147483647,0,0,1,1,2,2,5,5,6,6],"right_children":[2,4,6,-1,-1,8,10,-1,-1,-1,-1],"split_conditions":[6.952171E-3,6.898948E-5,2.61722E4,6.109038E-2,1.9254211E-2,-9.752886E-3,3.906595E1,1.5901877E-2,-3.7286181E-3,1.2522334E-2,-4.6491608E-2],"split_indices":[4,10,2,0,0,1,13,0,0,0,0],"split_type":[0,0,0,0,0,0,0,0,0,0,0],"sum_hessian":[1.9448486E2,3.9014559E0,1.905834E2,2.1928287E0,1.7086271E0,1.8184502E2,8.738382E0,4.0556183E1,1.4128883E2,1.2438133E0,7.4945693E0],"tree_param":{"num_deleted":"0","num_feature":"16","num_nodes":"11","size_leaf_vector":"1"}},{"base_weights":[1.3311164E-3,3.9249468E-1,-6.342163E-2,-3.057058E-1,7.7650905E-1,3.156905E-1,-1.6116497E-1,4.0895868E-2,-3.0891392E-2,5.4078598E-2,1.150543E-2,7.325647E-3,4.7137182E-2,2.8490612E-2,-1.1214055E-2],"categories":[],"categories_nodes":[],"categories_segments":[],"categories_sizes":[],"default_left":[0,0,0,0,0,0,0,0,0,0,0,0,0,0,0],"id":12,"left_children":[1,3,5,7,9,11,13,-1,-1,-1,-1,-1,-1,-1,-1],"loss_changes":[4.974006E0,7.715341E0,6.2948856E0,4.227811E0,2.7975254E0,3.5617344E0,6.3389874E0,0E0,0E0,0E0,0E0,0E0,0E0,0E0,0E0],"parents":[2147483647,0,0,1,1,2,2,3,3,4,4,5,5,6,6],"right_children":[2,4,6,8,10,12,14,-1,-1,-1,-1,-1,-1,-1,-1],"split_conditions":[9.300431E-3,1.615E1,1E0,-7.0511913E-3,7.158E0,8.429918E-3,1.6565812E4,4.0895868E-2,-3.0891392E-2,5.4078598E-2,1.150543E-2,7.325647E-3,4.7137182E-2,2.8490612E-2,-1.1214055E-2],"split_indices":[4,11,15,1,9,6,2,0,0,0,0,0,0,0,0],"split_type":[0,0,0,0,0,0,0,0,0,0,0,0,0,0,0],"sum_hessian":[1.9439383E2,2.6890446E1,1.6750339E2,9.614196E0,1.7276249E1,3.3876915E1,1.3362646E2,1.7377785E0,7.876417E0,1.0457971E1,6.8182793E0,2.7650518E1,6.2263956E0,9.98282E0,1.2364365E2],"tree_param":{"num_deleted":"0","num_feature":"16","num_nodes":"15","size_leaf_vector":"1"}},{"base_weights":[2.0325433E-3,9.6759665E-1,-2.2498004E-2,1.806135E-2,5.8916945E-2,3.6896646E-2,-4.5639762E-1,-9.670048E-3,8.7486105E-3,-3.6011465E-2,3.4456716E-3],"categories":[],"categories_nodes":[],"categories_segments":[],"categories_sizes":[],"default_left":[0,0,0,0,0,0,0,0,0,0,0],"id":13,"left_children":[1,3,5,-1,-1,7,9,-1,-1,-1,-1],"loss_changes":[4.643914E0,1.9509459E-1,4.946542E0,0E0,0E0,5.4135036E0,3.2520437E0,0E0,0E0,0E0,0E0],"parents":[2147483647,0,0,1,1,2,2,5,5,6,6],"right_children":[2,4,6,-1,-1,8,10,-1,-1,-1,-1],"split_conditions":[6.952171E-3,7.212877E-4,3.866035E1,1.806135E-2,5.8916945E-2,1.507457E4,7.1175E0,-9.670048E-3,8.7486105E-3,-3.6011465E-2,3.4456716E-3],"split_indices":[4,6,13,0,0,7,9,0,0,0,0],"split_type":[0,0,0,0,0,0,0,0,0,0,0],"sum_hessian":[1.9414401E2,3.8576035E0,1.902864E2,1.6949073E0,2.1626964E0,1.6817995E2,2.2106464E1,6.2887897E1,1.05292046E2,1.4468678E1,7.6377864E0],"tree_param":{"num_deleted":"0","num_feature":"16","num_nodes":"11","size_leaf_vector":"1"}},{"base_weights":[2.150181E-3,9.6504146E-1,-2.2698037E-2,6.837893E-2,-6.438875E-3,-2.5379452E-1,8.405392E-2,-1.9225119E-2,3.3147782E-2,8.239812E-3,-2.9764106E-2],"categories":[],"categories_nodes":[],"categories_segments":[],"categories_sizes":[],"default_left":[0,0,0,0,0,0,0,0,0,0,0],"id":14,"left_children":[1,3,5,-1,-1,7,9,-1,-1,-1,-1],"loss_changes":[4.687292E0,2.3460603E0,4.7348566E0,0E0,0E0,7.518796E0,7.307895E0,0E0,0E0,0E0,0E0],"parents":[2147483647,0,0,1,1,2,2,5,5,6,6],"right_children":[2,4,6,-1,-1,8,10,-1,-1,-1,-1],"split_conditions":[1.146298E4,5.7998776E-2,1.507457E4,6.837893E-2,-6.438875E-3,1.0684446E-2,1.9345218E-2,-1.9225119E-2,3.3147782E-2,8.239812E-3,-2.9764106E-2],"split_indices":[7,12,7,0,0,6,1,0,0,0,0],"split_type":[0,0,0,0,0,0,0,0,0,0,0],"sum_hessian":[1.9399129E2,3.9283078E0,1.9006299E2,2.6885965E0,1.2397112E0,5.9620083E1,1.304429E2,5.268848E1,6.9316044E0,1.1726305E2,1.3179853E1],"tree_param":{"num_deleted":"0","num_feature":"16","num_nodes":"11","size_leaf_vector":"1"}},{"base_weights":[2.3197918E-3,2.5510526E-1,-8.872959E-2,3.4486127E-1,-7.1518064E-1,-3.174025E-1,6.586302E-2,-3.1422097E-3,3.5406142E-2,5.961442E-3,-5.2257787E-2,-5.6167264E-2,-5.9089214E-3,6.7890696E-3,-4.5287803E-2],"categories":[],"categories_nodes":[],"categories_segments":[],"categories_sizes":[],"default_left":[0,0,0,0,0,0,0,0,0,0,0,0,0,0,0],"id":15,"left_children":[1,3,5,7,9,11,13,-1,-1,-1,-1,-1,-1,-1,-1],"loss_changes":[4.5082E0,4.7635813E0,5.1123E0,7.1755342E0,1.4233427E0,9.222403E0,6.016861E0,0E0,0E0,0E0,0E0,0E0,0E0,0E0,0E0],"parents":[2147483647,0,0,1,1,2,2,3,3,4,4,5,5,6,6],"right_children":[2,4,6,8,10,12,14,-1,-1,-1,-1,-1,-1,-1,-1],"split_conditions":[-7.691712E-3,7.31E0,2.5003453E-4,1.588E1,9.414795E-3,1.363E1,7.967476E-2,-3.1422097E-3,3.5406142E-2,5.961442E-3,-5.2257787E-2,-5.6167264E-2,-5.9089214E-3,6.7890696E-3,-4.5287803E-2],"split_indices":[1,9,14,11,4,11,12,0,0,0,0,0,0,0,0],"split_type":[0,0,0,0,0,0,0,0,0,0,0,0,0,0,0],"sum_hessian":[1.9388931E2,5.0865833E1,1.4302347E2,4.7148914E1,3.716919E0,5.7264637E1,8.5758835E1,2.2605125E1,2.4543789E1,1.2343317E0,2.482587E0,1.0430482E1,4.6834156E1,8.080435E1,4.954484E0],"tree_param":{"num_deleted":"0","num_feature":"16","num_nodes":"15","size_leaf_vector":"1"}},{"base_weights":[1.6066852E-3,5.3420823E-2,-4.2336988E-1,2.5922915E-1,-8.162382E-2,-6.703636E-1,1.3130865E-1,2.9958865E-2,-1.8543901E-3,3.480662E-2,-8.697756E-3,-4.3042235E-2,1.9555194E-2,3.0583996E-2,-4.029883E-2],"categories":[],"categories_nodes":[],"categories_segments":[],"categories_sizes":[],"default_left":[0,0,0,0,0,0,0,0,0,0,0,0,0,0,0],"id":16,"left_children":[1,3,5,7,9,11,13,-1,-1,-1,-1,-1,-1,-1,-1],"loss_changes":[4.312754E0,4.872374E0,3.004094E0,7.012443E0,7.744013E0,3.3474474E0,3.8221235E0,0E0,0E0,0E0,0E0,0E0,0E0,0E0,0E0],"parents":[2147483647,0,0,1,1,2,2,3,3,4,4,5,5,6,6],"right_children":[2,4,6,8,10,12,14,-1,-1,-1,-1,-1,-1,-1,-1],"split_conditions":[2.580177E4,1.1766634E-2,7.1175E0,-8.691376E-3,1.6565812E4,6.94482E3,2.631127E4,2.9958865E-2,-1.8543901E-3,3.480662E-2,-8.697756E-3,-4.3042235E-2,1.9555194E-2,3.0583996E-2,-4.029883E-2],"split_indices":[0,4,9,12,2,5,2,0,0,0,0,0,0,0,0],"split_type":[0,0,0,0,0,0,0,0,0,0,0,0,0,0,0],"sum_hessian":[1.9383096E2,1.7354611E2,2.028485E1,6.839397E1,1.0515214E2,1.38908205E1,6.3940287E0,3.1375967E1,3.7018E1,1.04645E1,9.468764E1,1.1937613E1,1.9532079E0,4.457098E0,1.9369307E0],"tree_param":{"num_deleted":"0","num_feature":"16","num_nodes":"15","size_leaf_vector":"1"}},{"base_weights":[1.6251439E-3,9.223262E-1,-2.2051228E-2,6.560984E-2,-6.389586E-3,9.2282784E-1,-4.623519E-2,5.6624215E-2,1.669273E-2,1.1879704E-2,-6.401531E-3],"categories":[],"categories_nodes":[],"categories_segments":[],"categories_sizes":[],"default_left":[0,0,0,0,0,0,0,0,0,0,0],"id":17,"left_children":[1,3,5,-1,-1,7,9,-1,-1,-1,-1],"loss_changes":[4.2631555E0,2.1750321E0,4.401064E0,0E0,0E0,2.155695E-1,4.370039E0,0E0,0E0,0E0,0E0],"parents":[2147483647,0,0,1,1,2,2,5,5,6,6],"right_children":[2,4,6,-1,-1,8,10,-1,-1,-1,-1],"split_conditions":[1.146298E4,5.7998776E-2,6.952171E-3,6.560984E-2,-6.389586E-3,6.898948E-5,-9.752886E-3,5.6624215E-2,1.669273E-2,1.1879704E-2,-6.401531E-3],"split_indices":[7,12,4,0,0,10,1,0,0,0,0],"split_type":[0,0,0,0,0,0,0,0,0,0,0],"sum_hessian":[1.936348E2,3.9030156E0,1.8973178E2,2.6642904E0,1.2387253E0,3.8076184E0,1.8592416E2,2.1274867E0,1.6801314E0,4.1167755E1,1.4475641E2],"tree_param":{"num_deleted":"0","num_feature":"16","num_nodes":"11","size_leaf_vector":"1"}},{"base_weights":[2.261161E-3,3.346204E-1,-5.955904E-2,9.150336E-1,8.484146E-2,2.9799554E-1,-1.4830342E-1,-9.3046455E-3,6.770738E-2,4.2447712E-2,-1.1233004E-2,1.8585619E-2,-4.5485895E-2,1.8124241E-2,-1.1795208E-2],"categories":[],"categories_nodes":[],"categories_segments":[],"categories_sizes":[],"default_left":[0,0,0,0,0,0,0,0,0,0,0,0,0,0,0],"id":18,"left_children":[1,3,5,7,9,11,13,-1,-1,-1,-1,-1,-1,-1,-1],"loss_changes":[4.0170484E0,4.3674917E0,5.275953E0,4.663073E0,5.520943E0,3.2865746E0,6.025962E0,0E0,0E0,0E0,0E0,0E0,0E0,0E0,0E0],"parents":[2147483647,0,0,1,1,2,2,3,3,4,4,5,5,6,6],"right_children":[2,4,6,8,10,12,14,-1,-1,-1,-1,-1,-1,-1,-1],"split_conditions":[-9.4473325E-3,5.2204154E-2,1E0,1.448E1,-1.2811637E-2,2.61722E4,9.300431E-3,-9.3046455E-3,6.770738E-2,4.2447712E-2,-1.1233004E-2,1.8585619E-2,-4.5485895E-2,1.8124241E-2,-1.1795208E-2],"split_indices":[8,12,15,11,1,2,4,0,0,0,0,0,0,0,0],"split_type":[0,0,0,0,0,0,0,0,0,0,0,0,0,0,0],"sum_hessian":[1.9354001E2,2.966132E1,1.6387868E2,8.12284E0,2.153848E1,3.211762E1,1.3176106E2,2.4800506E0,5.6427894E0,5.706649E0,1.5831831E1,3.0922388E1,1.1952324E0,1.8829695E1,1.12931366E2],"tree_param":{"num_deleted":"0","num_feature":"16","num_nodes":"15","size_leaf_vector":"1"}},{"base_weights":[2.5002414E-3,5.158508E-2,-4.0223098E-1,-1.5712386E-1,1.7199948E-1,-6.409008E-1,1.3009733E-1,-1.4392445E-2,3.595667E-2,1.2453614E-2,-3.537352E-2,-4.2926416E-2,1.2793625E-2,2.9572278E-2,-3.8878556E-2],"categories":[],"categories_nodes":[],"categories_segments":[],"categories_sizes":[],"default_left":[0,0,0,0,0,0,0,0,0,0,0,0,0,0,0],"id":19,"left_children":[1,3,5,7,9,11,13,-1,-1,-1,-1,-1,-1,-1,-1],"loss_changes":[3.8828065E0,4.406535E0,2.7692842E0,7.5701137E0,7.699065E0,3.1012373E0,3.548382E0,0E0,0E0,0E0,0E0,0E0,0E0,0E0,0E0],"parents":[2147483647,0,0,1,1,2,2,3,3,4,4,5,5,6,6],"right_children":[2,4,6,8,10,12,14,-1,-1,-1,-1,-1,-1,-1,-1],"split_conditions":[2.580177E4,1.507457E4,7.1175E0,1.0684446E-2,2.3038544E-2,2.360136E4,2.631127E4,-1.4392445E-2,3.595667E-2,1.2453614E-2,-3.537352E-2,-4.2926416E-2,1.2793625E-2,2.9572278E-2,-3.8878556E-2],"split_indices":[0,7,9,6,1,7,2,0,0,0,0,0,0,0,0],"split_type":[0,0,0,0,0,0,0,0,0,0,0,0,0,0,0],"sum_hessian":[1.9340376E2,1.7326334E2,2.0140419E1,6.327929E1,1.0998405E2,1.376494E1,6.375479E0,5.5648792E1,7.6305E0,1.0178119E2,8.202853E0,1.1111151E1,2.6537898E0,4.457977E0,1.9175026E0],"tree_param":{"num_deleted":"0","num_feature":"16","num_nodes":"15","size_leaf_vector":"1"}},{"base_weights":[2.151821E-3,8.850264E-1,-2.0410825E-2,6.310545E-2,-6.104411E-3,8.800472E-1,-4.3239262E-2,5.44371E-2,1.5435156E-2,2.081917E-2,-4.459253E-3],"categories":[],"categories_nodes":[],"categories_segments":[],"categories_sizes":[],"default_left":[0,0,0,0,0,0,0,0,0,0,0],"id":20,"left_children":[1,3,5,-1,-1,7,9,-1,-1,-1,-1],"loss_changes":[3.8859942E0,2.000189E0,3.9501188E0,0E0,0E0,2.3055458E-1,3.9768555E0,0E0,0E0,0E0,0E0],"parents":[2147483647,0,0,1,1,2,2,5,5,6,6],"right_children":[2,4,6,-1,-1,8,10,-1,-1,-1,-1],"split_conditions":[1.146298E4,5.7998776E-2,6.952171E-3,6.310545E-2,-6.104411E-3,6.898948E-5,1.659952E4,5.44371E-2,1.5435156E-2,2.081917E-2,-4.459253E-3],"split_indices":[7,12,4,0,0,10,3,0,0,0,0],"split_type":[0,0,0,0,0,0,0,0,0,0,0],"sum_hessian":[1.9317332E2,3.8611596E0,1.8931216E2,2.6250854E0,1.236074E0,3.7523375E0,1.8555983E2,2.085124E0,1.6672134E0,1.6130865E1,1.6942897E2],"tree_param":{"num_deleted":"0","num_feature":"16","num_nodes":"11","size_leaf_vector":"1"}},{"base_weights":[2.7921628E-3,3.2511312E-1,-5.7233367E-2,8.790156E-1,8.648289E-2,2.829394E-1,-1.4165598E-1,-8.699528E-3,6.4905405E-2,4.1010633E-2,-1.05584115E-2,4.867832E-3,3.9866548E-2,1.691316E-2,-1.1183529E-2],"categories":[],"categories_nodes":[],"categories_segments":[],"categories_sizes":[],"default_left":[0,0,0,0,0,0,0,0,0,0,0,0,0,0,0],"id":21,"left_children":[1,3,5,7,9,11,13,-1,-1,-1,-1,-1,-1,-1,-1],"loss_changes":[3.773363E0,3.9708896E0,4.762866E0,4.2460084E0,5.088737E0,3.0756624E0,5.2877827E0,0E0,0E0,0E0,0E0,0E0,0E0,0E0,0E0],"parents":[2147483647,0,0,1,1,2,2,3,3,4,4,5,5,6,6],"right_children":[2,4,6,8,10,12,14,-1,-1,-1,-1,-1,-1,-1,-1],"split_conditions":[-9.4473325E-3,5.2204154E-2,1E0,1.448E1,-1.2811637E-2,8.429918E-3,9.300431E-3,-8.699528E-3,6.4905405E-2,4.1010633E-2,-1.05584115E-2,4.867832E-3,3.9866548E-2,1.691316E-2,-1.1183529E-2],"split_indices":[8,12,15,11,1,6,4,0,0,0,0,0,0,0,0],"split_type":[0,0,0,0,0,0,0,0,0,0,0,0,0,0,0],"sum_hessian":[1.9306944E2,2.9617136E1,1.634523E2,8.109644E0,2.150749E1,3.2031796E1,1.314205E2,2.4752371E0,5.634407E0,5.7002873E0,1.5807203E1,2.441323E1,7.6185665E0,1.8724897E1,1.126956E2],"tree_param":{"num_deleted":"0","num_feature":"16","num_nodes":"15","size_leaf_vector":"1"}},{"base_weights":[3.3644463E-3,4.119216E-2,-4.7776502E-1,-1.509559E-1,1.4553873E-1,-1.7119552E-1,-5.879232E-2,-1.3745101E-2,3.4071617E-2,1.1415342E-2,-2.6445782E-2,-4.346251E-2,2.4482472E-2],"categories":[],"categories_nodes":[],"categories_segments":[],"categories_sizes":[],"default_left":[0,0,0,0,0,0,0,0,0,0,0,0,0],"id":22,"left_children":[1,3,5,7,9,11,-1,-1,-1,-1,-1,-1,-1],"loss_changes":[3.5486622E0,3.6447377E0,2.840448E0,6.798615E0,6.685913E0,5.5213776E0,0E0,0E0,0E0,0E0,0E0,0E0,0E0],"parents":[2147483647,0,0,1,1,2,2,3,3,4,4,5,5],"right_children":[2,4,6,8,10,12,-1,-1,-1,-1,-1,-1,-1],"split_conditions":[3.9372616E1,1.507457E4,4E0,1.0684446E-2,1.9345218E-2,-8.114863E-3,-5.879232E-2,-1.3745101E-2,3.4071617E-2,1.1415342E-2,-2.6445782E-2,-4.346251E-2,2.4482472E-2],"split_indices":[13,7,15,6,1,12,0,0,0,0,0,0,0],"split_type":[0,0,0,0,0,0,0,0,0,0,0,0,0],"sum_hessian":[1.9289983E2,1.7968674E2,1.32130785E1,6.3080692E1,1.1660605E2,1.0046356E1,3.166722E0,5.5488033E1,7.592659E0,1.0444963E2,1.2156418E1,4.7322693E0,5.3140874E0],"tree_param":{"num_deleted":"0","num_feature":"16","num_nodes":"13","size_leaf_vector":"1"}},{"base_weights":[2.8090377E-3,8.504284E-1,-1.867691E-2,6.08278E-2,-5.841887E-3,3.399425E-1,-7.182212E-2,5.9217304E-2,4.1476744E-3,1.2118942E-2,-7.4984278E-3],"categories":[],"categories_nodes":[],"categories_segments":[],"categories_sizes":[],"default_left":[0,0,0,0,0,0,0,0,0,0,0],"id":23,"left_children":[1,3,5,-1,-1,7,9,-1,-1,-1,-1],"loss_changes":[3.5433998E0,1.8455479E0,3.643376E0,0E0,0E0,5.2578163E0,4.1171927E0,0E0,0E0,0E0,0E0],"parents":[2147483647,0,0,1,1,2,2,5,5,6,6],"right_children":[2,4,6,-1,-1,8,10,-1,-1,-1,-1],"split_conditions":[1.146298E4,5.7998776E-2,-1.1196453E-2,6.08278E-2,-5.841887E-3,5.2204154E-2,1E0,5.9217304E-2,4.1476744E-3,1.2118942E-2,-7.4984278E-3],"split_indices":[7,12,8,0,0,12,15,0,0,0,0],"split_type":[0,0,0,0,0,0,0,0,0,0,0],"sum_hessian":[1.9269287E2,3.809949E0,1.8888293E2,2.5768418E0,1.2331071E0,2.3682037E1,1.6520088E2,4.683768E0,1.899827E1,3.2485565E1,1.3271532E2],"tree_param":{"num_deleted":"0","num_feature":"16","num_nodes":"11","size_leaf_vector":"1"}},{"base_weights":[3.3087104E-3,2.252109E-1,-7.6809675E-2,3.111772E-1,-7.021984E-1,-2.9267168E-1,6.90224E-2,-4.2918986E-3,3.1926908E-2,4.2487495E-3,-5.0213944E-2,-5.3011447E-2,-5.1545263E-3,6.7075654E-3,-4.1932754E-2],"categories":[],"categories_nodes":[],"categories_segments":[],"categories_sizes":[],"default_left":[0,0,0,0,0,0,0,0,0,0,0,0,0,0,0],"id":24,"left_children":[1,3,5,7,9,11,13,-1,-1,-1,-1,-1,-1,-1,-1],"loss_changes":[3.459343E0,4.3334455E0,4.5216017E0,6.283881E0,1.1995094E0,8.307966E0,5.2053103E0,0E0,0E0,0E0,0E0,0E0,0E0,0E0,0E0],"parents":[2147483647,0,0,1,1,2,2,3,3,4,4,5,5,6,6],"right_children":[2,4,6,8,10,12,14,-1,-1,-1,-1,-1,-1,-1,-1],"split_conditions":[-7.691712E-3,7.31E0,2.5003453E-4,1.558E1,9.414795E-3,1.363E1,7.967476E-2,-4.2918986E-3,3.1926908E-2,4.2487495E-3,-5.0213944E-2,-5.3011447E-2,-5.1545263E-3,6.7075654E-3,-4.1932754E-2],"split_indices":[1,9,14,11,4,11,12,0,0,0,0,0,0,0,0],"split_type":[0,0,0,0,0,0,0,0,0,0,0,0,0,0,0],"sum_hessian":[1.9260773E2,5.061353E1,1.4199419E2,4.6927998E1,3.68553E0,5.6844913E1,8.514928E1,2.154118E1,2.538682E1,1.221416E0,2.464114E0,1.0349681E1,4.649523E1,8.024373E1,4.905553E0],"tree_param":{"num_deleted":"0","num_feature":"16","num_nodes":"15","size_leaf_vector":"1"}},{"base_weights":[2.5565873E-3,4.4647746E-2,-4.1078588E-1,3.7020522E-1,-1.8354168E-2,-1.8032624E-1,-5.7288665E-2,9.609405E-3,5.0831627E-2,7.043758E-3,-1.3720455E-2,-3.2180604E-2,1.2141221E-2],"categories":[],"categories_nodes":[],"categories_segments":[],"categories_sizes":[],"default_left":[0,0,0,0,0,0,0,0,0,0,0,0,0],"id":25,"left_children":[1,3,5,7,9,11,-1,-1,-1,-1,-1,-1,-1],"loss_changes":[3.3848865E0,3.6273475E0,2.8391669E0,3.1036546E0,6.107538E0,3.0725486E0,0E0,0E0,0E0,0E0,0E0,0E0,0E0],"parents":[2147483647,0,0,1,1,2,2,3,3,4,4,5,5],"right_children":[2,4,6,8,10,12,-1,-1,-1,-1,-1,-1,-1],"split_conditions":[3.906595E1,-9.559199E-3,4E0,1.787606E-2,-1.6038859E-3,-8.114863E-3,-5.7288665E-2,9.609405E-3,5.0831627E-2,7.043758E-3,-1.3720455E-2,-3.2180604E-2,1.2141221E-2],"split_indices":[13,8,15,4,12,12,0,0,0,0,0,0,0],"split_type":[0,0,0,0,0,0,0,0,0,0,0,0,0],"sum_hessian":[1.925012E2,1.7551979E2,1.6981407E1,2.7668562E1,1.4785123E2,1.3875887E1,3.1055198E0,2.271145E1,4.9571104E0,9.1439095E1,5.641214E1,6.3751097E0,7.5007772E0],"tree_param":{"num_deleted":"0","num_feature":"16","num_nodes":"13","size_leaf_vector":"1"}},{"base_weights":[2.2948214E-3,8.380186E-1,-1.8363602E-2,5.2386392E-2,1.4064448E-2,1.0379116E-2,-7.393994E-1,1.3268562E-2,-3.1919975E-3,-4.8779752E-2,-1.8214962E-3],"categories":[],"categories_nodes":[],"categories_segments":[],"categories_sizes":[],"default_left":[0,0,0,0,0,0,0,0,0,0,0],"id":26,"left_children":[1,3,5,-1,-1,7,9,-1,-1,-1,-1],"loss_changes":[3.3541434E0,2.524376E-1,3.9391034E0,0E0,0E0,3.4880903E0,1.1742065E0,0E0,0E0,0E0,0E0],"parents":[2147483647,0,0,1,1,2,2,5,5,6,6],"right_children":[2,4,6,-1,-1,8,10,-1,-1,-1,-1],"split_conditions":[6.952171E-3,6.898948E-5,2.6543924E4,5.2386392E-2,1.4064448E-2,-9.752886E-3,3.0086178E-3,1.3268562E-2,-3.1919975E-3,-4.8779752E-2,-1.8214962E-3],"split_indices":[4,10,3,0,0,1,14,0,0,0,0],"split_type":[0,0,0,0,0,0,0,0,0,0,0],"sum_hessian":[1.9238579E2,3.6864698E0,1.8869933E2,2.0371733E0,1.6492966E0,1.8241338E2,6.285956E0,4.054357E1,1.418698E2,4.414783E0,1.8711731E0],"tree_param":{"num_deleted":"0","num_feature":"16","num_nodes":"11","size_leaf_vector":"1"}},{"base_weights":[2.3137077E-3,8.1128496E-1,-1.80444E-2,5.8703806E-2,-6.360994E-3,-2.2203776E-1,7.609731E-2,4.3015532E-2,-1.5410942E-2,3.8625535E-2,3.850488E-4],"categories":[],"categories_nodes":[],"categories_segments":[],"categories_sizes":[],"default_left":[0,0,0,0,0,0,0,0,0,0,0],"id":27,"left_children":[1,3,5,-1,-1,7,9,-1,-1,-1,-1],"loss_changes":[3.197624E0,1.7721281E0,3.6561806E0,0E0,0E0,5.8706656E0,6.2057166E0,0E0,0E0,0E0,0E0],"parents":[2147483647,0,0,1,1,2,2,5,5,6,6],"right_children":[2,4,6,-1,-1,8,10,-1,-1,-1,-1],"split_conditions":[1.146298E4,5.7998776E-2,1.507457E4,5.8703806E-2,-6.360994E-3,-3.9755944E-3,1.6583598E4,4.3015532E-2,-1.5410942E-2,3.8625535E-2,3.850488E-4],"split_indices":[7,12,7,0,0,10,3,0,0,0,0],"split_type":[0,0,0,0,0,0,0,0,0,0,0],"sum_hessian":[1.9226987E2,3.7660837E0,1.8850378E2,2.5351007E0,1.230983E0,5.9094597E1,1.2940918E2,3.695848E0,5.539875E1,1.0652322E1,1.1875686E2],"tree_param":{"num_deleted":"0","num_feature":"16","num_nodes":"11","size_leaf_vector":"1"}},{"base_weights":[2.8199917E-3,8.182184E-1,-1.7218232E-2,1.34014655E-2,5.1408846E-2,1.4543034E-2,-6.2893885E-1,3.2988485E-2,-8.339551E-4,-4.539834E-2,3.5484042E-4],"categories":[],"categories_nodes":[],"categories_segments":[],"categories_sizes":[],"default_left":[0,0,0,0,0,0,0,0,0,0,0],"id":28,"left_children":[1,3,5,-1,-1,7,9,-1,-1,-1,-1],"loss_changes":[3.1697352E0,2.6191854E-1,3.6905825E0,0E0,0E0,3.6594524E0,1.670259E0,0E0,0E0,0E0,0E0],"parents":[2147483647,0,0,1,1,2,2,5,5,6,6],"right_children":[2,4,6,-1,-1,8,10,-1,-1,-1,-1],"split_conditions":[6.952171E-3,7.212877E-4,2.61722E4,1.34014655E-2,5.1408846E-2,-1.0422379E-1,7.12E0,3.2988485E-2,-8.339551E-4,-4.539834E-2,3.5484042E-4],"split_indices":[4,6,2,0,0,12,9,0,0,0,0],"split_type":[0,0,0,0,0,0,0,0,0,0,0],"sum_hessian":[1.9213428E2,3.6529992E0,1.8848128E2,1.637795E0,2.0152042E0,1.8010619E2,8.375102E0,7.3837852E0,1.727224E2,5.5241323E0,2.8509696E0],"tree_param":{"num_deleted":"0","num_feature":"16","num_nodes":"11","size_leaf_vector":"1"}},{"base_weights":[2.9472576E-3,3.608566E-2,-4.7672954E-1,1.4898448E-1,-1.2383257E-1,2.8304714E-1,-8.604385E-1,4.402576E-3,6.346433E-2,1.5175468E-2,-1.4312091E-2,-1.6251715E-2,5.845505E-2,-5.3636458E-2,1.0984698E-2],"categories":[],"categories_nodes":[],"categories_segments":[],"categories_sizes":[],"default_left":[0,0,0,0,0,0,0,0,0,0,0,0,0,0,0],"id":29,"left_children":[1,3,5,7,9,11,13,-1,-1,-1,-1,-1,-1,-1,-1],"loss_changes":[3.085376E0,3.2949111E0,3.9003463E0,7.18081E0,5.3369884E0,3.053233E0,2.2034998E0,0E0,0E0,0E0,0E0,0E0,0E0,0E0,0E0],"parents":[2147483647,0,0,1,1,2,2,3,3,4,4,5,5,6,6],"right_children":[2,4,6,8,10,12,14,-1,-1,-1,-1,-1,-1,-1,-1],"split_conditions":[2.5679797E-2,1.2989998E-2,1.9164713E4,1.2764993E-2,-9.974064E-3,1.8264977E4,2.3430802E-2,4.402576E-3,6.346433E-2,1.5175468E-2,-1.4312091E-2,-1.6251715E-2,5.845505E-2,-5.3636458E-2,1.0984698E-2],"split_indices":[14,4,2,4,1,3,4,0,0,0,0,0,0,0,0],"split_type":[0,0,0,0,0,0,0,0,0,0,0,0,0,0,0],"sum_hessian":[1.9201875E2,1.804754E2,1.1543347E1,1.0583005E2,7.4645355E1,3.9615257E0,7.5818214E0,1.0139385E2,4.436191E0,2.0317038E1,5.432832E1,2.7247498E0,1.2367759E0,6.3421764E0,1.2396449E0],"tree_param":{"num_deleted":"0","num_feature":"16","num_nodes":"15","size_leaf_vector":"1"}},{"base_weights":[3.1491688E-3,7.8893125E-1,-1.6480125E-2,5.720923E-2,-6.1054337E-3,-2.1010017E-1,7.2838314E-2,4.111805E-2,-1.4634037E-2,3.6974274E-2,3.7470864E-4],"categories":[],"categories_nodes":[],"categories_segments":[],"categories_sizes":[],"default_left":[0,0,0,0,0,0,0,0,0,0,0],"id":30,"left_children":[1,3,5,-1,-1,7,9,-1,-1,-1,-1],"loss_changes":[2.988623E0,1.6680524E0,3.2872112E0,0E0,0E0,5.3548937E0,5.6666937E0,0E0,0E0,0E0,0E0],"parents":[2147483647,0,0,1,1,2,2,5,5,6,6],"right_children":[2,4,6,-1,-1,8,10,-1,-1,-1,-1],"split_conditions":[1.146298E4,5.7998776E-2,1.507457E4,5.720923E-2,-6.1054337E-3,-3.9755944E-3,1.6583598E4,4.111805E-2,-1.4634037E-2,3.6974274E-2,3.7470864E-4],"split_indices":[7,12,7,0,0,10,3,0,0,0,0],"split_type":[0,0,0,0,0,0,0,0,0,0,0],"sum_hessian":[1.9191716E2,3.722193E0,1.8819496E2,2.4938312E0,1.2283618E0,5.898278E1,1.2921219E2,3.7048395E0,5.5277943E1,1.0613676E1,1.1859851E2],"tree_param":{"num_deleted":"0","num_feature":"16","num_nodes":"11","size_leaf_vector":"1"}},{"base_weights":[3.5959277E-3,2.9155257E-1,-5.005585E-2,2.690857E-2,7.625044E-1,7.078523E-2,-2.7210012E-1,1.54754985E-2,-4.0671464E-2,5.40644E-2,-1.1412665E-2,1.2403583E-2,-8.37646E-3,2.9905671E-2,-1.8253041E-2],"categories":[],"categories_nodes":[],"categories_segments":[],"categories_sizes":[],"default_left":[0,0,0,0,0,0,0,0,0,0,0,0,0,0,0],"id":31,"left_children":[1,3,5,7,9,11,13,-1,-1,-1,-1,-1,-1,-1,-1],"loss_changes":[2.992736E0,3.771105E0,4.4021654E0,5.1233616E0,3.6920424E0,4.5442305E0,4.8919673E0,0E0,0E0,0E0,0E0,0E0,0E0,0E0,0E0],"parents":[2147483647,0,0,1,1,2,2,3,3,4,4,5,5,6,6],"right_children":[2,4,6,8,10,12,14,-1,-1,-1,-1,-1,-1,-1,-1],"split_conditions":[-9.4473325E-3,1.4554871E-2,1.3474092E-2,1.3128241E-2,1.5538286E-1,-2.8901706E-3,-3.933538E-3,1.54754985E-2,-4.0671464E-2,5.40644E-2,-1.1412665E-2,1.2403583E-2,-8.37646E-3,2.9905671E-2,-1.8253041E-2],"split_indices":[8,4,4,4,12,12,10,0,0,0,0,0,0,0,0],"split_type":[0,0,0,0,0,0,0,0,0,0,0,0,0,0,0],"sum_hessian":[1.9176767E2,2.9421919E1,1.6234575E2,1.951366E1,9.908259E0,1.0557232E2,5.677343E1,1.5075521E1,4.4381385E0,7.427146E0,2.4811134E0,6.051395E1,4.505837E1,4.9550176E0,5.1818413E1],"tree_param":{"num_deleted":"0","num_feature":"16","num_nodes":"15","size_leaf_vector":"1"}},{"base_weights":[3.5843507E-3,7.936273E-1,-1.5688838E-2,5.0237533E-2,1.259728E-2,1.1307867E-2,-6.9920886E-1,1.2357868E-2,-2.869366E-3,-4.6705298E-2,-7.58531E-4],"categories":[],"categories_nodes":[],"categories_segments":[],"categories_sizes":[],"default_left":[0,0,0,0,0,0,0,0,0,0,0],"id":32,"left_children":[1,3,5,-1,-1,7,9,-1,-1,-1,-1],"loss_changes":[2.946461E0,2.73849E-1,3.4969792E0,0E0,0E0,2.9771683E0,1.1427493E0,0E0,0E0,0E0,0E0],"parents":[2147483647,0,0,1,1,2,2,5,5,6,6],"right_children":[2,4,6,-1,-1,8,10,-1,-1,-1,-1],"split_conditions":[6.952171E-3,6.898948E-5,2.6543924E4,5.0237533E-2,1.259728E-2,-9.752886E-3,3.0086178E-3,1.2357868E-2,-2.869366E-3,-4.6705298E-2,-7.58531E-4],"split_indices":[4,10,3,0,0,1,14,0,0,0,0],"split_type":[0,0,0,0,0,0,0,0,0,0,0],"sum_hessian":[1.9168915E2,3.6081169E0,1.8808102E2,1.9811001E0,1.6270167E0,1.8188081E2,6.2002144E0,4.044029E1,1.4144052E2,4.343196E0,1.8570185E0],"tree_param":{"num_deleted":"0","num_feature":"16","num_nodes":"11","size_leaf_vector":"1"}},{"base_weights":[3.5346837E-3,3.5197422E-2,-4.552463E-1,-2.3946514E-2,3.2213533E-1,2.6884842E-1,-8.22383E-1,-8.56693E-3,9.46272E-3,3.233946E-2,-1.2918862E-2,-1.5922792E-2,5.6126207E-2,-5.1467936E-2,1.0985588E-2],"categories":[],"categories_nodes":[],"categories_segments":[],"categories_sizes":[],"default_left":[0,0,0,0,0,0,0,0,0,0,0,0,0,0,0],"id":33,"left_children":[1,3,5,7,9,11,13,-1,-1,-1,-1,-1,-1,-1,-1],"loss_changes":[2.8132868E0,3.0804558E0,3.5451024E0,4.779049E0,6.011807E0,2.8444602E0,2.0688524E0,0E0,0E0,0E0,0E0,0E0,0E0,0E0,0E0],"parents":[2147483647,0,0,1,1,2,2,3,3,4,4,5,5,6,6],"right_children":[2,4,6,8,10,12,14,-1,-1,-1,-1,-1,-1,-1,-1],"split_conditions":[2.5679797E-2,1.2250075E-2,1.9164713E4,1.695E1,1.695E1,1.8264977E4,2.3430802E-2,-8.56693E-3,9.46272E-3,3.233946E-2,-1.2918862E-2,-1.5922792E-2,5.6126207E-2,-5.1467936E-2,1.0985588E-2],"split_indices":[14,14,2,11,11,3,4,0,0,0,0,0,0,0,0],"split_type":[0,0,0,0,0,0,0,0,0,0,0,0,0,0,0],"sum_hessian":[1.9156593E2,1.8006223E2,1.1503702E1,1.5005026E2,3.0011969E1,3.9604058E0,7.5432963E0,8.8833435E1,6.1216824E1,1.9174427E1,1.0837542E1,2.7176797E0,1.2427261E0,6.3035393E0,1.239757E0],"tree_param":{"num_deleted":"0","num_feature":"16","num_nodes":"15","size_leaf_vector":"1"}},{"base_weights":[3.4559676E-3,7.7361715E-1,-1.5181974E-2,1.1961851E-2,4.9239855E-2,1.4502928E-2,-5.9245694E-1,3.1700406E-2,-7.719888E-4,-4.347736E-2,1.3778778E-3],"categories":[],"categories_nodes":[],"categories_segments":[],"categories_sizes":[],"default_left":[0,0,0,0,0,0,0,0,0,0,0],"id":34,"left_children":[1,3,5,-1,-1,7,9,-1,-1,-1,-1],"loss_changes":[2.7748253E0,2.79845E-1,3.2460783E0,0E0,0E0,3.3609948E0,1.6154752E0,0E0,0E0,0E0,0E0],"parents":[2147483647,0,0,1,1,2,2,5,5,6,6],"right_children":[2,4,6,-1,-1,8,10,-1,-1,-1,-1],"split_conditions":[6.952171E-3,7.212877E-4,2.61722E4,1.1961851E-2,4.9239855E-2,-1.0422379E-1,7.12E0,3.1700406E-2,-7.719888E-4,-4.347736E-2,1.3778778E-3],"split_indices":[4,6,2,0,0,12,9,0,0,0,0],"split_type":[0,0,0,0,0,0,0,0,0,0,0],"sum_hessian":[1.9149257E2,3.567509E0,1.8792506E2,1.6146293E0,1.9528798E0,1.7966132E2,8.263751E0,7.3531384E0,1.7230817E2,5.4331584E0,2.8305924E0],"tree_param":{"num_deleted":"0","num_feature":"16","num_nodes":"11","size_leaf_vector":"1"}},{"base_weights":[3.543236E-3,7.594877E-1,-1.5193212E-2,5.5600256E-2,-6.3481033E-3,-2.000503E-1,7.008E-2,-1.5470807E-2,2.8076837E-2,3.5560682E-2,3.6476366E-4],"categories":[],"categories_nodes":[],"categories_segments":[],"categories_sizes":[],"default_left":[0,0,0,0,0,0,0,0,0,0,0],"id":35,"left_children":[1,3,5,-1,-1,7,9,-1,-1,-1,-1],"loss_changes":[2.736229E0,1.6012259E0,2.9885466E0,0E0,0E0,5.1568213E0,5.2226024E0,0E0,0E0,0E0,0E0],"parents":[2147483647,0,0,1,1,2,2,5,5,6,6],"right_children":[2,4,6,-1,-1,8,10,-1,-1,-1,-1],"split_conditions":[1.146298E4,5.7998776E-2,1.507457E4,5.5600256E-2,-6.3481033E-3,1.0684446E-2,1.6583598E4,-1.5470807E-2,2.8076837E-2,3.5560682E-2,3.6476366E-4],"split_indices":[7,12,7,0,0,6,3,0,0,0,0],"split_type":[0,0,0,0,0,0,0,0,0,0,0],"sum_hessian":[1.9137115E2,3.6723046E0,1.8769884E2,2.4453905E0,1.2269143E0,5.882682E1,1.2887202E2,5.1959084E1,6.867736E0,1.0573336E1,1.1829869E2],"tree_param":{"num_deleted":"0","num_feature":"16","num_nodes":"11","size_leaf_vector":"1"}},{"base_weights":[3.8846515E-3,2.7884355E-1,-4.7354996E-2,2.7120167E-2,7.2547454E-1,6.982227E-2,-2.625961E-1,1.4892642E-2,-3.894124E-2,-1.6323138E-2,4.9868595E-2,2.0246206E-2,-2.3844533E-3,2.8367832E-2,-1.7574308E-2],"categories":[],"categories_nodes":[],"categories_segments":[],"categories_sizes":[],"default_left":[0,0,0,0,0,0,0,0,0,0,0,0,0,0,0],"id":36,"left_children":[1,3,5,7,9,11,13,-1,-1,-1,-1,-1,-1,-1,-1],"loss_changes":[2.7208698E0,3.390691E0,4.1256785E0,4.691639E0,3.4418087E0,4.202723E0,4.449952E0,0E0,0E0,0E0,0E0,0E0,0E0,0E0,0E0],"parents":[2147483647,0,0,1,1,2,2,3,3,4,4,5,5,6,6],"right_children":[2,4,6,8,10,12,14,-1,-1,-1,-1,-1,-1,-1,-1],"split_conditions":[-9.4473325E-3,1.4554871E-2,1.3474092E-2,1.3128241E-2,1E0,-1.0260153E-3,-3.933538E-3,1.4892642E-2,-3.894124E-2,-1.6323138E-2,4.9868595E-2,2.0246206E-2,-2.3844533E-3,2.8367832E-2,-1.7574308E-2],"split_indices":[8,4,4,4,15,10,10,0,0,0,0,0,0,0,0],"split_type":[0,0,0,0,0,0,0,0,0,0,0,0,0,0,0],"sum_hessian":[1.9118568E2,2.9333923E1,1.6185176E2,1.943883E1,9.895096E0,1.0523658E2,5.661519E1,1.5022805E1,4.4160237E0,1.9910978E0,7.903998E0,2.6687418E1,7.854916E1,4.9563007E0,5.165889E1],"tree_param":{"num_deleted":"0","num_feature":"16","num_nodes":"15","size_leaf_vector":"1"}},{"base_weights":[3.8867565E-3,3.457806E-2,-4.4154158E-1,6.1608094E-1,7.5310133E-3,2.547021E-1,-7.9517716E-1,5.1243342E-2,-1.25022605E-2,4.5448277E-2,-4.6923524E-4,-1.5660508E-2,5.405135E-2,-4.9855724E-2,1.0743569E-2],"categories":[],"categories_nodes":[],"categories_segments":[],"categories_sizes":[],"default_left":[0,0,0,0,0,0,0,0,0,0,0,0,0,0,0],"id":37,"left_children":[1,3,5,7,9,11,13,-1,-1,-1,-1,-1,-1,-1,-1],"loss_changes":[2.6413746E0,2.8364704E0,3.2692628E0,3.09449E0,2.6560328E0,2.6628454E0,1.9484978E0,0E0,0E0,0E0,0E0,0E0,0E0,0E0,0E0],"parents":[2147483647,0,0,1,1,2,2,3,3,4,4,5,5,6,6],"right_children":[2,4,6,8,10,12,14,-1,-1,-1,-1,-1,-1,-1,-1],"split_conditions":[2.5679797E-2,-1.0422379E-1,1.9164713E4,2.059015E4,1.5881363E4,1.8264977E4,2.3430802E-2,5.1243342E-2,-1.25022605E-2,4.5448277E-2,-4.6923524E-4,-1.5660508E-2,5.405135E-2,-4.9855724E-2,1.0743569E-2],"split_indices":[14,12,2,0,2,3,4,0,0,0,0,0,0,0,0],"split_type":[0,0,0,0,0,0,0,0,0,0,0,0,0,0,0],"sum_hessian":[1.9109644E2,1.7964102E2,1.1455415E1,7.0162272E0,1.7262479E2,3.9528127E0,7.5026026E0,4.6420436E0,2.3741837E0,2.2083323E0,1.7041646E2,2.7107456E0,1.2420669E0,6.2632136E0,1.2393886E0],"tree_param":{"num_deleted":"0","num_feature":"16","num_nodes":"15","size_leaf_vector":"1"}},{"base_weights":[4.1250833E-3,2.942648E-1,-4.28209E-2,-3.1893647E-1,6.417406E-1,-4.1078517E-1,2.6765568E-2,3.7051592E-2,-3.0491456E-2,4.7092553E-2,6.620213E-3,-3.0948697E-2,1.6805477E-2,2.23409E-2,-4.3709907E-3],"categories":[],"categories_nodes":[],"categories_segments":[],"categories_sizes":[],"default_left":[0,0,0,0,0,0,0,0,0,0,0,0,0,0,0],"id":38,"left_children":[1,3,5,7,9,11,13,-1,-1,-1,-1,-1,-1,-1,-1],"loss_changes":[2.6279304E0,5.929534E0,4.2650795E0,3.654345E0,2.5475335E0,4.3261056E0,6.785512E0,0E0,0E0,0E0,0E0,0E0,0E0,0E0,0E0],"parents":[2147483647,0,0,1,1,2,2,3,3,4,4,5,5,6,6],"right_children":[2,4,6,8,10,12,14,-1,-1,-1,-1,-1,-1,-1,-1],"split_conditions":[9.300431E-3,1.615E1,1.0374195E-2,-7.0511913E-3,7.158E0,5.866408E-3,1.1766634E-2,3.7051592E-2,-3.0491456E-2,4.7092553E-2,6.620213E-3,-3.0948697E-2,1.6805477E-2,2.23409E-2,-4.3709907E-3],"split_indices":[4,11,4,1,9,6,4,0,0,0,0,0,0,0,0],"split_type":[0,0,0,0,0,0,0,0,0,0,0,0,0,0,0],"sum_hessian":[1.9100867E2,2.5868113E1,1.6514055E2,9.386175E0,1.6481937E1,2.5483557E1,1.39657E2,1.6879828E0,7.698192E0,9.836762E0,6.6451755E0,2.0062597E1,5.420959E0,2.9226974E1,1.10430016E2],"tree_param":{"num_deleted":"0","num_feature":"16","num_nodes":"15","size_leaf_vector":"1"}},{"base_weights":[4.264368E-3,3.6264997E-2,-4.124194E-1,3.4782472E-1,-1.35422265E-2,-5.0576612E-2,-9.566455E-1,2.5764426E-2,-2.4546871E-2,1.502494E-2,-4.7626738E-3,-4.591779E-2,2.4667602E-2,-3.8204899E-3,-5.8270015E-2],"categories":[],"categories_nodes":[],"categories_segments":[],"categories_sizes":[],"default_left":[0,0,0,0,0,0,0,0,0,0,0,0,0,0,0],"id":39,"left_children":[1,3,5,7,9,11,13,-1,-1,-1,-1,-1,-1,-1,-1],"loss_changes":[2.57249E0,2.7830846E0,2.6613798E0,3.7244952E0,4.014446E0,4.85266E0,9.104743E-1,0E0,0E0,0E0,0E0,0E0,0E0,0E0,0E0],"parents":[2147483647,0,0,1,1,2,2,3,3,4,4,5,5,6,6],"right_children":[2,4,6,8,10,12,14,-1,-1,-1,-1,-1,-1,-1,-1],"split_conditions":[3.9372616E1,9.300431E-3,4.967639E-3,7.2907E0,1E0,-2.7594368E-3,7.0865E0,2.5764426E-2,-2.4546871E-2,1.502494E-2,-4.7626738E-3,-4.591779E-2,2.4667602E-2,-3.8204899E-3,-5.8270015E-2],"split_indices":[13,4,8,9,15,8,9,0,0,0,0,0,0,0,0],"split_type":[0,0,0,0,0,0,0,0,0,0,0,0,0,0,0],"sum_hessian":[1.9080336E2,1.7804292E2,1.2760436E1,2.371497E1,1.5432796E2,8.320962E0,4.439474E0,2.0089617E1,3.625354E0,3.1311363E1,1.23016594E2,2.9408226E0,5.3801394E0,1.1128896E0,3.3265843E0],"tree_param":{"num_deleted":"0","num_feature":"16","num_nodes":"15","size_leaf_vector":"1"}},{"base_weights":[3.6713243E-3,2.1806794E-1,-5.8190305E-2,-1.5234338E-1,4.870159E-1,7.853746E-2,-2.575854E-1,4.3085266E-2,-2.0515127E-2,-3.157854E-2,2.9791752E-2,1.4437472E-3,4.857562E-2,9.671954E-3,-2.092352E-2],"categories":[],"categories_nodes":[],"categories_segments":[],"categories_sizes":[],"default_left":[0,0,0,0,0,0,0,0,0,0,0,0,0,0,0],"id":40,"left_children":[1,3,5,7,9,11,13,-1,-1,-1,-1,-1,-1,-1,-1],"loss_changes":[2.5537145E0,4.369117E0,4.095375E0,5.2967176E0,3.4456205E0,3.93832E0,4.510012E0,0E0,0E0,0E0,0E0,0E0,0E0,0E0,0E0],"parents":[2147483647,0,0,1,1,2,2,3,3,4,4,5,5,6,6],"right_children":[2,4,6,8,10,12,14,-1,-1,-1,-1,-1,-1,-1,-1],"split_conditions":[-9.752886E-3,1.588E1,1.2989998E-2,1.6565812E4,-2.6532598E-2,1.2764993E-2,-3.0180176E-3,4.3085266E-2,-2.0515127E-2,-3.157854E-2,2.9791752E-2,1.4437472E-3,4.857562E-2,9.671954E-3,-2.092352E-2],"split_indices":[1,11,4,2,1,4,6,0,0,0,0,0,0,0,0],"split_type":[0,0,0,0,0,0,0,0,0,0,0,0,0,0,0],"sum_hessian":[1.905886E2,4.211246E1,1.4847614E2,1.7897081E1,2.421538E1,8.8438705E1,6.003743E1,3.154831E0,1.474225E1,1.7209837E0,2.2494396E1,8.475729E1,3.6814141E0,1.5732013E1,4.4305416E1],"tree_param":{"num_deleted":"0","num_feature":"16","num_nodes":"15","size_leaf_vector":"1"}},{"base_weights":[3.8003009E-3,4.2546034E-2,-3.2364112E-1,-5.8138978E-2,2.037814E-1,-5.486146E-1,1.6068128E-1,1.7967839E-2,-8.632399E-3,1.533253E-2,-3.4781966E-2,-3.751513E-2,1.3285344E-2,2.896837E-2,-3.4776974E-2],"categories":[],"categories_nodes":[],"categories_segments":[],"categories_sizes":[],"default_left":[0,0,0,0,0,0,0,0,0,0,0,0,0,0,0],"id":41,"left_children":[1,3,5,7,9,11,13,-1,-1,-1,-1,-1,-1,-1,-1],"loss_changes":[2.442561E0,2.805194E0,2.3078978E0,5.1631055E0,6.3537436E0,2.5212212E0,2.9966612E0,0E0,0E0,0E0,0E0,0E0,0E0,0E0,0E0],"parents":[2147483647,0,0,1,1,2,2,3,3,4,4,5,5,6,6],"right_children":[2,4,6,8,10,12,14,-1,-1,-1,-1,-1,-1,-1,-1],"split_conditions":[2.580177E4,5.58454E3,7.1175E0,-1.2547911E-2,2.119667E-2,2.360136E4,2.631127E4,1.7967839E-2,-8.632399E-3,1.533253E-2,-3.4781966E-2,-3.751513E-2,1.3285344E-2,2.896837E-2,-3.4776974E-2],"split_indices":[0,5,9,1,1,7,2,0,0,0,0,0,0,0,0],"split_type":[0,0,0,0,0,0,0,0,0,0,0,0,0,0,0],"sum_hessian":[1.9044E2,1.7106783E2,1.9372177E1,1.0570113E2,6.53667E1,1.31370945E1,6.235082E0,2.2290936E1,8.3410194E1,5.9249256E1,6.1174417E0,1.059226E1,2.5448337E0,4.404604E0,1.830478E0],"tree_param":{"num_deleted":"0","num_feature":"16","num_nodes":"15","size_leaf_vector":"1"}},{"base_weights":[3.3906943E-3,7.259405E-1,-1.4264813E-2,5.3377718E-2,-5.7425494E-3,1.0177975E-2,-5.932627E-1,-1.995848E-3,3.5394363E-2,4.1951314E-2,-5.7893634E-2],"categories":[],"categories_nodes":[],"categories_segments":[],"categories_sizes":[],"default_left":[0,0,0,0,0,0,0,0,0,0,0],"id":42,"left_children":[1,3,5,-1,-1,7,9,-1,-1,-1,-1],"loss_changes":[2.449446E0,1.4380255E0,2.6612508E0,0E0,0E0,6.354526E0,7.130764E0,0E0,0E0,0E0,0E0],"parents":[2147483647,0,0,1,1,2,2,5,5,6,6],"right_children":[2,4,6,-1,-1,8,10,-1,-1,-1,-1],"split_conditions":[1.146298E4,5.7998776E-2,2.1388326E-2,5.3377718E-2,-5.7425494E-3,1.0869124E-2,1.635E1,-1.995848E-3,3.5394363E-2,4.1951314E-2,-5.7893634E-2],"split_indices":[7,12,8,0,0,6,11,0,0,0,0],"split_type":[0,0,0,0,0,0,0,0,0,0,0],"sum_hessian":[1.9019649E2,3.5797234E0,1.8661676E2,2.353709E0,1.2260141E0,1.8000035E2,6.6164155E0,1.6882187E2,1.1178478E1,1.7333268E0,4.883089E0],"tree_param":{"num_deleted":"0","num_feature":"16","num_nodes":"11","size_leaf_vector":"1"}},{"base_weights":[3.5707685E-3,7.2767746E-1,-1.3652109E-2,4.7068425E-2,1.0513189E-2,1.0309688E-2,-6.333356E-1,2.0107771E-3,-2.0565687E-2,-4.31002E-2,4.370458E-4],"categories":[],"categories_nodes":[],"categories_segments":[],"categories_sizes":[],"default_left":[0,0,0,0,0,0,0,0,0,0,0],"id":43,"left_children":[1,3,5,-1,-1,7,9,-1,-1,-1,-1],"loss_changes":[2.3931563E0,2.9498005E-1,2.7927446E0,0E0,0E0,2.3068213E0,1.0355172E0,0E0,0E0,0E0,0E0],"parents":[2147483647,0,0,1,1,2,2,5,5,6,6],"right_children":[2,4,6,-1,-1,8,10,-1,-1,-1,-1],"split_conditions":[6.952171E-3,6.898948E-5,2.6543924E4,4.7068425E-2,1.0513189E-2,2.3038544E-2,3.0086178E-3,2.0107771E-3,-2.0565687E-2,-4.31002E-2,4.370458E-4],"split_indices":[4,10,3,0,0,1,14,0,0,0,0],"split_type":[0,0,0,0,0,0,0,0,0,0,0],"sum_hessian":[1.9009805E2,3.4580853E0,1.8663997E2,1.8674561E0,1.5906293E0,1.8063844E2,6.0015283E0,1.6951903E2,1.111941E1,4.1728783E0,1.8286499E0],"tree_param":{"num_deleted":"0","num_feature":"16","num_nodes":"11","size_leaf_vector":"1"}},{"base_weights":[3.3716622E-3,2.594836E-1,-4.441323E-2,7.7352583E-1,4.187061E-2,-2.4050763E-2,-5.830998E-2,-9.522206E-3,5.8587607E-2,-1.55272605E-2,2.7123988E-2,1.4318851E-2,-5.0482075E-3],"categories":[],"categories_nodes":[],"categories_segments":[],"categories_sizes":[],"default_left":[0,0,0,0,0,0,0,0,0,0,0,0,0],"id":44,"left_children":[1,3,5,7,9,11,-1,-1,-1,-1,-1,-1,-1],"loss_changes":[2.3487897E0,3.343158E0,3.6679323E0,3.6465259E0,4.0952873E0,3.847657E0,0E0,0E0,0E0,0E0,0E0,0E0,0E0],"parents":[2147483647,0,0,1,1,2,2,3,3,4,4,5,5],"right_children":[2,4,6,8,10,12,-1,-1,-1,-1,-1,-1,-1],"split_conditions":[-9.4473325E-3,5.2204154E-2,1.0321722E-1,1.448E1,1.113173E-3,1E0,-5.830998E-2,-9.522206E-3,5.8587607E-2,-1.55272605E-2,2.7123988E-2,1.4318851E-2,-5.0482075E-3],"split_indices":[8,12,12,11,10,15,0,0,0,0,0,0,0],"split_type":[0,0,0,0,0,0,0,0,0,0,0,0,0],"sum_hessian":[1.8997984E2,2.9175915E1,1.6080392E2,7.917862E0,2.1258053E1,1.589403E2,1.8636171E0,2.467253E0,5.4506087E0,1.2698385E1,8.559668E0,3.1019617E1,1.2792069E2],"tree_param":{"num_deleted":"0","num_feature":"16","num_nodes":"13","size_leaf_vector":"1"}},{"base_weights":[3.2673993E-3,4.3610123E-1,-2.4348894E-2,1.1422925E-3,6.440093E-2,1.3165725E-2,-4.6342292E-1,2.0282874E-2,-5.1180717E-2,3.0882576E-2,-7.432506E-4,-5.902179E-3,-5.125579E-2],"categories":[],"categories_nodes":[],"categories_segments":[],"categories_sizes":[],"default_left":[0,0,0,0,0,0,0,0,0,0,0,0,0],"id":45,"left_children":[1,3,5,7,-1,9,11,-1,-1,-1,-1,-1,-1],"loss_changes":[2.292166E0,4.260131E0,2.9771252E0,3.9861805E0,0E0,2.8413327E0,2.6387062E0,0E0,0E0,0E0,0E0,0E0,0E0],"parents":[2147483647,0,0,1,1,2,2,3,3,5,5,6,6],"right_children":[2,4,6,8,-1,10,12,-1,-1,-1,-1,-1,-1],"split_conditions":[1.6440494E4,1.425E1,2.3632577E-2,5.866408E-3,6.440093E-2,-1.0422379E-1,5.84419E3,2.0282874E-2,-5.1180717E-2,3.0882576E-2,-7.432506E-4,-5.902179E-3,-5.125579E-2],"split_indices":[3,11,14,6,0,12,5,0,0,0,0,0,0],"split_type":[0,0,0,0,0,0,0,0,0,0,0,0,0],"sum_hessian":[1.8987228E2,1.0500775E1,1.793715E2,7.6144485E0,2.8863273E0,1.6614595E2,1.3225547E1,5.89255E0,1.7218987E0,6.430777E0,1.5971518E2,8.939124E0,4.2864223E0],"tree_param":{"num_deleted":"0","num_feature":"16","num_nodes":"13","size_leaf_vector":"1"}},{"base_weights":[3.141727E-3,7.027258E-1,-1.3761478E-2,5.1957805E-2,-5.539839E-3,-1.8763442E-1,6.648741E-2,-1.4488548E-2,2.6148418E-2,2.043592E-2,-1.9209961E-3],"categories":[],"categories_nodes":[],"categories_segments":[],"categories_sizes":[],"default_left":[0,0,0,0,0,0,0,0,0,0,0],"id":46,"left_children":[1,3,5,-1,-1,7,9,-1,-1,-1,-1],"loss_changes":[2.2656913E0,1.3522463E0,2.6253417E0,0E0,0E0,4.462447E0,4.6422486E0,0E0,0E0,0E0,0E0],"parents":[2147483647,0,0,1,1,2,2,5,5,6,6],"right_children":[2,4,6,-1,-1,8,10,-1,-1,-1,-1],"split_conditions":[1.146298E4,5.7998776E-2,1.507457E4,5.1957805E-2,-5.539839E-3,1.0684446E-2,2.5334976E1,-1.4488548E-2,2.6148418E-2,2.043592E-2,-1.9209961E-3],"split_indices":[7,12,7,0,0,6,13,0,0,0,0],"split_type":[0,0,0,0,0,0,0,0,0,0,0],"sum_hessian":[1.8978055E2,3.520058E0,1.862605E2,2.2940185E0,1.2260394E0,5.8396446E1,1.2786405E2,5.157559E1,6.820857E0,2.9319935E1,9.854411E1],"tree_param":{"num_deleted":"0","num_feature":"16","num_nodes":"11","size_leaf_vector":"1"}},{"base_weights":[3.395273E-3,2.5106639E-2,-5.467771E-1,-1.9935159E-2,6.3162005E-1,3.9973937E-2,-1.1076993E0,3.3489928E-2,-3.0380094E-3,6.277591E-3,5.7902463E-2,1.7223785E-3,-7.046125E-2],"categories":[],"categories_nodes":[],"categories_segments":[],"categories_sizes":[],"default_left":[0,0,0,0,0,0,0,0,0,0,0,0,0],"id":47,"left_children":[1,3,5,7,9,-1,11,-1,-1,-1,-1,-1,-1],"loss_changes":[2.2901747E0,5.047338E0,6.382363E0,4.8987894E0,3.2569375E0,0E0,1.9624524E0,0E0,0E0,0E0,0E0,0E0,0E0],"parents":[2147483647,0,0,1,1,2,2,3,3,4,4,6,6],"right_children":[2,4,6,8,10,-1,12,-1,-1,-1,-1,-1,-1],"split_conditions":[2.2011682E-2,1.0869124E-2,1.635E1,1.633996E4,7.0494614E-3,3.9973937E-2,4.17983E3,3.3489928E-2,-3.0380094E-3,6.277591E-3,5.7902463E-2,1.7223785E-3,-7.046125E-2],"split_indices":[8,6,11,0,1,0,5,0,0,0,0,0,0],"split_type":[0,0,0,0,0,0,0,0,0,0,0,0,0],"sum_hessian":[1.895775E2,1.8329839E2,6.2791095E0,1.715273E2,1.1771083E1,1.7216719E0,4.5574374E0,8.724327E0,1.6280298E2,6.633065E0,5.138018E0,1.1368666E0,3.4205709E0],"tree_param":{"num_deleted":"0","num_feature":"16","num_nodes":"13","size_leaf_vector":"1"}},{"base_weights":[3.5727618E-3,7.131168E-1,-1.3221974E-2,9.997165E-3,4.6389937E-2,1.2837339E-2,-5.2899724E-1,2.8234838E-2,-6.791199E-4,1.5753353E-2,-3.5109833E-2],"categories":[],"categories_nodes":[],"categories_segments":[],"categories_sizes":[],"default_left":[0,0,0,0,0,0,0,0,0,0,0],"id":48,"left_children":[1,3,5,-1,-1,7,9,-1,-1,-1,-1],"loss_changes":[2.2791865E0,3.016982E-1,2.5208538E0,0E0,0E0,2.617897E0,1.5398393E0,0E0,0E0,0E0,0E0],"parents":[2147483647,0,0,1,1,2,2,5,5,6,6],"right_children":[2,4,6,-1,-1,8,10,-1,-1,-1,-1],"split_conditions":[6.952171E-3,7.212877E-4,2.61722E4,9.997165E-3,4.6389937E-2,-1.0422379E-1,3.906595E1,2.8234838E-2,-6.791199E-4,1.5753353E-2,-3.5109833E-2],"split_indices":[4,6,2,0,0,12,13,0,0,0,0],"split_type":[0,0,0,0,0,0,0,0,0,0,0],"sum_hessian":[1.8947017E2,3.422341E0,1.8604784E2,1.5790771E0,1.843264E0,1.7802815E2,8.019681E0,7.202715E0,1.7082544E2,1.2259717E0,6.7937093E0],"tree_param":{"num_deleted":"0","num_feature":"16","num_nodes":"11","size_leaf_vector":"1"}},{"base_weights":[3.7345295E-3,2.5168794E-1,-4.2508047E-2,8.815005E-2,9.09082E-1,-2.2978874E-2,-5.631606E-2,3.4070026E-2,-6.0965247E-3,6.811811E-2,5.146853E-3,1.3605962E-2,-4.803448E-3],"categories":[],"categories_nodes":[],"categories_segments":[],"categories_sizes":[],"default_left":[0,0,0,0,0,0,0,0,0,0,0,0,0],"id":49,"left_children":[1,3,5,7,9,11,-1,-1,-1,-1,-1,-1,-1],"loss_changes":[2.1930711E0,3.1517696E0,3.3876061E0,3.2213433E0,2.0088181E0,3.4650347E0,0E0,0E0,0E0,0E0,0E0,0E0,0E0],"parents":[2147483647,0,0,1,1,2,2,3,3,4,4,5,5],"right_children":[2,4,6,8,10,12,-1,-1,-1,-1,-1,-1,-1],"split_conditions":[-9.4473325E-3,1.787606E-2,1.0321722E-1,4.085056E-2,5.62085E3,1E0,-5.631606E-2,3.4070026E-2,-6.0965247E-3,6.811811E-2,5.146853E-3,1.3605962E-2,-4.803448E-3],"split_indices":[8,4,12,12,5,15,0,0,0,0,0,0,0],"split_type":[0,0,0,0,0,0,0,0,0,0,0,0,0],"sum_hessian":[1.8933415E2,2.9061764E1,1.602724E2,2.4180536E1,4.8812275E0,1.5843869E2,1.8336971E0,5.7367887E0,1.8443747E1,2.6827793E0,2.1984482E0,3.0911552E1,1.27527145E2],"tree_param":{"num_deleted":"0","num_feature":"16","num_nodes":"13","size_leaf_vector":"1"}}]},"name":"gbtree"},"learner_model_param":{"base_score":"[4.8469388E-1]","boost_from_average":"1","num_class":"0","num_feature":"16","num_target":"1"},"objective":{"name":"binary:logistic","reg_loss_param":{"scale_pos_weight":"1"}}},"version":[3,1,3]}