{"learner":{"attributes":{"scikit_learn":"{\"_estimator_type\": \"regressor\"}"},"feature_names":[],"feature_types":[],"gradient_booster":{"model":{"cats":{"enc":[],"feature_segments":[],"sorted_idx":[]},"gbtree_model_param":{"num_parallel_tree":"1","num_trees":"50"},"iteration_indptr":[0,1,2,3,4,5,6,7,8,9,10,11,12,13,14,15,16,17,18,19,20,21,22,23,24,25,26,27,28,29,30,31,32,33,34,35,36,37,38,39,40,41,42,43,44,45,46,47,48,49,50],"tree_info":[0,0,0,0,0,0,0,0,0,0,0,0,0,0,0,0,0,0,0,0,0,0,0,0,0,0,0,0,0,0,0,0,0,0,0,0,0,0,0,0,0,0,0,0,0,0,0,0,0,0],"trees":[{"base_weights":[-1.3743237E-8,-1.8816671E0,1.2046511E-2,-3.1281492E-1,-1.4116485E-1,4.7222108E-2,-6.080008E-1,-3.0715376E-2,7.2542564E-3,6.1214664E-3,-5.0784885E-3,-2.0785096E-1,-2.1002434E-2],"categories":[],"categories_nodes":[],"categories_segments":[],"categories_sizes":[],"default_left":[0,0,0,0,0,0,0,0,0,0,0,0,0],"id":0,"left_children":[1,3,5,7,-1,9,11,-1,-1,-1,-1,-1,-1],"loss_changes":[1.7816694E1,6.5032196E0,1.7062738E1,5.032873E-1,0E0,8.2932005E0,2.6269764E1,0E0,0E0,0E0,0E0,0E0,0E0],"parents":[2147483647,0,0,1,1,2,2,3,3,5,5,6,6],"right_children":[2,4,6,8,-1,10,12,-1,-1,-1,-1,-1,-1],"split_conditions":[-5.3813845E-2,2.076015E4,2.7168246E-2,1.982892E4,-1.4116485E-1,1.3560061E-2,-9.394795E-3,-3.0715376E-2,7.2542564E-3,6.1214664E-3,-5.0784885E-3,-2.0785096E-1,-2.1002434E-2],"split_indices":[14,0,14,0,0,4,6,0,0,0,0,0,0],"split_type":[0,0,0,0,0,0,0,0,0,0,0,0,0],"sum_hessian":[7.84E2,4E0,7.8E2,2E0,2E0,7.39E2,4.1E1,1E0,1E0,4.91E2,2.48E2,1E0,4E1],"tree_param":{"num_deleted":"0","num_feature":"16","num_nodes":"13","size_leaf_vector":"1"}},{"base_weights":[-4.9992214E-4,-1.820509E0,1.1152505E-2,-3.0499452E-1,-1.3645937E-1,4.4862423E-2,-5.8304965E-1,-2.994749E-2,7.0729004E-3,5.816016E-3,-4.825583E-3,-2.026547E-1,-1.9977925E-2],"categories":[],"categories_nodes":[],"categories_segments":[],"categories_sizes":[],"default_left":[0,0,0,0,0,0,0,0,0,0,0,0,0],"id":1,"left_children":[1,3,5,7,-1,9,11,-1,-1,-1,-1,-1,-1],"loss_changes":[1.6668207E1,6.0531883E0,1.5669983E1,4.7843745E-1,0E0,7.486924E0,2.5122894E1,0E0,0E0,0E0,0E0,0E0,0E0],"parents":[2147483647,0,0,1,1,2,2,3,3,5,5,6,6],"right_children":[2,4,6,8,-1,10,12,-1,-1,-1,-1,-1,-1],"split_conditions":[-5.3813845E-2,2.076015E4,2.7168246E-2,1.982892E4,-1.3645937E-1,1.3560061E-2,-9.394795E-3,-2.994749E-2,7.0729004E-3,5.816016E-3,-4.825583E-3,-2.026547E-1,-1.9977925E-2],"split_indices":[14,0,14,0,0,4,6,0,0,0,0,0,0],"split_type":[0,0,0,0,0,0,0,0,0,0,0,0,0],"sum_hessian":[7.84E2,4E0,7.8E2,2E0,2E0,7.39E2,4.1E1,1E0,1E0,4.91E2,2.48E2,1E0,4E1],"tree_param":{"num_deleted":"0","num_feature":"16","num_nodes":"13","size_leaf_vector":"1"}},{"base_weights":[-9.602597E-4,-1.7613504E0,1.0311073E-2,-2.9736966E-1,-1.3191073E-1,4.2620625E-2,-5.5919796E-1,-2.9198801E-2,6.896077E-3,5.5258046E-3,-4.5852726E-3,-1.9758832E-1,-1.9003393E-2],"categories":[],"categories_nodes":[],"categories_segments":[],"categories_sizes":[],"default_left":[0,0,0,0,0,0,0,0,0,0,0,0,0],"id":2,"left_children":[1,3,5,7,-1,9,11,-1,-1,-1,-1,-1,-1],"loss_changes":[1.5594086E1,5.634034E0,1.4394689E1,4.5481455E-1,0E0,6.759033E0,2.402193E1,0E0,0E0,0E0,0E0,0E0,0E0],"parents":[2147483647,0,0,1,1,2,2,3,3,5,5,6,6],"right_children":[2,4,6,8,-1,10,12,-1,-1,-1,-1,-1,-1],"split_conditions":[-5.3813845E-2,2.076015E4,2.7168246E-2,1.982892E4,-1.3191073E-1,1.3560061E-2,-9.394795E-3,-2.9198801E-2,6.896077E-3,5.5258046E-3,-4.5852726E-3,-1.9758832E-1,-1.9003393E-2],"split_indices":[14,0,14,0,0,4,6,0,0,0,0,0,0],"split_type":[0,0,0,0,0,0,0,0,0,0,0,0,0],"sum_hessian":[7.84E2,4E0,7.8E2,2E0,2E0,7.39E2,4.1E1,1E0,1E0,4.91E2,2.48E2,1E0,4E1],"tree_param":{"num_deleted":"0","num_feature":"16","num_nodes":"13","size_leaf_vector":"1"}},{"base_weights":[-1.3834282E-3,-1.7041255E0,9.519381E-3,-2.8993538E-1,-1.2751369E-1,4.0490847E-2,-5.36395E-1,-2.846883E-2,6.7236754E-3,4.2755865E-3,-7.653329E-3,-1.9264862E-1,-1.8076397E-2],"categories":[],"categories_nodes":[],"categories_segments":[],"categories_sizes":[],"default_left":[0,0,0,0,0,0,0,0,0,0,0,0,0],"id":3,"left_children":[1,3,5,7,-1,9,11,-1,-1,-1,-1,-1,-1],"loss_changes":[1.4589491E1,5.243658E0,1.3226687E1,4.3235806E-1,0E0,6.461541E0,2.2965366E1,0E0,0E0,0E0,0E0,0E0,0E0],"parents":[2147483647,0,0,1,1,2,2,3,3,5,5,6,6],"right_children":[2,4,6,8,-1,10,12,-1,-1,-1,-1,-1,-1],"split_conditions":[-5.3813845E-2,2.076015E4,2.7168246E-2,1.982892E4,-1.2751369E-1,1.9098446E-3,-9.394795E-3,-2.846883E-2,6.7236754E-3,4.2755865E-3,-7.653329E-3,-1.9264862E-1,-1.8076397E-2],"split_indices":[14,0,14,0,0,10,6,0,0,0,0,0,0],"split_type":[0,0,0,0,0,0,0,0,0,0,0,0,0],"sum_hessian":[7.84E2,4E0,7.8E2,2E0,2E0,7.39E2,4.1E1,1E0,1E0,6E2,1.39E2,1E0,4E1],"tree_param":{"num_deleted":"0","num_feature":"16","num_nodes":"13","size_leaf_vector":"1"}},{"base_weights":[-1.7771133E-3,-1.648771E0,8.769298E-3,-2.82687E-1,-1.2326324E-1,1.9958744E-2,-1.4398606E0,-2.7757108E-2,6.555583E-3,2.222058E-3,-1.9920725E-2,-1.0266312E-1,-7.1018995E-3],"categories":[],"categories_nodes":[],"categories_segments":[],"categories_sizes":[],"default_left":[0,0,0,0,0,0,0,0,0,0,0,0,0],"id":4,"left_children":[1,3,5,7,-1,9,11,-1,-1,-1,-1,-1,-1],"loss_changes":[1.364981E1,4.8800983E0,1.2688254E1,4.1101038E-1,0E0,7.966108E0,4.4848776E0,0E0,0E0,0E0,0E0,0E0,0E0],"parents":[2147483647,0,0,1,1,2,2,3,3,5,5,6,6],"right_children":[2,4,6,8,-1,10,12,-1,-1,-1,-1,-1,-1],"split_conditions":[-5.3813845E-2,2.076015E4,7.063198E-2,1.982892E4,-1.2326324E-1,2.0936524E-2,2.5799263E-3,-2.7757108E-2,6.555583E-3,2.222058E-3,-1.9920725E-2,-1.0266312E-1,-7.1018995E-3],"split_indices":[14,0,14,0,0,4,6,0,0,0,0,0,0],"split_type":[0,0,0,0,0,0,0,0,0,0,0,0,0],"sum_hessian":[7.84E2,4E0,7.8E2,2E0,2E0,7.75E2,5E0,1E0,1E0,7.33E2,4.2E1,3E0,2E0],"tree_param":{"num_deleted":"0","num_feature":"16","num_nodes":"13","size_leaf_vector":"1"}},{"base_weights":[-2.0346662E-3,-1.5952255E0,8.167624E-3,-2.7561983E-1,-1.1915447E-1,1.8937996E-2,-1.3861617E0,-2.7063182E-2,6.391694E-3,4.471892E-3,-5.7514873E-3,-9.881326E-2,-6.86517E-3],"categories":[],"categories_nodes":[],"categories_segments":[],"categories_sizes":[],"default_left":[0,0,0,0,0,0,0,0,0,0,0,0,0],"id":5,"left_children":[1,3,5,7,-1,9,11,-1,-1,-1,-1,-1,-1],"loss_changes":[1.2772572E1,4.541522E0,1.1754877E1,3.907168E-1,0E0,7.3393784E0,4.150384E0,0E0,0E0,0E0,0E0,0E0,0E0],"parents":[2147483647,0,0,1,1,2,2,3,3,5,5,6,6],"right_children":[2,4,6,8,-1,10,12,-1,-1,-1,-1,-1,-1],"split_conditions":[-5.3813845E-2,2.076015E4,7.063198E-2,1.982892E4,-1.1915447E-1,1.3560061E-2,2.5799263E-3,-2.7063182E-2,6.391694E-3,4.471892E-3,-5.7514873E-3,-9.881326E-2,-6.86517E-3],"split_indices":[14,0,14,0,0,4,6,0,0,0,0,0,0],"split_type":[0,0,0,0,0,0,0,0,0,0,0,0,0],"sum_hessian":[7.84E2,4E0,7.8E2,2E0,2E0,7.75E2,5E0,1E0,1E0,5.08E2,2.67E2,3E0,2E0],"tree_param":{"num_deleted":"0","num_feature":"16","num_nodes":"13","size_leaf_vector":"1"}},{"base_weights":[-2.2473102E-3,-1.5434294E0,7.6222895E-3,-2.6872933E-1,-1.1518265E-1,3.6190517E-2,-4.9590418E-1,-2.6386602E-2,6.2319012E-3,3.934545E-3,-7.3258034E-3,-1.8719059E-1,-1.626872E-2],"categories":[],"categories_nodes":[],"categories_segments":[],"categories_sizes":[],"default_left":[0,0,0,0,0,0,0,0,0,0,0,0,0],"id":6,"left_children":[1,3,5,7,-1,9,11,-1,-1,-1,-1,-1,-1],"loss_changes":[1.1952283E1,4.226227E0,1.1252521E1,3.714251E-1,0E0,5.757704E0,2.2044186E1,0E0,0E0,0E0,0E0,0E0,0E0],"parents":[2147483647,0,0,1,1,2,2,3,3,5,5,6,6],"right_children":[2,4,6,8,-1,10,12,-1,-1,-1,-1,-1,-1],"split_conditions":[-5.3813845E-2,2.076015E4,2.7168246E-2,1.982892E4,-1.1518265E-1,1.9098446E-3,-9.394795E-3,-2.6386602E-2,6.2319012E-3,3.934545E-3,-7.3258034E-3,-1.8719059E-1,-1.626872E-2],"split_indices":[14,0,14,0,0,10,6,0,0,0,0,0,0],"split_type":[0,0,0,0,0,0,0,0,0,0,0,0,0],"sum_hessian":[7.84E2,4E0,7.8E2,2E0,2E0,7.39E2,4.1E1,1E0,1E0,6E2,1.39E2,1E0,4E1],"tree_param":{"num_deleted":"0","num_feature":"16","num_nodes":"13","size_leaf_vector":"1"}},{"base_weights":[-2.5708622E-3,-1.4933255E0,6.976313E-3,-2.6201114E-1,-1.1134323E-1,1.7234482E-2,-1.3209095E0,-2.5726939E-2,6.0761035E-3,1.9841583E-3,-1.8318009E-2,-9.449768E-2,-6.0940403E-3],"categories":[],"categories_nodes":[],"categories_segments":[],"categories_sizes":[],"default_left":[0,0,0,0,0,0,0,0,0,0,0,0,0],"id":7,"left_children":[1,3,5,7,-1,9,11,-1,-1,-1,-1,-1,-1],"loss_changes":[1.1182927E1,3.9326239E0,1.0661295E1,3.5308605E-1,0E0,6.6968265E0,3.863452E0,0E0,0E0,0E0,0E0,0E0,0E0],"parents":[2147483647,0,0,1,1,2,2,3,3,5,5,6,6],"right_children":[2,4,6,8,-1,10,12,-1,-1,-1,-1,-1,-1],"split_conditions":[-5.3813845E-2,2.076015E4,7.063198E-2,1.982892E4,-1.1134323E-1,2.0936524E-2,2.5799263E-3,-2.5726939E-2,6.0761035E-3,1.9841583E-3,-1.8318009E-2,-9.449768E-2,-6.0940403E-3],"split_indices":[14,0,14,0,0,4,6,0,0,0,0,0,0],"split_type":[0,0,0,0,0,0,0,0,0,0,0,0,0],"sum_hessian":[7.84E2,4E0,7.8E2,2E0,2E0,7.75E2,5E0,1E0,1E0,7.33E2,4.2E1,3E0,2E0],"tree_param":{"num_deleted":"0","num_feature":"16","num_nodes":"13","size_leaf_vector":"1"}},{"base_weights":[-2.7581605E-3,-1.444858E0,6.4777643E-3,-2.5546086E-1,-1.07631795E-1,3.5402775E-2,-4.3596885E-1,-2.5083765E-2,5.924201E-3,-4.124284E-3,4.879106E-3,-1.8205288E-1,-1.4515308E-2],"categories":[],"categories_nodes":[],"categories_segments":[],"categories_sizes":[],"default_left":[0,0,0,0,0,0,0,0,0,0,0,0,0],"id":8,"left_children":[1,3,5,7,-1,9,11,-1,-1,-1,-1,-1,-1],"loss_changes":[1.0464872E1,3.6592312E0,1.0010495E1,3.356524E-1,0E0,5.388435E0,2.1352345E1,0E0,0E0,0E0,0E0,0E0,0E0],"parents":[2147483647,0,0,1,1,2,2,3,3,5,5,6,6],"right_children":[2,4,6,8,-1,10,12,-1,-1,-1,-1,-1,-1],"split_conditions":[-5.3813845E-2,2.076015E4,2.5679797E-2,1.982892E4,-1.07631795E-1,4.92793E3,-9.394795E-3,-2.5083765E-2,5.924201E-3,-4.124284E-3,4.879106E-3,-1.8205288E-1,-1.4515308E-2],"split_indices":[14,0,14,0,0,5,6,0,0,0,0,0,0],"split_type":[0,0,0,0,0,0,0,0,0,0,0,0,0],"sum_hessian":[7.84E2,4E0,7.8E2,2E0,2E0,7.33E2,4.7E1,1E0,1E0,2.53E2,4.8E2,1E0,4.6E1],"tree_param":{"num_deleted":"0","num_feature":"16","num_nodes":"13","size_leaf_vector":"1"}},{"base_weights":[-3.0312205E-3,-1.3979734E0,5.903148E-3,-2.4907434E-1,-1.0404407E-1,1.5679844E-2,-1.2595332E0,-2.445667E-2,5.7760957E-3,4.000248E-3,-5.3274184E-3,-9.0409696E-2,-5.4070633E-3],"categories":[],"categories_nodes":[],"categories_segments":[],"categories_sizes":[],"default_left":[0,0,0,0,0,0,0,0,0,0,0,0,0],"id":9,"left_children":[1,3,5,7,-1,9,11,-1,-1,-1,-1,-1,-1],"loss_changes":[9.791651E0,3.404667E0,9.682113E0,3.1907952E-1,0E0,6.109703E0,3.594801E0,0E0,0E0,0E0,0E0,0E0,0E0],"parents":[2147483647,0,0,1,1,2,2,3,3,5,5,6,6],"right_children":[2,4,6,8,-1,10,12,-1,-1,-1,-1,-1,-1],"split_conditions":[-5.3813845E-2,2.076015E4,7.063198E-2,1.982892E4,-1.0404407E-1,1.3560061E-2,2.5799263E-3,-2.445667E-2,5.7760957E-3,4.000248E-3,-5.3274184E-3,-9.0409696E-2,-5.4070633E-3],"split_indices":[14,0,14,0,0,4,6,0,0,0,0,0,0],"split_type":[0,0,0,0,0,0,0,0,0,0,0,0,0],"sum_hessian":[7.84E2,4E0,7.8E2,2E0,2E0,7.75E2,5E0,1E0,1E0,5.08E2,2.67E2,3E0,2E0],"tree_param":{"num_deleted":"0","num_feature":"16","num_nodes":"13","size_leaf_vector":"1"}},{"base_weights":[-3.1597496E-3,-1.3526196E0,5.4836036E-3,-2.428475E-1,-1.00575924E-1,1.4894137E-2,-1.212526E0,-2.3845255E-2,5.6316927E-3,1.7797714E-3,-1.6940923E-2,-8.7019324E-2,-5.2268286E-3],"categories":[],"categories_nodes":[],"categories_segments":[],"categories_sizes":[],"default_left":[0,0,0,0,0,0,0,0,0,0,0,0,0],"id":10,"left_children":[1,3,5,7,-1,9,11,-1,-1,-1,-1,-1,-1],"loss_changes":[9.163546E0,3.1676455E0,8.969975E0,3.03325E-1,0E0,5.6941705E0,3.3272495E0,0E0,0E0,0E0,0E0,0E0,0E0],"parents":[2147483647,0,0,1,1,2,2,3,3,5,5,6,6],"right_children":[2,4,6,8,-1,10,12,-1,-1,-1,-1,-1,-1],"split_conditions":[-5.3813845E-2,2.076015E4,7.063198E-2,1.982892E4,-1.00575924E-1,2.0936524E-2,2.5799263E-3,-2.3845255E-2,5.6316927E-3,1.7797714E-3,-1.6940923E-2,-8.7019324E-2,-5.2268286E-3],"split_indices":[14,0,14,0,0,4,6,0,0,0,0,0,0],"split_type":[0,0,0,0,0,0,0,0,0,0,0,0,0],"sum_hessian":[7.84E2,4E0,7.8E2,2E0,2E0,7.75E2,5E0,1E0,1E0,7.33E2,4.2E1,3E0,2E0],"tree_param":{"num_deleted":"0","num_feature":"16","num_nodes":"13","size_leaf_vector":"1"}},{"base_weights":[-3.289933E-3,-1.3087466E0,5.071876E-3,-2.3677634E-1,-9.722339E-2,3.1816613E-2,-4.040054E-1,-2.3249125E-2,5.4909005E-3,3.6148967E-3,-7.022813E-3,-1.7694484E-1,-1.31004965E-2],"categories":[],"categories_nodes":[],"categories_segments":[],"categories_sizes":[],"default_left":[0,0,0,0,0,0,0,0,0,0,0,0,0],"id":11,"left_children":[1,3,5,7,-1,9,11,-1,-1,-1,-1,-1,-1],"loss_changes":[8.575681E0,2.946968E0,8.557513E0,2.8834838E-1,0E0,5.128948E0,2.0439516E1,0E0,0E0,0E0,0E0,0E0,0E0],"parents":[2147483647,0,0,1,1,2,2,3,3,5,5,6,6],"right_children":[2,4,6,8,-1,10,12,-1,-1,-1,-1,-1,-1],"split_conditions":[-5.3813845E-2,2.076015E4,2.5679797E-2,1.982892E4,-9.722339E-2,1.9098446E-3,-9.394795E-3,-2.3249125E-2,5.4909005E-3,3.6148967E-3,-7.022813E-3,-1.7694484E-1,-1.31004965E-2],"split_indices":[14,0,14,0,0,10,6,0,0,0,0,0,0],"split_type":[0,0,0,0,0,0,0,0,0,0,0,0,0],"sum_hessian":[7.84E2,4E0,7.8E2,2E0,2E0,7.33E2,4.7E1,1E0,1E0,5.94E2,1.39E2,1E0,4.6E1],"tree_param":{"num_deleted":"0","num_feature":"16","num_nodes":"13","size_leaf_vector":"1"}},{"base_weights":[-3.5183558E-3,5.354144E-3,-1.1563569E0,-1.2663056E0,1.3540928E-2,-8.3264835E-2,-9.231833E-2,-1.15428455E-2,-9.398262E-2,3.6520397E-3,-4.975747E-3,2.4679347E-3,-9.39181E-3],"categories":[],"categories_nodes":[],"categories_segments":[],"categories_sizes":[],"default_left":[0,0,0,0,0,0,0,0,0,0,0,0,0],"id":12,"left_children":[1,3,5,7,9,-1,11,-1,-1,-1,-1,-1,-1],"loss_changes":[8.035611E0,8.137573E0,3.0954514E0,2.7415142E0,5.2272725E0,0E0,4.986941E-2,0E0,0E0,0E0,0E0,0E0,0E0],"parents":[2147483647,0,0,1,1,2,2,3,3,4,4,6,6],"right_children":[2,4,6,8,10,-1,12,-1,-1,-1,-1,-1,-1],"split_conditions":[7.063198E-2,-5.3813845E-2,2.5799263E-3,2.076015E4,1.3560061E-2,-8.3264835E-2,1.993381E4,-1.15428455E-2,-9.398262E-2,3.6520397E-3,-4.975747E-3,2.4679347E-3,-9.39181E-3],"split_indices":[14,14,6,0,4,0,0,0,0,0,0,0,0],"split_type":[0,0,0,0,0,0,0,0,0,0,0,0,0],"sum_hessian":[7.84E2,7.79E2,5E0,4E0,7.75E2,3E0,2E0,2E0,2E0,5.08E2,2.67E2,1E0,1E0],"tree_param":{"num_deleted":"0","num_feature":"16","num_nodes":"13","size_leaf_vector":"1"}},{"base_weights":[-3.5934409E-3,-1.2240953E0,4.2248727E-3,5.6421994E-3,-1.5865412E0,2.9453915E-2,-3.8165724E-1,-2.2379328E-2,-9.084986E-2,-3.995071E-3,4.356979E-3,-1.7239682E-1,-1.2152846E-2],"categories":[],"categories_nodes":[],"categories_segments":[],"categories_sizes":[],"default_left":[0,0,0,0,0,0,0,0,0,0,0,0,0],"id":13,"left_children":[1,3,5,-1,7,9,11,-1,-1,-1,-1,-1,-1],"loss_changes":[7.495851E0,2.6018724E0,7.6146173E0,0E0,2.3665237E-1,4.637207E0,1.9561348E1,0E0,0E0,0E0,0E0,0E0,0E0],"parents":[2147483647,0,0,1,1,2,2,4,4,5,5,6,6],"right_children":[2,4,6,-1,8,10,12,-1,-1,-1,-1,-1,-1],"split_conditions":[-5.3813845E-2,2.0904074E4,2.5679797E-2,5.6421994E-3,1.982892E4,4.92793E3,-9.394795E-3,-2.2379328E-2,-9.084986E-2,-3.995071E-3,4.356979E-3,-1.7239682E-1,-1.2152846E-2],"split_indices":[14,3,14,0,0,5,6,0,0,0,0,0,0],"split_type":[0,0,0,0,0,0,0,0,0,0,0,0,0],"sum_hessian":[7.84E2,4E0,7.8E2,1E0,3E0,7.33E2,4.7E1,1E0,2E0,2.53E2,4.8E2,1E0,4.6E1],"tree_param":{"num_deleted":"0","num_feature":"16","num_nodes":"13","size_leaf_vector":"1"}},{"base_weights":[-3.7854621E-3,4.6782964E-3,-1.1034431E0,-1.184408E0,1.2333906E-2,-7.968667E-2,-8.190849E-2,5.501145E-3,-7.677607E-2,1.551432E-3,-1.53533835E-2,2.710058E-3,-8.853194E-3],"categories":[],"categories_nodes":[],"categories_segments":[],"categories_sizes":[],"default_left":[0,0,0,0,0,0,0,0,0,0,0,0,0],"id":14,"left_children":[1,3,5,7,9,-1,11,-1,-1,-1,-1,-1,-1],"loss_changes":[7.311343E0,7.1150894E0,2.8745508E0,2.4414024E0,4.643122E0,0E0,4.8451766E-2,0E0,0E0,0E0,0E0,0E0,0E0],"parents":[2147483647,0,0,1,1,2,2,3,3,4,4,6,6],"right_children":[2,4,6,8,10,-1,12,-1,-1,-1,-1,-1,-1],"split_conditions":[7.063198E-2,-5.3813845E-2,2.5799263E-3,2.0904074E4,2.0936524E-2,-7.968667E-2,1.993381E4,5.501145E-3,-7.677607E-2,1.551432E-3,-1.53533835E-2,2.710058E-3,-8.853194E-3],"split_indices":[14,14,6,3,4,0,0,0,0,0,0,0,0],"split_type":[0,0,0,0,0,0,0,0,0,0,0,0,0],"sum_hessian":[7.84E2,7.79E2,5E0,4E0,7.75E2,3E0,2E0,1E0,3E0,7.33E2,4.2E1,1E0,1E0],"tree_param":{"num_deleted":"0","num_feature":"16","num_nodes":"13","size_leaf_vector":"1"}},{"base_weights":[-3.8139191E-3,4.335294E-3,-1.062576E0,1.8595062E-2,-6.003612E-1,-7.669842E-2,-7.986077E-2,1.4806711E-3,-2.3332926E-2,-6.637829E-3,-1.4470662E-1,2.6423067E-3,-8.631865E-3],"categories":[],"categories_nodes":[],"categories_segments":[],"categories_sizes":[],"default_left":[0,0,0,0,0,0,0,0,0,0,0,0,0],"id":15,"left_children":[1,3,5,7,9,-1,11,-1,-1,-1,-1,-1,-1],"loss_changes":[6.7776475E0,6.736973E0,2.6569633E0,4.0933504E0,1.8922192E1,0E0,4.6059467E-2,0E0,0E0,0E0,0E0,0E0,0E0],"parents":[2147483647,0,0,1,1,2,2,3,3,4,4,6,6],"right_children":[2,4,6,8,10,-1,12,-1,-1,-1,-1,-1,-1],"split_conditions":[7.063198E-2,1.628352E-1,2.5799263E-3,3.6066603E-2,-1.4339629E-2,-7.669842E-2,1.993381E4,1.4806711E-3,-2.3332926E-2,-6.637829E-3,-1.4470662E-1,2.6423067E-3,-8.631865E-3],"split_indices":[14,12,6,4,6,0,0,0,0,0,0,0,0],"split_type":[0,0,0,0,0,0,0,0,0,0,0,0,0],"sum_hessian":[7.84E2,7.79E2,5E0,7.62E2,1.7E1,3E0,2E0,7.46E2,1.6E1,1.5E1,2E0,1E0,1E0],"tree_param":{"num_deleted":"0","num_feature":"16","num_nodes":"13","size_leaf_vector":"1"}},{"base_weights":[-3.9492184E-3,-1.129078E0,3.2589675E-3,-1.8654029E-1,-8.476282E-2,2.6473403E-2,-3.5179633E-1,-1.931712E-2,5.326599E-3,3.2110014E-3,-6.706942E-3,-1.640854E-1,-1.0981712E-2],"categories":[],"categories_nodes":[],"categories_segments":[],"categories_sizes":[],"default_left":[0,0,0,0,0,0,0,0,0,0,0,0,0],"id":16,"left_children":[1,3,5,7,-1,9,11,-1,-1,-1,-1,-1,-1],"loss_changes":[6.370137E0,2.3519888E0,6.446634E0,2.1682721E-1,0E0,4.4585404E0,1.7865946E1,0E0,0E0,0E0,0E0,0E0,0E0],"parents":[2147483647,0,0,1,1,2,2,3,3,5,5,6,6],"right_children":[2,4,6,8,-1,10,12,-1,-1,-1,-1,-1,-1],"split_conditions":[-5.3813845E-2,2.076015E4,2.5679797E-2,1.982892E4,-8.476282E-2,1.9098446E-3,-9.394795E-3,-1.931712E-2,5.326599E-3,3.2110014E-3,-6.706942E-3,-1.640854E-1,-1.0981712E-2],"split_indices":[14,0,14,0,0,10,6,0,0,0,0,0,0],"split_type":[0,0,0,0,0,0,0,0,0,0,0,0,0],"sum_hessian":[7.84E2,4E0,7.8E2,2E0,2E0,7.33E2,4.7E1,1E0,1E0,5.94E2,1.39E2,1E0,4.6E1],"tree_param":{"num_deleted":"0","num_feature":"16","num_nodes":"13","size_leaf_vector":"1"}},{"base_weights":[-4.105039E-3,3.6692405E-3,-1.0140772E0,-1.0923748E0,1.0726651E-2,-7.341042E-2,-7.054313E-2,-9.093839E-3,-8.1937395E-2,3.2194324E-3,-4.561556E-3,2.850792E-3,-8.141527E-3],"categories":[],"categories_nodes":[],"categories_segments":[],"categories_sizes":[],"default_left":[0,0,0,0,0,0,0,0,0,0,0,0,0],"id":17,"left_children":[1,3,5,7,9,-1,11,-1,-1,-1,-1,-1,-1],"loss_changes":[6.167388E0,6.045199E0,2.467358E0,2.1893077E0,4.25157E0,0E0,4.4600174E-2,0E0,0E0,0E0,0E0,0E0,0E0],"parents":[2147483647,0,0,1,1,2,2,3,3,4,4,6,6],"right_children":[2,4,6,8,10,-1,12,-1,-1,-1,-1,-1,-1],"split_conditions":[7.063198E-2,-5.3813845E-2,2.5799263E-3,2.076015E4,1.3560061E-2,-7.341042E-2,1.993381E4,-9.093839E-3,-8.1937395E-2,3.2194324E-3,-4.561556E-3,2.850792E-3,-8.141527E-3],"split_indices":[14,14,6,0,4,0,0,0,0,0,0,0,0],"split_type":[0,0,0,0,0,0,0,0,0,0,0,0,0],"sum_hessian":[7.84E2,7.79E2,5E0,4E0,7.75E2,3E0,2E0,2E0,2E0,5.08E2,2.67E2,1E0,1E0],"tree_param":{"num_deleted":"0","num_feature":"16","num_nodes":"13","size_leaf_vector":"1"}},{"base_weights":[-4.117716E-3,3.3673511E-3,-9.764902E-1,1.6646275E-2,-5.596986E-1,-7.065753E-2,-6.877955E-2,-3.968726E-3,3.4396823E-3,-5.7618986E-3,-1.3717946E-1,2.7795227E-3,-7.937989E-3],"categories":[],"categories_nodes":[],"categories_segments":[],"categories_sizes":[],"default_left":[0,0,0,0,0,0,0,0,0,0,0,0,0],"id":18,"left_children":[1,3,5,7,9,-1,11,-1,-1,-1,-1,-1,-1],"loss_changes":[5.716733E0,5.841307E0,2.280972E0,3.8259783E0,1.7155594E1,0E0,4.239805E-2,0E0,0E0,0E0,0E0,0E0,0E0],"parents":[2147483647,0,0,1,1,2,2,3,3,4,4,6,6],"right_children":[2,4,6,8,10,-1,12,-1,-1,-1,-1,-1,-1],"split_conditions":[7.063198E-2,1.628352E-1,2.5799263E-3,4.92793E3,-1.4339629E-2,-7.065753E-2,1.993381E4,-3.968726E-3,3.4396823E-3,-5.7618986E-3,-1.3717946E-1,2.7795227E-3,-7.937989E-3],"split_indices":[14,12,6,5,6,0,0,0,0,0,0,0,0],"split_type":[0,0,0,0,0,0,0,0,0,0,0,0,0],"sum_hessian":[7.84E2,7.79E2,5E0,7.62E2,1.7E1,3E0,2E0,2.68E2,4.94E2,1.5E1,2E0,1E0,1E0],"tree_param":{"num_deleted":"0","num_feature":"16","num_nodes":"13","size_leaf_vector":"1"}},{"base_weights":[-4.1911686E-3,-1.0568738E0,2.5535228E-3,-1.7810732E-1,-7.916745E-2,2.4002692E-2,-3.2549322E-1,-1.8692836E-2,5.334787E-3,2.971527E-3,-6.3368552E-3,-1.5643974E-1,-9.963919E-3],"categories":[],"categories_nodes":[],"categories_segments":[],"categories_sizes":[],"default_left":[0,0,0,0,0,0,0,0,0,0,0,0,0],"id":19,"left_children":[1,3,5,7,-1,9,11,-1,-1,-1,-1,-1,-1],"loss_changes":[5.576214E0,2.0312376E0,5.5031857E0,2.0713902E-1,0E0,3.9273753E0,1.6359772E1,0E0,0E0,0E0,0E0,0E0,0E0],"parents":[2147483647,0,0,1,1,2,2,3,3,5,5,6,6],"right_children":[2,4,6,8,-1,10,12,-1,-1,-1,-1,-1,-1],"split_conditions":[-5.3813845E-2,2.076015E4,2.5679797E-2,1.982892E4,-7.916745E-2,1.9098446E-3,-9.394795E-3,-1.8692836E-2,5.334787E-3,2.971527E-3,-6.3368552E-3,-1.5643974E-1,-9.963919E-3],"split_indices":[14,0,14,0,0,10,6,0,0,0,0,0,0],"split_type":[0,0,0,0,0,0,0,0,0,0,0,0,0],"sum_hessian":[7.84E2,4E0,7.8E2,2E0,2E0,7.33E2,4.7E1,1E0,1E0,5.94E2,1.39E2,1E0,4.6E1],"tree_param":{"num_deleted":"0","num_feature":"16","num_nodes":"13","size_leaf_vector":"1"}},{"base_weights":[-4.3157423E-3,2.4381153E-2,-2.3784494E-1,-8.984787E-1,3.231321E-2,-9.243539E-1,-5.530861E-2,2.2080967E-3,-9.2792E-2,2.2470546E-3,-1.9806242E-2,-1.7580651E-3,-1.3484395E-1,1.1835096E-2,-1.1330164E-2],"categories":[],"categories_nodes":[],"categories_segments":[],"categories_sizes":[],"default_left":[0,0,0,0,0,0,0,0,0,0,0,0,0,0,0],"id":20,"left_children":[1,3,5,7,9,11,13,-1,-1,-1,-1,-1,-1,-1,-1],"loss_changes":[5.2665257E0,5.153155E0,1.0725779E1,5.4966435E0,3.7779362E0,2.8275263E1,3.5050068E0,0E0,0E0,0E0,0E0,0E0,0E0,0E0,0E0],"parents":[2147483647,0,0,1,1,2,2,3,3,4,4,5,5,6,6],"right_children":[2,4,6,8,10,12,14,-1,-1,-1,-1,-1,-1,-1,-1],"split_conditions":[1.8149396E-2,2.1173132E1,7.0835E0,2.0770748E1,3.1306986E-2,1.791899E4,-1.1434489E-3,2.2080967E-3,-9.2792E-2,2.2470546E-3,-1.9806242E-2,-1.7580651E-3,-1.3484395E-1,1.1835096E-2,-1.1330164E-2],"split_indices":[4,13,9,13,14,7,8,0,0,0,0,0,0,0,0],"split_type":[0,0,0,0,0,0,0,0,0,0,0,0,0,0,0],"sum_hessian":[7.84E2,6.99E2,8.5E1,5E0,6.94E2,1.7E1,6.8E1,3E0,2E0,6.75E2,1.9E1,1.2E1,5E0,2.5E1,4.3E1],"tree_param":{"num_deleted":"0","num_feature":"16","num_nodes":"15","size_leaf_vector":"1"}},{"base_weights":[-4.4110734E-3,7.738791E-3,-5.2256024E-1,1.48490025E-2,-8.97733E-1,-1.0848379E-1,-1.2783906E-1,4.8545147E-3,-2.0065329E-3,-6.545352E-2,-2.5019327E-3,-4.4267625E-2,6.944883E-3],"categories":[],"categories_nodes":[],"categories_segments":[],"categories_sizes":[],"default_left":[0,0,0,0,0,0,0,0,0,0,0,0,0],"id":21,"left_children":[1,3,5,7,9,11,-1,-1,-1,-1,-1,-1,-1],"loss_changes":[4.9459662E0,4.9577885E0,1.4884443E1,3.4538755E0,2.0266266E0,3.1978998E0,0E0,0E0,0E0,0E0,0E0,0E0,0E0],"parents":[2147483647,0,0,1,1,2,2,3,3,4,4,5,5],"right_children":[2,4,6,8,10,12,-1,-1,-1,-1,-1,-1,-1],"split_conditions":[1.628352E-1,7.063198E-2,-1.4339629E-2,1.1442776E-2,2.5799263E-3,5.18767E3,-1.2783906E-1,4.8545147E-3,-2.0065329E-3,-6.545352E-2,-2.5019327E-3,-4.4267625E-2,6.944883E-3],"split_indices":[12,14,6,4,6,5,0,0,0,0,0,0,0],"split_type":[0,0,0,0,0,0,0,0,0,0,0,0,0],"sum_hessian":[7.84E2,7.67E2,1.7E1,7.62E2,5E0,1.5E1,2E0,3.05E2,4.57E2,3E0,2E0,3E0,1.2E1],"tree_param":{"num_deleted":"0","num_feature":"16","num_nodes":"13","size_leaf_vector":"1"}},{"base_weights":[-4.4838516E-3,-9.8414177E-1,1.7937074E-3,5.195405E-3,-1.2821312E0,8.4870085E-3,-8.641722E-1,-1.7892098E-2,-7.3547356E-2,2.795026E-3,-4.0797475E-3,-1.1039028E-2,-7.169852E-2],"categories":[],"categories_nodes":[],"categories_segments":[],"categories_sizes":[],"default_left":[0,0,0,0,0,0,0,0,0,0,0,0,0],"id":22,"left_children":[1,3,5,-1,7,9,11,-1,-1,-1,-1,-1,-1],"loss_changes":[4.829406E0,1.7543607E0,4.534144E0,0E0,1.717143E-1,3.3189359E0,1.8830276E0,0E0,0E0,0E0,0E0,0E0,0E0],"parents":[2147483647,0,0,1,1,2,2,4,4,5,5,6,6],"right_children":[2,4,6,-1,8,10,12,-1,-1,-1,-1,-1,-1],"split_conditions":[-5.3813845E-2,2.0904074E4,7.063198E-2,5.195405E-3,1.982892E4,1.3560061E-2,2.027459E4,-1.7892098E-2,-7.3547356E-2,2.795026E-3,-4.0797475E-3,-1.1039028E-2,-7.169852E-2],"split_indices":[14,3,14,0,0,4,0,0,0,0,0,0,0],"split_type":[0,0,0,0,0,0,0,0,0,0,0,0,0],"sum_hessian":[7.84E2,4E0,7.8E2,1E0,3E0,7.75E2,5E0,1E0,2E0,5.08E2,2.67E2,3E0,2E0],"tree_param":{"num_deleted":"0","num_feature":"16","num_nodes":"13","size_leaf_vector":"1"}},{"base_weights":[-4.4765654E-3,7.165381E-3,-5.0095093E-1,1.3776582E-2,-8.347532E-1,-1.0023351E-1,-1.2355634E-1,-3.7419726E-3,3.0952874E-3,-6.1068565E-2,-2.0505667E-3,-4.167219E-2,6.6539967E-3],"categories":[],"categories_nodes":[],"categories_segments":[],"categories_sizes":[],"default_left":[0,0,0,0,0,0,0,0,0,0,0,0,0],"id":23,"left_children":[1,3,5,7,9,11,-1,-1,-1,-1,-1,-1,-1],"loss_changes":[4.5408325E0,4.2862597E0,1.3963017E1,3.2588396E0,1.7911596E0,2.8479996E0,0E0,0E0,0E0,0E0,0E0,0E0,0E0],"parents":[2147483647,0,0,1,1,2,2,3,3,4,4,5,5],"right_children":[2,4,6,8,10,12,-1,-1,-1,-1,-1,-1,-1],"split_conditions":[1.628352E-1,7.063198E-2,-1.4339629E-2,4.92793E3,2.5799263E-3,5.18767E3,-1.2355634E-1,-3.7419726E-3,3.0952874E-3,-6.1068565E-2,-2.0505667E-3,-4.167219E-2,6.6539967E-3],"split_indices":[12,14,6,5,6,5,0,0,0,0,0,0,0],"split_type":[0,0,0,0,0,0,0,0,0,0,0,0,0],"sum_hessian":[7.84E2,7.67E2,1.7E1,7.62E2,5E0,1.5E1,2E0,2.68E2,4.94E2,3E0,2E0,3E0,1.2E1],"tree_param":{"num_deleted":"0","num_feature":"16","num_nodes":"13","size_leaf_vector":"1"}},{"base_weights":[-4.5359605E-3,-9.457062E-1,1.4952649E-3,4.9881386E-3,-1.2320142E0,1.987646E-2,-2.7961498E-1,-1.7522177E-2,-7.045283E-2,2.6400664E-3,-6.00981E-3,-1.4277077E-1,-8.202861E-3],"categories":[],"categories_nodes":[],"categories_segments":[],"categories_sizes":[],"default_left":[0,0,0,0,0,0,0,0,0,0,0,0,0],"id":24,"left_children":[1,3,5,-1,7,9,11,-1,-1,-1,-1,-1,-1],"loss_changes":[4.457396E0,1.6195393E0,4.041096E0,0E0,1.3050604E-1,3.3914616E0,1.3818929E1,0E0,0E0,0E0,0E0,0E0,0E0],"parents":[2147483647,0,0,1,1,2,2,4,4,5,5,6,6],"right_children":[2,4,6,-1,8,10,12,-1,-1,-1,-1,-1,-1],"split_conditions":[-5.3813845E-2,2.0904074E4,2.5679797E-2,4.9881386E-3,1.982892E4,1.9098446E-3,-9.394795E-3,-1.7522177E-2,-7.045283E-2,2.6400664E-3,-6.00981E-3,-1.4277077E-1,-8.202861E-3],"split_indices":[14,3,14,0,0,10,6,0,0,0,0,0,0],"split_type":[0,0,0,0,0,0,0,0,0,0,0,0,0],"sum_hessian":[7.84E2,4E0,7.8E2,1E0,3E0,7.33E2,4.7E1,1E0,2E0,5.94E2,1.39E2,1E0,4.6E1],"tree_param":{"num_deleted":"0","num_feature":"16","num_nodes":"13","size_leaf_vector":"1"}},{"base_weights":[-4.6114936E-3,-9.150182E-1,1.2228795E-3,4.863435E-3,-1.1924071E0,7.3908083E-3,-7.966997E-1,-1.7084122E-2,-6.8104394E-2,1.2004349E-2,-5.1727955E-4,-9.502836E-3,-6.6999525E-2],"categories":[],"categories_nodes":[],"categories_segments":[],"categories_sizes":[],"default_left":[0,0,0,0,0,0,0,0,0,0,0,0,0],"id":25,"left_children":[1,3,5,-1,7,9,11,-1,-1,-1,-1,-1,-1],"loss_changes":[4.170766E0,1.5199695E0,3.8496025E0,0E0,1.1200476E-1,3.205185E0,1.7228272E0,0E0,0E0,0E0,0E0,0E0,0E0],"parents":[2147483647,0,0,1,1,2,2,4,4,5,5,6,6],"right_children":[2,4,6,-1,8,10,12,-1,-1,-1,-1,-1,-1],"split_conditions":[-5.3813845E-2,2.0904074E4,7.063198E-2,4.863435E-3,1.982892E4,-8.533027E-2,2.027459E4,-1.7084122E-2,-6.8104394E-2,1.2004349E-2,-5.1727955E-4,-9.502836E-3,-6.6999525E-2],"split_indices":[14,3,14,0,0,12,0,0,0,0,0,0,0],"split_type":[0,0,0,0,0,0,0,0,0,0,0,0,0],"sum_hessian":[7.84E2,4E0,7.8E2,1E0,3E0,7.75E2,5E0,1E0,2E0,5.4E1,7.21E2,3E0,2E0],"tree_param":{"num_deleted":"0","num_feature":"16","num_nodes":"13","size_leaf_vector":"1"}},{"base_weights":[-4.5660413E-3,2.074736E-2,-2.1055226E-1,-8.630785E-1,2.8347658E-2,-8.3067155E-1,-4.573052E-2,2.414249E-3,-8.9526854E-2,-3.149666E-2,1.749721E-3,-1.3023939E-3,-1.2177888E-1,1.4353959E-3,-3.5457175E-2],"categories":[],"categories_nodes":[],"categories_segments":[],"categories_sizes":[],"default_left":[0,0,0,0,0,0,0,0,0,0,0,0,0,0,0],"id":26,"left_children":[1,3,5,7,9,11,13,-1,-1,-1,-1,-1,-1,-1,-1],"loss_changes":[4.0975246E0,4.7266045E0,8.751999E0,5.157967E0,3.0629714E0,2.3180773E1,3.4278147E0,0E0,0E0,0E0,0E0,0E0,0E0,0E0,0E0],"parents":[2147483647,0,0,1,1,2,2,3,3,4,4,5,5,6,6],"right_children":[2,4,6,8,10,12,14,-1,-1,-1,-1,-1,-1,-1,-1],"split_conditions":[1.8149396E-2,2.1173132E1,7.0835E0,2.0770748E1,-3.6919866E-2,1.791899E4,2.339051E4,2.414249E-3,-8.9526854E-2,-3.149666E-2,1.749721E-3,-1.3023939E-3,-1.2177888E-1,1.4353959E-3,-3.5457175E-2],"split_indices":[4,13,9,13,14,7,3,0,0,0,0,0,0,0,0],"split_type":[0,0,0,0,0,0,0,0,0,0,0,0,0,0,0],"sum_hessian":[7.84E2,6.99E2,8.5E1,5E0,6.94E2,1.7E1,6.8E1,3E0,2E0,6E0,6.88E2,1.2E1,5E0,6.2E1,6E0],"tree_param":{"num_deleted":"0","num_feature":"16","num_nodes":"15","size_leaf_vector":"1"}},{"base_weights":[-4.686713E-3,5.9302086E-3,-4.57415E-1,1.18702445E-2,-7.504327E-1,-8.30248E-2,-1.1508455E-1,-1.9777818E-3,4.4611534E-3,-5.519862E-2,-1.4451087E-3,-3.797249E-2,6.5746256E-3],"categories":[],"categories_nodes":[],"categories_segments":[],"categories_sizes":[],"default_left":[0,0,0,0,0,0,0,0,0,0,0,0,0],"id":27,"left_children":[1,3,5,7,9,11,-1,-1,-1,-1,-1,-1,-1],"loss_changes":[3.7758787E0,3.459396E0,1.2237522E1,3.0386953E0,1.498631E0,2.4215403E0,0E0,0E0,0E0,0E0,0E0,0E0,0E0],"parents":[2147483647,0,0,1,1,2,2,3,3,4,4,5,5],"right_children":[2,4,6,8,10,12,-1,-1,-1,-1,-1,-1,-1],"split_conditions":[1.628352E-1,7.063198E-2,-1.4339629E-2,3.4627889E-3,2.5799263E-3,5.18767E3,-1.1508455E-1,-1.9777818E-3,4.4611534E-3,-5.519862E-2,-1.4451087E-3,-3.797249E-2,6.5746256E-3],"split_indices":[12,14,6,14,6,5,0,0,0,0,0,0,0],"split_type":[0,0,0,0,0,0,0,0,0,0,0,0,0],"sum_hessian":[7.84E2,7.67E2,1.7E1,7.62E2,5E0,1.5E1,2E0,4.58E2,3.04E2,3E0,2E0,3E0,1.2E1],"tree_param":{"num_deleted":"0","num_feature":"16","num_nodes":"13","size_leaf_vector":"1"}},{"base_weights":[-4.7079697E-3,1.939163E-2,-2.0081276E-1,-8.3494145E-1,2.6739266E-2,-7.866561E-1,-4.507373E-2,2.3173958E-3,-8.658401E-2,1.8939421E-3,-1.7555768E-2,-1.2500598E-3,-1.1528995E-1,1.877524E-2,-7.947872E-3],"categories":[],"categories_nodes":[],"categories_segments":[],"categories_sizes":[],"default_left":[0,0,0,0,0,0,0,0,0,0,0,0,0,0,0],"id":28,"left_children":[1,3,5,7,9,11,13,-1,-1,-1,-1,-1,-1,-1,-1],"loss_changes":[3.7138405E0,4.4164557E0,7.8110685E0,4.821977E0,2.938652E0,2.076948E1,3.3645852E0,0E0,0E0,0E0,0E0,0E0,0E0,0E0,0E0],"parents":[2147483647,0,0,1,1,2,2,3,3,4,4,5,5,6,6],"right_children":[2,4,6,8,10,12,14,-1,-1,-1,-1,-1,-1,-1,-1],"split_conditions":[1.8149396E-2,2.1173132E1,7.0835E0,2.0770748E1,3.1306986E-2,1.791899E4,-1.6191192E-2,2.3173958E-3,-8.658401E-2,1.8939421E-3,-1.7555768E-2,-1.2500598E-3,-1.1528995E-1,1.877524E-2,-7.947872E-3],"split_indices":[4,13,9,13,14,7,14,0,0,0,0,0,0,0,0],"split_type":[0,0,0,0,0,0,0,0,0,0,0,0,0,0,0],"sum_hessian":[7.84E2,6.99E2,8.5E1,5E0,6.94E2,1.7E1,6.8E1,3E0,2E0,6.75E2,1.9E1,1.2E1,5E0,1.4E1,5.4E1],"tree_param":{"num_deleted":"0","num_feature":"16","num_nodes":"15","size_leaf_vector":"1"}},{"base_weights":[-4.7345296E-3,5.4217237E-3,-4.37805E-1,3.557788E-2,-1.2892924E-1,-8.243636E-2,-2.1871693E0,-4.3205112E-2,2.136492E-3,-8.4701456E-2,-4.131488E-3,-3.661955E-2,6.194547E-3,-1.3038473E-1,-3.365298E-2],"categories":[],"categories_nodes":[],"categories_segments":[],"categories_sizes":[],"default_left":[0,0,0,0,0,0,0,0,0,0,0,0,0,0,0],"id":29,"left_children":[1,3,5,7,9,11,13,-1,-1,-1,-1,-1,-1,-1,-1],"loss_changes":[3.4550967E0,3.1161456E0,1.1009743E1,4.077774E0,1.0077351E1,2.2363908E0,1.550293E-1,0E0,0E0,0E0,0E0,0E0,0E0,0E0,0E0],"parents":[2147483647,0,0,1,1,2,2,3,3,4,4,5,5,6,6],"right_children":[2,4,6,8,10,12,14,-1,-1,-1,-1,-1,-1,-1,-1],"split_conditions":[1.628352E-1,1.9098446E-3,-1.4339629E-2,-3.6919866E-2,1.9570054E-3,5.18767E3,2.310827E4,-4.3205112E-2,2.136492E-3,-8.4701456E-2,-4.131488E-3,-3.661955E-2,6.194547E-3,-1.3038473E-1,-3.365298E-2],"split_indices":[12,10,6,14,10,5,0,0,0,0,0,0,0,0,0],"split_type":[0,0,0,0,0,0,0,0,0,0,0,0,0,0,0],"sum_hessian":[7.84E2,7.67E2,1.7E1,6.27E2,1.4E2,1.5E1,2E0,4E0,6.23E2,3E0,1.37E2,3E0,1.2E1,1E0,1E0],"tree_param":{"num_deleted":"0","num_feature":"16","num_nodes":"15","size_leaf_vector":"1"}},{"base_weights":[-4.9109864E-3,1.7763095E-2,-1.8941036E-1,-7.9454625E-1,2.475028E-2,-7.39717E-1,-4.310702E-2,2.150377E-3,-8.232179E-2,1.6228415E-2,5.838803E-4,-1.2186468E-3,-1.0831715E-1,1.4046172E-3,-3.388716E-2],"categories":[],"categories_nodes":[],"categories_segments":[],"categories_sizes":[],"default_left":[0,0,0,0,0,0,0,0,0,0,0,0,0,0,0],"id":30,"left_children":[1,3,5,7,9,11,13,-1,-1,-1,-1,-1,-1,-1,-1],"loss_changes":[3.2872968E0,3.9926937E0,6.892119E0,4.3518295E0,2.7202091E0,1.8316711E1,3.1368523E0,0E0,0E0,0E0,0E0,0E0,0E0,0E0,0E0],"parents":[2147483647,0,0,1,1,2,2,3,3,4,4,5,5,6,6],"right_children":[2,4,6,8,10,12,14,-1,-1,-1,-1,-1,-1,-1,-1],"split_conditions":[1.8149396E-2,2.1173132E1,7.0835E0,2.0770748E1,7.429907E-3,1.791899E4,2.339051E4,2.150377E-3,-8.232179E-2,1.6228415E-2,5.838803E-4,-1.2186468E-3,-1.0831715E-1,1.4046172E-3,-3.388716E-2],"split_indices":[4,13,9,13,4,7,3,0,0,0,0,0,0,0,0],"split_type":[0,0,0,0,0,0,0,0,0,0,0,0,0,0,0],"sum_hessian":[7.84E2,6.99E2,8.5E1,5E0,6.94E2,1.7E1,6.8E1,3E0,2E0,2.8E1,6.66E2,1.2E1,5E0,6.2E1,6E0],"tree_param":{"num_deleted":"0","num_feature":"16","num_nodes":"15","size_leaf_vector":"1"}},{"base_weights":[-4.9270736E-3,4.7934502E-3,-4.1939571E-1,8.083122E-2,-4.5470808E-2,-7.871164E-2,-2.0965788E0,-5.8729794E-2,4.4399253E-3,6.2096342E-3,-3.8258748E-3,-3.5268214E-2,6.0079643E-3,-1.2441716E-1,-3.2826252E-2],"categories":[],"categories_nodes":[],"categories_segments":[],"categories_sizes":[],"default_left":[0,0,0,0,0,0,0,0,0,0,0,0,0,0,0],"id":31,"left_children":[1,3,5,7,9,11,13,-1,-1,-1,-1,-1,-1,-1,-1],"loss_changes":[3.1646595E0,2.9389577E0,1.01199875E1,3.1650214E0,2.4483502E0,2.0787237E0,5.8825493E-2,0E0,0E0,0E0,0E0,0E0,0E0,0E0,0E0],"parents":[2147483647,0,0,1,1,2,2,3,3,4,4,5,5,6,6],"right_children":[2,4,6,8,10,12,14,-1,-1,-1,-1,-1,-1,-1,-1],"split_conditions":[1.628352E-1,1.1442776E-2,-1.4339629E-2,1.589987E4,-9.559199E-3,5.18767E3,2.310827E4,-5.8729794E-2,4.4399253E-3,6.2096342E-3,-3.8258748E-3,-3.5268214E-2,6.0079643E-3,-1.2441716E-1,-3.2826252E-2],"split_indices":[12,4,6,0,8,5,0,0,0,0,0,0,0,0,0],"split_type":[0,0,0,0,0,0,0,0,0,0,0,0,0,0,0],"sum_hessian":[7.84E2,7.67E2,1.7E1,3.05E2,4.62E2,1.5E1,2E0,1E0,3.04E2,7.1E1,3.91E2,3E0,1.2E1,1E0,1E0],"tree_param":{"num_deleted":"0","num_feature":"16","num_nodes":"15","size_leaf_vector":"1"}},{"base_weights":[-4.98442E-3,1.3550007E-2,-2.1399803E-1,-8.178756E-2,6.578313E-2,-8.980772E-2,-1.0721043E0,-7.5986946E-4,-1.5193671E-2,4.4526993E-3,-1.1659871E-2,7.7522346E-3,-1.429719E-2,-9.070808E-2,6.174664E-3],"categories":[],"categories_nodes":[],"categories_segments":[],"categories_sizes":[],"default_left":[0,0,0,0,0,0,0,0,0,0,0,0,0,0,0],"id":32,"left_children":[1,3,5,7,9,11,13,-1,-1,-1,-1,-1,-1,-1,-1],"loss_changes":[3.0439487E0,3.6007802E0,6.724101E0,3.781298E0,3.269936E0,2.7817245E0,7.3216524E0,0E0,0E0,0E0,0E0,0E0,0E0,0E0,0E0],"parents":[2147483647,0,0,1,1,2,2,3,3,4,4,5,5,6,6],"right_children":[2,4,6,8,10,12,14,-1,-1,-1,-1,-1,-1,-1,-1],"split_conditions":[9.9112436E-2,4.92793E3,1.5308748E-2,1.414456E4,2.136627E-2,-1.3782604E-2,2.0102852E4,-7.5986946E-4,-1.5193671E-2,4.4526993E-3,-1.1659871E-2,7.7522346E-3,-1.429719E-2,-9.070808E-2,6.174664E-3],"split_indices":[12,5,1,7,1,14,2,0,0,0,0,0,0,0,0],"split_type":[0,0,0,0,0,0,0,0,0,0,0,0,0,0,0],"sum_hessian":[7.84E2,7.21E2,6.3E1,2.55E2,4.66E2,5.6E1,7E0,1.97E2,5.8E1,4.33E2,3.3E1,2.5E1,3.1E1,4E0,3E0],"tree_param":{"num_deleted":"0","num_feature":"16","num_nodes":"15","size_leaf_vector":"1"}},{"base_weights":[-4.8807375E-3,-7.774448E-1,7.1504626E-5,5.604382E-3,-5.1392492E-2,2.1526282E-1,-1.6527373E-2,1.2780364E-2,-2.913459E-2,9.6086165E-5,-1.3037214E-2],"categories":[],"categories_nodes":[],"categories_segments":[],"categories_sizes":[],"default_left":[0,0,0,0,0,0,0,0,0,0,0],"id":33,"left_children":[1,3,5,-1,-1,7,9,-1,-1,-1,-1],"loss_changes":[3.003406E0,1.2289262E0,2.7932384E0,0E0,0E0,1.9517512E0,3.2715528E0,0E0,0E0,0E0,0E0],"parents":[2147483647,0,0,1,1,2,2,5,5,6,6],"right_children":[2,4,6,-1,-1,8,10,-1,-1,-1,-1],"split_conditions":[-5.3813845E-2,2.0904074E4,-8.533027E-2,5.604382E-3,-5.1392492E-2,2.6232643E4,2.3632577E-2,1.2780364E-2,-2.913459E-2,9.6086165E-5,-1.3037214E-2],"split_indices":[14,3,12,0,0,2,14,0,0,0,0],"split_type":[0,0,0,0,0,0,0,0,0,0,0],"sum_hessian":[7.84E2,4E0,7.8E2,1E0,3E0,5.5E1,7.25E2,5.3E1,2E0,6.75E2,5E1],"tree_param":{"num_deleted":"0","num_feature":"16","num_nodes":"11","size_leaf_vector":"1"}},{"base_weights":[-4.7323457E-3,4.5001516E-3,-3.983893E-1,3.262176E-2,-1.2078262E-1,-7.227884E-2,-2.0048487E0,-3.9929595E-2,1.9614925E-3,-7.833809E-2,-3.8997473E-3,-1.5833592E-2,1.9391073E-2,-1.18713096E-1,-3.1650566E-2],"categories":[],"categories_nodes":[],"categories_segments":[],"categories_sizes":[],"default_left":[0,0,0,0,0,0,0,0,0,0,0,0,0,0,0],"id":34,"left_children":[1,3,5,7,9,11,13,-1,-1,-1,-1,-1,-1,-1,-1],"loss_changes":[2.8548257E0,2.709722E0,9.28499E0,3.4807649E0,8.601482E0,1.9219368E0,1.7390251E-2,0E0,0E0,0E0,0E0,0E0,0E0,0E0,0E0],"parents":[2147483647,0,0,1,1,2,2,3,3,4,4,5,5,6,6],"right_children":[2,4,6,8,10,12,14,-1,-1,-1,-1,-1,-1,-1,-1],"split_conditions":[1.628352E-1,1.9098446E-3,-1.4339629E-2,-3.6919866E-2,1.9570054E-3,2.3161072E4,2.310827E4,-3.9929595E-2,1.9614925E-3,-7.833809E-2,-3.8997473E-3,-1.5833592E-2,1.9391073E-2,-1.18713096E-1,-3.1650566E-2],"split_indices":[12,10,6,14,10,3,0,0,0,0,0,0,0,0,0],"split_type":[0,0,0,0,0,0,0,0,0,0,0,0,0,0,0],"sum_hessian":[7.84E2,7.67E2,1.7E1,6.27E2,1.4E2,1.5E1,2E0,4E0,6.23E2,3E0,1.37E2,1E1,5E0,1E0,1E0],"tree_param":{"num_deleted":"0","num_feature":"16","num_nodes":"15","size_leaf_vector":"1"}},{"base_weights":[-4.8358524E-3,3.0071023E-1,-1.6534664E-2,3.537098E-1,-2.9581923E-2,2.0476176E-1,-3.4164388E-2,3.6107101E-3,1.9880839E-2,1.2185544E-2,-2.822882E-2,-8.308335E-4,-1.3132714E-2],"categories":[],"categories_nodes":[],"categories_segments":[],"categories_sizes":[],"default_left":[0,0,0,0,0,0,0,0,0,0,0,0,0],"id":35,"left_children":[1,3,5,7,-1,9,11,-1,-1,-1,-1,-1,-1],"loss_changes":[2.8109756E0,1.5807965E0,2.960351E0,3.1735587E-1,0E0,1.8156364E0,2.8102872E0,0E0,0E0,0E0,0E0,0E0,0E0],"parents":[2147483647,0,0,1,1,2,2,3,3,5,5,6,6],"right_children":[2,4,6,8,-1,10,12,-1,-1,-1,-1,-1,-1],"split_conditions":[7.429907E-3,7.313E0,-8.533027E-2,5.5857147E-3,-2.9581923E-2,2.6232643E4,2.3632577E-2,3.6107101E-3,1.9880839E-2,1.2185544E-2,-2.822882E-2,-8.308335E-4,-1.3132714E-2],"split_indices":[4,9,12,4,0,2,14,0,0,0,0,0,0],"split_type":[0,0,0,0,0,0,0,0,0,0,0,0,0],"sum_hessian":[7.84E2,2.8E1,7.56E2,2.7E1,1E0,5.5E1,7.01E2,4E0,2.3E1,5.3E1,2E0,6.52E2,4.9E1],"tree_param":{"num_deleted":"0","num_feature":"16","num_nodes":"13","size_leaf_vector":"1"}},{"base_weights":[-4.6400446E-3,-7.343529E-1,3.7553826E-5,5.582537E-3,-4.8688326E-2,6.918124E-2,-4.5862168E-2,-5.490488E-2,3.8232708E-3,5.8146114E-3,-4.556157E-3],"categories":[],"categories_nodes":[],"categories_segments":[],"categories_sizes":[],"default_left":[0,0,0,0,0,0,0,0,0,0,0],"id":36,"left_children":[1,3,5,-1,-1,7,9,-1,-1,-1,-1],"loss_changes":[2.6794713E0,1.1214454E0,2.4818137E0,0E0,0E0,2.7367952E0,3.4600523E0,0E0,0E0,0E0,0E0],"parents":[2147483647,0,0,1,1,2,2,5,5,6,6],"right_children":[2,4,6,-1,-1,8,10,-1,-1,-1,-1],"split_conditions":[-5.3813845E-2,2.0904074E4,1.1442776E-2,5.582537E-3,-4.8688326E-2,1.589987E4,-1.2547911E-2,-5.490488E-2,3.8232708E-3,5.8146114E-3,-4.556157E-3],"split_indices":[14,3,4,0,0,0,1,0,0,0,0],"split_type":[0,0,0,0,0,0,0,0,0,0,0],"sum_hessian":[7.84E2,4E0,7.8E2,1E0,3E0,3.11E2,4.69E2,1E0,3.1E2,1.02E2,3.67E2],"tree_param":{"num_deleted":"0","num_feature":"16","num_nodes":"11","size_leaf_vector":"1"}},{"base_weights":[-4.5264172E-3,4.361683E-3,-3.8350058E-1,1.4290512E-1,-1.9016255E-2,-6.584523E-2,-9.749144E-2,1.0411573E-2,-4.5073368E-3,-5.160198E-4,-4.1312832E-2,-3.2102942E-2,5.8258153E-3],"categories":[],"categories_nodes":[],"categories_segments":[],"categories_sizes":[],"default_left":[0,0,0,0,0,0,0,0,0,0,0,0,0],"id":37,"left_children":[1,3,5,7,9,11,-1,-1,-1,-1,-1,-1,-1],"loss_changes":[2.6458354E0,2.490162E0,8.8275585E0,1.7086823E0,4.610401E0,1.7560775E0,0E0,0E0,0E0,0E0,0E0,0E0,0E0],"parents":[2147483647,0,0,1,1,2,2,3,3,4,4,5,5],"right_children":[2,4,6,8,10,12,-1,-1,-1,-1,-1,-1,-1],"split_conditions":[1.628352E-1,-9.03176E-3,-1.4339629E-2,4E0,1.0321722E-1,5.18767E3,-9.749144E-2,1.0411573E-2,-4.5073368E-3,-5.160198E-4,-4.1312832E-2,-3.2102942E-2,5.8258153E-3],"split_indices":[12,8,6,15,12,5,0,0,0,0,0,0,0],"split_type":[0,0,0,0,0,0,0,0,0,0,0,0,0],"sum_hessian":[7.84E2,7.67E2,1.7E1,1.1E2,6.57E2,1.5E1,2E0,8.6E1,2.4E1,6.51E2,6E0,3E0,1.2E1],"tree_param":{"num_deleted":"0","num_feature":"16","num_nodes":"13","size_leaf_vector":"1"}},{"base_weights":[-4.5035426E-3,1.2406275E-2,-1.9519705E-1,2.5066862E-1,-6.45986E-3,-8.264338E-2,-9.727423E-1,-3.954678E-2,1.4295489E-2,1.4083779E-3,-9.054927E-3,-1.2858775E-2,8.402697E-3,-8.2958214E-2,6.423542E-3],"categories":[],"categories_nodes":[],"categories_segments":[],"categories_sizes":[],"default_left":[0,0,0,0,0,0,0,0,0,0,0,0,0,0,0],"id":38,"left_children":[1,3,5,7,9,11,13,-1,-1,-1,-1,-1,-1,-1,-1],"loss_changes":[2.5337267E0,3.2470737E0,5.520606E0,2.171625E0,4.0567827E0,2.537239E0,6.2603297E0,0E0,0E0,0E0,0E0,0E0,0E0,0E0,0E0],"parents":[2147483647,0,0,1,1,2,2,3,3,4,4,5,5,6,6],"right_children":[2,4,6,8,10,12,14,-1,-1,-1,-1,-1,-1,-1,-1],"split_conditions":[9.9112436E-2,-1.1196453E-2,1.5308748E-2,-3.6919866E-2,1.9098446E-3,1.2796321E-3,2.0102852E4,-3.954678E-2,1.4295489E-2,1.4083779E-3,-9.054927E-3,-1.2858775E-2,8.402697E-3,-8.2958214E-2,6.423542E-3],"split_indices":[12,8,1,14,10,10,2,0,0,0,0,0,0,0,0],"split_type":[0,0,0,0,0,0,0,0,0,0,0,0,0,0,0],"sum_hessian":[7.84E2,7.21E2,6.3E1,5.2E1,6.69E2,5.6E1,7E0,1E0,5.1E1,5.59E2,1.1E2,3.3E1,2.3E1,4E0,3E0],"tree_param":{"num_deleted":"0","num_feature":"16","num_nodes":"15","size_leaf_vector":"1"}},{"base_weights":[-4.4234633E-3,2.7988732E-1,-1.5309314E-2,3.3088142E-1,-2.8698687E-2,1.9533812E-1,-3.209129E-2,3.3822868E-3,1.8596774E-2,1.1267225E-2,-3.6375344E-2,-7.4542756E-3,1.2060959E-5],"categories":[],"categories_nodes":[],"categories_segments":[],"categories_sizes":[],"default_left":[0,0,0,0,0,0,0,0,0,0,0,0,0],"id":39,"left_children":[1,3,5,7,-1,9,11,-1,-1,-1,-1,-1,-1],"loss_changes":[2.4338322E0,1.4526315E0,2.682324E0,2.7743316E-1,0E0,1.7146499E0,2.6555028E0,0E0,0E0,0E0,0E0,0E0,0E0],"parents":[2147483647,0,0,1,1,2,2,3,3,5,5,6,6],"right_children":[2,4,6,8,-1,10,12,-1,-1,-1,-1,-1,-1],"split_conditions":[7.429907E-3,7.313E0,-8.533027E-2,5.5857147E-3,-2.8698687E-2,2.6409742E4,7.0975E0,3.3822868E-3,1.8596774E-2,1.1267225E-2,-3.6375344E-2,-7.4542756E-3,1.2060959E-5],"split_indices":[4,9,12,4,0,2,9,0,0,0,0,0,0],"split_type":[0,0,0,0,0,0,0,0,0,0,0,0,0],"sum_hessian":[7.84E2,2.8E1,7.56E2,2.7E1,1E0,5.5E1,7.01E2,4E0,2.3E1,5.4E1,1E0,1.51E2,5.5E2],"tree_param":{"num_deleted":"0","num_feature":"16","num_nodes":"13","size_leaf_vector":"1"}},{"base_weights":[-4.2523043E-3,-6.921305E-1,1.569701E-4,5.6819455E-3,-9.2198265E-1,4.895478E-3,-6.127162E-1,-1.4201084E-2,-5.199812E-2,-2.6490161E-2,5.225824E-4,-4.5342226E-2,-8.15322E-4],"categories":[],"categories_nodes":[],"categories_segments":[],"categories_sizes":[],"default_left":[0,0,0,0,0,0,0,0,0,0,0,0,0],"id":40,"left_children":[1,3,5,-1,7,9,11,-1,-1,-1,-1,-1,-1],"loss_changes":[2.3810482E0,1.030812E0,2.271105E0,0E0,5.694151E-3,2.3109374E0,1.0377386E0,0E0,0E0,0E0,0E0,0E0,0E0],"parents":[2147483647,0,0,1,1,2,2,4,4,5,5,6,6],"right_children":[2,4,6,-1,8,10,12,-1,-1,-1,-1,-1,-1],"split_conditions":[-5.3813845E-2,2.0904074E4,7.063198E-2,5.6819455E-3,1.982892E4,6.7622E0,2.5799263E-3,-1.4201084E-2,-5.199812E-2,-2.6490161E-2,5.225824E-4,-4.5342226E-2,-8.15322E-4],"split_indices":[14,3,14,0,0,9,6,0,0,0,0,0,0],"split_type":[0,0,0,0,0,0,0,0,0,0,0,0,0],"sum_hessian":[7.84E2,4E0,7.8E2,1E0,3E0,7.75E2,5E0,1E0,2E0,7E0,7.68E2,3E0,2E0],"tree_param":{"num_deleted":"0","num_feature":"16","num_nodes":"13","size_leaf_vector":"1"}},{"base_weights":[-4.208635E-3,1.497976E-2,-1.6034432E-1,-7.215335E-1,2.1316595E-2,2.4310455E-1,-3.1149396E-1,2.5950463E-3,-7.561341E-2,-1.406859E-3,4.8702415E-3,-3.371781E-2,1.785813E-2,-4.925275E-2,-7.503328E-3],"categories":[],"categories_nodes":[],"categories_segments":[],"categories_sizes":[],"default_left":[0,0,0,0,0,0,0,0,0,0,0,0,0,0,0],"id":41,"left_children":[1,3,5,7,9,11,13,-1,-1,-1,-1,-1,-1,-1,-1],"loss_changes":[2.3542564E0,3.2823942E0,5.3201056E0,3.747976E0,2.6179218E0,2.752306E0,6.702242E0,0E0,0E0,0E0,0E0,0E0,0E0,0E0,0E0],"parents":[2147483647,0,0,1,1,2,2,3,3,4,4,5,5,6,6],"right_children":[2,4,6,8,10,12,14,-1,-1,-1,-1,-1,-1,-1,-1],"split_conditions":[1.8149396E-2,2.1173132E1,-9.974064E-3,2.0770748E1,3.4627889E-3,-5.3813845E-2,7.0835E0,2.5950463E-3,-7.561341E-2,-1.406859E-3,4.8702415E-3,-3.371781E-2,1.785813E-2,-4.925275E-2,-7.503328E-3],"split_indices":[4,13,1,13,14,14,9,0,0,0,0,0,0,0,0],"split_type":[0,0,0,0,0,0,0,0,0,0,0,0,0,0,0],"sum_hessian":[7.84E2,6.99E2,8.5E1,5E0,6.94E2,2.3E1,6.2E1,3E0,2E0,4.21E2,2.73E2,2E0,2.1E1,1.1E1,5.1E1],"tree_param":{"num_deleted":"0","num_feature":"16","num_nodes":"15","size_leaf_vector":"1"}},{"base_weights":[-4.1793184E-3,4.0873303E-3,-3.5665748E-1,-6.2239654E-2,4.6505257E-2,-5.699544E-2,-1.8359692E0,2.3609078E-3,-8.385681E-3,-4.786799E-2,2.7511164E-3,-1.4128E-2,1.830194E-2,-1.0938721E-1,-2.8310481E-2],"categories":[],"categories_nodes":[],"categories_segments":[],"categories_sizes":[],"default_left":[0,0,0,0,0,0,0,0,0,0,0,0,0,0,0],"id":42,"left_children":[1,3,5,7,9,11,13,-1,-1,-1,-1,-1,-1,-1,-1],"loss_changes":[2.288801E0,2.1636264E0,7.874642E0,3.471404E0,4.0626216E0,1.6301723E0,1.0128689E-1,0E0,0E0,0E0,0E0,0E0,0E0,0E0,0E0],"parents":[2147483647,0,0,1,1,2,2,3,3,4,4,5,5,6,6],"right_children":[2,4,6,8,10,12,14,-1,-1,-1,-1,-1,-1,-1,-1],"split_conditions":[1.628352E-1,-3.71464E-3,-1.4339629E-2,-7.691712E-3,2.096236E1,2.3161072E4,2.310827E4,2.3609078E-3,-8.385681E-3,-4.786799E-2,2.7511164E-3,-1.4128E-2,1.830194E-2,-1.0938721E-1,-2.8310481E-2],"split_indices":[12,14,6,1,13,3,0,0,0,0,0,0,0,0,0],"split_type":[0,0,0,0,0,0,0,0,0,0,0,0,0,0,0],"sum_hessian":[7.84E2,7.67E2,1.7E1,2.99E2,4.68E2,1.5E1,2E0,1.47E2,1.52E2,3E0,4.65E2,1E1,5E0,1E0,1E0],"tree_param":{"num_deleted":"0","num_feature":"16","num_nodes":"15","size_leaf_vector":"1"}},{"base_weights":[-4.2055915E-3,-4.4540787E-1,2.062061E-3,9.211194E-2,-9.08693E-1,6.6342177E-3,-5.850417E-1,1.568761E-2,-1.1705619E-2,-5.0008185E-2,-1.1283499E-2,1.3191118E-2,-1.7132754E-4,-6.769219E-3,-4.9478546E-2],"categories":[],"categories_nodes":[],"categories_segments":[],"categories_sizes":[],"default_left":[0,0,0,0,0,0,0,0,0,0,0,0,0,0,0],"id":43,"left_children":[1,3,5,7,9,11,13,-1,-1,-1,-1,-1,-1,-1,-1],"loss_changes":[2.171681E0,2.8229759E0,2.0842376E0,5.0727993E-1,1.4915228E-1,1.993287E0,9.574244E-1,0E0,0E0,0E0,0E0,0E0,0E0,0E0,0E0],"parents":[2147483647,0,0,1,1,2,2,3,3,4,4,5,5,6,6],"right_children":[2,4,6,8,10,12,14,-1,-1,-1,-1,-1,-1,-1,-1],"split_conditions":[-3.6919866E-2,2.0986838E4,7.063198E-2,7.1965E0,2.294177E4,7.429907E-3,2.027459E4,1.568761E-2,-1.1705619E-2,-5.0008185E-2,-1.1283499E-2,1.3191118E-2,-1.7132754E-4,-6.769219E-3,-4.9478546E-2],"split_indices":[14,3,14,9,0,4,0,0,0,0,0,0,0,0,0],"split_type":[0,0,0,0,0,0,0,0,0,0,0,0,0,0,0],"sum_hessian":[7.84E2,1E1,7.74E2,5E0,5E0,7.69E2,5E0,3E0,2E0,4E0,1E0,2.8E1,7.41E2,3E0,2E0],"tree_param":{"num_deleted":"0","num_feature":"16","num_nodes":"15","size_leaf_vector":"1"}},{"base_weights":[-4.1234065E-3,3.8172281E-3,-3.4269473E-1,1.3355947E-1,-1.8075181E-2,-4.991489E-2,-1.7899557E0,9.799546E-3,-4.452217E-3,8.104915E-4,-9.545356E-3,-1.32515E-2,1.7639099E-2,-1.06648244E-1,-2.7598435E-2],"categories":[],"categories_nodes":[],"categories_segments":[],"categories_sizes":[],"default_left":[0,0,0,0,0,0,0,0,0,0,0,0,0,0,0],"id":44,"left_children":[1,3,5,7,9,11,13,-1,-1,-1,-1,-1,-1,-1,-1],"loss_changes":[2.111758E0,2.1838186E0,7.537773E0,1.5600716E0,3.9021032E0,1.4795165E0,9.65929E-2,0E0,0E0,0E0,0E0,0E0,0E0,0E0,0E0],"parents":[2147483647,0,0,1,1,2,2,3,3,4,4,5,5,6,6],"right_children":[2,4,6,8,10,12,14,-1,-1,-1,-1,-1,-1,-1,-1],"split_conditions":[1.628352E-1,-9.03176E-3,-1.4339629E-2,4E0,1.9098446E-3,2.3161072E4,2.310827E4,9.799546E-3,-4.452217E-3,8.104915E-4,-9.545356E-3,-1.32515E-2,1.7639099E-2,-1.06648244E-1,-2.7598435E-2],"split_indices":[12,8,6,15,10,3,0,0,0,0,0,0,0,0,0],"split_type":[0,0,0,0,0,0,0,0,0,0,0,0,0,0,0],"sum_hessian":[7.84E2,7.67E2,1.7E1,1.1E2,6.57E2,1.5E1,2E0,8.6E1,2.4E1,5.49E2,1.08E2,1E1,5E0,1E0,1E0],"tree_param":{"num_deleted":"0","num_feature":"16","num_nodes":"15","size_leaf_vector":"1"}},{"base_weights":[-4.086986E-3,1.824846E-1,-1.8393729E-2,2.1959811E-1,-5.46387E-1,-3.6726487E-3,-2.3224106E-1,1.9545112E-2,-1.4142882E-3,-3.5685543E-2,-5.2934843E-3,-4.527511E-3,1.5703178E-3,-5.4732967E-2,4.1135365E-5],"categories":[],"categories_nodes":[],"categories_segments":[],"categories_sizes":[],"default_left":[0,0,0,0,0,0,0,0,0,0,0,0,0,0,0],"id":45,"left_children":[1,3,5,7,9,11,13,-1,-1,-1,-1,-1,-1,-1,-1],"loss_changes":[2.0987031E0,1.6348413E0,2.2972333E0,2.3040872E0,1.4556682E-1,2.0873878E0,9.447828E0,0E0,0E0,0E0,0E0,0E0,0E0,0E0,0E0],"parents":[2147483647,0,0,1,1,2,2,3,3,4,4,5,5,6,6],"right_children":[2,4,6,8,10,12,14,-1,-1,-1,-1,-1,-1,-1,-1],"split_conditions":[-8.533027E-2,2.6232643E4,2.0305673E-2,7.193E0,2.590665E4,1.441E1,7.0835E0,1.9545112E-2,-1.4142882E-3,-3.5685543E-2,-5.2934843E-3,-4.527511E-3,1.5703178E-3,-5.4732967E-2,4.1135365E-5],"split_indices":[12,2,4,9,0,11,9,0,0,0,0,0,0,0,0],"split_type":[0,0,0,0,0,0,0,0,0,0,0,0,0,0,0],"sum_hessian":[7.84E2,5.5E1,7.29E2,5.3E1,2E0,6.83E2,4.6E1,3.1E1,2.2E1,1E0,1E0,1.96E2,4.87E2,9E0,3.7E1],"tree_param":{"num_deleted":"0","num_feature":"16","num_nodes":"15","size_leaf_vector":"1"}},{"base_weights":[-3.9851977E-3,1.1362901E-2,-1.7706867E-1,2.3423792E-1,-6.28447E-3,1.4871465E-1,-3.8971734E-1,-3.6767393E-2,1.3351256E-2,1.1907483E-3,-7.904043E-3,-2.8538901E-2,1.3368897E-2,-7.513697E-3,-4.5797106E-2],"categories":[],"categories_nodes":[],"categories_segments":[],"categories_sizes":[],"default_left":[0,0,0,0,0,0,0,0,0,0,0,0,0,0,0],"id":46,"left_children":[1,3,5,7,9,11,13,-1,-1,-1,-1,-1,-1,-1,-1],"loss_changes":[2.0873663E0,2.8412125E0,4.4917097E0,1.8812258E0,3.0649853E0,2.3724253E0,4.776399E0,0E0,0E0,0E0,0E0,0E0,0E0,0E0,0E0],"parents":[2147483647,0,0,1,1,2,2,3,3,4,4,5,5,6,6],"right_children":[2,4,6,8,10,12,14,-1,-1,-1,-1,-1,-1,-1,-1],"split_conditions":[9.9112436E-2,-1.1196453E-2,-1.3782604E-2,-3.6919866E-2,1.9098446E-3,-3.4817923E-2,-1.1997414E-2,-3.6767393E-2,1.3351256E-2,1.1907483E-3,-7.904043E-3,-2.8538901E-2,1.3368897E-2,-7.513697E-3,-4.5797106E-2],"split_indices":[12,8,14,14,10,14,8,0,0,0,0,0,0,0,0],"split_type":[0,0,0,0,0,0,0,0,0,0,0,0,0,0,0],"sum_hessian":[7.84E2,7.21E2,6.3E1,5.2E1,6.69E2,2.5E1,3.8E1,1E0,5.1E1,5.59E2,1.1E2,3E0,2.2E1,2.7E1,1.1E1],"tree_param":{"num_deleted":"0","num_feature":"16","num_nodes":"15","size_leaf_vector":"1"}},{"base_weights":[-3.911539E-3,-4.9739364E-1,1.1678546E-3,1.00587495E-2,-7.63779E-1,1.6423563E-2,-1.6928525E-1,-2.8956234E-3,-4.4668492E-2,1.8478323E-2,2.0760499E-4,-3.6171458E-3,-4.194194E-2],"categories":[],"categories_nodes":[],"categories_segments":[],"categories_sizes":[],"default_left":[0,0,0,0,0,0,0,0,0,0,0,0,0],"id":47,"left_children":[1,3,5,-1,7,9,11,-1,-1,-1,-1,-1,-1],"loss_changes":[1.9682539E0,1.6423608E0,2.0258782E0,0E0,4.971056E-1,3.096975E0,4.0934334E0,0E0,0E0,0E0,0E0,0E0,0E0],"parents":[2147483647,0,0,1,1,2,2,4,4,5,5,6,6],"right_children":[2,4,6,-1,8,10,12,-1,-1,-1,-1,-1,-1],"split_conditions":[6.7622E0,2.161543E4,9.9112436E-2,1.00587495E-2,2.190976E4,-1.6245356E-2,1.5308748E-2,-2.8956234E-3,-4.4668492E-2,1.8478323E-2,2.0760499E-4,-3.6171458E-3,-4.194194E-2],"split_indices":[9,2,12,0,0,8,1,0,0,0,0,0,0],"split_type":[0,0,0,0,0,0,0,0,0,0,0,0,0],"sum_hessian":[7.84E2,7E0,7.77E2,2E0,5E0,7.14E2,6.3E1,1E0,4E0,2.3E1,6.91E2,5.6E1,7E0],"tree_param":{"num_deleted":"0","num_feature":"16","num_nodes":"13","size_leaf_vector":"1"}},{"base_weights":[-3.797972E-3,2.4784434E-1,-1.3433149E-2,2.9664716E-1,-2.7965879E-2,1.7336546E-1,-2.8315328E-2,2.420829E-2,1.117491E-2,1.0471708E-2,-2.6682978E-2,-6.5473816E-4,-1.132648E-2],"categories":[],"categories_nodes":[],"categories_segments":[],"categories_sizes":[],"default_left":[0,0,0,0,0,0,0,0,0,0,0,0,0],"id":48,"left_children":[1,3,5,7,-1,9,11,-1,-1,-1,-1,-1,-1],"loss_changes":[1.9066545E0,1.3082821E0,2.1093464E0,2.7586007E-1,0E0,1.5398492E0,2.1149206E0,0E0,0E0,0E0,0E0,0E0,0E0],"parents":[2147483647,0,0,1,1,2,2,3,3,5,5,6,6],"right_children":[2,4,6,8,-1,10,12,-1,-1,-1,-1,-1,-1],"split_conditions":[7.429907E-3,7.313E0,-8.533027E-2,-9.596442E-3,-2.7965879E-2,2.6232643E4,2.3632577E-2,2.420829E-2,1.117491E-2,1.0471708E-2,-2.6682978E-2,-6.5473816E-4,-1.132648E-2],"split_indices":[4,9,12,14,0,2,14,0,0,0,0,0,0],"split_type":[0,0,0,0,0,0,0,0,0,0,0,0,0],"sum_hessian":[7.84E2,2.8E1,7.56E2,2.7E1,1E0,5.5E1,7.01E2,6E0,2.1E1,5.3E1,2E0,6.52E2,4.9E1],"tree_param":{"num_deleted":"0","num_feature":"16","num_nodes":"13","size_leaf_vector":"1"}},{"base_weights":[-3.6345252E-3,-3.905105E-2,6.2558524E-2,-1.5418666E-2,-6.8677205E-1,-6.7527056E-1,7.878312E-2,1.105023E-2,-1.862823E-3,-1.0664412E-1,-1.8635157E-2,-8.744627E-4,-4.016645E-2,-4.9188426E-3,5.507884E-3],"categories":[],"categories_nodes":[],"categories_segments":[],"categories_sizes":[],"default_left":[0,0,0,0,0,0,0,0,0,0,0,0,0,0,0],"id":49,"left_children":[1,3,5,7,9,11,13,-1,-1,-1,-1,-1,-1,-1,-1],"loss_changes":[1.8427402E0,7.8266916E0,3.3332481E0,2.5639002E0,7.3802795E0,4.9135733E-1,1.506024E0,0E0,0E0,0E0,0E0,0E0,0E0,0E0,0E0],"parents":[2147483647,0,0,1,1,2,2,3,3,4,4,5,5,6,6],"right_children":[2,4,6,8,10,12,14,-1,-1,-1,-1,-1,-1,-1,-1],"split_conditions":[1.855273E4,3.5138577E1,-5.4821405E-3,-7.172501E-2,2.239859E4,-1.574941E-2,-1.1242359E-2,1.105023E-2,-1.862823E-3,-1.0664412E-1,-1.8635157E-2,-8.744627E-4,-4.016645E-2,-4.9188426E-3,5.507884E-3],"split_indices":[7,13,10,12,2,1,1,0,0,0,0,0,0,0,0],"split_type":[0,0,0,0,0,0,0,0,0,0,0,0,0,0,0],"sum_hessian":[7.84E2,5.11E2,2.73E2,4.94E2,1.7E1,5E0,2.68E2,4.1E1,4.53E2,2E0,1.5E1,1E0,4E0,4E1,2.28E2],"tree_param":{"num_deleted":"0","num_feature":"16","num_nodes":"15","size_leaf_vector":"1"}}]},"name":"gbtree"},"learner_model_param":{"base_score":"[-8.171671E-1]","boost_from_average":"1","num_class":"0","num_feature":"16","num_target":"1"},"objective":{"name":"reg:squarederror","reg_loss_param":{"scale_pos_weight":"1"}}},"version":[3,1,3]}