{"learner":{"attributes":{"scikit_learn":"{\"_estimator_type\": \"regressor\"}"},"feature_names":[],"feature_types":[],"gradient_booster":{"model":{"cats":{"enc":[],"feature_segments":[],"sorted_idx":[]},"gbtree_model_param":{"num_parallel_tree":"1","num_trees":"50"},"iteration_indptr":[0,1,2,3,4,5,6,7,8,9,10,11,12,13,14,15,16,17,18,19,20,21,22,23,24,25,26,27,28,29,30,31,32,33,34,35,36,37,38,39,40,41,42,43,44,45,46,47,48,49,50],"tree_info":[0,0,0,0,0,0,0,0,0,0,0,0,0,0,0,0,0,0,0,0,0,0,0,0,0,0,0,0,0,0,0,0,0,0,0,0,0,0,0,0,0,0,0,0,0,0,0,0,0,0],"trees":[{"base_weights":[-1.9096266E-8,-4.6223063E-2,6.1434627E-1,2.6846107E-2,-2.6202098E-1,9.937827E-1,2.3989353E-1,-5.7200273E-3,7.2625764E-3,2.994603E-2,-1.42178135E-2,6.2492546E-2,4.180462E-3,5.206963E-3,4.353431E-2],"categories":[],"categories_nodes":[],"categories_segments":[],"categories_sizes":[],"default_left":[0,0,0,0,0,0,0,0,0,0,0,0,0,0,0],"id":0,"left_children":[1,3,5,7,9,11,13,-1,-1,-1,-1,-1,-1,-1,-1],"loss_changes":[2.232001E1,1.1533569E1,7.5760536E0,9.164847E0,3.727744E0,6.1882935E0,2.3926787E0,0E0,0E0,0E0,0E0,0E0,0E0,0E0,0E0],"parents":[2147483647,0,0,1,1,2,2,3,3,4,4,5,5,6,6],"right_children":[2,4,6,8,10,12,14,-1,-1,-1,-1,-1,-1,-1,-1],"split_conditions":[1.9539231E-2,2.354431E4,5.162177E-4,4.78094E3,6.6158096E-3,3.5138577E1,3.6572213E-3,-5.7200273E-3,7.2625764E-3,2.994603E-2,-1.42178135E-2,6.2492546E-2,4.180462E-3,5.206963E-3,4.353431E-2],"split_indices":[4,0,8,5,4,13,10,0,0,0,0,0,0,0,0],"split_type":[0,0,0,0,0,0,0,0,0,0,0,0,0,0,0],"sum_hessian":[7.84E2,7.3E2,5.4E1,5.46E2,1.84E2,2.6E1,2.8E1,2.49E2,2.97E2,4E0,1.8E2,2E1,6E0,2.4E1,4E0],"tree_param":{"num_deleted":"0","num_feature":"16","num_nodes":"15","size_leaf_vector":"1"}},{"base_weights":[1.6898835E-4,-4.5247223E-2,5.702178E-1,2.3283383E-2,-2.4798599E-1,9.24823E-1,2.0842558E-1,-5.733573E-3,6.9006654E-3,1.6600195E-2,-1.3985559E-2,5.708627E-2,4.001298E-3,2.3036068E-2,-5.6410567E-3],"categories":[],"categories_nodes":[],"categories_segments":[],"categories_sizes":[],"default_left":[0,0,0,0,0,0,0,0,0,0,0,0,0,0,0],"id":1,"left_children":[1,3,5,7,9,11,13,-1,-1,-1,-1,-1,-1,-1,-1],"loss_changes":[2.0349024E1,1.0120467E1,7.2482586E0,8.641839E0,3.4785213E0,5.2225494E0,2.4834547E0,0E0,0E0,0E0,0E0,0E0,0E0,0E0,0E0],"parents":[2147483647,0,0,1,1,2,2,3,3,4,4,5,5,6,6],"right_children":[2,4,6,8,10,12,14,-1,-1,-1,-1,-1,-1,-1,-1],"split_conditions":[1.941635E-2,2.354431E4,5.162177E-4,4.78094E3,7.079946E-3,3.5138577E1,2.070114E4,-5.733573E-3,6.9006654E-3,1.6600195E-2,-1.3985559E-2,5.708627E-2,4.001298E-3,2.3036068E-2,-5.6410567E-3],"split_indices":[4,0,8,5,4,13,0,0,0,0,0,0,0,0,0],"split_type":[0,0,0,0,0,0,0,0,0,0,0,0,0,0,0],"sum_hessian":[7.84E2,7.27E2,5.7E1,5.44E2,1.83E2,2.8E1,2.9E1,2.47E2,2.97E2,9E0,1.74E2,2.2E1,6E0,1.6E1,1.3E1],"tree_param":{"num_deleted":"0","num_feature":"16","num_nodes":"15","size_leaf_vector":"1"}},{"base_weights":[2.6533517E-4,-4.1778523E-2,5.590616E-1,2.4140093E-2,-2.3645802E-1,9.033876E-1,2.1920426E-1,6.239214E-2,6.413829E-4,2.808418E-2,-1.2859987E-2,5.6798317E-2,3.8298126E-3,4.482195E-3,4.1158263E-2],"categories":[],"categories_nodes":[],"categories_segments":[],"categories_sizes":[],"default_left":[0,0,0,0,0,0,0,0,0,0,0,0,0,0,0],"id":2,"left_children":[1,3,5,7,9,11,13,-1,-1,-1,-1,-1,-1,-1,-1],"loss_changes":[1.846611E1,9.386633E0,6.2381687E0,7.5561476E0,3.2071075E0,5.104927E0,2.1954412E0,0E0,0E0,0E0,0E0,0E0,0E0,0E0,0E0],"parents":[2147483647,0,0,1,1,2,2,3,3,4,4,5,5,6,6],"right_children":[2,4,6,8,10,12,14,-1,-1,-1,-1,-1,-1,-1,-1],"split_conditions":[1.9539231E-2,2.354431E4,5.162177E-4,1.5673106E4,6.6158096E-3,3.5138577E1,3.6572213E-3,6.239214E-2,6.413829E-4,2.808418E-2,-1.2859987E-2,5.6798317E-2,3.8298126E-3,4.482195E-3,4.1158263E-2],"split_indices":[4,0,8,3,4,13,10,0,0,0,0,0,0,0,0],"split_type":[0,0,0,0,0,0,0,0,0,0,0,0,0,0,0],"sum_hessian":[7.84E2,7.3E2,5.4E1,5.46E2,1.84E2,2.6E1,2.8E1,4E0,5.42E2,4E0,1.8E2,2E1,6E0,2.4E1,4E0],"tree_param":{"num_deleted":"0","num_feature":"16","num_nodes":"15","size_leaf_vector":"1"}},{"base_weights":[4.871168E-4,-4.0790554E-2,5.1858467E-1,3.389162E-1,-7.293712E-2,8.406804E-1,1.8993926E-1,5.989645E-2,1.2574131E-2,-8.0347835E-4,-1.1183622E-2,5.1883776E-2,3.665677E-3,2.1417478E-2,-5.6563034E-3],"categories":[],"categories_nodes":[],"categories_segments":[],"categories_sizes":[],"default_left":[0,0,0,0,0,0,0,0,0,0,0,0,0,0,0],"id":3,"left_children":[1,3,5,7,9,11,13,-1,-1,-1,-1,-1,-1,-1,-1],"loss_changes":[1.6809052E1,8.910884E0,5.979929E0,3.979817E0,5.756756E0,4.307783E0,2.2160745E0,0E0,0E0,0E0,0E0,0E0,0E0,0E0,0E0],"parents":[2147483647,0,0,1,1,2,2,3,3,4,4,5,5,6,6],"right_children":[2,4,6,8,10,12,14,-1,-1,-1,-1,-1,-1,-1,-1],"split_conditions":[1.941635E-2,1.659952E4,5.162177E-4,1.5673106E4,2.354431E4,3.5138577E1,2.070114E4,5.989645E-2,1.2574131E-2,-8.0347835E-4,-1.1183622E-2,5.1883776E-2,3.665677E-3,2.1417478E-2,-5.6563034E-3],"split_indices":[4,3,8,3,0,13,0,0,0,0,0,0,0,0,0],"split_type":[0,0,0,0,0,0,0,0,0,0,0,0,0,0,0],"sum_hessian":[7.84E2,7.27E2,5.7E1,5.6E1,6.71E2,2.8E1,2.9E1,4E0,5.2E1,4.88E2,1.83E2,2.2E1,6E0,1.6E1,1.3E1],"tree_param":{"num_deleted":"0","num_feature":"16","num_nodes":"15","size_leaf_vector":"1"}},{"base_weights":[6.3064526E-4,-3.7602883E-2,5.087775E-1,3.342221E-1,-6.71618E-2,8.2121664E-1,2.0034184E-1,1.1105037E-2,6.942957E-2,-6.1191194E-4,-1.0672976E-2,6.809608E-2,2.3760093E-2,3.834633E-3,3.892597E-2],"categories":[],"categories_nodes":[],"categories_segments":[],"categories_sizes":[],"default_left":[0,0,0,0,0,0,0,0,0,0,0,0,0,0,0],"id":4,"left_children":[1,3,5,7,9,11,13,-1,-1,-1,-1,-1,-1,-1,-1],"loss_changes":[1.5270306E1,8.056681E0,5.135682E0,6.0753284E0,5.445248E0,4.404293E0,2.013538E0,0E0,0E0,0E0,0E0,0E0,0E0,0E0,0E0],"parents":[2147483647,0,0,1,1,2,2,3,3,4,4,5,5,6,6],"right_children":[2,4,6,8,10,12,14,-1,-1,-1,-1,-1,-1,-1,-1],"split_conditions":[1.9539231E-2,1.6583598E4,5.162177E-4,2.1822413E-2,2.354431E4,-1.3551482E-2,3.6572213E-3,1.1105037E-2,6.942957E-2,-6.1191194E-4,-1.0672976E-2,6.809608E-2,2.3760093E-2,3.834633E-3,3.892597E-2],"split_indices":[4,3,8,14,0,14,10,0,0,0,0,0,0,0,0],"split_type":[0,0,0,0,0,0,0,0,0,0,0,0,0,0,0],"sum_hessian":[7.84E2,7.3E2,5.4E1,5.3E1,6.77E2,2.6E1,2.8E1,4.9E1,4E0,4.93E2,1.84E2,9E0,1.7E1,2.4E1,4E0],"tree_param":{"num_deleted":"0","num_feature":"16","num_nodes":"15","size_leaf_vector":"1"}},{"base_weights":[8.588129E-4,-3.670128E-2,4.7228795E-1,3.0885532E-1,-6.595727E-2,7.655425E-1,1.730656E-1,-3.597283E-3,2.3624718E-2,-4.295334E-3,1.5545714E-2,-6.8860627E-3,4.5778677E-2,1.9919515E-2,-5.645238E-3],"categories":[],"categories_nodes":[],"categories_segments":[],"categories_sizes":[],"default_left":[0,0,0,0,0,0,0,0,0,0,0,0,0,0,0],"id":5,"left_children":[1,3,5,7,9,11,13,-1,-1,-1,-1,-1,-1,-1,-1],"loss_changes":[1.3917268E1,7.3801603E0,4.956913E0,3.585886E0,5.079052E0,4.0561047E0,1.9780658E0,0E0,0E0,0E0,0E0,0E0,0E0,0E0,0E0],"parents":[2147483647,0,0,1,1,2,2,3,3,4,4,5,5,6,6],"right_children":[2,4,6,8,10,12,14,-1,-1,-1,-1,-1,-1,-1,-1],"split_conditions":[1.941635E-2,1.659952E4,5.162177E-4,4.78094E3,4.2209197E-3,-2.4464808E-2,2.070114E4,-3.597283E-3,2.3624718E-2,-4.295334E-3,1.5545714E-2,-6.8860627E-3,4.5778677E-2,1.9919515E-2,-5.645238E-3],"split_indices":[4,3,8,5,10,12,0,0,0,0,0,0,0,0,0],"split_type":[0,0,0,0,0,0,0,0,0,0,0,0,0,0,0],"sum_hessian":[7.84E2,7.27E2,5.7E1,5.6E1,6.71E2,2.8E1,2.9E1,1.7E1,3.9E1,6.38E2,3.3E1,4E0,2.4E1,1.6E1,1.3E1],"tree_param":{"num_deleted":"0","num_feature":"16","num_nodes":"15","size_leaf_vector":"1"}},{"base_weights":[9.234572E-4,-3.7135974E-2,4.2307615E-1,1.787124E-2,-1.9777045E-1,8.0054426E-1,9.676729E-2,-2.465602E-3,1.0743856E-2,1.678984E-2,-1.1356494E-2,4.97702E-2,9.0451987E-4,-1.93107E-3,2.536123E-2],"categories":[],"categories_nodes":[],"categories_segments":[],"categories_sizes":[],"default_left":[0,0,0,0,0,0,0,0,0,0,0,0,0,0,0],"id":6,"left_children":[1,3,5,7,9,11,13,-1,-1,-1,-1,-1,-1,-1,-1],"loss_changes":[1.2628221E1,6.3743296E0,7.9286613E0,7.131296E0,2.958673E0,4.5560513E0,2.020156E0,0E0,0E0,0E0,0E0,0E0,0E0,0E0,0E0],"parents":[2147483647,0,0,1,1,2,2,3,3,4,4,5,5,6,6],"right_children":[2,4,6,8,10,12,14,-1,-1,-1,-1,-1,-1,-1,-1],"split_conditions":[1.9097742E-2,2.354431E4,5.162177E-4,5.58454E3,7.079946E-3,3.5138577E1,9.823035E-3,-2.465602E-3,1.0743856E-2,1.678984E-2,-1.1356494E-2,4.97702E-2,9.0451987E-4,-1.93107E-3,2.536123E-2],"split_indices":[4,0,8,5,4,13,6,0,0,0,0,0,0,0,0],"split_type":[0,0,0,0,0,0,0,0,0,0,0,0,0,0,0],"sum_hessian":[7.84E2,7.2E2,6.4E1,5.37E2,1.83E2,2.9E1,3.5E1,4.01E2,1.36E2,9E0,1.74E2,2.3E1,6E0,2.7E1,8E0],"tree_param":{"num_deleted":"0","num_feature":"16","num_nodes":"15","size_leaf_vector":"1"}},{"base_weights":[9.89146E-4,-3.2138772E-2,4.412713E-1,3.0533352E-1,-5.8969695E-2,9.012996E-2,6.5550184E-1,9.959645E-3,6.5283656E-2,2.3393659E-2,-3.620491E-3,3.3919048E-2,-8.643149E-3,-3.2276672E-3,4.2228688E-2],"categories":[],"categories_nodes":[],"categories_segments":[],"categories_sizes":[],"default_left":[0,0,0,0,0,0,0,0,0,0,0,0,0,0,0],"id":7,"left_children":[1,3,5,7,9,11,13,-1,-1,-1,-1,-1,-1,-1,-1],"loss_changes":[1.1463903E1,6.636986E0,4.078306E0,5.473461E0,4.834682E0,3.5207958E0,4.6833525E0,0E0,0E0,0E0,0E0,0E0,0E0,0E0,0E0],"parents":[2147483647,0,0,1,1,2,2,3,3,4,4,5,5,6,6],"right_children":[2,4,6,8,10,12,14,-1,-1,-1,-1,-1,-1,-1,-1],"split_conditions":[1.9539231E-2,1.6583598E4,2E0,2.1822413E-2,6.952171E-3,-2.033766E-2,1.9214998E4,9.959645E-3,6.5283656E-2,2.3393659E-2,-3.620491E-3,3.3919048E-2,-8.643149E-3,-3.2276672E-3,4.2228688E-2],"split_indices":[4,3,15,14,4,14,2,0,0,0,0,0,0,0,0],"split_type":[0,0,0,0,0,0,0,0,0,0,0,0,0,0,0],"sum_hessian":[7.84E2,7.3E2,5.4E1,5.3E1,6.77E2,2.1E1,3.3E1,4.9E1,4E0,1.6E1,6.61E2,6E0,1.5E1,7E0,2.6E1],"tree_param":{"num_deleted":"0","num_feature":"16","num_nodes":"15","size_leaf_vector":"1"}},{"base_weights":[1.1426245E-3,-3.345378E-2,3.8487905E-1,1.8533856E-2,-1.852793E-1,7.3601323E-1,8.1576124E-2,-2.2839685E-3,1.0340992E-2,2.6399553E-2,-1.0203152E-2,-8.834711E-3,4.4161286E-2,-2.1437665E-3,2.2984719E-2],"categories":[],"categories_nodes":[],"categories_segments":[],"categories_sizes":[],"default_left":[0,0,0,0,0,0,0,0,0,0,0,0,0,0,0],"id":8,"left_children":[1,3,5,7,9,11,13,-1,-1,-1,-1,-1,-1,-1,-1],"loss_changes":[1.0434458E1,5.6943226E0,6.862462E0,6.51411E0,2.5729537E0,4.1869183E0,1.7137748E0,0E0,0E0,0E0,0E0,0E0,0E0,0E0,0E0],"parents":[2147483647,0,0,1,1,2,2,3,3,4,4,5,5,6,6],"right_children":[2,4,6,8,10,12,14,-1,-1,-1,-1,-1,-1,-1,-1],"split_conditions":[1.9097742E-2,2.354431E4,5.162177E-4,5.58454E3,6.6158096E-3,-2.4464808E-2,9.823035E-3,-2.2839685E-3,1.0340992E-2,2.6399553E-2,-1.0203152E-2,-8.834711E-3,4.4161286E-2,-2.1437665E-3,2.2984719E-2],"split_indices":[4,0,8,5,4,12,6,0,0,0,0,0,0,0,0],"split_type":[0,0,0,0,0,0,0,0,0,0,0,0,0,0,0],"sum_hessian":[7.84E2,7.2E2,6.4E1,5.37E2,1.83E2,2.9E1,3.5E1,4.01E2,1.36E2,4E0,1.79E2,4E0,2.5E1,2.7E1,8E0],"tree_param":{"num_deleted":"0","num_feature":"16","num_nodes":"15","size_leaf_vector":"1"}},{"base_weights":[1.1879427E-3,-3.174745E-2,3.664992E-1,1.7622152E-2,-1.7592734E-1,7.003901E-1,7.8076206E-2,-4.902173E-3,5.6615802E-3,2.534357E-2,-9.695831E-3,4.427937E-2,-1.7313879E-3,-2.0404074E-3,2.1963177E-2],"categories":[],"categories_nodes":[],"categories_segments":[],"categories_sizes":[],"default_left":[0,0,0,0,0,0,0,0,0,0,0,0,0,0,0],"id":9,"left_children":[1,3,5,7,9,11,13,-1,-1,-1,-1,-1,-1,-1,-1],"loss_changes":[9.456495E0,5.135253E0,6.204933E0,5.960695E0,2.3583708E0,4.1143665E0,1.5637484E0,0E0,0E0,0E0,0E0,0E0,0E0,0E0,0E0],"parents":[2147483647,0,0,1,1,2,2,3,3,4,4,5,5,6,6],"right_children":[2,4,6,8,10,12,14,-1,-1,-1,-1,-1,-1,-1,-1],"split_conditions":[1.9097742E-2,2.354431E4,5.162177E-4,4.78094E3,6.6158096E-3,3.5138577E1,9.823035E-3,-4.902173E-3,5.6615802E-3,2.534357E-2,-9.695831E-3,4.427937E-2,-1.7313879E-3,-2.0404074E-3,2.1963177E-2],"split_indices":[4,0,8,5,4,13,6,0,0,0,0,0,0,0,0],"split_type":[0,0,0,0,0,0,0,0,0,0,0,0,0,0,0],"sum_hessian":[7.84E2,7.2E2,6.4E1,5.37E2,1.83E2,2.9E1,3.5E1,2.43E2,2.94E2,4E0,1.79E2,2.3E1,6E0,2.7E1,8E0],"tree_param":{"num_deleted":"0","num_feature":"16","num_nodes":"15","size_leaf_vector":"1"}},{"base_weights":[1.2290222E-3,-3.0137327E-2,3.491353E-1,1.6742451E-2,-1.6704594E-1,6.667889E-1,7.47258E-2,-2.1331504E-3,9.546704E-3,1.4714335E-2,-9.622662E-3,-9.7923875E-3,4.0351745E-2,-7.3692144E-4,2.6225168E-2],"categories":[],"categories_nodes":[],"categories_segments":[],"categories_sizes":[],"default_left":[0,0,0,0,0,0,0,0,0,0,0,0,0,0,0],"id":10,"left_children":[1,3,5,7,9,11,13,-1,-1,-1,-1,-1,-1,-1,-1],"loss_changes":[8.576875E0,4.6303515E0,5.6160393E0,5.575334E0,2.2133417E0,3.7874947E0,1.4563344E0,0E0,0E0,0E0,0E0,0E0,0E0,0E0,0E0],"parents":[2147483647,0,0,1,1,2,2,3,3,4,4,5,5,6,6],"right_children":[2,4,6,8,10,12,14,-1,-1,-1,-1,-1,-1,-1,-1],"split_conditions":[1.9097742E-2,2.354431E4,5.162177E-4,5.58454E3,7.079946E-3,-2.4464808E-2,3.6572213E-3,-2.1331504E-3,9.546704E-3,1.4714335E-2,-9.622662E-3,-9.7923875E-3,4.0351745E-2,-7.3692144E-4,2.6225168E-2],"split_indices":[4,0,8,5,4,12,10,0,0,0,0,0,0,0,0],"split_type":[0,0,0,0,0,0,0,0,0,0,0,0,0,0,0],"sum_hessian":[7.84E2,7.2E2,6.4E1,5.37E2,1.83E2,2.9E1,3.5E1,4.01E2,1.36E2,9E0,1.74E2,4E0,2.5E1,3E1,5E0],"tree_param":{"num_deleted":"0","num_feature":"16","num_nodes":"15","size_leaf_vector":"1"}},{"base_weights":[1.2548809E-3,-2.8613135E-2,3.325408E-1,2.3984888E-1,-5.1143557E-2,6.344681E-1,7.1697496E-2,4.525465E-2,6.317136E-3,-3.5179004E-3,1.5977835E-2,4.0537532E-2,-3.0283735E-3,-2.099089E-3,2.0869998E-2],"categories":[],"categories_nodes":[],"categories_segments":[],"categories_sizes":[],"default_left":[0,0,0,0,0,0,0,0,0,0,0,0,0,0,0],"id":11,"left_children":[1,3,5,7,9,11,13,-1,-1,-1,-1,-1,-1,-1,-1],"loss_changes":[7.776975E0,4.3732796E0,5.073632E0,4.114169E0,4.766271E0,3.724784E0,1.4322947E0,0E0,0E0,0E0,0E0,0E0,0E0,0E0,0E0],"parents":[2147483647,0,0,1,1,2,2,3,3,4,4,5,5,6,6],"right_children":[2,4,6,8,10,12,14,-1,-1,-1,-1,-1,-1,-1,-1],"split_conditions":[1.9097742E-2,1.659952E4,5.162177E-4,-5.6958855E-3,4.2209197E-3,3.5138577E1,9.823035E-3,4.525465E-2,6.317136E-3,-3.5179004E-3,1.5977835E-2,4.0537532E-2,-3.0283735E-3,-2.099089E-3,2.0869998E-2],"split_indices":[4,3,8,6,10,13,6,0,0,0,0,0,0,0,0],"split_type":[0,0,0,0,0,0,0,0,0,0,0,0,0,0,0],"sum_hessian":[7.84E2,7.2E2,6.4E1,5.5E1,6.65E2,2.9E1,3.5E1,7E0,4.8E1,6.33E2,3.2E1,2.3E1,6E0,2.7E1,8E0],"tree_param":{"num_deleted":"0","num_feature":"16","num_nodes":"15","size_leaf_vector":"1"}},{"base_weights":[1.3454204E-3,-2.4652198E-2,3.4685296E-1,3.8489026E-1,-4.333892E-2,2.665834E-1,1.3036436E0,4.7044083E-2,8.01782E-3,2.142507E-2,-2.7501292E-3,4.9809113E-2,7.4881106E-3,1.0131142E-2,8.0155484E-2],"categories":[],"categories_nodes":[],"categories_segments":[],"categories_sizes":[],"default_left":[0,0,0,0,0,0,0,0,0,0,0,0,0,0,0],"id":12,"left_children":[1,3,5,7,9,11,13,-1,-1,-1,-1,-1,-1,-1,-1],"loss_changes":[7.0597134E0,5.611029E0,3.8765326E0,3.8439674E0,3.8759394E0,4.2829056E0,9.940467E-1,0E0,0E0,0E0,0E0,0E0,0E0,0E0,0E0],"parents":[2147483647,0,0,1,1,2,2,3,3,4,4,5,5,6,6],"right_children":[2,4,6,8,10,12,14,-1,-1,-1,-1,-1,-1,-1,-1],"split_conditions":[1.9539231E-2,1.633996E4,3.857E1,-1.963622E-3,6.952171E-3,-2.4474436E-2,1.982892E4,4.7044083E-2,8.01782E-3,2.142507E-2,-2.7501292E-3,4.9809113E-2,7.4881106E-3,1.0131142E-2,8.0155484E-2],"split_indices":[4,0,11,8,4,14,0,0,0,0,0,0,0,0,0],"split_type":[0,0,0,0,0,0,0,0,0,0,0,0,0,0,0],"sum_hessian":[7.84E2,7.3E2,5.4E1,3.1E1,6.99E2,5.1E1,3E0,8E0,2.3E1,1.6E1,6.83E2,6E0,4.5E1,1E0,2E0],"tree_param":{"num_deleted":"0","num_feature":"16","num_nodes":"15","size_leaf_vector":"1"}},{"base_weights":[1.5601113E-3,-2.5710726E-2,3.0403262E-1,5.69017E-2,-3.0530648E-2,5.8422256E-1,6.209569E-2,-2.3343246E-3,1.5336494E-2,-1.0783677E-2,3.5778932E-2,-1.1905326E-3,2.4779793E-2],"categories":[],"categories_nodes":[],"categories_segments":[],"categories_sizes":[],"default_left":[0,0,0,0,0,0,0,0,0,0,0,0,0],"id":13,"left_children":[1,3,5,-1,7,9,11,-1,-1,-1,-1,-1,-1],"loss_changes":[6.4830294E0,4.0789485E0,4.3699617E0,0E0,3.9319563E0,3.306466E0,1.3524554E0,0E0,0E0,0E0,0E0,0E0,0E0],"parents":[2147483647,0,0,1,1,2,2,4,4,5,5,6,6],"right_children":[2,4,6,-1,8,10,12,-1,-1,-1,-1,-1,-1],"split_conditions":[1.9097742E-2,1.555966E4,5.162177E-4,5.69017E-2,4.2209197E-3,-2.4464808E-2,3.6572213E-3,-2.3343246E-3,1.5336494E-2,-1.0783677E-2,3.5778932E-2,-1.1905326E-3,2.4779793E-2],"split_indices":[4,3,8,0,10,12,10,0,0,0,0,0,0],"split_type":[0,0,0,0,0,0,0,0,0,0,0,0,0],"sum_hessian":[7.84E2,7.2E2,6.4E1,2E0,7.18E2,2.9E1,3.5E1,6.86E2,3.2E1,4E0,2.5E1,3E1,5E0],"tree_param":{"num_deleted":"0","num_feature":"16","num_nodes":"13","size_leaf_vector":"1"}},{"base_weights":[1.633024E-3,-1.41367735E-2,4.8160034E-1,2.7482995E-1,-3.5280623E-2,4.737838E-2,1.1281955E0,6.8116866E-2,9.022254E-3,2.0526681E-2,-2.3075154E-3,8.2683496E-2,-8.497619E-3,4.7912537E-3,6.1612803E-2],"categories":[],"categories_nodes":[],"categories_segments":[],"categories_sizes":[],"default_left":[0,0,0,0,0,0,0,0,0,0,0,0,0,0,0],"id":14,"left_children":[1,3,5,7,9,11,13,-1,-1,-1,-1,-1,-1,-1,-1],"loss_changes":[5.948464E0,4.6593065E0,6.9656935E0,5.0916753E0,3.459507E0,5.8665895E0,9.5621014E-1,0E0,0E0,0E0,0E0,0E0,0E0,0E0,0E0],"parents":[2147483647,0,0,1,1,2,2,3,3,4,4,5,5,6,6],"right_children":[2,4,6,8,10,12,14,-1,-1,-1,-1,-1,-1,-1,-1],"split_conditions":[2.3933595E-2,1.6565812E4,3E0,-2.5645033E-3,6.952171E-3,1.531097E4,-1.8734671E-2,6.8116866E-2,9.022254E-3,2.0526681E-2,-2.3075154E-3,8.2683496E-2,-8.497619E-3,4.7912537E-3,6.1612803E-2],"split_indices":[4,2,15,10,4,7,1,0,0,0,0,0,0,0,0],"split_type":[0,0,0,0,0,0,0,0,0,0,0,0,0,0,0],"sum_hessian":[7.84E2,7.6E2,2.4E1,5.1E1,7.09E2,1.5E1,9E0,3E0,4.8E1,1.6E1,6.93E2,1E0,1.4E1,1E0,8E0],"tree_param":{"num_deleted":"0","num_feature":"16","num_nodes":"15","size_leaf_vector":"1"}},{"base_weights":[1.8519602E-3,-1.8181253E-2,3.566819E-1,6.691432E-1,-2.5617365E-2,2.2980829E-1,1.3896252E-1,-1.0069764E-2,6.158727E-2,5.095717E-4,-7.740827E-3,5.071068E-3,5.669549E-2],"categories":[],"categories_nodes":[],"categories_segments":[],"categories_sizes":[],"default_left":[0,0,0,0,0,0,0,0,0,0,0,0,0],"id":15,"left_children":[1,3,5,7,9,11,-1,-1,-1,-1,-1,-1,-1],"loss_changes":[5.5865664E0,3.8197415E0,1.2270427E1,4.1662016E0,3.4112842E0,4.644065E0,0E0,0E0,0E0,0E0,0E0,0E0,0E0],"parents":[2147483647,0,0,1,1,2,2,3,3,4,4,5,5],"right_children":[2,4,6,8,10,12,-1,-1,-1,-1,-1,-1,-1],"split_conditions":[4.012898E-3,1.553356E4,3.5482604E-2,1.4624573E-2,3.6151897E1,2.4103578E-2,1.3896252E-1,-1.0069764E-2,6.158727E-2,5.095717E-4,-7.740827E-3,5.071068E-3,5.669549E-2],"split_indices":[10,0,14,4,13,4,0,0,0,0,0,0,0],"split_type":[0,0,0,0,0,0,0,0,0,0,0,0,0],"sum_hessian":[7.84E2,7.43E2,4.1E1,7E0,7.36E2,4E1,1E0,3E0,4E0,5.77E2,1.59E2,3.6E1,4E0],"tree_param":{"num_deleted":"0","num_feature":"16","num_nodes":"13","size_leaf_vector":"1"}},{"base_weights":[2.071496E-3,-2.2645826E-2,2.7621177E-1,1.8629396E-2,-1.4320791E-1,5.3578866E-1,5.2225154E-2,9.786801E-5,2.9989863E-2,2.2606907E-2,-7.947485E-3,3.489624E-2,-4.8323977E-3,-2.7903847E-3,1.9126227E-2],"categories":[],"categories_nodes":[],"categories_segments":[],"categories_sizes":[],"default_left":[0,0,0,0,0,0,0,0,0,0,0,0,0,0,0],"id":16,"left_children":[1,3,5,7,9,11,13,-1,-1,-1,-1,-1,-1,-1,-1],"loss_changes":[5.3254256E0,3.5905278E0,3.7512317E0,5.2116437E0,1.7962809E0,3.1436777E0,1.3059427E0,0E0,0E0,0E0,0E0,0E0,0E0,0E0,0E0],"parents":[2147483647,0,0,1,1,2,2,3,3,4,4,5,5,6,6],"right_children":[2,4,6,8,10,12,14,-1,-1,-1,-1,-1,-1,-1,-1],"split_conditions":[1.9097742E-2,2.354431E4,5.162177E-4,6.07511E3,6.6158096E-3,3.5138577E1,9.823035E-3,9.786801E-5,2.9989863E-2,2.2606907E-2,-7.947485E-3,3.489624E-2,-4.8323977E-3,-2.7903847E-3,1.9126227E-2],"split_indices":[4,0,8,5,4,13,6,0,0,0,0,0,0,0,0],"split_type":[0,0,0,0,0,0,0,0,0,0,0,0,0,0,0],"sum_hessian":[7.84E2,7.2E2,6.4E1,5.37E2,1.83E2,2.9E1,3.5E1,5.23E2,1.4E1,4E0,1.79E2,2.3E1,6E0,2.7E1,8E0],"tree_param":{"num_deleted":"0","num_feature":"16","num_nodes":"15","size_leaf_vector":"1"}},{"base_weights":[2.0840366E-3,-1.7107878E-2,3.4200546E-1,6.333405E-1,-2.4145162E-2,2.1816559E-1,1.35486E-1,-9.695818E-3,5.8423895E-2,1.0625798E-2,-2.1024647E-3,4.8192344E-3,5.378556E-2],"categories":[],"categories_nodes":[],"categories_segments":[],"categories_sizes":[],"default_left":[0,0,0,0,0,0,0,0,0,0,0,0,0],"id":17,"left_children":[1,3,5,7,9,11,-1,-1,-1,-1,-1,-1,-1],"loss_changes":[5.126989E0,3.4208708E0,1.1723967E1,3.7681556E0,3.1317613E0,4.1780577E0,0E0,0E0,0E0,0E0,0E0,0E0,0E0],"parents":[2147483647,0,0,1,1,2,2,3,3,4,4,5,5],"right_children":[2,4,6,8,10,12,-1,-1,-1,-1,-1,-1,-1],"split_conditions":[4.012898E-3,1.553356E4,3.5482604E-2,1.4624573E-2,-1.6348243E-2,2.4103578E-2,1.35486E-1,-9.695818E-3,5.8423895E-2,1.0625798E-2,-2.1024647E-3,4.8192344E-3,5.378556E-2],"split_indices":[10,0,14,4,8,4,0,0,0,0,0,0,0],"split_type":[0,0,0,0,0,0,0,0,0,0,0,0,0],"sum_hessian":[7.84E2,7.43E2,4.1E1,7E0,7.36E2,4E1,1E0,3E0,4E0,5.1E1,6.85E2,3.6E1,4E0],"tree_param":{"num_deleted":"0","num_feature":"16","num_nodes":"13","size_leaf_vector":"1"}},{"base_weights":[2.3000415E-3,-1.6175507E-2,3.2952642E-1,2.0240317E-1,-3.599352E-2,2.0868671E-1,1.3209887E-1,5.727901E-3,4.3812484E-2,-2.8104465E-3,1.4518723E-2,4.584786E-3,5.1634133E-2],"categories":[],"categories_nodes":[],"categories_segments":[],"categories_sizes":[],"default_left":[0,0,0,0,0,0,0,0,0,0,0,0,0],"id":18,"left_children":[1,3,5,7,9,11,-1,-1,-1,-1,-1,-1,-1],"loss_changes":[4.7511945E0,3.2301407E0,1.1184961E1,3.5696561E0,4.5225253E0,3.8577113E0,0E0,0E0,0E0,0E0,0E0,0E0,0E0],"parents":[2147483647,0,0,1,1,2,2,3,3,4,4,5,5],"right_children":[2,4,6,8,10,12,-1,-1,-1,-1,-1,-1,-1],"split_conditions":[4.012898E-3,1.6583598E4,3.5482604E-2,2.1822413E-2,1.9539231E-2,2.4103578E-2,1.3209887E-1,5.727901E-3,4.3812484E-2,-2.8104465E-3,1.4518723E-2,4.584786E-3,5.1634133E-2],"split_indices":[10,3,14,14,4,4,0,0,0,0,0,0,0],"split_type":[0,0,0,0,0,0,0,0,0,0,0,0,0],"sum_hessian":[7.84E2,7.43E2,4.1E1,6.1E1,6.82E2,4E1,1E0,5.5E1,6E0,6.43E2,3.9E1,3.6E1,4E0],"tree_param":{"num_deleted":"0","num_feature":"16","num_nodes":"13","size_leaf_vector":"1"}},{"base_weights":[2.5029366E-3,-1.3556627E-3,7.569113E-2,3.426401E-2,-1.3940112E-1,-3.8133499E-3,5.517409E-3,2.1899153E-2,-7.845063E-3],"categories":[],"categories_nodes":[],"categories_segments":[],"categories_sizes":[],"default_left":[0,0,0,0,0,0,0,0,0],"id":19,"left_children":[1,3,-1,5,7,-1,-1,-1,-1],"loss_changes":[4.57984E0,3.8598099E0,0E0,5.2560434E0,1.6955113E0,0E0,0E0,0E0,0E0],"parents":[2147483647,0,0,1,1,3,3,4,4],"right_children":[2,4,-1,6,8,-1,-1,-1,-1],"split_conditions":[7.4075E0,3.6151897E1,7.569113E-2,4.78094E3,6.6158096E-3,-3.8133499E-3,5.517409E-3,2.1899153E-2,-7.845063E-3],"split_indices":[9,13,0,5,4,0,0,0,0],"split_type":[0,0,0,0,0,0,0,0,0],"sum_hessian":[7.84E2,7.83E2,1E0,6.23E2,1.6E2,2.54E2,3.69E2,4E0,1.56E2],"tree_param":{"num_deleted":"0","num_feature":"16","num_nodes":"9","size_leaf_vector":"1"}},{"base_weights":[2.4942702E-3,-1.2677957E-3,7.379885E-2,6.660722E-1,-8.137103E-3,4.293968E-2,-1.7074449E-2,1.3398416E-2,-1.2338648E-3],"categories":[],"categories_nodes":[],"categories_segments":[],"categories_sizes":[],"default_left":[0,0,0,0,0,0,0,0,0],"id":20,"left_children":[1,3,-1,5,7,-1,-1,-1,-1],"loss_changes":[4.3533926E0,3.5994043E0,0E0,1.8466978E0,3.5550447E0,0E0,0E0,0E0,0E0],"parents":[2147483647,0,0,1,1,3,3,4,4],"right_children":[2,4,-1,6,8,-1,-1,-1,-1],"split_conditions":[7.4075E0,1.5858117E4,7.379885E-2,1.5870684E4,-2.4474436E-2,4.293968E-2,-1.7074449E-2,1.3398416E-2,-1.2338648E-3],"split_indices":[9,2,0,3,14,0,0,0,0],"split_type":[0,0,0,0,0,0,0,0,0],"sum_hessian":[7.84E2,7.83E2,1E0,7E0,7.76E2,6E0,1E0,4.3E1,7.33E2],"tree_param":{"num_deleted":"0","num_feature":"16","num_nodes":"9","size_leaf_vector":"1"}},{"base_weights":[2.5120215E-3,-1.4895696E-2,3.108175E-1,7.16887E-2,-6.100776E-2,1.9284788E-1,1.286893E-1,-8.741897E-3,7.3448457E-3,3.2110836E-2,-3.4088024E-3,3.5197455E-3,4.477122E-2],"categories":[],"categories_nodes":[],"categories_segments":[],"categories_sizes":[],"default_left":[0,0,0,0,0,0,0,0,0,0,0,0,0],"id":21,"left_children":[1,3,5,7,9,11,-1,-1,-1,-1,-1,-1,-1],"loss_changes":[4.2176423E0,2.9748569E0,1.0716036E1,4.827758E0,2.493669E0,3.4643023E0,0E0,0E0,0E0,0E0,0E0,0E0,0E0],"parents":[2147483647,0,0,1,1,2,2,3,3,4,4,5,5],"right_children":[2,4,6,8,10,12,-1,-1,-1,-1,-1,-1,-1],"split_conditions":[4.012898E-3,-1.0696923E-3,3.5482604E-2,1.473E1,1.555966E4,8.557331E-3,1.286893E-1,-8.741897E-3,7.3448457E-3,3.2110836E-2,-3.4088024E-3,3.5197455E-3,4.477122E-2],"split_indices":[10,6,14,11,3,1,0,0,0,0,0,0,0],"split_type":[0,0,0,0,0,0,0,0,0,0,0,0,0],"sum_hessian":[7.84E2,7.43E2,4.1E1,2.58E2,4.85E2,4E1,1E0,6E1,1.98E2,4E0,4.81E2,3.5E1,5E0],"tree_param":{"num_deleted":"0","num_feature":"16","num_nodes":"13","size_leaf_vector":"1"}},{"base_weights":[2.64665E-3,-9.639838E-4,7.083459E-2,3.2619137E-2,-1.3111867E-1,-1.2908857E-3,8.261579E-3,2.1101356E-2,-7.3949816E-3],"categories":[],"categories_nodes":[],"categories_segments":[],"categories_sizes":[],"default_left":[0,0,0,0,0,0,0,0,0],"id":22,"left_children":[1,3,-1,5,7,-1,-1,-1,-1],"loss_changes":[4.009261E0,3.4311414E0,0E0,4.839925E0,1.5568702E0,0E0,0E0,0E0,0E0],"parents":[2147483647,0,0,1,1,3,3,4,4],"right_children":[2,4,-1,6,8,-1,-1,-1,-1],"split_conditions":[7.4075E0,3.6151897E1,7.083459E-2,5.58454E3,6.6158096E-3,-1.2908857E-3,8.261579E-3,2.1101356E-2,-7.3949816E-3],"split_indices":[9,13,0,5,4,0,0,0,0],"split_type":[0,0,0,0,0,0,0,0,0],"sum_hessian":[7.84E2,7.83E2,1E0,6.23E2,1.6E2,4.33E2,1.9E2,4E0,1.56E2],"tree_param":{"num_deleted":"0","num_feature":"16","num_nodes":"9","size_leaf_vector":"1"}},{"base_weights":[2.6308824E-3,-1.395918E-2,2.9644933E-1,1.7734689E-1,-3.3777647E-2,1.8146954E-1,1.2526552E-1,3.8493425E-2,4.4237627E-3,-2.6253185E-3,1.3242672E-2,3.8059156E-3,4.623874E-2],"categories":[],"categories_nodes":[],"categories_segments":[],"categories_sizes":[],"default_left":[0,0,0,0,0,0,0,0,0,0,0,0,0],"id":23,"left_children":[1,3,5,7,9,11,-1,-1,-1,-1,-1,-1,-1],"loss_changes":[3.8305948E0,2.8267868E0,1.0212287E1,3.6179707E0,3.789167E0,3.1402407E0,0E0,0E0,0E0,0E0,0E0,0E0,0E0],"parents":[2147483647,0,0,1,1,2,2,3,3,4,4,5,5],"right_children":[2,4,6,8,10,12,-1,-1,-1,-1,-1,-1,-1],"split_conditions":[4.012898E-3,1.662923E4,3.5482604E-2,-2.5645033E-3,1.9539231E-2,2.4103578E-2,1.2526552E-1,3.8493425E-2,4.4237627E-3,-2.6253185E-3,1.3242672E-2,3.8059156E-3,4.623874E-2],"split_indices":[10,0,14,10,4,4,0,0,0,0,0,0,0],"split_type":[0,0,0,0,0,0,0,0,0,0,0,0,0],"sum_hessian":[7.84E2,7.43E2,4.1E1,6.9E1,6.74E2,4E1,1E0,8E0,6.1E1,6.35E2,3.9E1,3.6E1,4E0],"tree_param":{"num_deleted":"0","num_feature":"16","num_nodes":"13","size_leaf_vector":"1"}},{"base_weights":[2.7908813E-3,-6.7024026E-4,6.790776E-2,6.347768E-1,-7.211947E-3,4.102744E-2,-1.664069E-2,1.2436463E-2,-1.1272322E-3],"categories":[],"categories_nodes":[],"categories_segments":[],"categories_sizes":[],"default_left":[0,0,0,0,0,0,0,0,0],"id":24,"left_children":[1,3,-1,5,7,-1,-1,-1,-1],"loss_changes":[3.6834085E0,3.263594E0,0E0,1.7111001E0,3.0547645E0,0E0,0E0,0E0,0E0],"parents":[2147483647,0,0,1,1,3,3,4,4],"right_children":[2,4,-1,6,8,-1,-1,-1,-1],"split_conditions":[7.4075E0,1.5858117E4,6.790776E-2,1.5870684E4,-2.4474436E-2,4.102744E-2,-1.664069E-2,1.2436463E-2,-1.1272322E-3],"split_indices":[9,2,0,3,14,0,0,0,0],"split_type":[0,0,0,0,0,0,0,0,0],"sum_hessian":[7.84E2,7.83E2,1E0,7E0,7.76E2,6E0,1E0,4.3E1,7.33E2],"tree_param":{"num_deleted":"0","num_feature":"16","num_nodes":"9","size_leaf_vector":"1"}},{"base_weights":[2.7833274E-3,-5.911869E-4,6.621006E-2,6.060863E-1,-6.8367836E-3,3.9269123E-2,-1.6224673E-2,1.1828772E-2,-1.0709468E-3],"categories":[],"categories_nodes":[],"categories_segments":[],"categories_sizes":[],"default_left":[0,0,0,0,0,0,0,0,0],"id":25,"left_children":[1,3,-1,5,7,-1,-1,-1,-1],"loss_changes":[3.5012105E0,2.974769E0,0E0,1.5896461E0,2.7630088E0,0E0,0E0,0E0,0E0],"parents":[2147483647,0,0,1,1,3,3,4,4],"right_children":[2,4,-1,6,8,-1,-1,-1,-1],"split_conditions":[7.4075E0,1.5858117E4,6.621006E-2,1.5870684E4,-2.4474436E-2,3.9269123E-2,-1.6224673E-2,1.1828772E-2,-1.0709468E-3],"split_indices":[9,2,0,3,14,0,0,0,0],"split_type":[0,0,0,0,0,0,0,0,0],"sum_hessian":[7.84E2,7.83E2,1E0,7E0,7.76E2,6E0,1E0,4.3E1,7.33E2],"tree_param":{"num_deleted":"0","num_feature":"16","num_nodes":"9","size_leaf_vector":"1"}},{"base_weights":[2.771592E-3,-1.2752079E-2,2.7769634E-1,3.8676402E-1,-2.2063922E-2,1.652608E-1,1.22188844E-1,4.347806E-2,-1.9075051E-3,6.2851096E-3,-2.4003286E-3,2.6368976E-3,4.0642723E-2],"categories":[],"categories_nodes":[],"categories_segments":[],"categories_sizes":[],"default_left":[0,0,0,0,0,0,0,0,0,0,0,0,0],"id":26,"left_children":[1,3,5,7,9,11,-1,-1,-1,-1,-1,-1,-1],"loss_changes":[3.353797E0,2.7763855E0,9.8250065E0,3.5206788E0,2.796782E0,2.9447641E0,0E0,0E0,0E0,0E0,0E0,0E0,0E0],"parents":[2147483647,0,0,1,1,2,2,3,3,4,4,5,5],"right_children":[2,4,6,8,10,12,-1,-1,-1,-1,-1,-1,-1],"split_conditions":[4.012898E-3,6.952171E-3,3.5482604E-2,-4.69485E-3,-2.3410758E-3,8.557331E-3,1.22188844E-1,4.347806E-2,-1.9075051E-3,6.2851096E-3,-2.4003286E-3,2.6368976E-3,4.0642723E-2],"split_indices":[10,4,14,14,10,1,0,0,0,0,0,0,0],"split_type":[0,0,0,0,0,0,0,0,0,0,0,0,0],"sum_hessian":[7.84E2,7.43E2,4.1E1,1.6E1,7.27E2,4E1,1E0,7E0,9E0,1.08E2,6.19E2,3.5E1,5E0],"tree_param":{"num_deleted":"0","num_feature":"16","num_nodes":"13","size_leaf_vector":"1"}},{"base_weights":[2.901708E-3,-3.3636345E-4,6.3538745E-2,3.39234E-2,-1.0614731E-1,-1.1935079E-3,9.457252E-3,-6.0391915E-3,3.0598253E-2],"categories":[],"categories_nodes":[],"categories_segments":[],"categories_sizes":[],"default_left":[0,0,0,0,0,0,0,0,0],"id":27,"left_children":[1,3,-1,5,7,-1,-1,-1,-1],"loss_changes":[3.2232163E0,2.8456461E0,0E0,5.3242054E0,2.0919635E0,0E0,0E0,0E0,0E0],"parents":[2147483647,0,0,1,1,3,3,4,4],"right_children":[2,4,-1,6,8,-1,-1,-1,-1],"split_conditions":[7.4075E0,2.354431E4,6.3538745E-2,5.58454E3,2.220072E-2,-1.1935079E-3,9.457252E-3,-6.0391915E-3,3.0598253E-2],"split_indices":[9,0,0,5,4,0,0,0,0],"split_type":[0,0,0,0,0,0,0,0,0],"sum_hessian":[7.84E2,7.83E2,1E0,5.92E2,1.91E2,4.32E2,1.6E2,1.88E2,3E0],"tree_param":{"num_deleted":"0","num_feature":"16","num_nodes":"9","size_leaf_vector":"1"}},{"base_weights":[2.8793907E-3,1.472889E-1,-2.4955036E-2,1.1071256E-1,1.188977E-1,2.6498973E-1,-3.9205167E-2,4.2417604E-2,3.338049E-3,6.37254E-2,1.0916038E-3,5.504228E-3,-3.4154423E-3],"categories":[],"categories_nodes":[],"categories_segments":[],"categories_sizes":[],"default_left":[0,0,0,0,0,0,0,0,0,0,0,0,0],"id":28,"left_children":[1,3,5,7,-1,9,11,-1,-1,-1,-1,-1,-1],"loss_changes":[3.159027E0,1.0098607E1,2.7332125E0,4.0283365E0,0E0,7.5818095E0,2.7404492E0,0E0,0E0,0E0,0E0,0E0,0E0],"parents":[2147483647,0,0,1,1,2,2,3,3,5,5,6,6],"right_children":[2,4,6,8,-1,10,12,-1,-1,-1,-1,-1,-1],"split_conditions":[-9.03176E-3,2.8270442E-2,-2.3745637E-2,1.630204E4,1.188977E-1,7.0507E0,9.414795E-3,4.2417604E-2,3.338049E-3,6.37254E-2,1.0916038E-3,5.504228E-3,-3.4154423E-3],"split_indices":[8,14,14,0,0,9,4,0,0,0,0,0,0],"split_type":[0,0,0,0,0,0,0,0,0,0,0,0,0],"sum_hessian":[7.84E2,1.26E2,6.58E2,1.25E2,1E0,3E1,6.28E2,6E0,1.19E2,5E0,2.5E1,1.02E2,5.26E2],"tree_param":{"num_deleted":"0","num_feature":"16","num_nodes":"13","size_leaf_vector":"1"}},{"base_weights":[3.0304154E-3,-1.2218975E-4,6.186682E-2,5.784369E-1,-6.078883E-3,3.7523203E-2,-1.5643822E-2,1.8246576E-2,-7.1794534E-4],"categories":[],"categories_nodes":[],"categories_segments":[],"categories_sizes":[],"default_left":[0,0,0,0,0,0,0,0,0],"id":29,"left_children":[1,3,-1,5,7,-1,-1,-1,-1],"loss_changes":[3.0548053E0,2.7054148E0,0E0,1.4614427E0,2.3921645E0,0E0,0E0,0E0,0E0],"parents":[2147483647,0,0,1,1,3,3,4,4],"right_children":[2,4,-1,6,8,-1,-1,-1,-1],"split_conditions":[7.4075E0,1.5858117E4,6.186682E-2,1.5870684E4,6.952171E-3,3.7523203E-2,-1.5643822E-2,1.8246576E-2,-7.1794534E-4],"split_indices":[9,2,0,3,4,0,0,0,0],"split_type":[0,0,0,0,0,0,0,0,0],"sum_hessian":[7.84E2,7.83E2,1E0,7E0,7.76E2,6E0,1E0,1.6E1,7.6E2],"tree_param":{"num_deleted":"0","num_feature":"16","num_nodes":"9","size_leaf_vector":"1"}},{"base_weights":[3.0079044E-3,-8.219192E-3,3.446404E-1,2.0111649E-1,-2.6748609E-2,-7.587458E-2,9.830003E-1,3.7646323E-2,5.859827E-3,5.841896E-3,-2.7587374E-3,6.032015E-2,-1.2089331E-2,2.4303705E-3,5.4071046E-2],"categories":[],"categories_nodes":[],"categories_segments":[],"categories_sizes":[],"default_left":[0,0,0,0,0,0,0,0,0,0,0,0,0,0,0],"id":30,"left_children":[1,3,5,7,9,11,13,-1,-1,-1,-1,-1,-1,-1,-1],"loss_changes":[3.0137322E0,2.9571981E0,6.7855825E0,2.7828467E0,2.8635736E0,3.6956167E0,8.670702E-1,0E0,0E0,0E0,0E0,0E0,0E0,0E0,0E0],"parents":[2147483647,0,0,1,1,2,2,3,3,4,4,5,5,6,6],"right_children":[2,4,6,8,10,12,14,-1,-1,-1,-1,-1,-1,-1,-1],"split_conditions":[2.3933595E-2,1.6583598E4,3E0,-2.5645033E-3,9.414795E-3,1.531097E4,-1.8734671E-2,3.7646323E-2,5.859827E-3,5.841896E-3,-2.7587374E-3,6.032015E-2,-1.2089331E-2,2.4303705E-3,5.4071046E-2],"split_indices":[4,3,15,10,4,7,1,0,0,0,0,0,0,0,0],"split_type":[0,0,0,0,0,0,0,0,0,0,0,0,0,0,0],"sum_hessian":[7.84E2,7.6E2,2.4E1,6.1E1,6.99E2,1.5E1,9E0,7E0,5.4E1,1.15E2,5.84E2,1E0,1.4E1,1E0,8E0],"tree_param":{"num_deleted":"0","num_feature":"16","num_nodes":"15","size_leaf_vector":"1"}},{"base_weights":[3.0502744E-3,-1.14202155E-2,2.5931203E-1,5.3849655E-1,-1.7373966E-2,1.2985017E0,5.004426E-2,-1.0132666E-2,5.1185858E-2,3.328349E-2,-1.1004749E-3,1.7489288E-2,9.612962E-2,-7.869893E-4,5.881215E-2],"categories":[],"categories_nodes":[],"categories_segments":[],"categories_sizes":[],"default_left":[0,0,0,0,0,0,0,0,0,0,0,0,0,0,0],"id":31,"left_children":[1,3,5,7,9,11,13,-1,-1,-1,-1,-1,-1,-1,-1],"loss_changes":[2.9139247E0,2.4452617E0,9.068713E0,3.0844285E0,2.348193E0,3.4720974E0,2.6856065E0,0E0,0E0,0E0,0E0,0E0,0E0,0E0,0E0],"parents":[2147483647,0,0,1,1,2,2,3,3,4,4,5,5,6,6],"right_children":[2,4,6,8,10,12,14,-1,-1,-1,-1,-1,-1,-1,-1],"split_conditions":[4.012898E-3,1.553356E4,4.3850522E-3,1.4624573E-2,-3.6390882E-2,1.765115E4,7.3465E0,-1.0132666E-2,5.1185858E-2,3.328349E-2,-1.1004749E-3,1.7489288E-2,9.612962E-2,-7.869893E-4,5.881215E-2],"split_indices":[10,0,10,4,8,0,9,0,0,0,0,0,0,0,0],"split_type":[0,0,0,0,0,0,0,0,0,0,0,0,0,0,0],"sum_hessian":[7.84E2,7.43E2,4.1E1,7E0,7.36E2,6E0,3.5E1,3E0,4E0,4E0,7.32E2,3E0,3E0,3.4E1,1E0],"tree_param":{"num_deleted":"0","num_feature":"16","num_nodes":"15","size_leaf_vector":"1"}},{"base_weights":[3.209712E-3,1.3881005E-1,-2.2927547E-2,1.03845395E-1,1.13608934E-1,1.0769653E-2,-1.3444096E-1,3.961439E-2,3.1410437E-3,-3.3345658E-4,2.7316958E-2,1.1550453E-2,-7.944291E-3],"categories":[],"categories_nodes":[],"categories_segments":[],"categories_sizes":[],"default_left":[0,0,0,0,0,0,0,0,0,0,0,0,0],"id":32,"left_children":[1,3,5,7,-1,9,11,-1,-1,-1,-1,-1,-1],"loss_changes":[2.785396E0,9.237293E0,2.4777653E0,3.5088487E0,0E0,4.7388625E0,1.4035101E0,0E0,0E0,0E0,0E0,0E0,0E0],"parents":[2147483647,0,0,1,1,2,2,3,3,5,5,6,6],"right_children":[2,4,6,8,-1,10,12,-1,-1,-1,-1,-1,-1],"split_conditions":[-9.03176E-3,2.8270442E-2,2.3784096E4,1.630204E4,1.13608934E-1,6.07511E3,7.079946E-3,3.961439E-2,3.1410437E-3,-3.3345658E-4,2.7316958E-2,1.1550453E-2,-7.944291E-3],"split_indices":[8,14,3,0,0,5,4,0,0,0,0,0,0],"split_type":[0,0,0,0,0,0,0,0,0,0,0,0,0],"sum_hessian":[7.84E2,1.26E2,6.58E2,1.25E2,1E0,5.06E2,1.52E2,6E0,1.19E2,4.91E2,1.5E1,9E0,1.43E2],"tree_param":{"num_deleted":"0","num_feature":"16","num_nodes":"13","size_leaf_vector":"1"}},{"base_weights":[3.287364E-3,-7.267359E-3,3.2444164E-1,2.0863107E-1,-2.3069402E-2,-7.21769E-2,9.2658716E-1,5.775356E-2,6.355644E-3,5.7713077E-3,-2.5154997E-3,5.7263322E-2,-1.1484545E-2,2.318597E-3,5.0961822E-2],"categories":[],"categories_nodes":[],"categories_segments":[],"categories_sizes":[],"default_left":[0,0,0,0,0,0,0,0,0,0,0,0,0,0,0],"id":33,"left_children":[1,3,5,7,9,11,13,-1,-1,-1,-1,-1,-1,-1,-1],"loss_changes":[2.6632679E0,2.601068E0,6.037431E0,3.865084E0,2.6844246E0,3.3312867E0,7.6824856E-1,0E0,0E0,0E0,0E0,0E0,0E0,0E0,0E0],"parents":[2147483647,0,0,1,1,2,2,3,3,4,4,5,5,6,6],"right_children":[2,4,6,8,10,12,14,-1,-1,-1,-1,-1,-1,-1,-1],"split_conditions":[2.3933595E-2,1.6565812E4,3E0,-2.5645033E-3,9.414795E-3,1.531097E4,-1.8734671E-2,5.775356E-2,6.355644E-3,5.7713077E-3,-2.5154997E-3,5.7263322E-2,-1.1484545E-2,2.318597E-3,5.0961822E-2],"split_indices":[4,2,15,10,4,7,1,0,0,0,0,0,0,0,0],"split_type":[0,0,0,0,0,0,0,0,0,0,0,0,0,0,0],"sum_hessian":[7.84E2,7.6E2,2.4E1,5.1E1,7.09E2,1.5E1,9E0,3E0,4.8E1,1.16E2,5.93E2,1E0,1.4E1,1E0,8E0],"tree_param":{"num_deleted":"0","num_feature":"16","num_nodes":"15","size_leaf_vector":"1"}},{"base_weights":[3.335003E-3,-1.0431019E-2,2.4711084E-1,7.872154E-3,-1.8403535E-1,1.4500955E-1,1.10831596E-1,2.4633536E-2,-1.5789614E-4,-1.2857047E-2,2.119069E-2,2.3308087E-3,3.556008E-2],"categories":[],"categories_nodes":[],"categories_segments":[],"categories_sizes":[],"default_left":[0,0,0,0,0,0,0,0,0,0,0,0,0],"id":34,"left_children":[1,3,5,7,9,11,-1,-1,-1,-1,-1,-1,-1],"loss_changes":[2.6368992E0,2.3655162E0,8.124374E0,3.60568E0,3.2640188E0,2.250938E0,0E0,0E0,0E0,0E0,0E0,0E0,0E0],"parents":[2147483647,0,0,1,1,2,2,3,3,4,4,5,5],"right_children":[2,4,6,8,10,12,-1,-1,-1,-1,-1,-1,-1],"split_conditions":[4.012898E-3,2.2805799E-3,3.5482604E-2,6.952171E-3,6.0685E3,8.557331E-3,1.10831596E-1,2.4633536E-2,-1.5789614E-4,-1.2857047E-2,2.119069E-2,2.3308087E-3,3.556008E-2],"split_indices":[10,10,14,4,5,1,0,0,0,0,0,0,0],"split_type":[0,0,0,0,0,0,0,0,0,0,0,0,0],"sum_hessian":[7.84E2,7.43E2,4.1E1,6.73E2,7E1,4E1,1E0,1.4E1,6.59E2,6.3E1,7E0,3.5E1,5E0],"tree_param":{"num_deleted":"0","num_feature":"16","num_nodes":"13","size_leaf_vector":"1"}},{"base_weights":[3.3995027E-3,1.3170138E-1,-2.133151E-2,9.844161E-2,1.08060814E-1,2.520802E-1,-3.477258E-2,1.742247E-2,-7.721685E-5,6.0302865E-2,1.1118125E-3,1.0021733E-3,-5.202743E-3],"categories":[],"categories_nodes":[],"categories_segments":[],"categories_sizes":[],"default_left":[0,0,0,0,0,0,0,0,0,0,0,0,0],"id":35,"left_children":[1,3,5,7,-1,9,11,-1,-1,-1,-1,-1,-1],"loss_changes":[2.4936423E0,8.359898E0,2.4305546E0,3.1501932E0,0E0,6.770424E0,2.39089E0,0E0,0E0,0E0,0E0,0E0,0E0],"parents":[2147483647,0,0,1,1,2,2,3,3,5,5,6,6],"right_children":[2,4,6,8,-1,10,12,-1,-1,-1,-1,-1,-1],"split_conditions":[-9.03176E-3,2.8270442E-2,-2.3745637E-2,5.2204154E-2,1.08060814E-1,7.0507E0,2.7542797E-4,1.742247E-2,-7.721685E-5,6.0302865E-2,1.1118125E-3,1.0021733E-3,-5.202743E-3],"split_indices":[8,14,14,12,0,9,10,0,0,0,0,0,0],"split_type":[0,0,0,0,0,0,0,0,0,0,0,0,0],"sum_hessian":[7.84E2,1.26E2,6.58E2,1.25E2,1E0,3E1,6.28E2,3.5E1,9E1,5E0,2.5E1,3.51E2,2.77E2],"tree_param":{"num_deleted":"0","num_feature":"16","num_nodes":"13","size_leaf_vector":"1"}},{"base_weights":[3.4621642E-3,-1.0746792E-2,2.2185273E-1,7.4600303E-3,-1.993722E-1,1.3690552E-1,1.0535929E-1,2.3506448E-2,-1.5332378E-4,1.8915022E-2,-1.4354295E-2,-1.5635123E-2,1.4148596E-2],"categories":[],"categories_nodes":[],"categories_segments":[],"categories_sizes":[],"default_left":[0,0,0,0,0,0,0,0,0,0,0,0,0],"id":36,"left_children":[1,3,5,7,9,11,-1,-1,-1,-1,-1,-1,-1],"loss_changes":[2.4383192E0,2.5359778E0,7.398897E0,3.2840154E0,3.4021425E0,3.175099E0,0E0,0E0,0E0,0E0,0E0,0E0,0E0],"parents":[2147483647,0,0,1,1,2,2,3,3,4,4,5,5],"right_children":[2,4,6,8,10,12,-1,-1,-1,-1,-1,-1,-1],"split_conditions":[3.7602452E-3,2.2805799E-3,3.5482604E-2,6.952171E-3,1.292E1,1.0360247E-2,1.0535929E-1,2.3506448E-2,-1.5332378E-4,1.8915022E-2,-1.4354295E-2,-1.5635123E-2,1.4148596E-2],"split_indices":[10,10,14,4,11,4,0,0,0,0,0,0,0],"split_type":[0,0,0,0,0,0,0,0,0,0,0,0,0],"sum_hessian":[7.84E2,7.37E2,4.7E1,6.73E2,6.4E1,4.6E1,1E0,1.4E1,6.59E2,8E0,5.6E1,1.1E1,3.5E1],"tree_param":{"num_deleted":"0","num_feature":"16","num_nodes":"13","size_leaf_vector":"1"}},{"base_weights":[3.4569202E-3,3.4850545E-2,-9.368511E-2,-6.3758835E-2,1.0870508E-1,-1.07079215E-1,2.8130367E-2,6.1074807E-3,-7.318735E-3,6.7178056E-2,4.313188E-3,-1.9632151E-2,-4.275032E-3],"categories":[],"categories_nodes":[],"categories_segments":[],"categories_sizes":[],"default_left":[0,0,0,0,0,0,0,0,0,0,0,0,0],"id":37,"left_children":[1,3,5,7,9,11,-1,-1,-1,-1,-1,-1,-1],"loss_changes":[2.3972328E0,4.332885E0,1.7480092E0,3.9344218E0,9.30611E0,1.131058E0,0E0,0E0,0E0,0E0,0E0,0E0,0E0],"parents":[2147483647,0,0,1,1,2,2,3,3,4,4,5,5],"right_children":[2,4,6,8,10,12,-1,-1,-1,-1,-1,-1,-1],"split_conditions":[2.354431E4,4.78094E3,2.220072E-2,1.1728241E-2,7.0205E0,3.5547092E1,2.8130367E-2,6.1074807E-3,-7.318735E-3,6.7178056E-2,4.313188E-3,-1.9632151E-2,-4.275032E-3],"split_indices":[0,5,4,4,9,13,0,0,0,0,0,0,0],"split_type":[0,0,0,0,0,0,0,0,0,0,0,0,0],"sum_hessian":[7.84E2,5.93E2,1.91E2,2.54E2,3.39E2,1.88E2,3E0,7.8E1,1.76E2,5E0,3.34E2,1.2E1,1.76E2],"tree_param":{"num_deleted":"0","num_feature":"16","num_nodes":"13","size_leaf_vector":"1"}},{"base_weights":[3.3789813E-3,6.035403E-4,5.4483116E-2,5.2417177E-1,-4.7879005E-3,3.442335E-2,-1.564737E-2,-4.008855E-3,1.664026E-3],"categories":[],"categories_nodes":[],"categories_segments":[],"categories_sizes":[],"default_left":[0,0,0,0,0,0,0,0,0],"id":38,"left_children":[1,3,-1,5,7,-1,-1,-1,-1],"loss_changes":[2.366051E0,2.2155747E0,0E0,1.3157313E0,2.2326179E0,0E0,0E0,0E0,0E0],"parents":[2147483647,0,0,1,1,3,3,4,4],"right_children":[2,4,-1,6,8,-1,-1,-1,-1],"split_conditions":[7.4075E0,1.5858117E4,5.4483116E-2,1.5870684E4,1.493E1,3.442335E-2,-1.564737E-2,-4.008855E-3,1.664026E-3],"split_indices":[9,2,0,3,11,0,0,0,0],"split_type":[0,0,0,0,0,0,0,0,0],"sum_hessian":[7.84E2,7.83E2,1E0,7E0,7.76E2,6E0,1E0,2.6E2,5.16E2],"tree_param":{"num_deleted":"0","num_feature":"16","num_nodes":"9","size_leaf_vector":"1"}},{"base_weights":[3.3003497E-3,5.9430243E-4,5.3121038E-2,2.6905522E-2,-1.01385795E-1,6.2546943E-4,2.1984227E-2,5.4755285E-3,-6.7776456E-3],"categories":[],"categories_nodes":[],"categories_segments":[],"categories_sizes":[],"default_left":[0,0,0,0,0,0,0,0,0],"id":39,"left_children":[1,3,-1,5,7,-1,-1,-1,-1],"loss_changes":[2.249202E0,2.1063728E0,0E0,3.7025712E0,1.174966E0,0E0,0E0,0E0,0E0],"parents":[2147483647,0,0,1,1,3,3,4,4],"right_children":[2,4,-1,6,8,-1,-1,-1,-1],"split_conditions":[7.4075E0,3.6151897E1,5.3121038E-2,6.07511E3,-7.4253106E-3,6.2546943E-4,2.1984227E-2,5.4755285E-3,-6.7776456E-3],"split_indices":[9,13,0,5,8,0,0,0,0],"split_type":[0,0,0,0,0,0,0,0,0],"sum_hessian":[7.84E2,7.83E2,1E0,6.23E2,1.6E2,6.03E2,2E1,2.2E1,1.38E2],"tree_param":{"num_deleted":"0","num_feature":"16","num_nodes":"9","size_leaf_vector":"1"}},{"base_weights":[3.23013E-3,-6.3605164E-3,2.9504022E-1,1.7756277E-1,-2.2641778E-2,-8.2727164E-2,8.69964E-1,3.429686E-2,5.01945E-3,1.1091074E-3,-4.9291486E-3,5.179301E-2,-1.131785E-2,5.9511848E-2,2.290379E-2],"categories":[],"categories_nodes":[],"categories_segments":[],"categories_sizes":[],"default_left":[0,0,0,0,0,0,0,0,0,0,0,0,0,0,0],"id":40,"left_children":[1,3,5,7,9,11,13,-1,-1,-1,-1,-1,-1,-1,-1],"loss_changes":[2.1988149E0,2.2828372E0,5.5016556E0,2.3635962E0,2.3849745E0,2.8050742E0,7.739482E-1,0E0,0E0,0E0,0E0,0E0,0E0,0E0,0E0],"parents":[2147483647,0,0,1,1,2,2,3,3,4,4,5,5,6,6],"right_children":[2,4,6,8,10,12,14,-1,-1,-1,-1,-1,-1,-1,-1],"split_conditions":[2.3933595E-2,1.6583598E4,3E0,-2.5645033E-3,3.1541374E-3,1.531097E4,2.0440396E4,3.429686E-2,5.01945E-3,1.1091074E-3,-4.9291486E-3,5.179301E-2,-1.131785E-2,5.9511848E-2,2.290379E-2],"split_indices":[4,3,15,10,1,7,2,0,0,0,0,0,0,0,0],"split_type":[0,0,0,0,0,0,0,0,0,0,0,0,0,0,0],"sum_hessian":[7.84E2,7.6E2,2.4E1,6.1E1,6.99E2,1.5E1,9E0,7E0,5.4E1,4.4E2,2.59E2,1E0,1.4E1,4E0,5E0],"tree_param":{"num_deleted":"0","num_feature":"16","num_nodes":"15","size_leaf_vector":"1"}},{"base_weights":[3.2703758E-3,1.2173259E-1,-1.956418E-2,9.0647645E-2,1.009609E-1,5.404811E-1,-2.5537768E-2,3.928825E-2,2.7714935E-3,-1.0083504E-2,5.73756E-2,3.0580435E-2,-1.5203548E-3],"categories":[],"categories_nodes":[],"categories_segments":[],"categories_sizes":[],"default_left":[0,0,0,0,0,0,0,0,0,0,0,0,0],"id":41,"left_children":[1,3,5,7,-1,9,11,-1,-1,-1,-1,-1,-1],"loss_changes":[2.1258318E0,7.3078337E0,2.218474E0,3.0409868E0,0E0,3.38498E0,2.0445137E0,0E0,0E0,0E0,0E0,0E0,0E0],"parents":[2147483647,0,0,1,1,2,2,3,3,5,5,6,6],"right_children":[2,4,6,8,-1,10,12,-1,-1,-1,-1,-1,-1],"split_conditions":[-9.03176E-3,2.8270442E-2,1.553356E4,2.208329E1,1.009609E-1,1.4624573E-2,-1.7898059E-1,3.928825E-2,2.7714935E-3,-1.0083504E-2,5.73756E-2,3.0580435E-2,-1.5203548E-3],"split_indices":[8,14,0,13,0,4,12,0,0,0,0,0,0],"split_type":[0,0,0,0,0,0,0,0,0,0,0,0,0],"sum_hessian":[7.84E2,1.26E2,6.58E2,1.25E2,1E0,6E0,6.52E2,5E0,1.2E2,3E0,3E0,4E0,6.48E2],"tree_param":{"num_deleted":"0","num_feature":"16","num_nodes":"13","size_leaf_vector":"1"}},{"base_weights":[3.3862991E-3,-5.84821E-3,2.843493E-1,1.8507998E-1,-1.9823445E-2,-7.5440496E-2,8.31578E-1,5.0233603E-3,4.801733E-2,5.266006E-3,-2.221978E-3,5.0428897E-2,-1.0747346E-2,5.7192188E-2,2.1638012E-2],"categories":[],"categories_nodes":[],"categories_segments":[],"categories_sizes":[],"default_left":[0,0,0,0,0,0,0,0,0,0,0,0,0,0,0],"id":42,"left_children":[1,3,5,7,9,11,13,-1,-1,-1,-1,-1,-1,-1,-1],"loss_changes":[2.0383887E0,2.0342197E0,4.9849167E0,3.3145847E0,2.1918702E0,2.636431E0,7.503619E-1,0E0,0E0,0E0,0E0,0E0,0E0,0E0,0E0],"parents":[2147483647,0,0,1,1,2,2,3,3,4,4,5,5,6,6],"right_children":[2,4,6,8,10,12,14,-1,-1,-1,-1,-1,-1,-1,-1],"split_conditions":[2.3933595E-2,1.6565812E4,3E0,1.481E1,9.414795E-3,1.531097E4,2.0440396E4,5.0233603E-3,4.801733E-2,5.266006E-3,-2.221978E-3,5.0428897E-2,-1.0747346E-2,5.7192188E-2,2.1638012E-2],"split_indices":[4,2,15,11,4,7,2,0,0,0,0,0,0,0,0],"split_type":[0,0,0,0,0,0,0,0,0,0,0,0,0,0,0],"sum_hessian":[7.84E2,7.6E2,2.4E1,5.1E1,7.09E2,1.5E1,9E0,4.7E1,4E0,1.16E2,5.93E2,1E0,1.4E1,4E0,5E0],"tree_param":{"num_deleted":"0","num_feature":"16","num_nodes":"15","size_leaf_vector":"1"}},{"base_weights":[3.4394155E-3,-9.435188E-3,2.0131479E-1,7.6021175E-3,-1.8595378E-1,1.2177474E-1,9.849242E-2,2.2184206E-2,-1.160178E-4,-1.3260126E-2,2.0592192E-2,-1.5169851E-2,1.3005801E-2],"categories":[],"categories_nodes":[],"categories_segments":[],"categories_sizes":[],"default_left":[0,0,0,0,0,0,0,0,0,0,0,0,0],"id":43,"left_children":[1,3,5,7,9,11,-1,-1,-1,-1,-1,-1,-1],"loss_changes":[2.0017395E0,2.2208755E0,6.512246E0,2.917436E0,3.1885781E0,2.8434024E0,0E0,0E0,0E0,0E0,0E0,0E0,0E0],"parents":[2147483647,0,0,1,1,2,2,3,3,4,4,5,5],"right_children":[2,4,6,8,10,12,-1,-1,-1,-1,-1,-1,-1],"split_conditions":[3.7602452E-3,2.2805799E-3,3.5482604E-2,6.952171E-3,6.0685E3,1.0360247E-2,9.849242E-2,2.2184206E-2,-1.160178E-4,-1.3260126E-2,2.0592192E-2,-1.5169851E-2,1.3005801E-2],"split_indices":[10,10,14,4,5,4,0,0,0,0,0,0,0],"split_type":[0,0,0,0,0,0,0,0,0,0,0,0,0],"sum_hessian":[7.84E2,7.37E2,4.7E1,6.73E2,6.4E1,4.6E1,1E0,1.4E1,6.59E2,5.7E1,7E0,1.1E1,3.5E1],"tree_param":{"num_deleted":"0","num_feature":"16","num_nodes":"13","size_leaf_vector":"1"}},{"base_weights":[3.4275851E-3,3.1926524E-2,-8.475886E-2,-1.1144874E-2,1.8276085E-1,-9.7386576E-2,2.6654515E-2,1.2282724E-3,-1.382486E-2,5.7524342E-2,6.377391E-3,-5.954386E-3,8.114293E-3],"categories":[],"categories_nodes":[],"categories_segments":[],"categories_sizes":[],"default_left":[0,0,0,0,0,0,0,0,0,0,0,0,0],"id":44,"left_children":[1,3,5,7,9,11,-1,-1,-1,-1,-1,-1,-1],"loss_changes":[1.9755839E0,3.8610444E0,1.5499042E0,4.3940954E0,6.906162E0,1.084377E0,0E0,0E0,0E0,0E0,0E0,0E0,0E0],"parents":[2147483647,0,0,1,1,2,2,3,3,4,4,5,5],"right_children":[2,4,6,8,10,12,-1,-1,-1,-1,-1,-1,-1],"split_conditions":[2.354431E4,2.0381918E4,2.220072E-2,1.991289E4,2.0437184E4,2.685556E4,2.6654515E-2,1.2282724E-3,-1.382486E-2,5.7524342E-2,6.377391E-3,-5.954386E-3,8.114293E-3],"split_indices":[0,3,4,0,3,0,0,0,0,0,0,0,0],"split_type":[0,0,0,0,0,0,0,0,0,0,0,0,0],"sum_hessian":[7.84E2,5.93E2,1.91E2,4.62E2,1.31E2,1.88E2,3E0,4.08E2,5.4E1,6E0,1.25E2,1.74E2,1.4E1],"tree_param":{"num_deleted":"0","num_feature":"16","num_nodes":"13","size_leaf_vector":"1"}},{"base_weights":[3.3582724E-3,8.78699E-4,4.8683595E-2,3.0329937E-2,-3.005248E-3,2.3592753E-2,-3.9579134E-4],"categories":[],"categories_nodes":[],"categories_segments":[],"categories_sizes":[],"default_left":[0,0,0,0,0,0,0],"id":45,"left_children":[1,3,-1,-1,5,-1,-1],"loss_changes":[1.8878261E0,1.8462492E0,0E0,0E0,1.8225693E0,0E0,0E0],"parents":[2147483647,0,0,1,1,4,4],"right_children":[2,4,-1,-1,6,-1,-1],"split_conditions":[7.4075E0,-3.6390882E-2,4.8683595E-2,3.0329937E-2,1.5858117E4,2.3592753E-2,-3.9579134E-4],"split_indices":[9,8,0,0,2,0,0],"split_type":[0,0,0,0,0,0,0],"sum_hessian":[7.84E2,7.83E2,1E0,4E0,7.79E2,7E0,7.72E2],"tree_param":{"num_deleted":"0","num_feature":"16","num_nodes":"7","size_leaf_vector":"1"}},{"base_weights":[3.3205473E-3,1.1330021E-1,-1.7879358E-2,8.416707E-2,9.460189E-2,2.3207764E-1,-3.0169958E-2,1.6524239E-2,-7.1011035E-4,5.596174E-2,9.2115003E-4,-1.2495164E-2,-7.411604E-4],"categories":[],"categories_nodes":[],"categories_segments":[],"categories_sizes":[],"default_left":[0,0,0,0,0,0,0,0,0,0,0,0,0],"id":46,"left_children":[1,3,5,7,-1,9,11,-1,-1,-1,-1,-1,-1],"loss_changes":[1.8322991E0,6.42192E0,2.03153E0,3.0576854E0,0E0,5.855283E0,2.1174047E0,0E0,0E0,0E0,0E0,0E0,0E0],"parents":[2147483647,0,0,1,1,2,2,3,3,5,5,6,6],"right_children":[2,4,6,8,-1,10,12,-1,-1,-1,-1,-1,-1],"split_conditions":[-9.03176E-3,2.8270442E-2,-2.3745637E-2,5.2204154E-2,9.460189E-2,7.0507E0,-5.8343993E-3,1.6524239E-2,-7.1011035E-4,5.596174E-2,9.2115003E-4,-1.2495164E-2,-7.411604E-4],"split_indices":[8,14,14,12,0,9,8,0,0,0,0,0,0],"split_type":[0,0,0,0,0,0,0,0,0,0,0,0,0],"sum_hessian":[7.84E2,1.26E2,6.58E2,1.25E2,1E0,3E1,6.28E2,3.5E1,9E1,5E0,2.5E1,4E1,5.88E2],"tree_param":{"num_deleted":"0","num_feature":"16","num_nodes":"13","size_leaf_vector":"1"}},{"base_weights":[3.350795E-3,9.3240297E-4,4.7484256E-2,1.0539338E-1,-2.0959161E-2,-2.2332722E-3,1.0087611E-2,1.7365875E-3,-4.1174795E-3],"categories":[],"categories_nodes":[],"categories_segments":[],"categories_sizes":[],"default_left":[0,0,0,0,0,0,0,0,0],"id":47,"left_children":[1,3,-1,5,7,-1,-1,-1,-1],"loss_changes":[1.7956713E0,1.7950712E0,0E0,1.9755024E0,2.221719E0,0E0,0E0,0E0,0E0],"parents":[2147483647,0,0,1,1,3,3,4,4],"right_children":[2,4,-1,6,8,-1,-1,-1,-1],"split_conditions":[7.4075E0,-1.2673843E-2,4.7484256E-2,1.558E1,2.238222E-3,-2.2332722E-3,1.0087611E-2,1.7365875E-3,-4.1174795E-3],"split_indices":[9,1,0,11,8,0,0,0,0],"split_type":[0,0,0,0,0,0,0,0,0],"sum_hessian":[7.84E2,7.83E2,1E0,1.35E2,6.48E2,5.3E1,8.2E1,3.4E2,3.08E2],"tree_param":{"num_deleted":"0","num_feature":"16","num_nodes":"9","size_leaf_vector":"1"}},{"base_weights":[3.2507218E-3,8.7600475E-4,4.6625722E-2,-1.334633E-2,1.5840225E-1,4.0229872E-2,-8.3726674E-4,1.7404942E-2,-2.0391532E-4],"categories":[],"categories_nodes":[],"categories_segments":[],"categories_sizes":[],"default_left":[0,0,0,0,0,0,0,0,0],"id":48,"left_children":[1,3,-1,5,7,-1,-1,-1,-1],"loss_changes":[1.7314727E0,1.7585806E0,0E0,2.015213E0,2.00485E0,0E0,0E0,0E0,0E0],"parents":[2147483647,0,0,1,1,3,3,4,4],"right_children":[2,4,-1,6,8,-1,-1,-1,-1],"split_conditions":[1.3385908E-2,1.9097742E-2,4.6625722E-2,1.555966E4,5.162177E-4,4.0229872E-2,-8.3726674E-4,1.7404942E-2,-2.0391532E-4],"split_indices":[10,4,0,3,8,0,0,0,0],"split_type":[0,0,0,0,0,0,0,0,0],"sum_hessian":[7.84E2,7.83E2,1E0,7.19E2,6.4E1,2E0,7.17E2,2.9E1,3.5E1],"tree_param":{"num_deleted":"0","num_feature":"16","num_nodes":"9","size_leaf_vector":"1"}},{"base_weights":[3.2196774E-3,2.964257E-2,-7.854292E-2,1.6798722E-2,5.242952E-1,-9.0280145E-2,2.4783852E-2,-4.0191296E-3,4.35558E-3,7.2098605E-2,1.360966E-2,-1.8337166E-2,-3.4732444E-3],"categories":[],"categories_nodes":[],"categories_segments":[],"categories_sizes":[],"default_left":[0,0,0,0,0,0,0,0,0,0,0,0,0],"id":49,"left_children":[1,3,5,7,9,11,-1,-1,-1,-1,-1,-1,-1],"loss_changes":[1.6982455E0,3.7650192E0,1.3387822E0,3.9701986E0,3.0777287E0,1.0621537E0,0E0,0E0,0E0,0E0,0E0,0E0,0E0],"parents":[2147483647,0,0,1,1,2,2,3,3,4,4,5,5],"right_children":[2,4,6,8,10,12,-1,-1,-1,-1,-1,-1,-1],"split_conditions":[2.354431E4,6.07511E3,2.220072E-2,1.502E1,-4.8991375E-2,3.5547092E1,2.4783852E-2,-4.0191296E-3,4.35558E-3,7.2098605E-2,1.360966E-2,-1.8337166E-2,-3.4732444E-3],"split_indices":[0,5,4,11,12,13,0,0,0,0,0,0,0],"split_type":[0,0,0,0,0,0,0,0,0,0,0,0,0],"sum_hessian":[7.84E2,5.93E2,1.91E2,5.79E2,1.4E1,1.88E2,3E0,2.43E2,3.36E2,2E0,1.2E1,1.2E1,1.76E2],"tree_param":{"num_deleted":"0","num_feature":"16","num_nodes":"13","size_leaf_vector":"1"}}]},"name":"gbtree"},"learner_model_param":{"base_score":"[8.2693964E-1]","boost_from_average":"1","num_class":"0","num_feature":"16","num_target":"1"},"objective":{"name":"reg:squarederror","reg_loss_param":{"scale_pos_weight":"1"}}},"version":[3,1,3]}